{"learner":{"attributes":{},"gradient_booster":{"model":{"gbtree_model_param":{"num_trees":"35","size_leaf_vector":"0"},"tree_info":[0,0,0,0,0,0,0,0,0,0,0,0,0,0,0,0,0,0,0,0,0,0,0,0,0,0,0,0,0,0,0,0,0,0,0],"trees":[{"base_weights":[-1.16585516929626465e+00,-2.93627306818962097e-02,-1.64138305187225342e+00,6.18310213088989258e-01,-4.13546532392501831e-01,1.28416717052459717e-01,-1.69925558567047119e+00,9.90660130977630615e-01,4.61538463830947876e-01,3.02982449531555176e-01,-7.11129605770111084e-01,4.19270306825637817e-01,-5.64155936241149902e-01,6.09927996993064880e-02,-1.73581826686859131e+00,1.36374843120574951e+00,6.27556800842285156e-01,1.40151098370552063e-01,8.57712507247924805e-01,1.59521472454071045e+00,1.06626048684120178e-01,3.21779072284698486e-01,-9.16733801364898682e-01,-5.04273828119039536e-03,1.08230662345886230e+00,1.60881030559539795e+00,-8.38188827037811279e-01,5.50869405269622803e-01,-6.70922875404357910e-01,-1.06116247177124023e+00,-1.80798745155334473e+00],"default_left":[true,true,true,true,true,true,true,true,true,true,true,true,true,true,true,false,false,false,false,false,false,false,false,false,false,false,false,false,false,false,false],"id":0,"leaf_child_counts":[0,0,0,0,0,0,0,0,0,0,0,0,0,0,0,0,0,0,0,0,0,0,0,0,0,0,0,0,0,0,0],"left_children":[1,3,5,7,9,11,13,15,17,19,21,23,25,27,29,-1,-1,-1,-1,-1,-1,-1,-1,-1,-1,-1,-1,-1,-1,-1,-1],"loss_changes":[7.28607617187500000e+03,9.90313964843750000e+02,9.74660156250000000e+02,8.51845092773437500e+01,5.33287414550781250e+02,6.10337905883789062e+01,5.93404296875000000e+02,5.71238708496093750e+01,1.32514022827148438e+02,1.85088867187500000e+02,3.75802062988281250e+02,6.07019920349121094e+01,5.44800987243652344e+01,6.78953399658203125e+01,4.35253906250000000e+02,0.00000000000000000e+00,0.00000000000000000e+00,0.00000000000000000e+00,0.00000000000000000e+00,0.00000000000000000e+00,0.00000000000000000e+00,0.00000000000000000e+00,0.00000000000000000e+00,0.00000000000000000e+00,0.00000000000000000e+00,0.00000000000000000e+00,0.00000000000000000e+00,0.00000000000000000e+00,0.00000000000000000e+00,0.00000000000000000e+00,0.00000000000000000e+00],"parents":[2147483647,0,0,1,1,2,2,3,3,4,4,5,5,6,6,7,7,8,8,9,9,10,10,11,11,12,12,13,13,14,14],"right_children":[2,4,6,8,10,12,14,16,18,20,22,24,26,28,30,-1,-1,-1,-1,-1,-1,-1,-1,-1,-1,-1,-1,-1,-1,-1,-1],"split_conditions":[8.61225008964538574e-01,6.53620004653930664e-01,4.19714987277984619e-01,1.31550002843141556e-02,6.38535022735595703e-01,1.50000005960464478e-01,3.37485015392303467e-01,6.49999976158142090e-01,7.50000000000000000e-01,1.50000005960464478e-01,1.50000005960464478e-01,3.67799997329711914e-02,6.77425026893615723e-01,4.94899973273277283e-02,1.50000005960464478e-01,2.04562276601791382e-01,9.41335260868072510e-02,2.10226662456989288e-02,1.28656879067420959e-01,2.39282220602035522e-01,1.59939080476760864e-02,4.82668615877628326e-02,-1.37510076165199280e-01,-7.56410765461623669e-04,1.62346005439758301e-01,2.41321548819541931e-01,-1.25728324055671692e-01,8.26304107904434204e-02,-1.00638434290885925e-01,-1.59174382686614990e-01,-2.71198123693466187e-01],"split_indices":[3,4,0,4,3,5,4,5,5,5,5,0,4,4,5,0,0,0,0,0,0,0,0,0,0,0,0,0,0,0,0],"sum_hessian":[1.34823105468750000e+04,3.97783154296875000e+03,9.50447851562500000e+03,1.48026928710937500e+03,2.49756250000000000e+03,3.00633453369140625e+02,9.20384570312500000e+03,4.35669219970703125e+02,1.04459997558593750e+03,7.32390014648437500e+02,1.76517236328125000e+03,2.12575302124023438e+02,8.80581436157226562e+01,1.86990661621093750e+02,9.01685449218750000e+03,2.12501937866210938e+02,2.23167297363281250e+02,5.78367004394531250e+02,4.66233032226562500e+02,9.50973892211914062e+01,6.37292663574218750e+02,2.92513458251953125e+02,1.47265893554687500e+03,1.29919281005859375e+02,8.26560287475585938e+01,8.97521972656250000e+00,7.90829238891601562e+01,1.12611373901367188e+02,7.43792877197265625e+01,8.73907714843750000e+02,8.14294677734375000e+03],"tree_param":{"num_deleted":"0","num_feature":"6","num_nodes":"31","size_leaf_vector":"0"}},{"base_weights":[-1.00443410873413086e+00,3.29323448240756989e-02,-1.39836895465850830e+00,5.40732443332672119e-01,-2.88671702146530151e-01,1.57691523432731628e-01,-1.45073354244232178e+00,3.50940197706222534e-01,8.03613662719726562e-01,6.31130933761596680e-01,-4.56330209970474243e-01,-1.08799047768115997e-01,5.94133675098419189e-01,-1.51830434799194336e+00,-4.80187803506851196e-01,6.85699284076690674e-01,-5.95570325851440430e-01,5.46700000762939453e-01,1.23025190830230713e+00,1.14224278926849365e+00,1.94387007504701614e-02,2.00368732213973999e-01,-6.91054046154022217e-01,6.13096356391906738e-01,-3.51619511842727661e-01,9.41181719303131104e-01,-1.99801027774810791e-01,6.30003750324249268e-01,-1.54145050048828125e+00,-7.85317737609148026e-03,-1.14262425899505615e+00],"default_left":[true,true,true,true,true,true,true,true,true,true,true,true,true,true,true,false,false,false,false,false,false,false,false,false,false,false,false,false,false,false,false],"id":1,"leaf_child_counts":[0,0,0,0,0,0,0,0,0,0,0,0,0,0,0,0,0,0,0,0,0,0,0,0,0,0,0,0,0,0,0],"left_children":[1,3,5,7,9,11,13,15,17,19,21,23,25,27,29,-1,-1,-1,-1,-1,-1,-1,-1,-1,-1,-1,-1,-1,-1,-1,-1],"loss_changes":[5.44221972656250000e+03,5.98968750000000000e+02,7.87332031250000000e+02,7.00389404296875000e+01,3.46406982421875000e+02,3.69631233215332031e+01,6.10437500000000000e+02,2.63343505859375000e+02,6.34121704101562500e+01,1.07601211547851562e+02,2.93237976074218750e+02,3.44851303100585938e+01,3.37618293762207031e+01,4.35697265625000000e+02,1.90301620483398438e+02,0.00000000000000000e+00,0.00000000000000000e+00,0.00000000000000000e+00,0.00000000000000000e+00,0.00000000000000000e+00,0.00000000000000000e+00,0.00000000000000000e+00,0.00000000000000000e+00,0.00000000000000000e+00,0.00000000000000000e+00,0.00000000000000000e+00,0.00000000000000000e+00,0.00000000000000000e+00,0.00000000000000000e+00,0.00000000000000000e+00,0.00000000000000000e+00],"parents":[2147483647,0,0,1,1,2,2,3,3,4,4,5,5,6,6,7,7,8,8,9,9,10,10,11,11,12,12,13,13,14,14],"right_children":[2,4,6,8,10,12,14,16,18,20,22,24,26,28,30,-1,-1,-1,-1,-1,-1,-1,-1,-1,-1,-1,-1,-1,-1,-1,-1],"split_conditions":[8.47725033760070801e-01,6.53620004653930664e-01,4.19714987277984619e-01,7.50000000000000000e-01,1.50000005960464478e-01,3.67799997329711914e-02,9.49999988079071045e-01,6.49999976158142090e-01,6.99300020933151245e-02,7.72414982318878174e-01,5.66115021705627441e-01,6.50255024433135986e-01,1.50000005960464478e-01,4.44549992680549622e-02,6.41290724277496338e-01,1.02854900062084198e-01,-8.93355533480644226e-02,8.20050016045570374e-02,1.84537798166275024e-01,1.71336427330970764e-01,2.91580520570278168e-03,3.00553105771541595e-02,-1.03658109903335571e-01,9.19644534587860107e-02,-5.27429282665252686e-02,1.41177266836166382e-01,-2.99701560288667679e-02,9.45005640387535095e-02,-2.31217578053474426e-01,-1.17797660641372204e-03,-1.71393647789955139e-01],"split_indices":[3,4,0,5,5,0,5,5,4,3,3,1,5,4,2,0,0,0,0,0,0,0,0,0,0,0,0,0,0,0,0],"sum_hessian":[1.33143369140625000e+04,3.66445019531250000e+03,9.64988671875000000e+03,1.42117456054687500e+03,2.24327563476562500e+03,3.13773468017578125e+02,9.33611328125000000e+03,8.28118713378906250e+02,5.93055847167968750e+02,3.44862792968750000e+02,1.89841284179687500e+03,1.94689361572265625e+02,1.19084106445312500e+02,8.72728613281250000e+03,6.08827148437500000e+02,6.12399658203125000e+02,2.15719055175781250e+02,3.72666656494140625e+02,2.20389205932617188e+02,1.86841766357421875e+02,1.58021041870117188e+02,4.99365447998046875e+02,1.39904736328125000e+03,4.80055503845214844e+01,1.46683807373046875e+02,8.31396865844726562e+01,3.59444198608398438e+01,9.24470062255859375e+01,8.63483886718750000e+03,3.56589263916015625e+02,2.52237930297851562e+02],"tree_param":{"num_deleted":"0","num_feature":"6","num_nodes":"31","size_leaf_vector":"0"}},{"base_weights":[-8.82603168487548828e-01,-5.98783083260059357e-02,-1.28677845001220703e+00,4.14027929306030273e-01,-3.61961364746093750e-01,-5.31834542751312256e-01,-1.38576614856719971e+00,6.40428125858306885e-01,1.42229378223419189e-01,4.63271915912628174e-01,-5.25081396102905273e-01,3.93284767866134644e-01,-9.17926311492919922e-01,-1.44771635532379150e+00,-4.97700035572052002e-01,1.00804340839385986e+00,3.10843616724014282e-01,-4.21689957380294800e-01,6.31754100322723389e-01,1.27673554420471191e+00,1.77047654986381531e-01,-7.52843022346496582e-01,7.21344500780105591e-02,1.04116737842559814e+00,-5.15065968036651611e-01,-2.24932760000228882e-01,-1.22007822990417480e+00,4.66693490743637085e-01,-1.46640110015869141e+00,-5.83112537860870361e-02,-1.07304573059082031e+00],"default_left":[true,true,true,true,true,true,true,true,true,true,true,true,true,true,true,false,false,false,false,false,false,false,false,false,false,false,false,false,false,false,false],"id":2,"leaf_child_counts":[0,0,0,0,0,0,0,0,0,0,0,0,0,0,0,0,0,0,0,0,0,0,0,0,0,0,0,0,0,0,0],"left_children":[1,3,5,7,9,11,13,15,17,19,21,23,25,27,29,-1,-1,-1,-1,-1,-1,-1,-1,-1,-1,-1,-1,-1,-1,-1,-1],"loss_changes":[4.29625976562500000e+03,6.09836547851562500e+02,6.45652343750000000e+02,1.01508422851562500e+02,3.50618255615234375e+02,3.60413970947265625e+02,4.19500976562500000e+02,1.08366058349609375e+02,2.09128372192382812e+02,9.90216369628906250e+01,2.96093627929687500e+02,1.75734008789062500e+02,1.47868652343750000e+02,2.57416992187500000e+02,1.26231803894042969e+02,0.00000000000000000e+00,0.00000000000000000e+00,0.00000000000000000e+00,0.00000000000000000e+00,0.00000000000000000e+00,0.00000000000000000e+00,0.00000000000000000e+00,0.00000000000000000e+00,0.00000000000000000e+00,0.00000000000000000e+00,0.00000000000000000e+00,0.00000000000000000e+00,0.00000000000000000e+00,0.00000000000000000e+00,0.00000000000000000e+00,0.00000000000000000e+00],"parents":[2147483647,0,0,1,1,2,2,3,3,4,4,5,5,6,6,7,7,8,8,9,9,10,10,11,11,12,12,13,13,14,14],"right_children":[2,4,6,8,10,12,14,16,18,20,22,24,26,28,30,-1,-1,-1,-1,-1,-1,-1,-1,-1,-1,-1,-1,-1,-1,-1,-1],"split_conditions":[8.75074982643127441e-01,7.56110012531280518e-01,1.50000005960464478e-01,3.75050008296966553e-02,1.50000005960464478e-01,8.26269984245300293e-01,9.49999988079071045e-01,6.49999976158142090e-01,7.50000000000000000e-01,6.90619945526123047e-01,9.49999988079071045e-01,8.92030000686645508e-01,7.50739991664886475e-01,4.47700023651123047e-02,9.55009996891021729e-01,1.51206523180007935e-01,4.66265454888343811e-02,-6.32534995675086975e-02,9.47631224989891052e-02,1.91510334610939026e-01,2.65571493655443192e-02,-1.12926460802555084e-01,1.08201680704951286e-02,1.56175106763839722e-01,-7.72598981857299805e-02,-3.37399169802665710e-02,-1.83011740446090698e-01,7.00040236115455627e-02,-2.19960168004035950e-01,-8.74668825417757034e-03,-1.60956859588623047e-01],"split_indices":[3,4,5,4,5,1,5,5,5,3,5,0,0,4,3,0,0,0,0,0,0,0,0,0,0,0,0,0,0,0,0],"sum_hessian":[1.29211708984375000e+04,4.25747656250000000e+03,8.66369433593750000e+03,1.65655834960937500e+03,2.60091796875000000e+03,1.00580377197265625e+03,7.65789062500000000e+03,9.01827636718750000e+02,7.54730712890625000e+02,4.28375793457031250e+02,2.17254223632812500e+03,2.95775085449218750e+02,7.10028686523437500e+02,7.15725976562500000e+03,5.00630798339843750e+02,4.24383850097656250e+02,4.77443786621093750e+02,3.50321533203125000e+02,4.04409210205078125e+02,1.09916099548339844e+02,3.18459686279296875e+02,1.57311218261718750e+03,5.99430053710937500e+02,1.72854232788085938e+02,1.22920867919921875e+02,2.16747634887695312e+02,4.93281066894531250e+02,6.86315231323242188e+01,7.08862841796875000e+03,2.85126678466796875e+02,2.15504135131835938e+02],"tree_param":{"num_deleted":"0","num_feature":"6","num_nodes":"31","size_leaf_vector":"0"}},{"base_weights":[-7.85625278949737549e-01,-8.61407369375228882e-02,-1.18464851379394531e+00,3.91476184129714966e-01,-3.30451965332031250e-01,-4.82993334531784058e-01,-1.28000771999359131e+00,5.94606697559356689e-01,1.87632247805595398e-01,2.39249885082244873e-01,-5.38376152515411377e-01,1.55580416321754456e-01,-9.35726821422576904e-01,-1.35582530498504639e+00,-6.99377357959747314e-01,8.93885314464569092e-01,3.24899584054946899e-01,-1.68298497796058655e-01,5.78374803066253662e-01,7.40250587463378906e-01,-1.20298489928245544e-02,1.99598819017410278e-03,-7.55063116550445557e-01,7.32233762741088867e-01,-5.86151301860809326e-01,-3.63286226987838745e-01,-1.18220913410186768e+00,3.36219191551208496e-01,-1.37155735492706299e+00,9.14202690124511719e-01,-7.91443705558776855e-01],"default_left":[true,true,true,true,true,true,true,true,true,true,true,true,true,true,true,false,false,false,false,false,false,false,false,false,false,false,false,false,false,false,false],"id":3,"leaf_child_counts":[0,0,0,0,0,0,0,0,0,0,0,0,0,0,0,0,0,0,0,0,0,0,0,0,0,0,0,0,0,0,0],"left_children":[1,3,5,7,9,11,13,15,17,19,21,23,25,27,29,-1,-1,-1,-1,-1,-1,-1,-1,-1,-1,-1,-1,-1,-1,-1,-1],"loss_changes":[3.46091748046875000e+03,5.26030578613281250e+02,5.26720703125000000e+02,6.26186065673828125e+01,3.53670654296875000e+02,2.74486389160156250e+02,3.03769531250000000e+02,6.05404663085937500e+01,1.06618164062500000e+02,1.00817382812500000e+02,2.56397033691406250e+02,1.68991592407226562e+02,7.70044250488281250e+01,1.64690429687500000e+02,1.20597717285156250e+02,0.00000000000000000e+00,0.00000000000000000e+00,0.00000000000000000e+00,0.00000000000000000e+00,0.00000000000000000e+00,0.00000000000000000e+00,0.00000000000000000e+00,0.00000000000000000e+00,0.00000000000000000e+00,0.00000000000000000e+00,0.00000000000000000e+00,0.00000000000000000e+00,0.00000000000000000e+00,0.00000000000000000e+00,0.00000000000000000e+00,0.00000000000000000e+00],"parents":[2147483647,0,0,1,1,2,2,3,3,4,4,5,5,6,6,7,7,8,8,9,9,10,10,11,11,12,12,13,13,14,14],"right_children":[2,4,6,8,10,12,14,16,18,20,22,24,26,28,30,-1,-1,-1,-1,-1,-1,-1,-1,-1,-1,-1,-1,-1,-1,-1,-1],"split_conditions":[8.86505007743835449e-01,6.56059980392456055e-01,1.50000005960464478e-01,2.73399986326694489e-02,6.61839962005615234e-01,8.76935005187988281e-01,8.50000023841857910e-01,6.49999976158142090e-01,7.50000000000000000e-01,8.59014987945556641e-01,2.50000000000000000e-01,8.99455010890960693e-01,7.48449981212615967e-01,4.38700020313262939e-02,5.52004992961883545e-01,1.34082809090614319e-01,4.87349405884742737e-02,-2.52447761595249176e-02,8.67562219500541687e-02,1.11037589609622955e-01,-1.80447741877287626e-03,2.99398234346881509e-04,-1.13259471952915192e-01,1.09835065901279449e-01,-8.79226997494697571e-02,-5.44929355382919312e-02,-1.77331373095512390e-01,5.04328794777393341e-02,-2.05733612179756165e-01,1.37130409479141235e-01,-1.18716560304164886e-01],"split_indices":[3,4,5,4,3,1,5,5,5,1,5,0,0,4,4,0,0,0,0,0,0,0,0,0,0,0,0,0,0,0,0],"sum_hessian":[1.24012919921875000e+04,4.50566699218750000e+03,7.89562500000000000e+03,1.52383715820312500e+03,2.98182958984375000e+03,9.46210449218750000e+02,6.94941455078125000e+03,7.60825439453125000e+02,7.63011718750000000e+02,7.96597961425781250e+02,2.18523168945312500e+03,3.92421661376953125e+02,5.53788757324218750e+02,6.14454248046875000e+03,8.04872253417968750e+02,3.58391815185546875e+02,4.02433624267578125e+02,3.98995391845703125e+02,3.64016326904296875e+02,2.65935028076171875e+02,5.30662902832031250e+02,6.25155395507812500e+02,1.56007617187500000e+03,2.21167144775390625e+02,1.71254516601562500e+02,1.68222640991210938e+02,3.85566131591796875e+02,5.60760841369628906e+01,6.08846630859375000e+03,4.25492706298828125e+01,7.62322998046875000e+02],"tree_param":{"num_deleted":"0","num_feature":"6","num_nodes":"31","size_leaf_vector":"0"}},{"base_weights":[-7.04790651798248291e-01,-7.76794478297233582e-02,-1.08736658096313477e+00,3.08988839387893677e-01,-3.06762903928756714e-01,-4.28848475217819214e-01,-1.18101024627685547e+00,-2.81327903270721436e-01,3.87047320604324341e-01,1.38198599219322205e-01,-5.08150398731231689e-01,3.13718229532241821e-01,-7.45829999446868896e-01,-1.23769772052764893e+00,-4.18106108903884888e-01,1.49129080772399902e+00,-1.41383862495422363e+00,5.26664435863494873e-01,-2.70722247660160065e-02,9.88284945487976074e-01,-9.07640829682350159e-02,-8.66097211837768555e-01,5.55644594132900238e-02,7.83253490924835205e-01,-3.45321565866470337e-01,-2.07787677645683289e-01,-1.00274467468261719e+00,3.53620082139968872e-01,-1.25099718570709229e+00,-1.05322659015655518e-01,-1.09250295162200928e+00],"default_left":[true,true,true,true,true,true,true,true,true,true,true,true,true,true,true,false,false,false,false,false,false,false,false,false,false,false,false,false,false,false,false],"id":4,"leaf_child_counts":[0,0,0,0,0,0,0,0,0,0,0,0,0,0,0,0,0,0,0,0,0,0,0,0,0,0,0,0,0,0,0],"left_children":[1,3,5,7,9,11,13,15,17,19,21,23,25,27,29,-1,-1,-1,-1,-1,-1,-1,-1,-1,-1,-1,-1,-1,-1,-1,-1],"loss_changes":[2.83622167968750000e+03,3.97148803710937500e+02,4.51409179687500000e+02,7.70200042724609375e+01,2.52622283935546875e+02,2.16326965332031250e+02,2.76512695312500000e+02,3.93469055175781250e+02,8.54865570068359375e+01,1.71383056640625000e+02,3.91859222412109375e+02,8.55646362304687500e+01,8.80764770507812500e+01,1.27604492187500000e+02,9.35659103393554688e+01,0.00000000000000000e+00,0.00000000000000000e+00,0.00000000000000000e+00,0.00000000000000000e+00,0.00000000000000000e+00,0.00000000000000000e+00,0.00000000000000000e+00,0.00000000000000000e+00,0.00000000000000000e+00,0.00000000000000000e+00,0.00000000000000000e+00,0.00000000000000000e+00,0.00000000000000000e+00,0.00000000000000000e+00,0.00000000000000000e+00,0.00000000000000000e+00],"parents":[2147483647,0,0,1,1,2,2,3,3,4,4,5,5,6,6,7,7,8,8,9,9,10,10,11,11,12,12,13,13,14,14],"right_children":[2,4,6,8,10,12,14,16,18,20,22,24,26,28,30,-1,-1,-1,-1,-1,-1,-1,-1,-1,-1,-1,-1,-1,-1,-1,-1],"split_conditions":[8.87884974479675293e-01,7.56110012531280518e-01,1.50000005960464478e-01,9.89599972963333130e-02,2.50000000000000000e-01,8.24494957923889160e-01,9.49999988079071045e-01,6.49999976158142090e-01,6.28820776939392090e-01,7.50225007534027100e-01,8.50000023841857910e-01,8.90074968338012695e-01,7.50739991664886475e-01,3.71299982070922852e-02,6.57304883003234863e-01,2.23693624138832092e-01,-2.12075799703598022e-01,7.89996683597564697e-02,-4.06083371490240097e-03,1.48242741823196411e-01,-1.36146126314997673e-02,-1.29914581775665283e-01,8.33466928452253342e-03,1.17488026618957520e-01,-5.17982356250286102e-02,-3.11681535094976425e-02,-1.50411710143089294e-01,5.30430153012275696e-02,-1.87649592757225037e-01,-1.57983992248773575e-02,-1.63875445723533630e-01],"split_indices":[3,4,5,0,5,1,5,5,2,0,5,0,0,4,2,0,0,0,0,0,0,0,0,0,0,0,0,0,0,0,0],"sum_hessian":[1.18232636718750000e+04,4.48096435546875000e+03,7.34229931640625000e+03,1.66611767578125000e+03,2.81484643554687500e+03,9.15643859863281250e+02,6.42665527343750000e+03,1.93455017089843750e+02,1.47266271972656250e+03,8.76390136718750000e+02,1.93845629882812500e+03,2.73462097167968750e+02,6.42181762695312500e+02,5.98081835937500000e+03,4.45837188720703125e+02,7.50883636474609375e+01,1.18366653442382812e+02,1.10199987792968750e+03,3.70662811279296875e+02,1.85544387817382812e+02,6.90845703125000000e+02,1.18574816894531250e+03,7.52708129882812500e+02,1.59995681762695312e+02,1.13466407775878906e+02,2.08900360107421875e+02,4.33281433105468750e+02,4.89937057495117188e+01,5.93182421875000000e+03,3.06069580078125000e+02,1.39767623901367188e+02],"tree_param":{"num_deleted":"0","num_feature":"6","num_nodes":"31","size_leaf_vector":"0"}},{"base_weights":[-6.35118186473846436e-01,-8.99661853909492493e-02,-1.02101171016693115e+00,1.31274193525314331e-01,-4.39696043729782104e-01,-4.08721268177032471e-01,-1.11237967014312744e+00,-5.93802094459533691e-01,2.24397510290145874e-01,5.10128974914550781e-01,-5.48751056194305420e-01,8.62277448177337646e-02,-8.07736635208129883e-01,-1.18887960910797119e+00,-5.62030613422393799e-01,1.08510613441467285e+00,-1.47484290599822998e+00,4.47203904390335083e-01,-6.46212324500083923e-02,9.36381399631500244e-01,-6.09811656177043915e-02,-6.94305241107940674e-01,1.24870471656322479e-01,5.52114486694335938e-01,-4.62804764509201050e-01,-3.63149613142013550e-01,-1.01875233650207520e+00,2.32244461774826050e-01,-1.20103347301483154e+00,9.74853575229644775e-01,-6.45619988441467285e-01],"default_left":[true,true,true,true,true,true,true,true,true,true,true,true,true,true,true,false,false,false,false,false,false,false,false,false,false,false,false,false,false,false,false],"id":5,"leaf_child_counts":[0,0,0,0,0,0,0,0,0,0,0,0,0,0,0,0,0,0,0,0,0,0,0,0,0,0,0,0,0,0,0],"left_children":[1,3,5,7,9,11,13,15,17,19,21,23,25,27,29,-1,-1,-1,-1,-1,-1,-1,-1,-1,-1,-1,-1,-1,-1,-1,-1],"loss_changes":[2.36242968750000000e+03,3.60612884521484375e+02,3.66590332031250000e+02,1.92621658325195312e+02,1.87433776855468750e+02,1.69626937866210938e+02,2.39161132812500000e+02,4.82113403320312500e+02,1.63135528564453125e+02,4.58298835754394531e+01,1.59331054687500000e+02,9.83111495971679688e+01,4.34050903320312500e+01,8.75571289062500000e+01,9.07259674072265625e+01,0.00000000000000000e+00,0.00000000000000000e+00,0.00000000000000000e+00,0.00000000000000000e+00,0.00000000000000000e+00,0.00000000000000000e+00,0.00000000000000000e+00,0.00000000000000000e+00,0.00000000000000000e+00,0.00000000000000000e+00,0.00000000000000000e+00,0.00000000000000000e+00,0.00000000000000000e+00,0.00000000000000000e+00,0.00000000000000000e+00,0.00000000000000000e+00],"parents":[2147483647,0,0,1,1,2,2,3,3,4,4,5,5,6,6,7,7,8,8,9,9,10,10,11,11,12,12,13,13,14,14],"right_children":[2,4,6,8,10,12,14,16,18,20,22,24,26,28,30,-1,-1,-1,-1,-1,-1,-1,-1,-1,-1,-1,-1,-1,-1,-1,-1],"split_conditions":[8.96435022354125977e-01,8.07659983634948730e-01,1.50000005960464478e-01,9.89599972963333130e-02,7.42859959602355957e-01,8.84850025177001953e-01,8.50000023841857910e-01,6.49999976158142090e-01,9.57309961318969727e-01,2.50000000000000000e-01,9.49999988079071045e-01,8.76834988594055176e-01,7.48449981212615967e-01,3.71299982070922852e-02,5.47850012779235840e-01,1.62765920162200928e-01,-2.21226438879966736e-01,6.70805871486663818e-02,-9.69318486750125885e-03,1.40457212924957275e-01,-9.14717558771371841e-03,-1.04145787656307220e-01,1.87305714935064316e-02,8.28171744942665100e-02,-6.94207176566123962e-02,-5.44724427163600922e-02,-1.52812853455543518e-01,3.48366722464561462e-02,-1.80155023932456970e-01,1.46228045225143433e-01,-9.68430042266845703e-02],"split_indices":[3,3,5,0,0,1,5,5,4,5,5,0,0,4,4,0,0,0,0,0,0,0,0,0,0,0,0,0,0,0,0],"sum_hessian":[1.12317812500000000e+04,4.65644970703125000e+03,6.57533203125000000e+03,2.85176416015625000e+03,1.80468530273437500e+03,8.55386657714843750e+02,5.71994531250000000e+03,3.23197265625000000e+02,2.52856689453125000e+03,1.84920516967773438e+02,1.61976477050781250e+03,3.81674499511718750e+02,4.73712188720703125e+02,5.01981835937500000e+03,7.00126525878906250e+02,1.10937713623046875e+02,2.12259552001953125e+02,1.42842834472656250e+03,1.10013867187500000e+03,1.05932777404785156e+02,7.89877319335937500e+01,1.33253784179687500e+03,2.87227020263671875e+02,2.06960174560546875e+02,1.74714340209960938e+02,1.54328826904296875e+02,3.19383361816406250e+02,4.20259361267089844e+01,4.97779248046875000e+03,3.51187667846679688e+01,6.65007812500000000e+02],"tree_param":{"num_deleted":"0","num_feature":"6","num_nodes":"31","size_leaf_vector":"0"}},{"base_weights":[-5.73337256908416748e-01,-1.03447541594505310e-01,-9.70109939575195312e-01,4.31399554014205933e-01,-2.31751456856727600e-01,-3.81980597972869873e-01,-1.06260061264038086e+00,7.10560023784637451e-01,1.91332548856735229e-01,-3.93782198429107666e-01,2.73395776748657227e-01,9.90481227636337280e-02,-6.94645285606384277e-01,-1.13856995105743408e+00,-5.36149084568023682e-01,-3.76006722450256348e-01,1.03250670433044434e+00,-9.80836510658264160e-01,4.82237845659255981e-01,1.15123718976974487e-01,-6.44668698310852051e-01,-1.43563389778137207e+00,5.41484773159027100e-01,3.12991410493850708e-01,-7.41724431514739990e-01,-2.60602563619613647e-01,-9.10886287689208984e-01,9.79131460189819336e-03,-1.15160036087036133e+00,-3.31555545330047607e-01,-1.06254971027374268e+00],"default_left":[true,true,true,true,true,true,true,true,true,true,true,true,true,true,true,false,false,false,false,false,false,false,false,false,false,false,false,false,false,false,false],"id":6,"leaf_child_counts":[0,0,0,0,0,0,0,0,0,0,0,0,0,0,0,0,0,0,0,0,0,0,0,0,0,0,0,0,0,0,0],"left_children":[1,3,5,7,9,11,13,15,17,19,21,23,25,27,29,-1,-1,-1,-1,-1,-1,-1,-1,-1,-1,-1,-1,-1,-1,-1,-1],"loss_changes":[1.98637841796875000e+03,3.34995422363281250e+02,3.13060546875000000e+02,6.26501007080078125e+01,3.22555572509765625e+02,1.18875289916992188e+02,1.98018066406250000e+02,1.53013610839843750e+02,1.74337432861328125e+02,3.81249176025390625e+02,4.38758361816406250e+02,5.59858169555664062e+01,4.40065612792968750e+01,6.58237304687500000e+01,6.69939270019531250e+01,0.00000000000000000e+00,0.00000000000000000e+00,0.00000000000000000e+00,0.00000000000000000e+00,0.00000000000000000e+00,0.00000000000000000e+00,0.00000000000000000e+00,0.00000000000000000e+00,0.00000000000000000e+00,0.00000000000000000e+00,0.00000000000000000e+00,0.00000000000000000e+00,0.00000000000000000e+00,0.00000000000000000e+00,0.00000000000000000e+00,0.00000000000000000e+00],"parents":[2147483647,0,0,1,1,2,2,3,3,4,4,5,5,6,6,7,7,8,8,9,9,10,10,11,11,12,12,13,13,14,14],"right_children":[2,4,6,8,10,12,14,16,18,20,22,24,26,28,30,-1,-1,-1,-1,-1,-1,-1,-1,-1,-1,-1,-1,-1,-1,-1,-1],"split_conditions":[9.06754970550537109e-01,4.42050024867057800e-02,1.50000005960464478e-01,6.49999976158142090e-01,9.49999988079071045e-01,8.62249970436096191e-01,8.50000023841857910e-01,3.04470002651214600e-01,7.48915016651153564e-01,2.50000000000000000e-01,1.77515000104904175e-01,9.96824979782104492e-01,7.47929990291595459e-01,7.66400024294853210e-02,6.67092382907867432e-01,-5.64010106027126312e-02,1.54876008629798889e-01,-1.47125482559204102e-01,7.23356828093528748e-02,1.72685589641332626e-02,-9.67003107070922852e-02,-2.15345099568367004e-01,8.12227204442024231e-02,4.69487123191356659e-02,-1.11258670687675476e-01,-3.90903875231742859e-02,-1.36632949113845825e-01,1.46869721356779337e-03,-1.72740057110786438e-01,-4.97333332896232605e-02,-1.59382462501525879e-01],"split_indices":[3,4,5,5,5,1,5,3,0,5,0,0,0,0,2,0,0,0,0,0,0,0,0,0,0,0,0,0,0,0,0],"sum_hessian":[1.06565869140625000e+04,4.88006347656250000e+03,5.77652294921875000e+03,9.42850708007812500e+02,3.93721289062500000e+03,7.86588623046875000e+02,4.98993457031250000e+03,4.33835357666015625e+02,5.09015380859375000e+02,2.98197998046875000e+03,9.55232910156250000e+02,3.09572357177734375e+02,4.77016265869140625e+02,4.35857080078125000e+03,6.31363769531250000e+02,9.87596435546875000e+01,3.35075714111328125e+02,1.00277099609375000e+02,4.08738281250000000e+02,9.84226928710937500e+02,1.99775305175781250e+03,1.28534515380859375e+02,8.26698364257812500e+02,2.47876861572265625e+02,6.16954803466796875e+01,1.60309295654296875e+02,3.16706970214843750e+02,4.84746665954589844e+01,4.31009619140625000e+03,4.56806304931640625e+02,1.74557464599609375e+02],"tree_param":{"num_deleted":"0","num_feature":"6","num_nodes":"31","size_leaf_vector":"0"}},{"base_weights":[-5.17993092536926270e-01,-1.06793351471424103e-01,-9.20202076435089111e-01,1.21834695339202881e-01,-3.95729511976242065e-01,-3.80357503890991211e-01,-1.00976729393005371e+00,-4.35309857130050659e-01,1.89370036125183105e-01,3.76247227191925049e-01,-4.90553975105285645e-01,3.55267554521560669e-01,-5.52119731903076172e-01,-1.13591861724853516e+00,-6.83538198471069336e-01,9.42976355552673340e-01,-1.17164576053619385e+00,4.12810295820236206e-02,4.76654827594757080e-01,8.26823651790618896e-01,-2.30575632303953171e-02,-6.54559612274169922e-01,-8.80894362926483154e-02,5.76519787311553955e-01,-4.11553978919982910e-01,-1.22671723365783691e-01,-8.36507737636566162e-01,-2.23223678767681122e-02,-1.15018391609191895e+00,9.47805523872375488e-01,-7.28702783584594727e-01],"default_left":[true,true,true,true,true,true,true,true,true,true,true,true,true,true,true,false,false,false,false,false,false,false,false,false,false,false,false,false,false,false,false],"id":7,"leaf_child_counts":[0,0,0,0,0,0,0,0,0,0,0,0,0,0,0,0,0,0,0,0,0,0,0,0,0,0,0,0,0,0,0],"left_children":[1,3,5,7,9,11,13,15,17,19,21,23,25,27,29,-1,-1,-1,-1,-1,-1,-1,-1,-1,-1,-1,-1,-1,-1,-1,-1],"loss_changes":[1.67126367187500000e+03,3.30533508300781250e+02,2.45878417968750000e+02,1.05021324157714844e+02,1.62081878662109375e+02,9.25673294067382812e+01,1.78413085937500000e+02,3.07369659423828125e+02,1.05714561462402344e+02,4.39514541625976562e+01,1.29560394287109375e+02,2.38555812835693359e+01,7.17868804931640625e+01,4.95207519531250000e+01,9.10777587890625000e+01,0.00000000000000000e+00,0.00000000000000000e+00,0.00000000000000000e+00,0.00000000000000000e+00,0.00000000000000000e+00,0.00000000000000000e+00,0.00000000000000000e+00,0.00000000000000000e+00,0.00000000000000000e+00,0.00000000000000000e+00,0.00000000000000000e+00,0.00000000000000000e+00,0.00000000000000000e+00,0.00000000000000000e+00,0.00000000000000000e+00,0.00000000000000000e+00],"parents":[2147483647,0,0,1,1,2,2,3,3,4,4,5,5,6,6,7,7,8,8,9,9,10,10,11,11,12,12,13,13,14,14],"right_children":[2,4,6,8,10,12,14,16,18,20,22,24,26,28,30,-1,-1,-1,-1,-1,-1,-1,-1,-1,-1,-1,-1,-1,-1,-1,-1],"split_conditions":[9.13684964179992676e-01,8.07659983634948730e-01,1.50000005960464478e-01,9.89599972963333130e-02,7.45460033416748047e-01,7.58724987506866455e-01,6.49999976158142090e-01,6.49999976158142090e-01,8.50000023841857910e-01,1.50000005960464478e-01,7.50000000000000000e-01,9.96269941329956055e-01,7.77260005474090576e-01,5.59049993753433228e-02,5.79290032386779785e-01,1.41446456313133240e-01,-1.75746873021125793e-01,6.19215471670031548e-03,7.14982300996780396e-02,1.24023549258708954e-01,-3.45863471738994122e-03,-9.81839448213577271e-02,-1.32134156301617622e-02,8.64779725670814514e-02,-6.17331005632877350e-02,-1.84007585048675537e-02,-1.25476166605949402e-01,-3.34835541434586048e-03,-1.72527596354484558e-01,1.42170831561088562e-01,-1.09305419027805328e-01],"split_indices":[3,3,5,0,0,1,5,5,5,5,5,0,0,0,4,0,0,0,0,0,0,0,0,0,0,0,0,0,0,0,0],"sum_hessian":[1.01076923828125000e+04,4.99938183593750000e+03,5.10831005859375000e+03,2.79039990234375000e+03,2.20898193359375000e+03,7.28641662597656250e+02,4.37966845703125000e+03,3.00139129638671875e+02,2.49026074218750000e+03,2.40670791625976562e+02,1.96831127929687500e+03,1.37123062133789062e+02,5.91518615722656250e+02,3.15500610351562500e+03,1.22466235351562500e+03,1.04153312683105469e+02,1.95985809326171875e+02,1.64530969238281250e+03,8.44950988769531250e+02,1.13035324096679688e+02,1.27635459899902344e+02,1.39700256347656250e+03,5.71308654785156250e+02,1.07164871215820312e+02,2.99581985473632812e+01,2.37070739746093750e+02,3.54447875976562500e+02,4.03885231018066406e+01,3.11461743164062500e+03,3.20207672119140625e+01,1.19264160156250000e+03],"tree_param":{"num_deleted":"0","num_feature":"6","num_nodes":"31","size_leaf_vector":"0"}},{"base_weights":[-4.67074602842330933e-01,-9.29071679711341858e-02,-8.59844028949737549e-01,2.61356443166732788e-01,-2.47086539864540100e-01,-3.36617529392242432e-01,-9.52259719371795654e-01,1.05053555965423584e+00,2.07476183772087097e-01,2.56328403949737549e-01,-3.79805684089660645e-01,1.64085850119590759e-02,-6.55060052871704102e-01,-1.08747398853302002e+00,-6.19687438011169434e-01,-1.26775360107421875e+00,1.31443703174591064e+00,2.62575736269354820e-03,5.10059118270874023e-01,6.31810009479522705e-01,-1.93292964249849319e-02,1.80542752146720886e-01,-4.93716657161712646e-01,3.30547243356704712e-01,-4.35833781957626343e-01,-2.96100735664367676e-01,-8.57865035533905029e-01,-1.91039275377988815e-02,-1.10274171829223633e+00,8.08829128742218018e-01,-6.61870777606964111e-01],"default_left":[true,true,true,true,true,true,true,true,true,true,true,true,true,true,true,false,false,false,false,false,false,false,false,false,false,false,false,false,false,false,false],"id":8,"leaf_child_counts":[0,0,0,0,0,0,0,0,0,0,0,0,0,0,0,0,0,0,0,0,0,0,0,0,0,0,0,0,0,0,0],"left_children":[1,3,5,7,9,11,13,15,17,19,21,23,25,27,29,-1,-1,-1,-1,-1,-1,-1,-1,-1,-1,-1,-1,-1,-1,-1,-1],"loss_changes":[1.41147094726562500e+03,2.68953094482421875e+02,2.25582519531250000e+02,6.25563125610351562e+01,2.29457366943359375e+02,7.97334594726562500e+01,1.77358154296875000e+02,5.99079284667968750e+01,8.64673767089843750e+01,7.44208984375000000e+01,1.73689208984375000e+02,4.77814521789550781e+01,2.61947479248046875e+01,4.55437011718750000e+01,7.01900024414062500e+01,0.00000000000000000e+00,0.00000000000000000e+00,0.00000000000000000e+00,0.00000000000000000e+00,0.00000000000000000e+00,0.00000000000000000e+00,0.00000000000000000e+00,0.00000000000000000e+00,0.00000000000000000e+00,0.00000000000000000e+00,0.00000000000000000e+00,0.00000000000000000e+00,0.00000000000000000e+00,0.00000000000000000e+00,0.00000000000000000e+00,0.00000000000000000e+00],"parents":[2147483647,0,0,1,1,2,2,3,3,4,4,5,5,6,6,7,7,8,8,9,9,10,10,11,11,12,12,13,13,14,14],"right_children":[2,4,6,8,10,12,14,16,18,20,22,24,26,28,30,-1,-1,-1,-1,-1,-1,-1,-1,-1,-1,-1,-1,-1,-1,-1,-1],"split_conditions":[9.13744986057281494e-01,6.70899987220764160e-01,1.50000005960464478e-01,1.50000005960464478e-01,4.98950004577636719e-01,8.87179970741271973e-01,6.49999976158142090e-01,1.66995003819465637e-01,8.50000023841857910e-01,6.49999976158142090e-01,1.50000005960464478e-01,9.08290028572082520e-01,7.48449981212615967e-01,5.59049993753433228e-02,5.79290032386779785e-01,-1.90163046121597290e-01,1.97165563702583313e-01,3.93863621866330504e-04,7.65088722109794617e-02,9.47715044021606445e-02,-2.89939460344612598e-03,2.70814131945371628e-02,-7.40575045347213745e-02,4.95820902287960052e-02,-6.53750672936439514e-02,-4.44151125848293304e-02,-1.28679767251014709e-01,-2.86558922380208969e-03,-1.65411263704299927e-01,1.21324375271797180e-01,-9.92806181311607361e-02],"split_indices":[3,3,5,5,4,1,5,3,5,5,5,0,0,0,4,0,0,0,0,0,0,0,0,0,0,0,0,0,0,0,0],"sum_hessian":[9.60702832031250000e+03,4.92146679687500000e+03,4.68556152343750000e+03,1.49113012695312500e+03,3.43033666992187500e+03,7.05045410156250000e+02,3.98051635742187500e+03,9.32279281616210938e+01,1.39790222167968750e+03,7.14655700683593750e+02,2.71568090820312500e+03,3.34183868408203125e+02,3.70861541748046875e+02,2.82685717773437500e+03,1.15365917968750000e+03,8.84837150573730469e+00,8.43795547485351562e+01,8.35307434082031250e+02,5.62594726562500000e+02,3.02631347656250000e+02,4.12024353027343750e+02,4.57928344726562500e+02,2.25775244140625000e+03,1.98053207397460938e+02,1.36130661010742188e+02,1.35886505126953125e+02,2.34975021362304688e+02,4.03295860290527344e+01,2.78652758789062500e+03,3.20982284545898438e+01,1.12156091308593750e+03],"tree_param":{"num_deleted":"0","num_feature":"6","num_nodes":"31","size_leaf_vector":"0"}},{"base_weights":[-4.20710772275924683e-01,-9.34658870100975037e-02,-8.19886624813079834e-01,2.15363055467605591e-01,-2.46489286422729492e-01,-3.23331654071807861e-01,-9.13477480411529541e-01,3.60864102840423584e-01,3.60835939645767212e-02,3.29745858907699585e-01,-3.57695013284683228e-01,-5.04725351929664612e-02,-6.73807442188262939e-01,-1.00298535823822021e+00,-3.79242599010467529e-01,4.85434919595718384e-01,-1.11238375306129456e-01,-3.99827420711517334e-01,4.59075987339019775e-01,7.54844248294830322e-01,-2.17068921774625778e-02,1.05134308338165283e-01,-4.41104799509048462e-01,2.42023140192031860e-01,-4.48770821094512939e-01,8.50461125373840332e-02,-8.10364484786987305e-01,3.05131524801254272e-01,-1.01514232158660889e+00,-9.52057912945747375e-02,-7.71561861038208008e-01],"default_left":[true,true,true,true,true,true,true,true,true,true,true,true,true,true,true,false,false,false,false,false,false,false,false,false,false,false,false,false,false,false,false],"id":9,"leaf_child_counts":[0,0,0,0,0,0,0,0,0,0,0,0,0,0,0,0,0,0,0,0,0,0,0,0,0,0,0,0,0,0,0],"left_children":[1,3,5,7,9,11,13,15,17,19,21,23,25,27,29,-1,-1,-1,-1,-1,-1,-1,-1,-1,-1,-1,-1,-1,-1,-1,-1],"loss_changes":[1.19345056152343750e+03,2.37548019409179688e+02,1.90333984375000000e+02,4.32031478881835938e+01,2.15579772949218750e+02,6.22972259521484375e+01,1.64400146484375000e+02,5.41896514892578125e+01,1.38291412353515625e+02,8.16219482421875000e+01,1.09059448242187500e+02,4.34385604858398438e+01,3.00974121093750000e+01,4.78776855468750000e+01,5.51548767089843750e+01,0.00000000000000000e+00,0.00000000000000000e+00,0.00000000000000000e+00,0.00000000000000000e+00,0.00000000000000000e+00,0.00000000000000000e+00,0.00000000000000000e+00,0.00000000000000000e+00,0.00000000000000000e+00,0.00000000000000000e+00,0.00000000000000000e+00,0.00000000000000000e+00,0.00000000000000000e+00,0.00000000000000000e+00,0.00000000000000000e+00,0.00000000000000000e+00],"parents":[2147483647,0,0,1,1,2,2,3,3,4,4,5,5,6,6,7,7,8,8,9,9,10,10,11,11,12,12,13,13,14,14],"right_children":[2,4,6,8,10,12,14,16,18,20,22,24,26,28,30,-1,-1,-1,-1,-1,-1,-1,-1,-1,-1,-1,-1,-1,-1,-1,-1],"split_conditions":[9.20094966888427734e-01,7.54794955253601074e-01,1.50000005960464478e-01,4.42050024867057800e-02,8.04809987545013428e-01,9.15395021438598633e-01,8.50000023841857910e-01,9.49999988079071045e-01,7.50000000000000000e-01,2.50000000000000000e-01,1.50000005960464478e-01,8.91770005226135254e-01,4.34109985828399658e-01,3.32150012254714966e-02,6.45948946475982666e-01,7.28152394294738770e-02,-1.66857577860355377e-02,-5.99741153419017792e-02,6.88614025712013245e-02,1.13226644694805145e-01,-3.25603387318551540e-03,1.57701466232538223e-02,-6.61657229065895081e-02,3.63034717738628387e-02,-6.73156231641769409e-02,1.27569176256656647e-02,-1.21554680168628693e-01,4.57697287201881409e-02,-1.52271360158920288e-01,-1.42808696255087852e-02,-1.15734286606311798e-01],"split_indices":[3,4,5,4,1,1,5,5,5,5,5,0,0,4,2,0,0,0,0,0,0,0,0,0,0,0,0,0,0,0,0],"sum_hessian":[9.13921484375000000e+03,5.02363085937500000e+03,4.11558398437500000e+03,1.66320520019531250e+03,3.36042578125000000e+03,6.54418151855468750e+02,3.46116577148437500e+03,9.15854003906250000e+02,7.47351196289062500e+02,5.42483642578125000e+02,2.81794213867187500e+03,3.69558807373046875e+02,2.84859344482421875e+02,2.96274316406250000e+03,4.98422668457031250e+02,7.25456115722656250e+02,1.90397903442382812e+02,3.67506774902343750e+02,3.79844390869140625e+02,2.45512649536132812e+02,2.96971008300781250e+02,4.29329895019531250e+02,2.38861230468750000e+03,2.12639358520507812e+02,1.56919448852539062e+02,4.29567718505859375e+01,2.41902572631835938e+02,2.66245975494384766e+01,2.93611865234375000e+03,2.90749542236328125e+02,2.07673110961914062e+02],"tree_param":{"num_deleted":"0","num_feature":"6","num_nodes":"31","size_leaf_vector":"0"}},{"base_weights":[-3.77954095602035522e-01,-8.60896408557891846e-02,-7.76078939437866211e-01,9.83606427907943726e-02,-3.18189352750778198e-01,-2.96028494834899902e-01,-8.72637450695037842e-01,-4.12832707166671753e-01,1.56267851591110229e-01,2.95370221138000488e-01,-3.98852735757827759e-01,3.07621300220489502e-01,-4.43160951137542725e-01,-1.02455198764801025e+00,-5.25824368000030518e-01,8.16692829132080078e-01,-1.07008993625640869e+00,8.14364969730377197e-01,1.08512572944164276e-01,5.65070033073425293e-01,-1.72729775309562683e-01,-5.65876841545104980e-01,7.76584725826978683e-03,-4.59957867860794067e-01,5.33896625041961670e-01,-1.52358204126358032e-01,-7.26360917091369629e-01,5.01872338354587555e-02,-1.04223620891571045e+00,2.45666459202766418e-01,-5.95537066459655762e-01],"default_left":[true,true,true,true,true,true,true,true,true,true,true,true,true,true,true,false,false,false,false,false,false,false,false,false,false,false,false,false,false,false,false],"id":10,"leaf_child_counts":[0,0,0,0,0,0,0,0,0,0,0,0,0,0,0,0,0,0,0,0,0,0,0,0,0,0,0,0,0,0,0],"left_children":[1,3,5,7,9,11,13,15,17,19,21,23,25,27,29,-1,-1,-1,-1,-1,-1,-1,-1,-1,-1,-1,-1,-1,-1,-1,-1],"loss_changes":[1.01277026367187500e+03,2.15648284912109375e+02,1.70032714843750000e+02,8.29716567993164062e+01,1.10588684082031250e+02,5.53322448730468750e+01,1.60230224609375000e+02,2.31396270751953125e+02,7.86557006835937500e+01,3.30363235473632812e+01,1.34250732421875000e+02,2.14701995849609375e+01,4.05940246582031250e+01,4.10754394531250000e+01,5.08231201171875000e+01,0.00000000000000000e+00,0.00000000000000000e+00,0.00000000000000000e+00,0.00000000000000000e+00,0.00000000000000000e+00,0.00000000000000000e+00,0.00000000000000000e+00,0.00000000000000000e+00,0.00000000000000000e+00,0.00000000000000000e+00,0.00000000000000000e+00,0.00000000000000000e+00,0.00000000000000000e+00,0.00000000000000000e+00,0.00000000000000000e+00,0.00000000000000000e+00],"parents":[2147483647,0,0,1,1,2,2,3,3,4,4,5,5,6,6,7,7,8,8,9,9,10,10,11,11,12,12,13,13,14,14],"right_children":[2,4,6,8,10,12,14,16,18,20,22,24,26,28,30,-1,-1,-1,-1,-1,-1,-1,-1,-1,-1,-1,-1,-1,-1,-1,-1],"split_conditions":[9.23035025596618652e-01,8.14414978027343750e-01,1.50000005960464478e-01,9.89599972963333130e-02,7.47405052185058594e-01,7.58724987506866455e-01,6.49999976158142090e-01,6.49999976158142090e-01,7.69845008850097656e-01,2.50000000000000000e-01,7.50000000000000000e-01,2.79849991202354431e-02,8.24730038642883301e-01,6.60900026559829712e-02,7.80759990215301514e-01,1.22503928840160370e-01,-1.60513490438461304e-01,1.22154749929904938e-01,1.62768866866827011e-02,8.47605094313621521e-02,-2.59094666689634323e-02,-8.48815292119979858e-02,1.16487708874046803e-03,-6.89936801791191101e-02,8.00844952464103699e-02,-2.28537321090698242e-02,-1.08954139053821564e-01,7.52808526158332825e-03,-1.56335443258285522e-01,3.68499718606472015e-02,-8.93305614590644836e-02],"split_indices":[3,3,5,0,0,1,5,5,0,5,5,0,0,0,4,0,0,0,0,0,0,0,0,0,0,0,0,0,0,0,0],"sum_hessian":[8.71904296875000000e+03,5.03250195312500000e+03,3.68654028320312500e+03,2.80328759765625000e+03,2.22921459960937500e+03,6.19063720703125000e+02,3.06747656250000000e+03,2.83582366943359375e+02,2.51970532226562500e+03,2.57910827636718750e+02,1.97130371093750000e+03,1.20386093139648438e+02,4.98677642822265625e+02,2.13040917968750000e+03,9.37067565917968750e+02,9.84147491455078125e+01,1.85167602539062500e+02,1.68407653808593750e+02,2.35129760742187500e+03,1.64145950317382812e+02,9.37648849487304688e+01,1.39785559082031250e+03,5.73448059082031250e+02,2.66118392944335938e+01,9.37742538452148438e+01,2.47855880737304688e+02,2.50821762084960938e+02,3.39921951293945312e+01,2.09641699218750000e+03,7.68013916015625000e+01,8.60266113281250000e+02],"tree_param":{"num_deleted":"0","num_feature":"6","num_nodes":"31","size_leaf_vector":"0"}},{"base_weights":[-3.38653147220611572e-01,-7.48132243752479553e-02,-7.24033951759338379e-01,2.15818107128143311e-01,-1.95817947387695312e-01,-2.59859502315521240e-01,-8.24267446994781494e-01,7.45552107691764832e-02,4.48323816061019897e-01,3.08975070714950562e-01,-2.79894798994064331e-01,-5.80039694905281067e-02,-6.35371387004852295e-01,-9.88439023494720459e-01,-4.73062932491302490e-01,9.12416875362396240e-01,-1.24492421746253967e-02,-5.55821299552917480e-01,5.57835996150970459e-01,7.96595156192779541e-01,-9.66998040676116943e-02,-3.85596811771392822e-01,1.49281278252601624e-01,1.74808576703071594e-01,-4.04061585664749146e-01,4.20658290386199951e-01,-7.86357522010803223e-01,4.27580550312995911e-02,-1.00762271881103516e+00,-3.17761719226837158e-01,-8.21574866771697998e-01],"default_left":[true,true,true,true,true,true,true,true,true,true,true,true,true,true,true,false,false,false,false,false,false,false,false,false,false,false,false,false,false,false,false],"id":11,"leaf_child_counts":[0,0,0,0,0,0,0,0,0,0,0,0,0,0,0,0,0,0,0,0,0,0,0,0,0,0,0,0,0,0,0],"left_children":[1,3,5,7,9,11,13,15,17,19,21,23,25,27,29,-1,-1,-1,-1,-1,-1,-1,-1,-1,-1,-1,-1,-1,-1,-1,-1],"loss_changes":[8.48050598144531250e+02,1.74328811645507812e+02,1.56935180664062500e+02,4.75249099731445312e+01,1.48676361083984375e+02,4.54527473449707031e+01,1.59371337890625000e+02,6.67048187255859375e+01,6.07350387573242188e+01,9.92728729248046875e+01,1.36400207519531250e+02,3.20761680603027344e+01,3.41540679931640625e+01,3.80635986328125000e+01,4.73356933593750000e+01,0.00000000000000000e+00,0.00000000000000000e+00,0.00000000000000000e+00,0.00000000000000000e+00,0.00000000000000000e+00,0.00000000000000000e+00,0.00000000000000000e+00,0.00000000000000000e+00,0.00000000000000000e+00,0.00000000000000000e+00,0.00000000000000000e+00,0.00000000000000000e+00,0.00000000000000000e+00,0.00000000000000000e+00,0.00000000000000000e+00,0.00000000000000000e+00],"parents":[2147483647,0,0,1,1,2,2,3,3,4,4,5,5,6,6,7,7,8,8,9,9,10,10,11,11,12,12,13,13,14,14],"right_children":[2,4,6,8,10,12,14,16,18,20,22,24,26,28,30,-1,-1,-1,-1,-1,-1,-1,-1,-1,-1,-1,-1,-1,-1,-1,-1],"split_conditions":[9.23035025596618652e-01,6.70899987220764160e-01,1.50000005960464478e-01,8.50000023841857910e-01,5.01499995589256287e-02,9.36659991741180420e-01,6.49999976158142090e-01,1.50000005960464478e-01,1.65144994854927063e-01,6.49999976158142090e-01,9.49999988079071045e-01,8.92279982566833496e-01,4.70499992370605469e-02,6.60900026559829712e-02,6.56875491142272949e-01,1.36862531304359436e-01,-1.86738639604300261e-03,-8.33731964230537415e-02,8.36753994226455688e-02,1.19489274919033051e-01,-1.45049709826707840e-02,-5.78395240008831024e-02,2.23921928554773331e-02,2.62212883681058884e-02,-6.06092400848865509e-02,6.30987435579299927e-02,-1.17953635752201080e-01,6.41370844095945358e-03,-1.51143416762351990e-01,-4.76642586290836334e-02,-1.23236231505870819e-01],"split_indices":[3,3,5,5,4,1,5,5,0,5,5,0,0,0,2,0,0,0,0,0,0,0,0,0,0,0,0,0,0,0,0],"sum_hessian":[8.34382714843750000e+03,4.95459521484375000e+03,3.38923168945312500e+03,1.45495251464843750e+03,3.49964257812500000e+03,6.03578735351562500e+02,2.78565283203125000e+03,9.07429321289062500e+02,5.47523132324218750e+02,4.98340637207031250e+02,3.00130200195312500e+03,3.94363922119140625e+02,2.09214782714843750e+02,1.89577539062500000e+03,8.89877563476562500e+02,8.47891693115234375e+01,8.22640136718750000e+02,5.28911018371582031e+01,4.94632019042968750e+02,2.26325714111328125e+02,2.72014923095703125e+02,2.40922460937500000e+03,5.92077392578125000e+02,2.35262954711914062e+02,1.59100967407226562e+02,2.54772472381591797e+01,1.83737533569335938e+02,3.41195487976074219e+01,1.86165588378906250e+03,6.18216918945312500e+02,2.71660675048828125e+02],"tree_param":{"num_deleted":"0","num_feature":"6","num_nodes":"31","size_leaf_vector":"0"}},{"base_weights":[-3.02705258131027222e-01,-7.89422020316123962e-02,-7.00915753841400146e-01,1.73257619142532349e-01,-1.98412403464317322e-01,-2.56436020135879517e-01,-8.03892076015472412e-01,4.55062508583068848e-01,9.85504761338233948e-02,1.38465210795402527e-01,-3.53829205036163330e-01,4.30842816829681396e-01,-3.62121611833572388e-01,-9.78664278984069824e-01,-4.45732831954956055e-01,6.97173237800598145e-01,3.28750133514404297e-01,-4.14572879672050476e-02,2.71850675344467163e-01,4.70294892787933350e-01,-2.32667863368988037e-01,-5.97641706466674805e-01,7.77701213955879211e-02,-2.09060534834861755e-01,6.70021712779998779e-01,-1.75770670175552368e-01,-7.06704258918762207e-01,1.16496026515960693e-01,-9.94096517562866211e-01,-3.18602085113525391e-01,-8.34112167358398438e-01],"default_left":[true,true,true,true,true,true,true,true,true,true,true,true,true,true,true,false,false,false,false,false,false,false,false,false,false,false,false,false,false,false,false],"id":12,"leaf_child_counts":[0,0,0,0,0,0,0,0,0,0,0,0,0,0,0,0,0,0,0,0,0,0,0,0,0,0,0,0,0,0,0],"left_children":[1,3,5,7,9,11,13,15,17,19,21,23,25,27,29,-1,-1,-1,-1,-1,-1,-1,-1,-1,-1,-1,-1,-1,-1,-1,-1],"loss_changes":[7.12352478027343750e+02,1.54441009521484375e+02,1.30896484375000000e+02,3.43277168273925781e+01,1.82306747436523438e+02,3.96683807373046875e+01,1.44865112304687500e+02,9.69758605957031250e+00,3.17775611877441406e+01,1.35494476318359375e+02,2.50965454101562500e+02,1.14915704727172852e+01,2.97593383789062500e+01,2.70643310546875000e+01,3.70497894287109375e+01,0.00000000000000000e+00,0.00000000000000000e+00,0.00000000000000000e+00,0.00000000000000000e+00,0.00000000000000000e+00,0.00000000000000000e+00,0.00000000000000000e+00,0.00000000000000000e+00,0.00000000000000000e+00,0.00000000000000000e+00,0.00000000000000000e+00,0.00000000000000000e+00,0.00000000000000000e+00,0.00000000000000000e+00,0.00000000000000000e+00,0.00000000000000000e+00],"parents":[2147483647,0,0,1,1,2,2,3,3,4,4,5,5,6,6,7,7,8,8,9,9,10,10,11,11,12,12,13,13,14,14],"right_children":[2,4,6,8,10,12,14,16,18,20,22,24,26,28,30,-1,-1,-1,-1,-1,-1,-1,-1,-1,-1,-1,-1,-1,-1,-1,-1],"split_conditions":[9.32124972343444824e-01,7.56110012531280518e-01,1.50000005960464478e-01,1.12350005656480789e-02,2.50000000000000000e-01,7.10649967193603516e-01,6.49999976158142090e-01,5.93365311622619629e-01,7.50000000000000000e-01,9.14255023002624512e-01,8.50000023841857910e-01,2.73049995303153992e-02,9.06530022621154785e-01,3.71299982070922852e-02,6.68343782424926758e-01,1.04575991630554199e-01,4.93125207722187042e-02,-6.21859356760978699e-03,4.07776013016700745e-02,7.05442354083061218e-02,-3.49001809954643250e-02,-8.96462574601173401e-02,1.16655183956027031e-02,-3.13590802252292633e-02,1.00503258407115936e-01,-2.63656023889780045e-02,-1.06005646288394928e-01,1.74744054675102234e-02,-1.49114489555358887e-01,-4.77903150022029877e-02,-1.25116825103759766e-01],"split_indices":[3,4,5,4,5,1,5,2,5,1,5,0,0,4,2,0,0,0,0,0,0,0,0,0,0,0,0,0,0,0,0],"sum_hessian":[7.99844873046875000e+03,5.12266601562500000e+03,2.87578271484375000e+03,1.64511169433593750e+03,3.47755419921875000e+03,5.42667785644531250e+02,2.33311499023437500e+03,3.41997283935546875e+02,1.30311437988281250e+03,1.09688745117187500e+03,2.38066674804687500e+03,7.11831665039062500e+01,4.71484619140625000e+02,1.56558789062500000e+03,7.67527038574218750e+02,1.13958412170410156e+02,2.28038879394531250e+02,7.19722473144531250e+02,5.83391967773437500e+02,5.79642700195312500e+02,5.17244689941406250e+02,1.52171850585937500e+03,8.58948364257812500e+02,1.88414211273193359e+01,5.23417434692382812e+01,3.08166351318359375e+02,1.63318267822265625e+02,2.11906700134277344e+01,1.54439721679687500e+03,5.80930175781250000e+02,1.86596878051757812e+02],"tree_param":{"num_deleted":"0","num_feature":"6","num_nodes":"31","size_leaf_vector":"0"}},{"base_weights":[-2.70059406757354736e-01,-6.87554329633712769e-02,-6.51963233947753906e-01,7.72927626967430115e-02,-2.40997746586799622e-01,-2.24297493696212769e-01,-7.58496940135955811e-01,-4.00883466005325317e-01,1.29038363695144653e-01,2.30140820145606995e-01,-3.22814643383026123e-01,8.96061584353446960e-03,-5.23246586322784424e-01,-9.47628557682037354e-01,-3.98804366588592529e-01,7.02101051807403564e-01,-9.74181115627288818e-01,6.54760181903839111e-01,8.23513045907020569e-02,4.68706518411636353e-01,-1.66070342063903809e-01,-4.26223486661911011e-01,1.43220633268356323e-01,1.89520850777626038e-01,-4.79955673217773438e-01,2.76960074901580811e-01,-7.38077998161315918e-01,1.19549043476581573e-01,-9.66968595981597900e-01,-2.80113071203231812e-01,-7.83875286579132080e-01],"default_left":[true,true,true,true,true,true,true,true,true,true,true,true,true,true,true,false,false,false,false,false,false,false,false,false,false,false,false,false,false,false,false],"id":13,"leaf_child_counts":[0,0,0,0,0,0,0,0,0,0,0,0,0,0,0,0,0,0,0,0,0,0,0,0,0,0,0,0,0,0,0],"left_children":[1,3,5,7,9,11,13,15,17,19,21,23,25,27,29,-1,-1,-1,-1,-1,-1,-1,-1,-1,-1,-1,-1,-1,-1,-1,-1],"loss_changes":[5.90907287597656250e+02,1.26864471435546875e+02,1.20209350585937500e+02,6.73849487304687500e+01,8.93381958007812500e+01,3.73583831787109375e+01,1.43292358398437500e+02,1.68920806884765625e+02,5.99898757934570312e+01,3.25956497192382812e+01,9.53038787841796875e+01,2.63730716705322266e+01,4.07324905395507812e+01,2.92501220703125000e+01,3.27745895385742188e+01,0.00000000000000000e+00,0.00000000000000000e+00,0.00000000000000000e+00,0.00000000000000000e+00,0.00000000000000000e+00,0.00000000000000000e+00,0.00000000000000000e+00,0.00000000000000000e+00,0.00000000000000000e+00,0.00000000000000000e+00,0.00000000000000000e+00,0.00000000000000000e+00,0.00000000000000000e+00,0.00000000000000000e+00,0.00000000000000000e+00,0.00000000000000000e+00],"parents":[2147483647,0,0,1,1,2,2,3,3,4,4,5,5,6,6,7,7,8,8,9,9,10,10,11,11,12,12,13,13,14,14],"right_children":[2,4,6,8,10,12,14,16,18,20,22,24,26,28,30,-1,-1,-1,-1,-1,-1,-1,-1,-1,-1,-1,-1,-1,-1,-1,-1],"split_conditions":[9.32124972343444824e-01,8.14414978027343750e-01,1.50000005960464478e-01,9.89599972963333130e-02,7.79359996318817139e-01,6.22828781604766846e-01,6.49999976158142090e-01,6.49999976158142090e-01,7.95955002307891846e-01,2.50000000000000000e-01,9.49999988079071045e-01,9.36659991741180420e-01,1.97964996099472046e-01,4.00200001895427704e-02,6.68343782424926758e-01,1.05315163731575012e-01,-1.46127179265022278e-01,9.82140302658081055e-02,1.23526966199278831e-02,7.03059807419776917e-02,-2.49105524271726608e-02,-6.39335289597511292e-02,2.14830953627824783e-02,2.84281279891729355e-02,-7.19933509826660156e-02,4.15440127253532410e-02,-1.10711701214313507e-01,1.79323572665452957e-02,-1.45045295357704163e-01,-4.20169606804847717e-02,-1.17581300437450409e-01],"split_indices":[3,3,5,0,0,2,5,5,0,5,5,1,0,0,2,0,0,0,0,0,0,0,0,0,0,0,0,0,0,0,0],"sum_hessian":[7.69038818359375000e+03,5.03774462890625000e+03,2.65264355468750000e+03,2.72496801757812500e+03,2.31277661132812500e+03,5.30718261718750000e+02,2.12192529296875000e+03,2.64319488525390625e+02,2.46064868164062500e+03,3.40965606689453125e+02,1.97181103515625000e+03,2.97854370117187500e+02,2.32863906860351562e+02,1.38843322753906250e+03,7.33491943359375000e+02,9.00043792724609375e+01,1.74315109252929688e+02,1.98495071411132812e+02,2.26215356445312500e+03,2.13466751098632812e+02,1.27498847961425781e+02,1.61470324707031250e+03,3.57107788085937500e+02,2.18827835083007812e+02,7.90265350341796875e+01,4.87162208557128906e+01,1.84147689819335938e+02,2.41386337280273438e+01,1.36429467773437500e+03,5.63317199707031250e+02,1.70174774169921875e+02],"tree_param":{"num_deleted":"0","num_feature":"6","num_nodes":"31","size_leaf_vector":"0"}},{"base_weights":[-2.40177690982818604e-01,-6.12882971763610840e-02,-6.08707249164581299e-01,2.65888690948486328e-01,-1.30435109138488770e-01,-1.99652358889579773e-01,-7.18069791793823242e-01,3.80605518817901611e-01,-1.53127714991569519e-01,-2.35512614250183105e-01,2.14202851057052612e-01,2.19214260578155518e-02,-4.57488685846328735e-01,-8.47111403942108154e-01,-1.48948386311531067e-01,2.91527777910232544e-01,9.42540466785430908e-01,1.56020808219909668e+00,-2.24637940526008606e-01,1.14108026027679443e-01,-4.19171750545501709e-01,-1.04996049404144287e+00,3.58107805252075195e-01,1.58826410770416260e-01,-4.62900876998901367e-01,2.07840219140052795e-01,-6.49000644683837891e-01,3.24284225702285767e-01,-8.66912543773651123e-01,-9.04387142509222031e-03,-9.12668108940124512e-01],"default_left":[true,true,true,true,true,true,true,true,true,true,true,true,true,true,true,false,false,false,false,false,false,false,false,false,false,false,false,false,false,false,false],"id":14,"leaf_child_counts":[0,0,0,0,0,0,0,0,0,0,0,0,0,0,0,0,0,0,0,0,0,0,0,0,0,0,0,0,0,0,0],"left_children":[1,3,5,7,9,11,13,15,17,19,21,23,25,27,29,-1,-1,-1,-1,-1,-1,-1,-1,-1,-1,-1,-1,-1,-1,-1,-1],"loss_changes":[4.88624877929687500e+02,1.12998268127441406e+02,1.07750610351562500e+02,4.20434608459472656e+01,1.49503463745117188e+02,2.95844955444335938e+01,1.39639160156250000e+02,3.33236083984375000e+01,2.26957111358642578e+01,2.03370132446289062e+02,1.75434997558593750e+02,1.82917919158935547e+01,3.07881126403808594e+01,3.67199707031250000e+01,3.74938507080078125e+01,0.00000000000000000e+00,0.00000000000000000e+00,0.00000000000000000e+00,0.00000000000000000e+00,0.00000000000000000e+00,0.00000000000000000e+00,0.00000000000000000e+00,0.00000000000000000e+00,0.00000000000000000e+00,0.00000000000000000e+00,0.00000000000000000e+00,0.00000000000000000e+00,0.00000000000000000e+00,0.00000000000000000e+00,0.00000000000000000e+00,0.00000000000000000e+00],"parents":[2147483647,0,0,1,1,2,2,3,3,4,4,5,5,6,6,7,7,8,8,9,9,10,10,11,11,12,12,13,13,14,14],"right_children":[2,4,6,8,10,12,14,16,18,20,22,24,26,28,30,-1,-1,-1,-1,-1,-1,-1,-1,-1,-1,-1,-1,-1,-1,-1,-1],"split_conditions":[9.33504998683929443e-01,4.42050024867057800e-02,1.50000005960464478e-01,9.49999988079071045e-01,9.49999988079071045e-01,6.19519472122192383e-01,8.50000023841857910e-01,8.36404979228973389e-01,1.53749994933605194e-02,2.50000000000000000e-01,1.77515000104904175e-01,9.48109984397888184e-01,1.97964996099472046e-01,4.67849969863891602e-02,6.94163620471954346e-01,4.37291674315929413e-02,1.41381070017814636e-01,2.34031215310096741e-01,-3.36956940591335297e-02,1.71162039041519165e-02,-6.28757625818252563e-02,-1.57494083046913147e-01,5.37161715328693390e-02,2.38239634782075882e-02,-6.94351345300674438e-02,3.11760343611240387e-02,-9.73500981926918030e-02,4.86426353454589844e-02,-1.30036890506744385e-01,-1.35658076032996178e-03,-1.36900216341018677e-01],"split_indices":[3,4,5,5,5,2,5,3,0,5,0,1,0,4,2,0,0,0,0,0,0,0,0,0,0,0,0,0,0,0,0],"sum_hessian":[7.41625341796875000e+03,4.99461279296875000e+03,2.42164013671875000e+03,8.69530517578125000e+02,4.12508251953125000e+03,5.12565734863281250e+02,1.90907446289062500e+03,6.83666564941406250e+02,1.85863922119140625e+02,3.16265844726562500e+03,9.62423950195312500e+02,2.75240234375000000e+02,2.37325485229492188e+02,1.55500585937500000e+03,3.54068603515625000e+02,5.92527587890625000e+02,9.11389923095703125e+01,6.12394618988037109e+00,1.79739974975585938e+02,1.08843066406250000e+03,2.07422778320312500e+03,9.72005310058593750e+01,8.65223388671875000e+02,2.16091690063476562e+02,5.91485519409179688e+01,5.24371109008789062e+01,1.84888381958007812e+02,2.51093959808349609e+01,1.52989648437500000e+03,3.00871887207031250e+02,5.31967163085937500e+01],"tree_param":{"num_deleted":"0","num_feature":"6","num_nodes":"31","size_leaf_vector":"0"}},{"base_weights":[-2.13248223066329956e-01,-5.83401136100292206e-02,-5.77004313468933105e-01,1.40929028391838074e-01,-1.63262024521827698e-01,-1.95413514971733093e-01,-6.88024282455444336e-01,-3.54520827531814575e-01,1.91436156630516052e-01,-7.02213644981384277e-02,-4.19270515441894531e-01,4.04338985681533813e-01,-2.71777987480163574e-01,-9.00185465812683105e-01,-3.27273875474929810e-01,6.15861237049102783e-01,-7.73244798183441162e-01,9.20923829078674316e-01,1.49682387709617615e-01,5.24578988552093506e-01,-1.48215740919113159e-01,1.84965535998344421e-01,-5.13539671897888184e-01,6.67211174964904785e-01,-3.02847415208816528e-01,-9.56199392676353455e-02,-5.40102243423461914e-01,1.77381440997123718e-01,-9.23615276813507080e-01,7.08072483539581299e-01,-3.71865242719650269e-01],"default_left":[true,true,true,true,true,true,true,true,true,true,true,true,true,true,true,false,false,false,false,false,false,false,false,false,false,false,false,false,false,false,false],"id":15,"leaf_child_counts":[0,0,0,0,0,0,0,0,0,0,0,0,0,0,0,0,0,0,0,0,0,0,0,0,0,0,0,0,0,0,0],"left_children":[1,3,5,7,9,11,13,15,17,19,21,23,25,27,29,-1,-1,-1,-1,-1,-1,-1,-1,-1,-1,-1,-1,-1,-1,-1,-1],"loss_changes":[4.03369171142578125e+02,1.05148742675781250e+02,8.99985351562500000e+01,4.33704948425292969e+01,7.82143020629882812e+01,2.22740039825439453e+01,1.25707214355468750e+02,6.56238555908203125e+01,4.72481422424316406e+01,1.12175125122070312e+02,5.02230377197265625e+01,1.05694494247436523e+01,2.00142173767089844e+01,2.68526000976562500e+01,2.85916900634765625e+01,0.00000000000000000e+00,0.00000000000000000e+00,0.00000000000000000e+00,0.00000000000000000e+00,0.00000000000000000e+00,0.00000000000000000e+00,0.00000000000000000e+00,0.00000000000000000e+00,0.00000000000000000e+00,0.00000000000000000e+00,0.00000000000000000e+00,0.00000000000000000e+00,0.00000000000000000e+00,0.00000000000000000e+00,0.00000000000000000e+00,0.00000000000000000e+00],"parents":[2147483647,0,0,1,1,2,2,3,3,4,4,5,5,6,6,7,7,8,8,9,9,10,10,11,11,12,12,13,13,14,14],"right_children":[2,4,6,8,10,12,14,16,18,20,22,24,26,28,30,-1,-1,-1,-1,-1,-1,-1,-1,-1,-1,-1,-1,-1,-1,-1,-1],"split_conditions":[9.37714993953704834e-01,7.19084978103637695e-01,1.50000005960464478e-01,9.89149957895278931e-02,6.29568636417388916e-01,6.83605015277862549e-01,6.49999976158142090e-01,6.49999976158142090e-01,1.50000005960464478e-01,5.12150004506111145e-02,7.94880032539367676e-01,9.96284961700439453e-01,8.74324977397918701e-01,4.00200001895427704e-02,7.00464963912963867e-01,9.23791900277137756e-02,-1.15986727178096771e-01,1.38138577342033386e-01,2.24523581564426422e-02,7.86868482828140259e-02,-2.22323611378669739e-02,2.77448315173387527e-02,-7.70309567451477051e-02,1.00081682205200195e-01,-4.54271137714385986e-02,-1.43429916352033615e-02,-8.10153409838676453e-02,2.66072172671556473e-02,-1.38542294502258301e-01,1.06210879981517792e-01,-5.57797886431217194e-02],"split_indices":[3,3,5,0,2,1,5,5,5,4,0,0,0,0,4,0,0,0,0,0,0,0,0,0,0,0,0,0,0,0,0],"sum_hessian":[7.16357275390625000e+03,5.02602832031250000e+03,2.13754467773437500e+03,1.73179150390625000e+03,3.29423681640625000e+03,4.83532165527343750e+02,1.65401245117187500e+03,1.58598236083984375e+02,1.57319323730468750e+03,2.41874340820312500e+03,8.75493225097656250e+02,5.32669906616210938e+01,4.30265167236328125e+02,1.03944726562500000e+03,6.14565124511718750e+02,4.72695808410644531e+01,1.11328651428222656e+02,8.30969314575195312e+01,1.49009631347656250e+03,2.78822296142578125e+02,2.13992114257812500e+03,1.17277061462402344e+02,7.58216125488281250e+02,3.93993301391601562e+01,1.38676595687866211e+01,2.61890075683593750e+02,1.68375091552734375e+02,2.14910945892333984e+01,1.01795617675781250e+03,2.41448688507080078e+01,5.90420288085937500e+02],"tree_param":{"num_deleted":"0","num_feature":"6","num_nodes":"31","size_leaf_vector":"0"}},{"base_weights":[-1.88143700361251831e-01,-5.53950667381286621e-02,-5.48450112342834473e-01,1.83915764093399048e-01,-1.34386569261550903e-01,-1.71426534652709961e-01,-6.66816532611846924e-01,5.16499042510986328e-01,4.67554777860641479e-02,1.17509104311466217e-01,-2.46305719017982483e-01,3.37642952799797058e-02,-4.06398147344589233e-01,-8.86649608612060547e-01,-3.16386789083480835e-01,1.06940603256225586e+00,4.38137769699096680e-01,2.64296889305114746e-01,-3.52103203535079956e-01,2.13472664356231689e-01,-1.23788431286811829e-01,-3.67891281843185425e-01,-7.20335617661476135e-02,-4.60902661085128784e-01,1.43033549189567566e-01,2.37556532025337219e-01,-6.05466544628143311e-01,2.45864659547805786e-01,-9.09455657005310059e-01,-2.07851409912109375e-01,-7.72993206977844238e-01],"default_left":[true,true,true,true,true,true,true,true,true,true,true,true,true,true,true,false,false,false,false,false,false,false,false,false,false,false,false,false,false,false,false],"id":16,"leaf_child_counts":[0,0,0,0,0,0,0,0,0,0,0,0,0,0,0,0,0,0,0,0,0,0,0,0,0,0,0,0,0,0,0],"left_children":[1,3,5,7,9,11,13,15,17,19,21,23,25,27,29,-1,-1,-1,-1,-1,-1,-1,-1,-1,-1,-1,-1,-1,-1,-1,-1],"loss_changes":[3.32284393310546875e+02,9.61179199218750000e+01,8.29436035156250000e+01,5.71982765197753906e+01,1.07931182861328125e+02,2.18894996643066406e+01,1.08643615722656250e+02,1.45581436157226562e+01,7.77330474853515625e+01,2.73114871978759766e+01,5.58980712890625000e+01,1.29028215408325195e+01,2.74004249572753906e+01,2.31505126953125000e+01,2.66273765563964844e+01,0.00000000000000000e+00,0.00000000000000000e+00,0.00000000000000000e+00,0.00000000000000000e+00,0.00000000000000000e+00,0.00000000000000000e+00,0.00000000000000000e+00,0.00000000000000000e+00,0.00000000000000000e+00,0.00000000000000000e+00,0.00000000000000000e+00,0.00000000000000000e+00,0.00000000000000000e+00,0.00000000000000000e+00,0.00000000000000000e+00,0.00000000000000000e+00],"parents":[2147483647,0,0,1,1,2,2,3,3,4,4,5,5,6,6,7,7,8,8,9,9,10,10,11,11,12,12,13,13,14,14],"right_children":[2,4,6,8,10,12,14,16,18,20,22,24,26,28,30,-1,-1,-1,-1,-1,-1,-1,-1,-1,-1,-1,-1,-1,-1,-1,-1],"split_conditions":[9.42125022411346436e-01,8.45054984092712402e-01,1.50000005960464478e-01,2.50000000000000000e-01,7.56110012531280518e-01,6.19519472122192383e-01,6.49999976158142090e-01,6.06629967689514160e-01,9.57289993762969971e-01,6.28994464874267578e-01,6.49999976158142090e-01,3.70850004255771637e-02,1.97964996099472046e-01,4.67849969863891602e-02,6.78396582603454590e-01,1.60410910844802856e-01,6.57206699252128601e-02,3.96445356309413910e-02,-5.28154820203781128e-02,3.20209003984928131e-02,-1.85682661831378937e-02,-5.51836937665939331e-02,-1.08050350099802017e-02,-6.91354051232337952e-02,2.14550327509641647e-02,3.56334820389747620e-02,-9.08199846744537354e-02,3.68796996772289276e-02,-1.36418357491493225e-01,-3.11777126044034958e-02,-1.15948982536792755e-01],"split_indices":[3,1,5,5,4,2,5,3,4,2,5,0,0,4,2,0,0,0,0,0,0,0,0,0,0,0,0,0,0,0,0],"sum_hessian":[6.95302587890625000e+03,5.08308251953125000e+03,1.86994335937500000e+03,1.25946032714843750e+03,3.82362207031250000e+03,4.48536895751953125e+02,1.42140649414062500e+03,3.65675598144531250e+02,8.93784729003906250e+02,1.17485461425781250e+03,2.64876733398437500e+03,2.38877593994140625e+02,2.09659301757812500e+02,8.71410156250000000e+02,5.49996276855468750e+02,4.26379661560058594e+01,3.23037628173828125e+02,5.79432067871093750e+02,3.14352630615234375e+02,8.42149658203125000e+02,3.32705017089843750e+02,1.55772302246093750e+03,1.09104443359375000e+03,4.16640586853027344e+01,1.97213531494140625e+02,4.88580093383789062e+01,1.60801284790039062e+02,1.65275402069091797e+01,8.54882629394531250e+02,4.46724029541015625e+02,1.03272254943847656e+02],"tree_param":{"num_deleted":"0","num_feature":"6","num_nodes":"31","size_leaf_vector":"0"}},{"base_weights":[-1.65451064705848694e-01,-5.90083152055740356e-02,-5.49655318260192871e-01,1.52569040656089783e-01,-1.31593450903892517e-01,-1.91834151744842529e-01,-6.77611827850341797e-01,3.82388904690742493e-02,3.44909101724624634e-01,1.67312368750572205e-01,-1.86976313591003418e-01,4.49622943997383118e-02,-4.28462892770767212e-01,-8.93513321876525879e-01,-3.39325904846191406e-01,-1.42978355288505554e-01,2.97268122434616089e-01,7.75258481502532959e-01,1.73816442489624023e-01,4.07307982444763184e-01,-2.28165537118911743e-01,9.12672653794288635e-02,-2.99035787582397461e-01,1.84428125619888306e-01,-3.98038029670715332e-01,1.66580513119697571e-01,-6.28083527088165283e-01,1.54429972171783447e-01,-9.18435811996459961e-01,-2.23278373479843140e-01,-7.43208587169647217e-01],"default_left":[true,true,true,true,true,true,true,true,true,true,true,true,true,true,true,false,false,false,false,false,false,false,false,false,false,false,false,false,false,false,false],"id":17,"leaf_child_counts":[0,0,0,0,0,0,0,0,0,0,0,0,0,0,0,0,0,0,0,0,0,0,0,0,0,0,0,0,0,0,0],"left_children":[1,3,5,7,9,11,13,15,17,19,21,23,25,27,29,-1,-1,-1,-1,-1,-1,-1,-1,-1,-1,-1,-1,-1,-1,-1,-1],"loss_changes":[2.76801147460937500e+02,8.15485153198242188e+01,6.66632995605468750e+01,2.95877056121826172e+01,6.55277099609375000e+01,2.20532054901123047e+01,7.79248046875000000e+01,4.01633949279785156e+01,3.64188842773437500e+01,5.88203964233398438e+01,1.04250312805175781e+02,1.20245895385742188e+01,2.36556015014648438e+01,1.77425537109375000e+01,1.91766052246093750e+01,0.00000000000000000e+00,0.00000000000000000e+00,0.00000000000000000e+00,0.00000000000000000e+00,0.00000000000000000e+00,0.00000000000000000e+00,0.00000000000000000e+00,0.00000000000000000e+00,0.00000000000000000e+00,0.00000000000000000e+00,0.00000000000000000e+00,0.00000000000000000e+00,0.00000000000000000e+00,0.00000000000000000e+00,0.00000000000000000e+00,0.00000000000000000e+00],"parents":[2147483647,0,0,1,1,2,2,3,3,4,4,5,5,6,6,7,7,8,8,9,9,10,10,11,11,12,12,13,13,14,14],"right_children":[2,4,6,8,10,12,14,16,18,20,22,24,26,28,30,-1,-1,-1,-1,-1,-1,-1,-1,-1,-1,-1,-1,-1,-1,-1,-1],"split_conditions":[9.52475011348724365e-01,6.66200041770935059e-01,1.50000005960464478e-01,8.50000023841857910e-01,1.50000005960464478e-01,6.16501212120056152e-01,6.49999976158142090e-01,4.84695017337799072e-01,1.82899996638298035e-01,9.25949990749359131e-01,7.55479991436004639e-01,9.42569971084594727e-01,1.97964996099472046e-01,4.00200001895427704e-02,6.77108645439147949e-01,-2.14467532932758331e-02,4.45902198553085327e-02,1.16288773715496063e-01,2.60724667459726334e-02,6.10961988568305969e-02,-3.42248305678367615e-02,1.36900907382369041e-02,-4.48553711175918579e-02,2.76642199605703354e-02,-5.97057081758975983e-02,2.49870773404836655e-02,-9.42125320434570312e-02,2.31644958257675171e-02,-1.37765377759933472e-01,-3.34917567670345306e-02,-1.11481294035911560e-01],"split_indices":[3,3,5,5,5,2,5,3,3,1,4,1,0,0,2,0,0,0,0,0,0,0,0,0,0,0,0,0,0,0,0],"sum_hessian":[6.77563964843750000e+03,5.30785595703125000e+03,1.46778393554687500e+03,1.35370239257812500e+03,3.95415356445312500e+03,3.88474548339843750e+02,1.07930944824218750e+03,8.51596984863281250e+02,5.02105407714843750e+02,6.16312194824218750e+02,3.33784130859375000e+03,1.93618392944335938e+02,1.94856155395507812e+02,6.56675170898437500e+02,4.22634216308593750e+02,5.00250640869140625e+02,3.51346343994140625e+02,1.40747299194335938e+02,3.61358093261718750e+02,3.84316680908203125e+02,2.31995513916015625e+02,9.57109497070312500e+02,2.38073168945312500e+03,1.48671676635742188e+02,4.49467086791992188e+01,4.83708953857421875e+01,1.46485260009765625e+02,1.46375341415405273e+01,6.42037658691406250e+02,3.30772460937500000e+02,9.18617706298828125e+01],"tree_param":{"num_deleted":"0","num_feature":"6","num_nodes":"31","size_leaf_vector":"0"}},{"base_weights":[-1.45383745431900024e-01,-5.09414896368980408e-02,-5.06234169006347656e-01,-1.38049945235252380e-01,1.09070762991905212e-01,-1.68472319841384888e-01,-6.34760797023773193e-01,1.11700400710105896e-01,-2.71612703800201416e-01,2.25487917661666870e-01,-4.52383846044540405e-01,3.75253371894359589e-02,-3.83202046155929565e-01,-8.65256905555725098e-01,-3.01800727844238281e-01,2.93744087219238281e-01,-2.04981654882431030e-01,2.12200596928596497e-01,-4.38936203718185425e-01,8.08889746665954590e-01,1.68919190764427185e-01,-1.30463019013404846e-01,-5.72029590606689453e-01,1.55544802546501160e-01,-3.54935795068740845e-01,1.42913877964019775e-01,-5.69938480854034424e-01,1.31200566887855530e-01,-8.92436325550079346e-01,-1.94924890995025635e-01,-6.99103713035583496e-01],"default_left":[true,true,true,true,true,true,true,true,true,true,true,true,true,true,true,false,false,false,false,false,false,false,false,false,false,false,false,false,false,false,false],"id":18,"leaf_child_counts":[0,0,0,0,0,0,0,0,0,0,0,0,0,0,0,0,0,0,0,0,0,0,0,0,0,0,0,0,0,0,0],"left_children":[1,3,5,7,9,11,13,15,17,19,21,23,25,27,29,-1,-1,-1,-1,-1,-1,-1,-1,-1,-1,-1,-1,-1,-1,-1,-1],"loss_changes":[2.24842575073242188e+02,7.30532226562500000e+01,5.89037475585937500e+01,1.13356086730957031e+02,1.20628372192382812e+02,1.70075378417968750e+01,7.50897521972656250e+01,6.82873306274414062e+01,1.79420761108398438e+02,4.98325805664062500e+01,1.17493438720703125e+01,8.95429134368896484e+00,1.87307357788085938e+01,1.63332824707031250e+01,1.67031211853027344e+01,0.00000000000000000e+00,0.00000000000000000e+00,0.00000000000000000e+00,0.00000000000000000e+00,0.00000000000000000e+00,0.00000000000000000e+00,0.00000000000000000e+00,0.00000000000000000e+00,0.00000000000000000e+00,0.00000000000000000e+00,0.00000000000000000e+00,0.00000000000000000e+00,0.00000000000000000e+00,0.00000000000000000e+00,0.00000000000000000e+00,0.00000000000000000e+00],"parents":[2147483647,0,0,1,1,2,2,3,3,4,4,5,5,6,6,7,7,8,8,9,9,10,10,11,11,12,12,13,13,14,14],"right_children":[2,4,6,8,10,12,14,16,18,20,22,24,26,28,30,-1,-1,-1,-1,-1,-1,-1,-1,-1,-1,-1,-1,-1,-1,-1,-1],"split_conditions":[9.52475011348724365e-01,7.50000000000000000e-01,1.50000005960464478e-01,2.50000000000000000e-01,6.47997915744781494e-01,6.16501212120056152e-01,6.49999976158142090e-01,9.36150014400482178e-01,5.95050007104873657e-02,1.82899996638298035e-01,5.72890043258666992e-01,9.43089962005615234e-01,1.97964996099472046e-01,4.00200001895427704e-02,6.77108645439147949e-01,4.40616160631179810e-02,-3.07472497224807739e-02,3.18300910294055939e-02,-6.58404305577278137e-02,1.21333464980125427e-01,2.53378804773092270e-02,-1.95694528520107269e-02,-8.58044400811195374e-02,2.33317203819751740e-02,-5.32403700053691864e-02,2.14370824396610260e-02,-8.54907780885696411e-02,1.96800865232944489e-02,-1.33865460753440857e-01,-2.92387343943119049e-02,-1.04865558445453644e-01],"split_indices":[3,5,5,5,2,2,5,1,4,3,4,1,0,0,2,0,0,0,0,0,0,0,0,0,0,0,0,0,0,0,0],"sum_hessian":[6.60545507812500000e+03,5.23750146484375000e+03,1.36795373535156250e+03,3.39345019531250000e+03,1.84405102539062500e+03,3.78928009033203125e+02,9.89025695800781250e+02,1.18119091796875000e+03,2.21225952148437500e+03,1.52871228027343750e+03,3.15338745117187500e+02,1.92734329223632812e+02,1.86193664550781250e+02,5.82371337890625000e+02,4.06654388427734375e+02,7.51095397949218750e+02,4.30095458984375000e+02,5.67633178710937500e+02,1.64462622070312500e+03,1.32876281738281250e+02,1.39583605957031250e+03,8.72837371826171875e+01,2.28054992675781250e+02,1.49735122680664062e+02,4.29992027282714844e+01,4.81501159667968750e+01,1.38043548583984375e+02,1.48475542068481445e+01,5.67523742675781250e+02,3.22911804199218750e+02,8.37425842285156250e+01],"tree_param":{"num_deleted":"0","num_feature":"6","num_nodes":"31","size_leaf_vector":"0"}},{"base_weights":[-1.27919167280197144e-01,-2.55242193816229701e-04,-3.51140677928924561e-01,7.10796490311622620e-02,-2.01754599809646606e-01,-4.22700166702270508e-01,2.12912067770957947e-01,-2.46654935181140900e-02,2.36493021249771118e-01,1.22950129210948944e-01,-3.42150986194610596e-01,-8.21055993437767029e-02,-6.04424893856048584e-01,4.71765309572219849e-01,-2.61448234319686890e-01,2.71256417036056519e-01,-9.52666699886322021e-02,3.59417170286178589e-01,-3.27323079109191895e-02,5.23496031761169434e-01,-1.02669134736061096e-01,2.54140347242355347e-01,-4.26591485738754272e-01,4.58311773836612701e-02,-3.64486455917358398e-01,-7.85573601722717285e-01,-2.98660248517990112e-01,1.32372879981994629e+00,3.73562306165695190e-01,8.73446643352508545e-01,-4.05334383249282837e-01],"default_left":[true,true,true,true,true,true,true,true,true,true,true,true,true,true,true,false,false,false,false,false,false,false,false,false,false,false,false,false,false,false,false],"id":19,"leaf_child_counts":[0,0,0,0,0,0,0,0,0,0,0,0,0,0,0,0,0,0,0,0,0,0,0,0,0,0,0,0,0,0,0],"left_children":[1,3,5,7,9,11,13,15,17,19,21,23,25,27,29,-1,-1,-1,-1,-1,-1,-1,-1,-1,-1,-1,-1,-1,-1,-1,-1],"loss_changes":[1.83448654174804688e+02,5.90430679321289062e+01,9.47870788574218750e+01,4.80768623352050781e+01,4.91514854431152344e+01,1.28359130859375000e+02,3.26541481018066406e+01,4.00035934448242188e+01,3.69896659851074219e+01,2.95788002014160156e+01,3.80677261352539062e+01,2.64159049987792969e+01,7.42402038574218750e+01,1.29078750610351562e+01,1.54378442764282227e+01,0.00000000000000000e+00,0.00000000000000000e+00,0.00000000000000000e+00,0.00000000000000000e+00,0.00000000000000000e+00,0.00000000000000000e+00,0.00000000000000000e+00,0.00000000000000000e+00,0.00000000000000000e+00,0.00000000000000000e+00,0.00000000000000000e+00,0.00000000000000000e+00,0.00000000000000000e+00,0.00000000000000000e+00,0.00000000000000000e+00,0.00000000000000000e+00],"parents":[2147483647,0,0,1,1,2,2,3,3,4,4,5,5,6,6,7,7,8,8,9,9,10,10,11,11,12,12,13,13,14,14],"right_children":[2,4,6,8,10,12,14,16,18,20,22,24,26,28,30,-1,-1,-1,-1,-1,-1,-1,-1,-1,-1,-1,-1,-1,-1,-1,-1],"split_conditions":[9.06754970550537109e-01,6.29298090934753418e-01,9.49999988079071045e-01,7.50000000000000000e-01,6.67729973793029785e-01,2.50000000000000000e-01,6.41278624534606934e-01,1.50000005960464478e-01,9.77630019187927246e-01,9.87025022506713867e-01,8.16354990005493164e-01,9.36664998531341553e-01,6.49999976158142090e-01,8.39235007762908936e-01,5.42350053787231445e-01,4.06884625554084778e-02,-1.42900012433528900e-02,5.39125762879848480e-02,-4.90984646603465080e-03,7.85244107246398926e-02,-1.54003705829381943e-02,3.81210520863533020e-02,-6.39887228608131409e-02,6.87467679381370544e-03,-5.46729713678359985e-02,-1.17836043238639832e-01,-4.47990372776985168e-02,1.98559328913688660e-01,5.60343489050865173e-02,1.31016999483108521e-01,-6.08001612126827240e-02],"split_indices":[3,2,5,5,3,5,2,5,4,0,1,1,5,0,4,0,0,0,0,0,0,0,0,0,0,0,0,0,0,0,0],"sum_hessian":[6.44231591796875000e+03,4.10060595703125000e+03,2.34171020507812500e+03,3.02723168945312500e+03,1.07337414550781250e+03,2.07913671875000000e+03,2.62573516845703125e+02,1.91615637207031250e+03,1.11107531738281250e+03,3.22982818603515625e+02,7.50391357421875000e+02,7.24959533691406250e+02,1.35417724609375000e+03,1.70561080932617188e+02,9.20124359130859375e+01,3.67049377441406250e+02,1.54910693359375000e+03,7.63782409667968750e+02,3.47292877197265625e+02,1.16580749511718750e+02,2.06402084350585938e+02,9.20351791381835938e+01,6.58356140136718750e+02,4.98419647216796875e+02,2.26539855957031250e+02,8.48117614746093750e+02,5.06059692382812500e+02,1.54896039962768555e+01,1.55071472167968750e+02,9.24893760681152344e+00,8.27634963989257812e+01],"tree_param":{"num_deleted":"0","num_feature":"6","num_nodes":"31","size_leaf_vector":"0"}},{"base_weights":[-1.11919537186622620e-01,-3.90445701777935028e-02,-4.53751236200332642e-01,2.42855206131935120e-01,-7.43810981512069702e-02,-1.32911890745162964e-01,-5.95811784267425537e-01,4.87191855907440186e-01,5.43058514595031738e-02,1.08382582664489746e-01,-1.41858190298080444e-01,5.15243224799633026e-02,-3.34872871637344360e-01,-8.36349368095397949e-01,-2.85601019859313965e-01,3.09287339448928833e-01,1.07895600795745850e+00,1.31769514083862305e+00,-8.39429534971714020e-03,-2.84176617860794067e-01,1.77020281553268433e-01,-2.52224475145339966e-01,6.77156448364257812e-03,-4.35021609067916870e-01,1.39378666877746582e-01,1.77549183368682861e-01,-5.18185019493103027e-01,1.23604394495487213e-01,-8.69835376739501953e-01,-1.97625860571861267e-01,-7.36174881458282471e-01],"default_left":[true,true,true,true,true,true,true,true,true,true,true,true,true,true,true,false,false,false,false,false,false,false,false,false,false,false,false,false,false,false,false],"id":20,"leaf_child_counts":[0,0,0,0,0,0,0,0,0,0,0,0,0,0,0,0,0,0,0,0,0,0,0,0,0,0,0,0,0,0,0],"left_children":[1,3,5,7,9,11,13,15,17,19,21,23,25,27,29,-1,-1,-1,-1,-1,-1,-1,-1,-1,-1,-1,-1,-1,-1,-1,-1],"loss_changes":[1.56951934814453125e+02,5.17852706909179688e+01,5.00258331298828125e+01,2.63461608886718750e+01,5.71049690246582031e+01,1.29264268875122070e+01,5.63229064941406250e+01,2.52765541076660156e+01,2.67359104156494141e+01,3.35963096618652344e+01,5.56071395874023438e+01,7.57432889938354492e+00,1.57855491638183594e+01,1.43327331542968750e+01,1.27296581268310547e+01,0.00000000000000000e+00,0.00000000000000000e+00,0.00000000000000000e+00,0.00000000000000000e+00,0.00000000000000000e+00,0.00000000000000000e+00,0.00000000000000000e+00,0.00000000000000000e+00,0.00000000000000000e+00,0.00000000000000000e+00,0.00000000000000000e+00,0.00000000000000000e+00,0.00000000000000000e+00,0.00000000000000000e+00,0.00000000000000000e+00,0.00000000000000000e+00],"parents":[2147483647,0,0,1,1,2,2,3,3,4,4,5,5,6,6,7,7,8,8,9,9,10,10,11,11,12,12,13,13,14,14],"right_children":[2,4,6,8,10,12,14,16,18,20,22,24,26,28,30,-1,-1,-1,-1,-1,-1,-1,-1,-1,-1,-1,-1,-1,-1,-1,-1],"split_conditions":[9.57054972648620605e-01,7.55190014839172363e-01,1.50000005960464478e-01,3.50000023841857910e-01,6.66630029678344727e-01,6.16501212120056152e-01,6.49999976158142090e-01,6.21421575546264648e-01,4.26225006580352783e-01,2.19400003552436829e-01,6.49999976158142090e-01,3.22550013661384583e-02,1.97964996099472046e-01,4.00200001895427704e-02,6.89991712570190430e-01,4.63931038975715637e-02,1.61843404173851013e-01,1.97654277086257935e-01,-1.25914439558982849e-03,-4.26264926791191101e-02,2.65530440956354141e-02,-3.78336720168590546e-02,1.01573474239557981e-03,-6.52532428503036499e-02,2.09068004041910172e-02,2.66323778778314590e-02,-7.77277573943138123e-02,1.85406599193811417e-02,-1.30475312471389771e-01,-2.96438802033662796e-02,-1.10426239669322968e-01],"split_indices":[3,1,5,5,4,2,5,2,1,3,5,0,0,0,2,0,0,0,0,0,0,0,0,0,0,0,0,0,0,0,0],"sum_hessian":[6.31004296875000000e+03,5.20355468750000000e+03,1.10648840332031250e+03,5.77223205566406250e+02,4.62633154296875000e+03,3.41395751953125000e+02,7.65092651367187500e+02,2.49399963378906250e+02,3.27823211669921875e+02,1.24528198242187500e+03,3.38104980468750000e+03,1.77632415771484375e+02,1.63763336181640625e+02,4.28838836669921875e+02,3.36253784179687500e+02,1.93865585327148438e+02,5.55343818664550781e+01,1.46941967010498047e+01,3.13128997802734375e+02,1.83660980224609375e+02,1.06162097167968750e+03,1.94170971679687500e+03,1.43934008789062500e+03,2.55428504943847656e+01,1.52089569091796875e+02,4.24400749206542969e+01,1.21323257446289062e+02,1.38382282257080078e+01,4.15000610351562500e+02,2.83757659912109375e+02,5.24961204528808594e+01],"tree_param":{"num_deleted":"0","num_feature":"6","num_nodes":"31","size_leaf_vector":"0"}},{"base_weights":[-9.72988978028297424e-02,-3.01428698003292084e-02,-3.99440199136734009e-01,3.31431031227111816e-02,-1.65153414011001587e-01,-1.75945535302162170e-02,-4.92459446191787720e-01,3.05997341871261597e-01,-1.37639781460165977e-02,-2.84855645149946213e-02,-2.72047221660614014e-01,5.58213070034980774e-02,-3.95544439554214478e-01,-6.00591063499450684e-01,-7.16214105486869812e-02,-3.22287857532501221e-01,4.20435667037963867e-01,1.19603410363197327e-01,-1.75547719001770020e-01,-7.26507246494293213e-01,4.17771600186824799e-02,-3.84061098098754883e-01,1.64871618151664734e-01,-4.60065230727195740e-02,5.40023088455200195e-01,-6.26362442970275879e-01,7.84057140350341797e-01,-2.59897440671920776e-01,-7.18705534934997559e-01,4.58415806293487549e-01,-2.66468673944473267e-01],"default_left":[true,true,true,true,true,true,true,true,true,true,true,true,true,true,true,false,false,false,false,false,false,false,false,false,false,false,false,false,false,false,false],"id":21,"leaf_child_counts":[0,0,0,0,0,0,0,0,0,0,0,0,0,0,0,0,0,0,0,0,0,0,0,0,0,0,0,0,0,0,0],"left_children":[1,3,5,7,9,11,13,15,17,19,21,23,25,27,29,-1,-1,-1,-1,-1,-1,-1,-1,-1,-1,-1,-1,-1,-1,-1,-1],"loss_changes":[1.25844291687011719e+02,4.35309829711914062e+01,3.98153076171875000e+01,4.44542617797851562e+01,2.35940704345703125e+01,6.39612340927124023e+00,4.08520202636718750e+01,3.68440513610839844e+01,6.37774963378906250e+01,3.55484771728515625e+01,4.47338714599609375e+01,9.50045967102050781e+00,1.07720117568969727e+01,2.82473449707031250e+01,1.94343776702880859e+01,0.00000000000000000e+00,0.00000000000000000e+00,0.00000000000000000e+00,0.00000000000000000e+00,0.00000000000000000e+00,0.00000000000000000e+00,0.00000000000000000e+00,0.00000000000000000e+00,0.00000000000000000e+00,0.00000000000000000e+00,0.00000000000000000e+00,0.00000000000000000e+00,0.00000000000000000e+00,0.00000000000000000e+00,0.00000000000000000e+00,0.00000000000000000e+00],"parents":[2147483647,0,0,1,1,2,2,3,3,4,4,5,5,6,6,7,7,8,8,9,9,10,10,11,11,12,12,13,13,14,14],"right_children":[2,4,6,8,10,12,14,16,18,20,22,24,26,28,30,-1,-1,-1,-1,-1,-1,-1,-1,-1,-1,-1,-1,-1,-1,-1,-1],"split_conditions":[9.53724980354309082e-01,9.55065011978149414e-01,7.62615025043487549e-01,1.50000005960464478e-01,8.07809948921203613e-01,2.50000000000000000e-01,8.50000023841857910e-01,3.13450023531913757e-02,9.57309961318969727e-01,6.53550028800964355e-02,9.49999988079071045e-01,7.02304959297180176e-01,8.50000023841857910e-01,1.50000005960464478e-01,9.51930046081542969e-01,-4.83431816101074219e-02,6.30653500556945801e-02,1.79405119270086288e-02,-2.63321585953235626e-02,-1.08976088464260101e-01,6.26657437533140182e-03,-5.76091669499874115e-02,2.47307438403367996e-02,-6.90097874030470848e-03,8.10034647583961487e-02,-9.39543694257736206e-02,1.17608577013015747e-01,-3.89846190810203552e-02,-1.07805833220481873e-01,6.87623769044876099e-02,-3.99703010916709900e-02],"split_indices":[3,1,0,5,3,5,5,0,4,0,5,0,5,5,0,0,0,0,0,0,0,0,0,0,0,0,0,0,0,0,0],"sum_hessian":[6.21217285156250000e+03,5.08497949218750000e+03,1.12719335937500000e+03,3.46023803710937500e+03,1.62474133300781250e+03,2.22145217895507812e+02,9.05048156738281250e+02,5.08147125244140625e+02,2.95209082031250000e+03,7.15810607910156250e+02,9.08930664062500000e+02,1.85797042846679688e+02,3.63481750488281250e+01,7.18668884277343750e+02,1.86379302978515625e+02,7.72719497680664062e+01,4.30875183105468750e+02,1.61663964843750000e+03,1.33545117187500000e+03,6.50468673706054688e+01,6.50763732910156250e+02,7.24487731933593750e+02,1.84442947387695312e+02,1.53594635009765625e+02,3.22024078369140625e+01,3.12445430755615234e+01,5.10363340377807617e+00,1.87132095336914062e+02,5.31536804199218750e+02,4.89540557861328125e+01,1.37425247192382812e+02],"tree_param":{"num_deleted":"0","num_feature":"6","num_nodes":"31","size_leaf_vector":"0"}},{"base_weights":[-8.47243815660476685e-02,-2.84787882119417191e-02,-3.74683350324630737e-01,3.88400971889495850e-01,-4.58441227674484253e-02,-1.28819793462753296e-01,-5.30124604701995850e-01,-2.22553443163633347e-02,5.34771144390106201e-01,-1.14905998110771179e-01,7.46247172355651855e-02,-1.11749221105128527e-03,-4.77204829454421997e-01,-8.64458501338958740e-01,-2.09467992186546326e-01,4.37837451696395874e-01,-7.70632624626159668e-01,8.40453445911407471e-01,1.99354678392410278e-01,1.98768526315689087e-01,-1.84383392333984375e-01,-7.53762483596801758e-01,1.23184055089950562e-01,1.50841742753982544e-01,-3.30573558807373047e-01,3.26560527086257935e-01,-7.02892065048217773e-01,3.80543857812881470e-01,-9.01088178157806396e-01,-1.24334953725337982e-01,-6.76844954490661621e-01],"default_left":[true,true,true,true,true,true,true,true,true,true,true,true,true,true,true,false,false,false,false,false,false,false,false,false,false,false,false,false,false,false,false],"id":22,"leaf_child_counts":[0,0,0,0,0,0,0,0,0,0,0,0,0,0,0,0,0,0,0,0,0,0,0,0,0,0,0,0,0,0,0],"left_children":[1,3,5,7,9,11,13,15,17,19,21,23,25,27,29,-1,-1,-1,-1,-1,-1,-1,-1,-1,-1,-1,-1,-1,-1,-1,-1],"loss_changes":[9.95587158203125000e+01,3.69639282226562500e+01,3.75105895996093750e+01,1.25326976776123047e+01,4.09965896606445312e+01,1.69900131225585938e+01,6.42394866943359375e+01,1.91491432189941406e+01,1.47873802185058594e+01,6.83132934570312500e+01,7.18977661132812500e+01,1.44554815292358398e+01,1.91279773712158203e+01,1.41727905273437500e+01,1.19048881530761719e+01,0.00000000000000000e+00,0.00000000000000000e+00,0.00000000000000000e+00,0.00000000000000000e+00,0.00000000000000000e+00,0.00000000000000000e+00,0.00000000000000000e+00,0.00000000000000000e+00,0.00000000000000000e+00,0.00000000000000000e+00,0.00000000000000000e+00,0.00000000000000000e+00,0.00000000000000000e+00,0.00000000000000000e+00,0.00000000000000000e+00,0.00000000000000000e+00],"parents":[2147483647,0,0,1,1,2,2,3,3,4,4,5,5,6,6,7,7,8,8,9,9,10,10,11,11,12,12,13,13,14,14],"right_children":[2,4,6,8,10,12,14,16,18,20,22,24,26,28,30,-1,-1,-1,-1,-1,-1,-1,-1,-1,-1,-1,-1,-1,-1,-1,-1],"split_conditions":[9.57054972648620605e-01,6.45264983177185059e-01,2.50000000000000000e-01,5.04984974861145020e-01,7.50000000000000000e-01,6.43868327140808105e-01,6.49999976158142090e-01,2.84800007939338684e-02,8.47200036048889160e-01,7.77525007724761963e-01,7.50900059938430786e-02,9.19875025749206543e-01,1.97964996099472046e-01,3.71299982070922852e-02,6.89991712570190430e-01,6.56756237149238586e-02,-1.15594901144504547e-01,1.26068025827407837e-01,2.99032032489776611e-02,2.98152808099985123e-02,-2.76575107127428055e-02,-1.13064378499984741e-01,1.84776093810796738e-02,2.26262621581554413e-02,-4.95860353112220764e-02,4.89840805530548096e-02,-1.05433814227581024e-01,5.70815801620483398e-02,-1.35163232684135437e-01,-1.86502430588006973e-02,-1.01526744663715363e-01],"split_indices":[3,1,5,4,5,2,5,4,3,0,0,1,0,4,2,0,0,0,0,0,0,0,0,0,0,0,0,0,0,0,0],"sum_hessian":[6.11648583984375000e+03,5.12537451171875000e+03,9.91111633300781250e+02,2.02742767333984375e+02,4.92263134765625000e+03,3.86028228759765625e+02,6.05083374023437500e+02,5.26557273864746094e+01,1.50087051391601562e+02,3.13158032226562500e+03,1.79105126953125000e+03,2.84450622558593750e+02,1.01577613830566406e+02,2.94423004150390625e+02,3.10660400390625000e+02,3.25159263610839844e+01,2.01398010253906250e+01,7.67594146728515625e+01,7.33276290893554688e+01,5.66126464843750000e+02,2.56545385742187500e+03,9.76008987426757812e+01,1.69345031738281250e+03,1.94088653564453125e+02,9.03619613647460938e+01,2.16607170104980469e+01,7.99168930053710938e+01,7.68920040130615234e+00,2.86733795166015625e+02,2.65036224365234375e+02,4.56241950988769531e+01],"tree_param":{"num_deleted":"0","num_feature":"6","num_nodes":"31","size_leaf_vector":"0"}},{"base_weights":[-7.36137405037879944e-02,1.64813045412302017e-02,-2.32685133814811707e-01,7.45414495468139648e-02,-1.93653762340545654e-01,7.43296146392822266e-01,-2.67965435981750488e-01,1.24967992305755615e-01,-7.27255269885063171e-02,3.40122282505035400e-01,-2.85681724548339844e-01,3.02652239799499512e+00,3.61040860414505005e-01,-2.94842608273029327e-02,-3.93678396940231323e-01,3.77310782670974731e-01,9.02411416172981262e-02,5.29859997332096100e-02,-1.98044866323471069e-01,8.26821506023406982e-01,-7.34346866607666016e-01,1.61762163043022156e-01,-3.62002342939376831e-01,-7.69127190113067627e-01,6.14169776439666748e-01,3.94830480217933655e-02,-4.40731227397918701e-01,-7.59437561035156250e-01,-7.18662962317466736e-02],"default_left":[true,true,true,true,true,true,true,true,true,true,true,false,true,true,true,false,false,false,false,false,false,false,false,false,false,false,false,false,false],"id":23,"leaf_child_counts":[0,0,0,0,0,0,0,0,0,0,0,0,0,0,0,0,0,0,0,0,0,0,0,0,0,0,0,0,0],"left_children":[1,3,5,7,9,11,13,15,17,19,21,-1,23,25,27,-1,-1,-1,-1,-1,-1,-1,-1,-1,-1,-1,-1,-1,-1],"loss_changes":[8.66438446044921875e+01,4.69763717651367188e+01,7.52565155029296875e+01,2.24812812805175781e+01,4.10016517639160156e+01,6.33369102478027344e+01,6.30454254150390625e+01,1.94786682128906250e+01,1.22030887603759766e+01,6.47269592285156250e+01,2.44800949096679688e+01,0.00000000000000000e+00,1.96150608062744141e+01,2.09613971710205078e+01,1.62007156372070312e+02,0.00000000000000000e+00,0.00000000000000000e+00,0.00000000000000000e+00,0.00000000000000000e+00,0.00000000000000000e+00,0.00000000000000000e+00,0.00000000000000000e+00,0.00000000000000000e+00,0.00000000000000000e+00,0.00000000000000000e+00,0.00000000000000000e+00,0.00000000000000000e+00,0.00000000000000000e+00,0.00000000000000000e+00],"parents":[2147483647,0,0,1,1,2,2,3,3,4,4,5,5,6,6,7,7,8,8,9,9,10,10,12,12,13,13,14,14],"right_children":[2,4,6,8,10,12,14,16,18,20,22,-1,24,26,28,-1,-1,-1,-1,-1,-1,-1,-1,-1,-1,-1,-1,-1,-1],"split_conditions":[8.98654997348785400e-01,6.36341512203216553e-01,3.37485015392303467e-01,9.62135016918182373e-01,7.94515013694763184e-01,3.50000023841857910e-01,2.50000000000000000e-01,1.50000005960464478e-01,9.63945031166076660e-01,9.49999988079071045e-01,8.10320019721984863e-01,4.53978389501571655e-01,4.49999988079071045e-01,9.98215019702911377e-01,6.49999976158142090e-01,5.65966181457042694e-02,1.35361719876527786e-02,7.94790033251047134e-03,-2.97067314386367798e-02,1.24023228883743286e-01,-1.10152035951614380e-01,2.42643263190984726e-02,-5.43003529310226440e-02,-1.15369081497192383e-01,9.21254679560661316e-02,5.92245766893029213e-03,-6.61096870899200439e-02,-1.13915637135505676e-01,-1.07799451798200607e-02],"split_indices":[3,2,4,1,0,5,5,5,4,5,1,0,5,0,5,0,0,0,0,0,0,0,0,0,0,0,0,0,0],"sum_hessian":[6.03654638671875000e+03,3.85252587890625000e+03,2.18402075195312500e+03,3.02100952148437500e+03,8.31516357421875000e+02,7.48252105712890625e+01,2.10919555664062500e+03,2.25309765625000000e+03,7.67911865234375000e+02,1.20984596252441406e+02,7.10531799316406250e+02,9.30300807952880859e+00,6.55222015380859375e+01,7.29960205078125000e+02,1.37923535156250000e+03,2.69324035644531250e+02,1.98377355957031250e+03,3.81724456787109375e+02,3.86187377929687500e+02,8.37858200073242188e+01,3.71987724304199219e+01,1.02376960754394531e+02,6.08154846191406250e+02,1.11621475219726562e+01,5.43600540161132812e+01,6.25051391601562500e+02,1.04908760070800781e+02,6.44016967773437500e+02,7.35218383789062500e+02],"tree_param":{"num_deleted":"0","num_feature":"6","num_nodes":"29","size_leaf_vector":"0"}},{"base_weights":[-6.41399547457695007e-02,-2.57147867232561111e-02,-3.66167396306991577e-01,6.38379827141761780e-02,-9.97485667467117310e-02,-1.01184457540512085e-01,-5.35260140895843506e-01,-4.05969917774200439e-01,1.09998151659965515e-01,1.23435623943805695e-01,-1.66691973805427551e-01,3.45033079385757446e-01,-1.74743115901947021e-01,-7.58909046649932861e-01,-1.20362699031829834e-01,4.41805541515350342e-01,-8.21208953857421875e-01,2.66286998987197876e-01,-5.55042829364538193e-03,2.93440997600555420e-01,-1.09843611717224121e-01,-3.21543902158737183e-01,1.11180236563086510e-02,5.76408028602600098e-01,-3.01006853580474854e-01,-4.64549884200096130e-02,-4.65614408254623413e-01,4.81663607060909271e-02,-7.94986903667449951e-01,3.29001963138580322e-01,-3.35021138191223145e-01],"default_left":[true,true,true,true,true,true,true,true,true,true,true,true,true,true,true,false,false,false,false,false,false,false,false,false,false,false,false,false,false,false,false],"id":24,"leaf_child_counts":[0,0,0,0,0,0,0,0,0,0,0,0,0,0,0,0,0,0,0,0,0,0,0,0,0,0,0,0,0,0,0],"left_children":[1,3,5,7,9,11,13,15,17,19,21,23,25,27,29,-1,-1,-1,-1,-1,-1,-1,-1,-1,-1,-1,-1,-1,-1,-1,-1],"loss_changes":[6.88521575927734375e+01,3.50440979003906250e+01,2.96370544433593750e+01,5.16968460083007812e+01,4.33006591796875000e+01,8.64605426788330078e+00,3.72674255371093750e+01,7.56055374145507812e+01,3.94355926513671875e+01,2.65836696624755859e+01,6.15408172607421875e+01,5.85215806961059570e+00,8.23163414001464844e+00,8.10296630859375000e+00,1.41301097869873047e+01,0.00000000000000000e+00,0.00000000000000000e+00,0.00000000000000000e+00,0.00000000000000000e+00,0.00000000000000000e+00,0.00000000000000000e+00,0.00000000000000000e+00,0.00000000000000000e+00,0.00000000000000000e+00,0.00000000000000000e+00,0.00000000000000000e+00,0.00000000000000000e+00,0.00000000000000000e+00,0.00000000000000000e+00,0.00000000000000000e+00,0.00000000000000000e+00],"parents":[2147483647,0,0,1,1,2,2,3,3,4,4,5,5,6,6,7,7,8,8,9,9,10,10,11,11,12,12,13,13,14,14],"right_children":[2,4,6,8,10,12,14,16,18,20,22,24,26,28,30,-1,-1,-1,-1,-1,-1,-1,-1,-1,-1,-1,-1,-1,-1,-1,-1],"split_conditions":[9.67395007610321045e-01,8.01795005798339844e-01,1.50000005960464478e-01,9.89599972963333130e-02,8.48484992980957031e-01,7.10649967193603516e-01,7.50000000000000000e-01,6.49999976158142090e-01,9.96235013008117676e-01,2.50000000000000000e-01,6.49999976158142090e-01,9.96554970741271973e-01,9.06430006027221680e-01,5.01989960670471191e-01,9.62604999542236328e-01,6.62708356976509094e-02,-1.23181350529193878e-01,3.99430505931377411e-02,-8.32564255688339472e-04,4.40161526203155518e-02,-1.64765417575836182e-02,-4.82315868139266968e-02,1.66770361829549074e-03,8.64612087607383728e-02,-4.51510287821292877e-02,-6.96824863553047180e-03,-6.98421671986579895e-02,7.22495419904589653e-03,-1.19248040020465851e-01,4.93502952158451080e-02,-5.02531714737415314e-02],"split_indices":[3,3,5,0,0,1,5,5,0,5,5,0,0,0,0,0,0,0,0,0,0,0,0,0,0,0,0,0,0,0,0],"sum_hessian":[5.94938867187500000e+03,5.28058300781250000e+03,6.68805480957031250e+02,2.38683593750000000e+03,2.89374707031250000e+03,2.62461181640625000e+02,4.06344329833984375e+02,2.11693298339843750e+02,2.17514257812500000e+03,6.65730102539062500e+02,2.22801684570312500e+03,3.55286483764648438e+01,2.26932525634765625e+02,2.62567016601562500e+02,1.43777297973632812e+02,6.91758575439453125e+01,1.42517440795898438e+02,9.25723205566406250e+02,1.24941943359375000e+03,3.86143676757812500e+02,2.79586425781250000e+02,1.19185266113281250e+03,1.03616430664062500e+03,2.68287754058837891e+01,8.69987487792968750e+00,1.59676284790039062e+02,6.72562484741210938e+01,1.06240949630737305e+01,2.51942932128906250e+02,4.55105895996093750e+01,9.82667083740234375e+01],"tree_param":{"num_deleted":"0","num_feature":"6","num_nodes":"31","size_leaf_vector":"0"}},{"base_weights":[-5.58594726026058197e-02,3.18730482831597328e-03,-2.18104571104049683e-01,3.94813157618045807e-02,-1.82659164071083069e-01,-2.98831492662429810e-01,8.26713070273399353e-02,-1.12854093313217163e-02,2.05459401011466980e-01,4.67077165842056274e-01,-2.87724226713180542e-01,-5.92058748006820679e-02,-4.98065382242202759e-01,1.53895452618598938e-01,-6.33476972579956055e-01,2.53675580024719238e-01,-8.27532932162284851e-02,-4.83362644910812378e-01,3.84496510028839111e-01,8.33669066429138184e-01,-6.86282098293304443e-01,3.02621513605117798e-01,-3.76625418663024902e-01,8.21715891361236572e-02,-1.95961982011795044e-01,7.11450099945068359e-01,-5.47159850597381592e-01,4.51276719570159912e-01,7.95853976160287857e-03,-6.84646070003509521e-01,-1.52334630489349365e-01],"default_left":[true,true,true,true,true,true,true,true,true,true,true,true,true,true,true,false,false,false,false,false,false,false,false,false,false,false,false,false,false,true,true],"id":25,"leaf_child_counts":[0,0,0,0,0,0,0,0,0,0,0,0,0,0,0,0,0,0,0,0,0,0,0,0,0,0,0,0,0,0,0],"left_children":[1,3,5,7,9,11,13,15,17,19,21,23,25,27,-1,-1,-1,-1,-1,-1,-1,-1,-1,-1,-1,-1,-1,-1,-1,-1,-1],"loss_changes":[5.63323440551757812e+01,2.89539756774902344e+01,3.82172393798828125e+01,3.04534664154052734e+01,4.79197082519531250e+01,5.87879638671875000e+01,1.67916507720947266e+01,5.21559600830078125e+01,1.04529479980468750e+02,4.19562149047851562e+01,3.19160003662109375e+01,1.09927644729614258e+01,4.04659423828125000e+01,1.29230117797851562e+01,1.79819107055664062e-01,0.00000000000000000e+00,0.00000000000000000e+00,0.00000000000000000e+00,0.00000000000000000e+00,0.00000000000000000e+00,0.00000000000000000e+00,0.00000000000000000e+00,0.00000000000000000e+00,0.00000000000000000e+00,0.00000000000000000e+00,0.00000000000000000e+00,0.00000000000000000e+00,0.00000000000000000e+00,0.00000000000000000e+00,0.00000000000000000e+00,0.00000000000000000e+00],"parents":[2147483647,0,0,1,1,2,2,3,3,4,4,5,5,6,6,7,7,8,8,9,9,10,10,11,11,12,12,13,13,14,14],"right_children":[2,4,6,8,10,12,14,16,18,20,22,24,26,28,-1,-1,-1,-1,-1,-1,-1,-1,-1,-1,-1,-1,-1,-1,-1,-1,-1],"split_conditions":[9.25154983997344971e-01,6.46000027656555176e-01,8.50000023841857910e-01,9.49999988079071045e-01,7.90459990501403809e-01,2.50000000000000000e-01,6.94163620471954346e-01,7.49900043010711670e-02,7.80999958515167236e-02,9.49999988079071045e-01,8.11485052108764648e-01,7.77260005474090576e-01,5.51999993622303009e-02,9.52540040016174316e-01,-9.50215533375740051e-02,3.80513370037078857e-02,-1.24129941686987877e-02,-7.25044012069702148e-02,5.76744787395000458e-02,1.25050365924835205e-01,-1.02942317724227905e-01,4.53932285308837891e-02,-5.64938150346279144e-02,1.23257385566830635e-02,-2.93942987918853760e-02,1.06717519462108612e-01,-8.20739790797233582e-02,6.76915124058723450e-02,1.19378103408962488e-03,-1.02696917951107025e-01,-2.28501949459314346e-02],"split_indices":[3,2,5,5,0,5,2,4,4,5,1,0,4,0,3,0,0,0,0,0,0,0,0,0,0,0,0,0,0,2147483647,2147483647],"sum_hessian":[5.86761474609375000e+03,4.30061230468750000e+03,1.56700256347656250e+03,3.60103906250000000e+03,6.99573120117187500e+02,1.23673803710937500e+03,3.30264556884765625e+02,2.75617651367187500e+03,8.44862670898437500e+02,9.61155776977539062e+01,6.03457519531250000e+02,5.63330993652343750e+02,6.73406982421875000e+02,3.01917114257812500e+02,2.83474445343017578e+01,5.83333801269531250e+02,2.17284277343750000e+03,1.73278533935546875e+02,6.71584106445312500e+02,7.35256576538085938e+01,2.25899238586425781e+01,7.78523178100585938e+01,5.25605224609375000e+02,2.75433074951171875e+02,2.87897918701171875e+02,2.52124328613281250e+01,6.48194519042968750e+02,9.73999633789062500e+01,2.04517135620117188e+02,2.42053337097167969e+01,4.14211177825927734e+00],"tree_param":{"num_deleted":"2","num_feature":"6","num_nodes":"31","size_leaf_vector":"0"}},{"base_weights":[-4.84392680227756500e-02,-1.89366284757852554e-02,-3.23038160800933838e-01,2.79275059700012207e-01,-3.72540391981601715e-02,-7.58971124887466431e-02,-5.04587411880493164e-01,-2.33800604939460754e-01,7.03670918941497803e-01,1.19742482900619507e-01,-8.87920707464218140e-02,3.24564158916473389e-01,