{"learner":{"attributes":{},"gradient_booster":{"model":{"gbtree_model_param":{"num_trees":"40","size_leaf_vector":"0"},"tree_info":[0,0,0,0,0,0,0,0,0,0,0,0,0,0,0,0,0,0,0,0,0,0,0,0,0,0,0,0,0,0,0,0,0,0,0,0,0,0,0,0],"trees":[{"base_weights":[-1.7801889E0,-7.041339E-1,-1.880309E0,1.216459E0,-9.470457E-1,-6.2644273E-1,-1.9063611E0,1.7338778E0,7.3204505E-1,4.9548942E-1,-1.042602E0,-1.8911179E0,-8.3682954E-2,-4.8247176E-1,-1.9145187E0],"default_left":[true,true,true,true,true,true,true,false,false,false,false,false,false,false,false],"id":0,"leaf_child_counts":[0,0,0,0,0,0,0,0,0,0,0,0,0,0,0],"left_children":[1,3,5,7,9,11,13,-1,-1,-1,-1,-1,-1,-1,-1],"loss_changes":[4.73925E3,1.7493628E3,1.3137969E3,1.0429358E2,4.591289E2,5.633075E2,4.5715625E2,0E0,0E0,0E0,0E0,0E0,0E0,0E0,0E0],"parents":[2147483647,0,0,1,1,2,2,3,3,4,4,5,5,6,6],"right_children":[2,4,6,8,10,12,14,-1,-1,-1,-1,-1,-1,-1,-1],"split_conditions":[8.4529E-1,2.5331998E-1,5.4833996E-1,7.7792E-1,4.166667E-1,2.5E-1,2.5E-1,5.2016336E-1,2.1961352E-1,1.4864683E-1,-3.127806E-1,-5.673354E-1,-2.5104888E-2,-1.4474154E-1,-5.7435566E-1],"split_indices":[3,11,0,0,12,12,12,0,0,0,0,0,0,0,0],"sum_hessian":[4.4001297E4,3.7462256E3,4.025507E4,4.2016495E2,3.3260608E3,8.1988214E2,3.943519E4,2.0191425E2,2.182507E2,2.063764E2,3.1196843E3,2.4545872E2,5.7442346E2,2.2498444E2,3.9210207E4],"tree_param":{"num_deleted":"0","num_feature":"14","num_nodes":"15","size_leaf_vector":"0"}},{"base_weights":[-1.3579837E0,-5.6997764E-1,-1.452653E0,9.248221E-1,-7.2941154E-1,-5.5772096E-1,-1.4751534E0,1.4165944E0,5.9852165E-1,1.8560456E-1,-8.610382E-1,1.1083823E0,-8.0279756E-1,-1.4881405E0,-8.014424E-1],"default_left":[true,true,true,true,true,true,true,false,false,false,false,false,false,false,false],"id":1,"leaf_child_counts":[0,0,0,0,0,0,0,0,0,0,0,0,0,0,0],"left_children":[1,3,5,7,9,11,13,-1,-1,-1,-1,-1,-1,-1,-1],"loss_changes":[3.0448281E3,1.0446205E3,7.3309375E2,6.696832E1,4.7695776E2,3.665378E2,3.098672E2,0E0,0E0,0E0,0E0,0E0,0E0,0E0,0E0],"parents":[2147483647,0,0,1,1,2,2,3,3,4,4,5,5,6,6],"right_children":[2,4,6,8,10,12,14,-1,-1,-1,-1,-1,-1,-1,-1],"split_conditions":[8.68645E-1,1.9764501E-1,6.6648495E-1,2.3598501E-1,2.517E-2,8.1067E-1,9.5E-1,4.2497835E-1,1.795565E-1,5.568137E-2,-2.5831148E-1,3.325147E-1,-2.4083927E-1,-4.4644216E-1,-2.4043272E-1],"split_indices":[3,11,0,4,4,6,5,0,0,0,0,0,0,0,0],"sum_hessian":[4.0825527E4,4.3794053E3,3.644612E4,4.2162146E2,3.957784E3,8.944872E2,3.5551637E4,1.6683722E2,2.5478423E2,4.9768262E2,3.4601013E3,1.1425118E2,7.8023596E2,3.4878086E4,6.735483E2],"tree_param":{"num_deleted":"0","num_feature":"14","num_nodes":"15","size_leaf_vector":"0"}},{"base_weights":[-1.1380413E0,-4.5048785E-1,-1.23888E0,1.3760477E0,-5.4653263E-1,-5.340999E-1,-1.2658783E0,1.4811225E0,1.7551102E-1,-3.558565E-2,-7.085445E-1,-1.2086383E-1,-1.3273888E0,1.2964395E-1,-1.2746735E0],"default_left":[true,true,true,true,true,true,true,false,false,false,false,false,false,false,false],"id":2,"leaf_child_counts":[0,0,0,0,0,0,0,0,0,0,0,0,0,0,0],"left_children":[1,3,5,7,9,11,13,-1,-1,-1,-1,-1,-1,-1,-1],"loss_changes":[2.4347422E3,7.8917163E2,5.821836E2,2.8097595E1,3.5347913E2,3.7088303E2,3.622539E2,0E0,0E0,0E0,0E0,0E0,0E0,0E0,0E0],"parents":[2147483647,0,0,1,1,2,2,3,3,4,4,5,5,6,6],"right_children":[2,4,6,8,10,12,14,-1,-1,-1,-1,-1,-1,-1,-1],"split_conditions":[8.77715E-1,1.04595E-1,7.3621E-1,8.627E-1,6.7497504E-1,1.5E-1,2.5E-1,4.4433677E-1,5.265331E-2,-1.0675695E-2,-2.1256335E-1,-3.6259152E-2,-3.9821663E-1,3.8893186E-2,-3.8240206E-1],"split_indices":[3,0,0,3,4,5,12,0,0,0,0,0,0,0,0],"sum_hessian":[3.5124164E4,4.4932334E3,3.0630932E4,2.23799E2,4.2694346E3,1.1308666E3,2.9500066E4,2.0557288E2,1.822612E1,1.0281411E3,3.2412932E3,7.443012E2,3.865653E2,1.8467023E2,2.9315396E4],"tree_param":{"num_deleted":"0","num_feature":"14","num_nodes":"15","size_leaf_vector":"0"}},{"base_weights":[-9.8926693E-1,-3.489291E-1,-1.1025921E0,5.977142E-1,-4.6646807E-1,-4.2553848E-1,-1.1336298E0,1.1109469E0,3.4144673E-1,1.169841E0,-4.9959454E-1,-8.2293205E-2,-1.1546589E0,9.7500056E-2,-1.1431944E0],"default_left":[true,true,true,true,true,true,true,false,false,false,false,false,false,false,false],"id":3,"leaf_child_counts":[0,0,0,0,0,0,0,0,0,0,0,0,0,0,0],"left_children":[1,3,5,7,9,11,13,-1,-1,-1,-1,-1,-1,-1,-1],"loss_changes":[2.1303184E3,4.916939E2,5.2374805E2,6.3836777E1,2.135716E2,2.7396777E2,2.8098438E2,0E0,0E0,0E0,0E0,0E0,0E0,0E0,0E0],"parents":[2147483647,0,0,1,1,2,2,3,3,4,4,5,5,6,6],"right_children":[2,4,6,8,10,12,14,-1,-1,-1,-1,-1,-1,-1,-1],"split_conditions":[8.82425E-1,3.5975498E-1,7.4362504E-1,2.3598501E-1,1.04595E-1,1.5E-1,2.5E-1,3.3328408E-1,1.02434024E-1,3.5095233E-1,-1.4987837E-1,-2.4687963E-2,-3.463977E-1,2.9250018E-2,-3.4295833E-1],"split_indices":[3,11,0,4,0,5,12,0,0,0,0,0,0,0,0],"sum_hessian":[2.9361115E4,4.415522E3,2.4945594E4,4.872433E2,3.9282788E3,1.094081E3,2.3851514E4,1.6115645E2,3.2608685E2,7.726762E1,3.8510112E3,7.4464166E2,3.4943933E2,1.8380386E2,2.3667709E4],"tree_param":{"num_deleted":"0","num_feature":"14","num_nodes":"15","size_leaf_vector":"0"}},{"base_weights":[-8.7184906E-1,-2.9050133E-1,-1.0070288E0,6.566889E-1,-3.6180454E-1,-5.424525E-1,-1.0637822E0,1.166068E0,3.8185155E-1,2.4539246E-1,-4.5845756E-1,-1.463224E-1,-1.1973693E0,-1.0840645E0,-1.3085769E-1],"default_left":[true,true,true,true,true,true,true,false,false,false,false,false,false,false,false],"id":4,"leaf_child_counts":[0,0,0,0,0,0,0,0,0,0,0,0,0,0,0],"left_children":[1,3,5,7,9,11,13,-1,-1,-1,-1,-1,-1,-1,-1],"loss_changes":[1.9090469E3,3.0990405E2,5.191543E2,4.454265E1,2.5039905E2,5.5706934E2,3.322207E2,0E0,0E0,0E0,0E0,0E0,0E0,0E0,0E0],"parents":[2147483647,0,0,1,1,2,2,3,3,4,4,5,5,6,6],"right_children":[2,4,6,8,10,12,14,-1,-1,-1,-1,-1,-1,-1,-1],"split_conditions":[8.93785E-1,1.05E-3,5.833334E-1,1.5E-1,3.004E-2,1.5E-1,9.5E-1,3.498204E-1,1.1455547E-1,7.361774E-2,-1.3753727E-1,-4.389672E-2,-3.5921082E-1,-3.2521936E-1,-3.925731E-2],"split_indices":[3,11,12,5,4,5,5,0,0,0,0,0,0,0,0],"sum_hessian":[2.429505E4,4.584089E3,1.9710963E4,3.2035056E2,4.2637383E3,2.1469382E3,1.7564023E4,1.1113394E2,2.092166E2,5.852873E2,3.678451E3,1.338539E3,8.083994E2,1.7190139E4,3.738854E2],"tree_param":{"num_deleted":"0","num_feature":"14","num_nodes":"15","size_leaf_vector":"0"}},{"base_weights":[-7.675158E-1,-2.5098118E-1,-9.298711E-1,8.032656E-2,-4.4306663E-1,-4.5394737E-1,-9.9659723E-1,5.273383E-1,-1.0216374E-1,-5.6957275E-1,3.4026697E-1,-1.2647054E-1,-1.1339641E0,6.583259E-1,-1.0076308E0],"default_left":[true,true,true,true,true,true,true,false,false,false,false,false,false,false,false],"id":5,"leaf_child_counts":[0,0,0,0,0,0,0,0,0,0,0,0,0,0,0],"left_children":[1,3,5,7,9,11,13,-1,-1,-1,-1,-1,-1,-1,-1],"loss_changes":[1.6916904E3,3.0717212E2,4.8700586E2,1.4461052E2,3.029472E2,4.2058627E2,2.4646875E2,0E0,0E0,0E0,0E0,0E0,0E0,0E0,0E0],"parents":[2147483647,0,0,1,1,2,2,3,3,4,4,5,5,6,6],"right_children":[2,4,6,8,10,12,14,-1,-1,-1,-1,-1,-1,-1,-1],"split_conditions":[9.06305E-1,7.57075E-1,5.833334E-1,4.5E-1,9.5E-1,1.5E-1,1.18265E-1,1.582015E-1,-3.0649124E-2,-1.7087182E-1,1.020801E-1,-3.794116E-2,-3.4018922E-1,1.9749779E-1,-3.0228925E-1],"split_indices":[3,3,12,5,5,5,0,0,0,0,0,0,0,0,0],"sum_hessian":[2.0174068E4,4.8252017E3,1.5348867E4,1.7710638E3,3.0541377E3,1.8883093E3,1.3460558E4,5.12877E2,1.2581869E3,2.6297188E3,4.2441904E2,1.2753315E3,6.129777E2,8.876094E1,1.3371797E4],"tree_param":{"num_deleted":"0","num_feature":"14","num_nodes":"15","size_leaf_vector":"0"}},{"base_weights":[-6.693704E-1,-1.9667368E-1,-8.5246915E-1,2.048889E-1,-3.1600776E-1,-5.247976E-1,-9.793116E-1,8.1254065E-1,-1.459546E-1,1.1159351E0,-3.623603E-1,-9.7936206E-2,-7.687454E-1,-1.0259925E0,-1.22665025E-1],"default_left":[true,true,true,true,true,true,true,false,false,false,false,false,false,false,false],"id":6,"leaf_child_counts":[0,0,0,0,0,0,0,0,0,0,0,0,0,0,0],"left_children":[1,3,5,7,9,11,13,-1,-1,-1,-1,-1,-1,-1,-1],"loss_changes":[1.4654531E3,2.2668974E2,5.0678125E2,2.3122621E2,2.4241681E2,3.5484674E2,3.517041E2,0E0,0E0,0E0,0E0,0E0,0E0,0E0,0E0],"parents":[2147483647,0,0,1,1,2,2,3,3,4,4,5,5,6,6],"right_children":[2,4,6,8,10,12,14,-1,-1,-1,-1,-1,-1,-1,-1],"split_conditions":[9.09225E-1,7.5E-1,1.5E-1,8.8757E-1,1.04344994E-1,5.833334E-1,8.5E-1,2.4376221E-1,-4.378638E-2,3.3478054E-1,-1.0870809E-1,-2.9380864E-2,-2.3062363E-1,-3.0779776E-1,-3.679951E-2],"split_indices":[3,12,5,1,0,12,5,0,0,0,0,0,0,0,0],"sum_hessian":[1.6932771E4,4.7282256E3,1.2204547E4,1.083042E3,3.6451836E3,3.4073887E3,8.797158E3,3.9595032E2,6.870916E2,1.1357263E2,3.5316108E3,1.2396475E3,2.1677415E3,8.342363E3,4.5479504E2],"tree_param":{"num_deleted":"0","num_feature":"14","num_nodes":"15","size_leaf_vector":"0"}},{"base_weights":[-5.7577896E-1,-1.7603935E-1,-7.8973806E-1,2.2061655E-1,-2.8321445E-1,-4.5446116E-1,-9.3853E-1,7.4062425E-1,-3.6257565E-1,-4.414328E-1,6.8331957E-1,3.082771E-1,-5.925107E-1,-9.920669E-1,-1.3493589E-1],"default_left":[true,true,true,true,true,true,true,false,false,false,false,false,false,false,false],"id":7,"leaf_child_counts":[0,0,0,0,0,0,0,0,0,0,0,0,0,0,0],"left_children":[1,3,5,7,9,11,13,-1,-1,-1,-1,-1,-1,-1,-1],"loss_changes":[1.2322065E3,2.136713E2,4.677578E2,3.2458588E2,6.0531165E2,3.041366E2,2.79479E2,0E0,0E0,0E0,0E0,0E0,0E0,0E0,0E0],"parents":[2147483647,0,0,1,1,2,2,3,3,4,4,5,5,6,6],"right_children":[2,4,6,8,10,12,14,-1,-1,-1,-1,-1,-1,-1,-1],"split_conditions":[9.21795E-1,7.07505E-1,1.5E-1,9.5E-1,9.5E-1,8.4851503E-1,8.5E-1,2.2218728E-1,-1.087727E-1,-1.3242985E-1,2.0499589E-1,9.248313E-2,-1.7775321E-1,-2.976201E-1,-4.0480766E-2],"split_indices":[3,4,5,5,5,1,5,0,0,0,0,0,0,0,0],"sum_hessian":[1.4407692E4,5.0237144E3,9.383979E3,1.068421E3,3.9552935E3,2.8856714E3,6.498307E3,5.6466406E2,5.037569E2,3.3993713E3,5.559223E2,4.4205234E2,2.443619E3,6.0921987E3,4.0610822E2],"tree_param":{"num_deleted":"0","num_feature":"14","num_nodes":"15","size_leaf_vector":"0"}},{"base_weights":[-4.8701334E-1,-1.4373969E-1,-7.1613455E-1,2.9267946E-1,-2.3771995E-1,-3.7302884E-1,-8.9291114E-1,2.035914E0,1.2125639E-1,1.5531528E-1,-3.7485254E-1,1.2186362E-2,-6.777637E-1,-9.566928E-1,-1.29067E-1],"default_left":[true,true,true,true,true,true,true,false,false,false,false,false,false,false,false],"id":8,"leaf_child_counts":[0,0,0,0,0,0,0,0,0,0,0,0,0,0,0],"left_children":[1,3,5,7,9,11,13,-1,-1,-1,-1,-1,-1,-1,-1],"loss_changes":[9.8180225E2,2.0508313E2,4.5376196E2,2.645547E2,2.21762E2,2.9905008E2,2.4056421E2,0E0,0E0,0E0,0E0,0E0,0E0,0E0,0E0],"parents":[2147483647,0,0,1,1,2,2,3,3,4,4,5,5,6,6],"right_children":[2,4,6,8,10,12,14,-1,-1,-1,-1,-1,-1,-1,-1],"split_conditions":[9.26265E-1,1.5E-1,1.5E-1,6.0445E-1,6.85425E-1,9.55075E-1,8.5E-1,6.107742E-1,3.637692E-2,4.6594586E-2,-1.1245576E-1,3.6559089E-3,-2.0332912E-1,-2.8700787E-1,-3.87201E-2],"split_indices":[3,5,5,3,4,0,5,0,0,0,0,0,0,0,0],"sum_hessian":[1.2483285E4,4.9975264E3,7.4857583E3,8.8512585E2,4.1124004E3,2.5464543E3,4.939304E3,7.827326E1,8.0685254E2,1.0636743E3,3.0487263E3,1.1251335E3,1.4213208E3,4.5584194E3,3.8088458E2],"tree_param":{"num_deleted":"0","num_feature":"14","num_nodes":"15","size_leaf_vector":"0"}},{"base_weights":[-4.0401423E-1,-1.1521314E-1,-6.422377E-1,5.976079E-1,-1.6490556E-1,-1.0489008E-1,-7.720512E-1,1.093034E0,3.1151685E-1,-2.5385237E-1,1.4349876E-1,2.255052E-1,-7.291589E-1,1.293436E0,-7.9647005E-1],"default_left":[true,true,true,true,true,true,true,false,false,false,false,false,false,false,false],"id":9,"leaf_child_counts":[0,0,0,0,0,0,0,0,0,0,0,0,0,0,0],"left_children":[1,3,5,7,9,11,13,-1,-1,-1,-1,-1,-1,-1,-1],"loss_changes":[7.5729407E2,1.7639937E2,4.206953E2,4.5663857E1,1.27692276E2,2.4248953E2,2.4606836E2,0E0,0E0,0E0,0E0,0E0,0E0,0E0,0E0],"parents":[2147483647,0,0,1,1,2,2,3,3,4,4,5,5,6,6],"right_children":[2,4,6,8,10,12,14,-1,-1,-1,-1,-1,-1,-1,-1],"split_conditions":[9.30535E-1,1.05E-3,5.833334E-1,1.5E-1,9.5E-1,9.81255E-1,7.9635E-2,3.279102E-1,9.345506E-2,-7.6155715E-2,4.304963E-2,6.765156E-2,-2.1874768E-1,3.8803083E-1,-2.3894103E-1],"split_indices":[3,11,12,5,5,0,0,0,0,0,0,0,0,0,0],"sum_hessian":[1.1007387E4,4.9761846E3,6.031202E3,3.2357556E2,4.652609E3,1.1738785E3,4.8573237E3,1.174192E2,2.0615636E2,3.6112627E3,1.0413464E3,7.68034E2,4.058445E2,5.6146614E1,4.801177E3],"tree_param":{"num_deleted":"0","num_feature":"14","num_nodes":"15","size_leaf_vector":"0"}},{"base_weights":[-3.2864663E-1,-8.712323E-2,-5.6606907E-1,1.7400539E-1,-1.8894902E-1,-2.1841462E-1,-7.966212E-1,1.5079433E0,7.427637E-2,-3.6861706E-1,1.2177604E-1,9.991156E-1,-3.12137E-1,-8.9204293E-1,1.0061305E-1],"default_left":[true,true,true,true,true,true,true,false,false,false,false,false,false,false,false],"id":10,"leaf_child_counts":[0,0,0,0,0,0,0,0,0,0,0,0,0,0,0],"left_children":[1,3,5,7,9,11,13,-1,-1,-1,-1,-1,-1,-1,-1],"loss_changes":[5.662803E2,1.3024182E2,3.99E2,1.8272157E2,1.9675977E2,2.2706625E2,2.5642505E2,0E0,0E0,0E0,0E0,0E0,0E0,0E0,0E0],"parents":[2147483647,0,0,1,1,2,2,3,3,4,4,5,5,6,6],"right_children":[2,4,6,8,10,12,14,-1,-1,-1,-1,-1,-1,-1,-1],"split_conditions":[9.32505E-1,2.5E-1,1.5E-1,6.05905E-1,8.5E-1,2.1505E-2,8.5E-1,4.52383E-1,2.2282913E-2,-1.1058512E-1,3.653281E-2,2.9973468E-1,-9.36411E-2,-2.676129E-1,3.0183917E-2],"split_indices":[3,5,5,3,5,11,5,0,0,0,0,0,0,0,0],"sum_hessian":[9.875165E3,4.8959824E3,4.979183E3,1.3733545E3,3.522628E3,1.9861593E3,2.9930237E3,9.455131E1,1.2788032E3,2.231905E3,1.2907228E3,1.4127115E2,1.8448881E3,2.7053167E3,2.8770724E2],"tree_param":{"num_deleted":"0","num_feature":"14","num_nodes":"15","size_leaf_vector":"0"}},{"base_weights":[-2.617297E-1,-1.0827877E-2,-4.422454E-1,5.7819515E-1,-4.8914537E-2,-1.22981414E-1,-6.6910785E-1,1.1894492E0,9.383904E-2,5.0192744E-1,-1.0212657E-1,3.632423E-1,-3.082558E-1,-7.6258636E-1,4.487294E-1],"default_left":[true,true,true,true,true,true,true,false,false,false,false,false,false,false,false],"id":11,"leaf_child_counts":[0,0,0,0,0,0,0,0,0,0,0,0,0,0,0],"left_children":[1,3,5,7,9,11,13,-1,-1,-1,-1,-1,-1,-1,-1],"loss_changes":[4.106496E2,8.516116E1,3.8183923E2,6.814661E1,1.0455458E2,1.9754749E2,3.2243176E2,0E0,0E0,0E0,0E0,0E0,0E0,0E0,0E0],"parents":[2147483647,0,0,1,1,2,2,3,3,4,4,5,5,6,6],"right_children":[2,4,6,8,10,12,14,-1,-1,-1,-1,-1,-1,-1,-1],"split_conditions":[9.01645E-1,2.5E-1,1.5E-1,6.75545E-1,7.49995E-1,8.82055E-1,9.5E-1,3.5683477E-1,2.8151713E-2,1.5057823E-1,-3.0637972E-2,1.0897269E-1,-9.247674E-2,-2.2877592E-1,1.3461882E-1],"split_indices":[3,12,5,4,0,1,5,0,0,0,0,0,0,0,0],"sum_hessian":[9.065874E3,3.7938286E3,5.2720454E3,2.2955177E2,3.5642769E3,2.190663E3,3.0813823E3,1.0083853E2,1.2871324E2,3.132397E2,3.251037E3,6.0416516E2,1.5864979E3,2.843882E3,2.3750017E2],"tree_param":{"num_deleted":"0","num_feature":"14","num_nodes":"15","size_leaf_vector":"0"}},{"base_weights":[-2.0627318E-1,-4.3002296E-2,-4.4053352E-1,3.2200307E-1,-9.3625605E-2,-1.6066048E-1,-7.031025E-1,6.732274E-1,8.273839E-2,5.3119427E-1,-1.294708E-1,1.4086714E-1,-4.8346967E-1,-8.440255E-1,-2.5384424E-2],"default_left":[true,true,true,true,true,true,true,false,false,false,false,false,false,false,false],"id":12,"leaf_child_counts":[0,0,0,0,0,0,0,0,0,0,0,0,0,0,0],"left_children":[1,3,5,7,9,11,13,-1,-1,-1,-1,-1,-1,-1,-1],"loss_changes":[3.217209E2,9.1646225E1,2.537655E2,5.071254E1,9.7607864E1,1.6296803E2,1.7018958E2,0E0,0E0,0E0,0E0,0E0,0E0,0E0,0E0],"parents":[2147483647,0,0,1,1,2,2,3,3,4,4,5,5,6,6],"right_children":[2,4,6,8,10,12,14,-1,-1,-1,-1,-1,-1,-1,-1],"split_conditions":[9.42735E-1,8.0491495E-1,1.5E-1,7.5E-1,1.05E-3,6.1342853E-1,7.5E-1,2.0196824E-1,2.4821518E-2,1.593583E-1,-3.884124E-2,4.2260144E-2,-1.450409E-1,-2.5320765E-1,-7.6153274E-3],"split_indices":[3,1,5,12,11,2,5,0,0,0,0,0,0,0,0],"sum_hessian":[8.410963E3,4.957176E3,3.453787E3,6.031279E2,4.354048E3,1.6725854E3,1.7812015E3,2.43651E2,3.5947693E2,2.3548445E2,4.1185635E3,8.650906E2,8.074949E2,1.4743778E3,3.0682373E2],"tree_param":{"num_deleted":"0","num_feature":"14","num_nodes":"15","size_leaf_vector":"0"}},{"base_weights":[-1.5932934E-1,-5.9845485E-2,-4.3844754E-1,2.488977E-1,-1.6422455E-1,-2.4573766E-1,-6.891467E-1,5.67155E-1,1.0529767E-1,-2.4194339E-1,6.325951E-1,3.680612E-1,-2.9677275E-1,1.1787672E0,-7.236678E-1],"default_left":[true,true,true,true,true,true,true,false,false,false,false,false,false,false,false],"id":13,"leaf_child_counts":[0,0,0,0,0,0,0,0,0,0,0,0,0,0,0],"left_children":[1,3,5,7,9,11,13,-1,-1,-1,-1,-1,-1,-1,-1],"loss_changes":[2.2056073E2,1.888143E2,1.0067059E2,6.759756E1,2.7129398E2,3.7125328E1,5.9312073E1,0E0,0E0,0E0,0E0,0E0,0E0,0E0,0E0],"parents":[2147483647,0,0,1,1,2,2,3,3,4,4,5,5,6,6],"right_children":[2,4,6,8,10,12,14,-1,-1,-1,-1,-1,-1,-1,-1],"split_conditions":[6.310499E-1,8.04085E-1,9.63065E-1,4.5E-1,8.5E-1,4.61445E-1,2.4037999E-1,1.7014651E-1,3.1589303E-2,-7.258302E-2,1.8977855E-1,1.1041837E-1,-8.903183E-2,3.536302E-1,-2.1710035E-1],"split_indices":[2,3,3,5,5,11,6,0,0,0,0,0,0,0,0],"sum_hessian":[7.9429966E3,5.85674E3,2.0862563E3,1.4794084E3,4.377332E3,1.1806686E3,9.0558777E2,4.5905856E2,1.0203499E3,3.98896E3,3.88372E2,9.01556E1,1.090513E3,1.583111E1,8.8975665E2],"tree_param":{"num_deleted":"0","num_feature":"14","num_nodes":"15","size_leaf_vector":"0"}},{"base_weights":[-1.21121526E-1,2.7635086E-1,-1.7913888E-1,-9.677993E-1,5.504039E-1,8.849432E-1,-2.2815317E-1,1.0813788E0,-1.1076801E0,-1.406778E-1,1.1296605E0,2.0711865E0,3.3371916E-1,8.016672E-1,-2.7623308E-1],"default_left":[true,true,true,true,true,true,true,false,false,false,false,false,false,false,false],"id":14,"leaf_child_counts":[0,0,0,0,0,0,0,0,0,0,0,0,0,0,0],"left_children":[1,3,5,7,9,11,13,-1,-1,-1,-1,-1,-1,-1,-1],"loss_changes":[1.7518875E2,3.3050827E2,3.4589E2,5.137625E1,3.1789508E2,1.9028683E2,3.139895E2,0E0,0E0,0E0,0E0,0E0,0E0,0E0,0E0],"parents":[2147483647,0,0,1,1,2,2,3,3,4,4,5,5,6,6],"right_children":[2,4,6,8,10,12,14,-1,-1,-1,-1,-1,-1,-1,-1],"split_conditions":[7.49995E-1,2.5E-1,2.5E-1,7.5514E-1,7.72135E-1,2E-1,5.8624998E-2,3.2441366E-1,-3.3230403E-1,-4.220334E-2,3.3889815E-1,6.21356E-1,1.0011575E-1,2.4050017E-1,-8.2869925E-2],"split_indices":[0,12,12,1,11,5,11,0,0,0,0,0,0,0,0],"sum_hessian":[7.5938384E3,9.667751E2,6.6270635E3,1.7405698E2,7.927181E2,2.910663E2,6.335997E3,1.0692137E1,1.6336484E2,3.618137E2,4.309044E2,9.146807E1,1.9959825E2,2.8191907E2,6.054078E3],"tree_param":{"num_deleted":"0","num_feature":"14","num_nodes":"15","size_leaf_vector":"0"}},{"base_weights":[-9.314503E-2,2.2997947E-3,-3.0167374E-1,1.6888413E-1,-7.748176E-2,1.527467E-1,-4.9533984E-1,-2.757897E-1,2.8390273E-1,1.130982E-1,-2.6096827E-1,-3.0288458E-1,4.8467502E-1,9.3253225E-1,-5.4459333E-1],"default_left":[true,true,true,true,true,true,true,false,false,false,false,false,false,false,false],"id":15,"leaf_child_counts":[0,0,0,0,0,0,0,0,0,0,0,0,0,0,0],"left_children":[1,3,5,7,9,11,13,-1,-1,-1,-1,-1,-1,-1,-1],"loss_changes":[1.4506921E2,6.6480354E1,2.0148718E2,8.2927246E1,1.1830484E2,1.0369354E2,1.1338028E2,0E0,0E0,0E0,0E0,0E0,0E0,0E0,0E0],"parents":[2147483647,0,0,1,1,2,2,3,3,4,4,5,5,6,6],"right_children":[2,4,6,8,10,12,14,-1,-1,-1,-1,-1,-1,-1,-1],"split_conditions":[9.54005E-1,2.5E-1,5.833334E-1,3.5113502E-1,9.6877503E-1,7.5E-1,5.59615E-1,-8.273692E-2,8.517082E-2,3.392946E-2,-7.8290485E-2,-9.086537E-2,1.454025E-1,2.7975968E-1,-1.63378E-1],"split_indices":[3,5,12,0,4,13,0,0,0,0,0,0,0,0,0],"sum_hessian":[7.287781E3,5.000165E3,2.2876157E3,1.6188597E3,3.3813052E3,6.836657E2,1.6039501E3,3.3239365E2,1.2864662E3,1.6587808E3,1.7225243E3,2.8817764E2,3.954881E2,5.2884373E1,1.5510657E3],"tree_param":{"num_deleted":"0","num_feature":"14","num_nodes":"15","size_leaf_vector":"0"}},{"base_weights":[-7.125364E-2,-1.357861E-1,1.726149E-1,8.187768E-1,-2.1180803E-1,-4.512647E-1,4.45122E-1,1.1848893E0,3.8165703E-2,3.0159496E-2,-5.451987E-1,-8.315242E-1,-4.6505287E-2,5.682907E-1,-1.8419082E-1],"default_left":[true,true,true,true,true,true,true,false,false,false,false,false,false,false,false],"id":16,"leaf_child_counts":[0,0,0,0,0,0,0,0,0,0,0,0,0,0,0],"left_children":[1,3,5,7,9,11,13,-1,-1,-1,-1,-1,-1,-1,-1],"loss_changes":[1.1146228E2,4.065506E2,2.5218472E2,1.1807013E2,4.1850525E2,6.9388885E1,8.010249E1,0E0,0E0,0E0,0E0,0E0,0E0,0E0,0E0],"parents":[2147483647,0,0,1,1,2,2,3,3,4,4,5,5,6,6],"right_children":[2,4,6,8,10,12,14,-1,-1,-1,-1,-1,-1,-1,-1],"split_conditions":[8.5E-1,2.4873E-1,2.3851E-1,7.5E-1,2.5E-1,9.74875E-1,6.5730774E-1,3.554668E-1,1.1449711E-2,9.047849E-3,-1.6355962E-1,-2.4945727E-1,-1.3951587E-2,1.7048723E-1,-5.525725E-2],"split_indices":[5,4,4,5,5,0,2,0,0,0,0,0,0,0,0],"sum_hessian":[7.0801304E3,5.5989736E3,1.4811566E3,4.1229208E2,5.1866816E3,4.5008136E2,1.0310753E3,2.803077E2,1.3198436E2,3.0059438E3,2.1807375E3,2.3152042E2,2.1856093E2,8.6238654E2,1.6868875E2],"tree_param":{"num_deleted":"0","num_feature":"14","num_nodes":"15","size_leaf_vector":"0"}},{"base_weights":[-5.6270063E-2,7.0555374E-4,-3.125065E-1,1.0329872E0,-1.2242432E-2,-1.5995724E-1,-6.03836E-1,1.3616209E0,3.4059E-1,-8.587762E-2,1.759631E-1,4.2388186E-1,-2.2783898E-1,6.266425E-1,-6.3239914E-1],"default_left":[true,true,true,true,true,true,true,false,false,false,false,false,false,false,false],"id":17,"leaf_child_counts":[0,0,0,0,0,0,0,0,0,0,0,0,0,0,0],"left_children":[1,3,5,7,9,11,13,-1,-1,-1,-1,-1,-1,-1,-1],"loss_changes":[1.00381004E2,7.520964E1,5.5489555E1,1.5397263E1,7.703123E1,3.2684547E1,1.54913025E1,0E0,0E0,0E0,0E0,0E0,0E0,0E0,0E0],"parents":[2147483647,0,0,1,1,2,2,3,3,4,4,5,5,6,6],"right_children":[2,4,6,8,10,12,14,-1,-1,-1,-1,-1,-1,-1,-1],"split_conditions":[6.402087E-1,1.8986E-1,9.70195E-1,5.833334E-1,6.5E-1,8.14095E-1,2.9804498E-1,4.0848628E-1,1.02177E-1,-2.5763286E-2,5.2788932E-2,1.2716456E-1,-6.835169E-2,1.8799277E-1,-1.8971975E-1],"split_indices":[2,6,3,12,5,1,6,0,0,0,0,0,0,0,0],"sum_hessian":[6.874759E3,5.6250044E3,1.2497542E3,6.870494E1,5.5563E3,8.212638E2,4.2849042E2,4.593581E1,2.2769127E1,3.9941406E3,1.562159E3,8.49947E1,7.362691E2,9.245881E0,4.1924454E2],"tree_param":{"num_deleted":"0","num_feature":"14","num_nodes":"15","size_leaf_vector":"0"}},{"base_weights":[-4.1321047E-2,3.3499997E-2,-1.7043062E-1,2.1841666E-1,-4.673167E-2,-8.8086754E-2,-4.4329154E-1,-2.076508E-1,3.3045664E-1,9.230192E-1,-7.857881E-2,9.873922E-2,-1.7911682E-1,4.0630043E-1,-4.977527E-1],"default_left":[true,true,true,true,true,true,true,false,false,false,false,false,false,false,false],"id":18,"leaf_child_counts":[0,0,0,0,0,0,0,0,0,0,0,0,0,0,0],"left_children":[1,3,5,7,9,11,13,-1,-1,-1,-1,-1,-1,-1,-1],"loss_changes":[6.516458E1,6.3378822E1,5.5568542E1,6.1773552E1,9.2094215E1,3.237193E1,2.6737503E1,0E0,0E0,0E0,0E0,0E0,0E0,0E0,0E0],"parents":[2147483647,0,0,1,1,2,2,3,3,4,4,5,5,6,6],"right_children":[2,4,6,8,10,12,14,-1,-1,-1,-1,-1,-1,-1,-1],"split_conditions":[6.151259E-1,7.5E-1,9.74285E-1,7.5365E-2,1.0676E-1,9.05645E-1,7.73395E-1,-6.229524E-2,9.9137E-2,2.7690578E-1,-2.3573643E-2,2.9621767E-2,-5.3735048E-2,1.21890135E-1,-1.4932582E-1],"split_indices":[2,12,3,0,0,1,6,0,0,0,0,0,0,0,0],"sum_hessian":[6.7441465E3,4.270224E3,2.4739224E3,1.291613E3,2.9786113E3,1.9014318E3,5.724905E2,2.6875058E2,1.0228624E3,9.381916E1,2.8847922E3,6.229116E2,1.2785201E3,3.409828E1,5.383922E2],"tree_param":{"num_deleted":"0","num_feature":"14","num_nodes":"15","size_leaf_vector":"0"}},{"base_weights":[-3.0729804E-2,8.9499354E-2,-9.571169E-2,1.313678E0,6.123174E-2,-2.4963333E-1,6.866532E-2,7.159016E-1,1.6394421E0,2.3222278E-1,-1.9052403E-1,8.16082E-1,-3.710778E-1,-6.75553E-2,3.622182E-1],"default_left":[true,true,true,true,true,true,true,false,false,false,false,false,false,false,false],"id":19,"leaf_child_counts":[0,0,0,0,0,0,0,0,0,0,0,0,0,0,0],"left_children":[1,3,5,7,9,11,13,-1,-1,-1,-1,-1,-1,-1,-1],"loss_changes":[5.1860188E1,8.051602E1,1.0903374E2,9.053368E0,9.808814E1,2.8832056E2,8.337519E1,0E0,0E0,0E0,0E0,0E0,0E0,0E0,0E0],"parents":[2147483647,0,0,1,1,2,2,3,3,4,4,5,5,6,6],"right_children":[2,4,6,8,10,12,14,-1,-1,-1,-1,-1,-1,-1,-1],"split_conditions":[1.5E-1,5.8599496E-1,6.5E-1,9.4778E-1,9.69085E-1,1.7793E-1,9.99705E-1,2.147705E-1,4.9183264E-1,6.966684E-2,-5.715721E-2,2.448246E-1,-1.1132335E-1,-2.026659E-2,1.0866547E-1],"split_indices":[5,3,5,0,0,4,4,0,0,0,0,0,0,0,0],"sum_hessian":[6.6358228E3,2.3280674E3,4.3077554E3,5.151798E1,2.2765493E3,2.2243599E3,2.0833958E3,1.9300047E1,3.221793E1,1.3557855E3,9.20764E2,2.269632E2,1.9973967E3,1.4235703E3,6.598253E2],"tree_param":{"num_deleted":"0","num_feature":"14","num_nodes":"15","size_leaf_vector":"0"}},{"base_weights":[-2.4117485E-2,3.3656168E0,-2.6272275E-2,9.886886E-1,3.8639963E0,1.9339077E-2,-1.7352268E-1,2.3707487E-1,-1.3728486E-2,1.1445472E-1,-3.4715825E-1],"default_left":[true,true,true,false,false,true,true,false,false,false,false],"id":20,"leaf_child_counts":[0,0,0,0,0,0,0,0,0,0,0],"left_children":[1,3,5,-1,-1,7,9,-1,-1,-1,-1],"loss_changes":[4.7483753E1,1.0720863E0,4.3563034E1,0E0,0E0,3.5662857E1,7.674188E1,0E0,0E0,0E0,0E0],"parents":[2147483647,0,0,1,1,2,2,5,5,6,6],"right_children":[2,4,6,-1,-1,8,10,-1,-1,-1,-1],"split_conditions":[5E-2,9.18905E-1,9.61525E-1,2.966066E-1,1.1591989E0,9.41005E-1,5.833334E-1,7.112246E-2,-4.118546E-3,3.4336418E-2,-1.0414748E-1],"split_indices":[5,1,3,0,0,6,12,0,0,0,0],"sum_hessian":[6.487805E3,3.1299384E0,6.4846753E3,1.0597006E0,2.0702376E0,4.951728E3,1.5329473E3,6.52055E2,4.299673E3,5.767458E2,9.562014E2],"tree_param":{"num_deleted":"0","num_feature":"14","num_nodes":"11","size_leaf_vector":"0"}},{"base_weights":[-1.79829E-2,-6.358195E-1,-8.265659E-3,1.2637284E0,-8.351804E-1,7.208911E-1,-2.4748998E-2,1.3622102E0,-9.965616E-1,1.5851849E0,-4.435615E-1,2.295812E-1,-4.901458E-2],"default_left":[true,true,true,false,true,true,true,false,false,false,false,false,false],"id":21,"leaf_child_counts":[0,0,0,0,0,0,0,0,0,0,0,0,0],"left_children":[1,3,5,-1,7,9,11,-1,-1,-1,-1,-1,-1],"loss_changes":[3.8589554E1,3.874638E1,7.609786E1,0E0,3.3513157E1,1.4156927E2,3.8219097E1,0E0,0E0,0E0,0E0,0E0,0E0],"parents":[2147483647,0,0,1,1,2,2,4,4,5,5,6,6],"right_children":[2,4,6,-1,8,10,12,-1,-1,-1,-1,-1,-1],"split_conditions":[3.395E-3,5.6669E-1,9.9967E-1,3.7911853E-1,6.99175E-1,4.52645E-1,8.95545E-1,4.0866306E-1,-2.989685E-1,4.755555E-1,-1.3306846E-1,6.887437E-2,-1.4704375E-2],"split_indices":[7,4,7,0,1,11,6,0,0,0,0,0,0],"sum_hessian":[6.4275396E3,9.852835E1,6.329011E3,8.851423E0,8.9676926E1,1.3896628E2,6.190045E3,5.626378E0,8.405055E1,7.955598E1,5.9410297E1,5.3841345E2,5.6516313E3],"tree_param":{"num_deleted":"0","num_feature":"14","num_nodes":"13","size_leaf_vector":"0"}},{"base_weights":[-1.3224188E-2,9.216013E-3,-2.558833E-1,8.409263E-2,-5.266483E-2,6.58087E-1,-3.1452537E-1,-2.2327065E-1,1.6852301E-1,-2.4673961E-1,9.422501E-2,-2.9223127E0,9.87719E-1,7.009966E-1,-3.6825493E-1],"default_left":[true,true,true,true,true,true,true,false,false,false,false,false,false,false,false],"id":22,"leaf_child_counts":[0,0,0,0,0,0,0,0,0,0,0,0,0,0,0],"left_children":[1,3,5,7,9,11,13,-1,-1,-1,-1,-1,-1,-1,-1],"loss_changes":[3.4714E1,2.704489E1,2.9129707E1,6.857554E1,9.113014E1,4.1667816E1,2.7964039E1,0E0,0E0,0E0,0E0,0E0,0E0,0E0,0E0],"parents":[2147483647,0,0,1,1,2,2,3,3,4,4,5,5,6,6],"right_children":[2,4,6,8,10,12,14,-1,-1,-1,-1,-1,-1,-1,-1],"split_conditions":[6.614434E-1,2.5E-1,3.2399997E-2,3.5113502E-1,6.5E-1,2.86E-3,4.6926E-1,-6.69812E-2,5.0556906E-2,-7.402188E-2,2.8267505E-2,-8.7669384E-1,2.963157E-1,2.1029899E-1,-1.1047649E-1],"split_indices":[2,5,0,0,5,4,11,0,0,0,0,0,0,0,0],"sum_hessian":[6.373583E3,5.8349507E3,5.386323E2,2.6400715E3,3.1948794E3,3.1859621E1,5.0677267E2,5.6857324E2,2.0714983E3,1.3760825E3,1.8187968E3,2.0228145E0,2.9836805E1,2.4859838E1,4.8191284E2],"tree_param":{"num_deleted":"0","num_feature":"14","num_nodes":"15","size_leaf_vector":"0"}},{"base_weights":[-1.0403723E-2,3.427997E-2,-1.1348261E-1,1.3468042E-1,-4.970632E-2,3.1031162E-1,-1.4397365E-1,-1.8187451E-1,2.186937E-1,-2.3092707E-1,6.5559655E-2,7.933391E-1,-9.437851E-2,1.0973343E0,-1.6098899E-1],"default_left":[true,true,true,true,true,true,true,false,false,false,false,false,false,false,false],"id":23,"leaf_child_counts":[0,0,0,0,0,0,0,0,0,0,0,0,0,0,0],"left_children":[1,3,5,7,9,11,13,-1,-1,-1,-1,-1,-1,-1,-1],"loss_changes":[2.9271034E1,3.7390724E1,2.4877485E1,5.375233E1,5.04567E1,2.5350525E1,3.805674E1,0E0,0E0,0E0,0E0,0E0,0E0,0E0,0E0],"parents":[2147483647,0,0,1,1,2,2,3,3,4,4,5,5,6,6],"right_children":[2,4,6,8,10,12,14,-1,-1,-1,-1,-1,-1,-1,-1],"split_conditions":[9.63935E-1,2.5E-1,3.2498E-1,2.6761E-1,6.5E-1,1.5E-1,2.696E-2,-5.4562356E-2,6.5608114E-2,-6.927812E-2,1.9667897E-2,2.3800173E-1,-2.8313553E-2,3.292003E-1,-4.8296697E-2],"split_indices":[1,5,11,0,5,5,0,0,0,0,0,0,0,0,0],"sum_hessian":[6.3532104E3,4.432453E3,1.9207577E3,2.0186624E3,2.4137905E3,1.2830281E2,1.792455E3,4.2314038E2,1.595522E3,9.38026E2,1.4757645E3,5.8052505E1,7.0250305E1,2.337947E1,1.7690754E3],"tree_param":{"num_deleted":"0","num_feature":"14","num_nodes":"15","size_leaf_vector":"0"}},{"base_weights":[-8.225277E-3,-6.023832E-1,2.5080222E-5,1.1455544E0,-7.74735E-1,4.910144E-1,-1.1048214E-2,1.2303517E0,-9.114868E-1,1.0472726E0,-3.5788053E-1,3.3975866E-2,-1.0649661E-1],"default_left":[true,true,true,false,true,true,true,false,false,false,false,false,false],"id":24,"leaf_child_counts":[0,0,0,0,0,0,0,0,0,0,0,0,0],"left_children":[1,3,5,-1,7,9,11,-1,-1,-1,-1,-1,-1],"loss_changes":[3.1029236E1,2.7004292E1,3.3954315E1,0E0,2.2922356E1,6.541703E1,2.625027E1,0E0,0E0,0E0,0E0,0E0,0E0],"parents":[2147483647,0,0,1,1,2,2,4,4,5,5,6,6],"right_children":[2,4,6,-1,8,10,12,-1,-1,-1,-1,-1,-1],"split_conditions":[2.124E-2,5.2741003E-1,9.9967E-1,3.4366634E-1,6.6579E-1,4.7064E-1,9.42735E-1,3.6910552E-1,-2.7344605E-1,3.1418177E-1,-1.0736416E-1,1.019276E-2,-3.1948984E-2],"split_indices":[7,4,7,0,1,11,3,0,0,0,0,0,0],"sum_hessian":[6.3288906E3,8.569183E1,6.2431987E3,7.1843E0,7.850754E1,1.3674158E2,6.106457E3,4.5019503E0,7.4005585E1,8.246849E1,5.427309E1,4.14966E3,1.9567972E3],"tree_param":{"num_deleted":"0","num_feature":"14","num_nodes":"13","size_leaf_vector":"0"}},{"base_weights":[-6.1411145E-3,1.5821528E-1,-2.9636547E-2,8.5727423E-1,-1.787674E-2,8.507142E-2,-8.6464375E-2,1.4252436E0,6.703673E-1,2.4366032E-1,-1.5845044E-1,-5.214936E-1,1.5221988E-1,-1.7448387E-1,1.795558E-1],"default_left":[true,true,true,true,true,true,true,false,false,false,false,false,false,false,false],"id":25,"leaf_child_counts":[0,0,0,0,0,0,0,0,0,0,0,0,0,0,0],"left_children":[1,3,5,7,9,11,13,-1,-1,-1,-1,-1,-1,-1,-1],"loss_changes":[2.4272413E1,9.679132E1,3.5854233E1,1.5839462E1,2.3162409E1,7.430203E1,8.614804E1,0E0,0E0,0E0,0E0,0E0,0E0,0E0,0E0],"parents":[2147483647,0,0,1,1,2,2,3,3,4,4,5,5,6,6],"right_children":[2,4,6,8,10,12,14,-1,-1,-1,-1,-1,-1,-1,-1],"split_conditions":[6.30045E-1,3.5000002E-1,9.37095E-1,3.2547998E-1,2.7040001E-2,2.5E-1,8.5E-1,4.275731E-1,2.011102E-1,7.30981E-2,-4.7535133E-2,-1.564481E-1,4.5665964E-2,-5.234516E-2,5.3866744E-2],"split_indices":[3,5,0,4,4,12,5,0,0,0,0,0,0,0,0],"sum_hessian":[6.28333E3,7.8516583E2,5.4981646E3,1.5720746E2,6.279584E2,1.8213137E3,3.6768506E3,3.7284023E1,1.1992344E2,2.192713E2,4.0868707E2,1.808544E2,1.6404594E3,2.7629897E3,9.138608E2],"tree_param":{"num_deleted":"0","num_feature":"14","num_nodes":"15","size_leaf_vector":"0"}},{"base_weights":[-5.068443E-3,5.591681E-2,-6.3658305E-2,3.017129E-1,1.0822595E-2,-3.1659624E-1,-3.378748E-2,-2.7076325E-1,6.752183E-1,4.163054E-1,-2.2507984E-2,8.6288637E-1,-5.3165543E-1,7.1849054E-1,-7.408011E-2],"default_left":[true,true,true,true,true,true,true,false,false,false,false,false,false,false,false],"id":26,"leaf_child_counts":[0,0,0,0,0,0,0,0,0,0,0,0,0,0,0],"left_children":[1,3,5,7,9,11,13,-1,-1,-1,-1,-1,-1,-1,-1],"loss_changes":[2.2193287E1,3.372998E1,2.392323E1,1.0105557E2,3.477887E1,8.5298935E1,8.596435E1,0E0,0E0,0E0,0E0,0E0,0E0,0E0,0E0],"parents":[2147483647,0,0,1,1,2,2,3,3,4,4,5,5,6,6],"right_children":[2,4,6,8,10,12,14,-1,-1,-1,-1,-1,-1,-1,-1],"split_conditions":[5.9500813E-1,7.5532496E-1,3.5113502E-1,8.21645E-1,5.025E-2,7.9859495E-1,2.5E-1,-8.122898E-2,2.0256549E-1,1.24891624E-1,-6.7523955E-3,2.5886592E-1,-1.5949664E-1,2.1554717E-1,-2.2224033E-2],"split_indices":[9,0,0,11,11,6,12,0,0,0,0,0,0,0,0],"sum_hessian":[6.2091865E3,3.0424229E3,3.1667637E3,4.707584E2,2.5716646E3,3.3346603E2,2.8332976E3,1.8597987E2,2.847785E2,1.9446101E2,2.3772034E3,5.09609E1,2.8250513E2,1.4318321E2,2.6901145E3],"tree_param":{"num_deleted":"0","num_feature":"14","num_nodes":"15","size_leaf_vector":"0"}},{"base_weights":[-3.998056E-3,-5.1490325E-1,2.1625124E-3,5.9383994E-1,-7.5707877E-1,1.1078464E-2,-2.9353553E-1,-6.346102E-2,1.6477828E0,1.0602136E0,-9.274805E-1,2.63032E-1,-8.101218E-4,6.4150816E-1,-4.2190456E-1],"default_left":[true,true,true,true,true,true,true,false,false,false,false,false,false,false,false],"id":27,"leaf_child_counts":[0,0,0,0,0,0,0,0,0,0,0,0,0,0,0],"left_children":[1,3,5,7,9,11,13,-1,-1,-1,-1,-1,-1,-1,-1],"loss_changes":[1.940172E1,2.0169956E1,1.6062895E1,9.613674E0,1.9785587E1,1.7715155E1,2.1675808E1,0E0,0E0,0E0,0E0,0E0,0E0,0E0,0E0],"parents":[2147483647,0,0,1,1,2,2,3,3,4,4,5,5,6,6],"right_children":[2,4,6,8,10,12,14,-1,-1,-1,-1,-1,-1,-1,-1],"split_conditions":[8.369E-2,7.4522E-1,6.9238424E-1,9.6796E-1,4.2778E-1,1.1779999E-2,6.057E-2,-1.9038307E-2,4.9433485E-1,3.180641E-1,-2.7824417E-1,7.89096E-2,-2.4303656E-4,1.9245246E-1,-1.2657137E-1],"split_indices":[7,1,2,6,4,4,0,0,0,0,0,0,0,0,0],"sum_hessian":[6.16288E3,7.2443596E1,6.0904365E3,1.2726451E1,5.971714E1,5.913106E3,1.7733072E2,8.416938E0,4.3095126E0,4.6717906E0,5.504535E1,2.6548956E2,5.647616E3,2.0923798E1,1.5640692E2],"tree_param":{"num_deleted":"0","num_feature":"14","num_nodes":"15","size_leaf_vector":"0"}},{"base_weights":[-3.107752E-3,4.82645E-2,-4.9887203E-2,-2.752292E-1,9.355533E-2,4.4831103E-1,-7.186786E-2,-9.610988E-1,2.892962E-1,3.7400103E-1,-3.8660467E-2,-1.0167623E0,8.383236E-1,3.9224303E-1,-9.958652E-2],"default_left":[true,true,true,true,true,true,true,false,false,false,false,false,false,false,false],"id":28,"leaf_child_counts":[0,0,0,0,0,0,0,0,0,0,0,0,0,0,0],"left_children":[1,3,5,7,9,11,13,-1,-1,-1,-1,-1,-1,-1,-1],"loss_changes":[1.4748547E1,4.2880943E1,3.520727E1,1.3946437E2,9.5179825E1,7.848774E1,3.962646E1,0E0,0E0,0E0,0E0,0E0,0E0,0E0,0E0],"parents":[2147483647,0,0,1,1,2,2,3,3,4,4,5,5,6,6],"right_children":[2,4,6,8,10,12,14,-1,-1,-1,-1,-1,-1,-1,-1],"split_conditions":[9.28165E-1,2.6761E-1,4.7435E-2,4.0384E-1,1.5E-1,2.5E-1,2.51795E-1,-2.8832966E-1,8.678886E-2,1.1220031E-1,-1.159814E-2,-3.0502868E-1,2.514971E-1,1.1767291E-1,-2.9875956E-2],"split_indices":[1,0,0,11,5,12,11,0,0,0,0,0,0,0,0],"sum_hessian":[6.135131E3,2.92401E3,3.2111206E3,3.5847736E2,2.5655327E3,1.348694E2,3.0762512E3,1.6152736E2,1.9695E2,8.2140485E2,1.7441278E3,2.8017036E1,1.0685237E2,1.7263101E2,2.9036204E3],"tree_param":{"num_deleted":"0","num_feature":"14","num_nodes":"15","size_leaf_vector":"0"}},{"base_weights":[-3.0613916E-3,-4.4343898E-1,2.3288424E-3,3.402725E-1,-7.253302E-1,3.9481536E-1,-5.5878186E-3,7.3887175E-1,-5.175133E-1,1.0159123E0,-8.916572E-1,-5.965473E-1,8.7347686E-1,1.6665064E-2,-1.1252779E-1],"default_left":[true,true,true,true,true,true,true,false,false,false,false,false,false,false,false],"id":29,"leaf_child_counts":[0,0,0,0,0,0,0,0,0,0,0,0,0,0,0],"left_children":[1,3,5,7,9,11,13,-1,-1,-1,-1,-1,-1,-1,-1],"loss_changes":[1.4515104E1,1.6581982E1,1.8774235E1,7.302973E0,1.6747904E1,5.7210327E1,1.4097044E1,0E0,0E0,0E0,0E0,0E0,0E0,0E0,0E0],"parents":[2147483647,0,0,1,1,2,2,3,3,4,4,5,5,6,6],"right_children":[2,4,6,8,10,12,14,-1,-1,-1,-1,-1,-1,-1,-1],"split_conditions":[1.777E-1,7.5548E-1,9.9967E-1,4.6687502E-1,4.07435E-1,5.61345E-1,9.69285E-1,2.2166154E-1,-1.5525399E-1,3.047737E-1,-2.6749715E-1,-1.789642E-1,2.6204306E-1,4.9995193E-3,-3.375834E-2],"split_indices":[7,1,7,10,4,0,3,0,0,0,0,0,0,0,0],"sum_hessian":[6.113436E3,7.294112E1,6.040495E3,1.9240826E1,5.370029E1,1.1846474E2,5.9220303E3,1.3231152E1,6.0096745E0,4.236922E0,4.946337E1,3.8493668E1,7.997107E1,4.9026865E3,1.01934406E3],"tree_param":{"num_deleted":"0","num_feature":"14","num_nodes":"15","size_leaf_vector":"0"}},{"base_weights":[-2.5053492E-3,1.1923716E0,-4.080747E-3,1.7905183E-1,1.3819238E0,1.14227206E-1,-2.0031324E-2,1.7778189E0,5.314601E-1,6.555892E-1,-1.7171046E-2,-2.1656045E-1,-1.3268304E-3],"default_left":[true,true,true,false,true,true,true,false,false,false,false,false,false],"id":30,"leaf_child_counts":[0,0,0,0,0,0,0,0,0,0,0,0,0],"left_children":[1,3,5,-1,7,9,11,-1,-1,-1,-1,-1,-1],"loss_changes":[1.14812765E1,1.2951422E0,1.1493925E1,0E0,1.2829437E0,5.148586E1,1.9728725E1,0E0,0E0,0E0,0E0,0E0,0E0],"parents":[2147483647,0,0,1,1,2,2,4,4,5,5,6,6],"right_children":[2,4,6,-1,8,10,12,-1,-1,-1,-1,-1,-1],"split_conditions":[5E-2,3.7605E-1,6.1898994E-1,5.3715553E-2,9.6984E-1,3.5000002E-1,4.166667E-1,5.333457E-1,1.5943804E-1,1.9667678E-1,-5.1513137E-3,-6.496814E-2,-3.9804913E-4],"split_indices":[5,10,3,0,1,5,13,0,0,0,0,0,0],"sum_hessian":[6.0956704E3,7.0310426E0,6.088639E3,1.4144095E0,5.6166334E0,7.226284E2,5.3660107E3,3.0885065E0,2.5281267E0,1.4035895E2,5.822695E2,4.6540433E2,4.9006064E3],"tree_param":{"num_deleted":"0","num_feature":"14","num_nodes":"13","size_leaf_vector":"0"}},{"base_weights":[-1.7481955E-3,2.3497725E-3,-4.603479E-1,4.689197E-1,-2.1975383E-3,-1.798852E0,-2.455307E-1,9.4943476E-1,-2.4741337E-1,-1.3750765E-1,1.2184442E-2,-2.5273662E0,-1.1304742E0,1.173823E0,-5.3661686E-1],"default_left":[true,true,true,true,true,true,true,false,false,false,false,false,false,false,false],"id":31,"leaf_child_counts":[0,0,0,0,0,0,0,0,0,0,0,0,0,0,0],"left_children":[1,3,5,7,9,11,13,-1,-1,-1,-1,-1,-1,-1,-1],"loss_changes":[1.1421979E1,1.2782403E1,1.5035759E1,2.0251423E1,1.1613896E1,6.9065857E-1,2.0272118E1,0E0,0E0,0E0,0E0,0E0,0E0,0E0,0E0],"parents":[2147483647,0,0,1,1,2,2,3,3,4,4,5,5,6,6],"right_children":[2,4,6,8,10,12,14,-1,-1,-1,-1,-1,-1,-1,-1],"split_conditions":[7.2682655E-1,1.60905E-1,1.9611499E-1,5.833334E-1,3.67585E-1,3.8949999E-3,6.3975E-2,2.8483045E-1,-7.422401E-2,-4.1252296E-2,3.6553328E-3,-7.582099E-1,-3.3914226E-1,3.5214692E-1,-1.6098507E-1],"split_indices":[2,6,11,12,0,0,0,0,0,0,0,0,0,0,0],"sum_hessian":[6.076122E3,6.0232935E3,5.282824E1,5.715226E1,5.9661416E3,6.28613E0,4.654211E1,3.4011795E1,2.3140467E1,5.7238696E2,5.3937544E3,1.6769519E0,4.609178E0,7.4045444E0,3.9137566E1],"tree_param":{"num_deleted":"0","num_feature":"14","num_nodes":"15","size_leaf_vector":"0"}},{"base_weights":[-1.2392678E-3,1.156462E-1,-2.1162722E-2,-7.489743E-1,2.4507006E-1,3.6788344E-1,-4.4263452E-2,-9.261843E-1,9.063228E-1,-1.370325E-1,5.3891075E-1,1.03308134E-1,1.2469902E0,2.5686768E-1,-7.379938E-2],"default_left":[true,true,true,true,true,true,true,false,false,false,false,false,false,false,false],"id":32,"leaf_child_counts":[0,0,0,0,0,0,0,0,0,0,0,0,0,0,0],"left_children":[1,3,5,7,9,11,13,-1,-1,-1,-1,-1,-1,-1,-1],"loss_changes":[1.4147399E1,9.918519E1,4.666288E1,3.470072E1,8.655852E1,6.7560165E1,4.360301E1,0E0,0E0,0E0,0E0,0E0,0E0,0E0,0E0],"parents":[2147483647,0,0,1,1,2,2,3,3,4,4,5,5,6,6],"right_children":[2,4,6,8,10,12,14,-1,-1,-1,-1,-1,-1,-1,-1],"split_conditions":[7.49995E-1,2.5E-1,2.5E-1,1.42635E-1,8.24795E-1,9.5055497E-1,7.93065E-1,-2.778553E-1,2.7189684E-1,-4.110975E-2,1.6167323E-1,3.099244E-2,3.7409708E-1,7.7060305E-2,-2.2139814E-2],"split_indices":[0,12,12,0,11,3,1,0,0,0,0,0,0,0,0],"sum_hessian":[6.0730215E3,8.8371313E2,5.189308E3,1.1443555E2,7.692776E2,2.9002286E2,4.899285E3,1.037671E2,1.06684475E1,3.3464627E2,4.3463132E2,2.23789E2,6.623386E1,4.3692764E2,4.462358E3],"tree_param":{"num_deleted":"0","num_feature":"14","num_nodes":"15","size_leaf_vector":"0"}},{"base_weights":[-1.6750226E-3,-4.3069583E-1,2.0560601E-3,9.421119E-1,-5.552812E-1,1.8506657E-2,-8.894231E-2,2.812296E-1,-7.70024E-1,3.093372E-1,9.060584E-3,-3.327126E-2,-4.6678028E-1],"default_left":[true,true,true,false,true,true,true,false,false,false,false,false,false],"id":33,"leaf_child_counts":[0,0,0,0,0,0,0,0,0,0,0,0,0],"left_children":[1,3,5,-1,7,9,11,-1,-1,-1,-1,-1,-1],"loss_changes":[9.640681E0,9.4042425E0,8.940496E0,0E0,8.8813095E0,1.389225E1,1.921816E1,0E0,0E0,0E0,0E0,0E0,0E0],"parents":[2147483647,0,0,1,1,2,2,4,4,5,5,6,6],"right_children":[2,4,6,-1,8,10,12,-1,-1,-1,-1,-1,-1],"split_conditions":[2.124E-2,2.52325E-1,6.400763E-1,2.8263357E-1,7.1345496E-1,8.804999E-3,9.85345E-1,8.436888E-2,-2.310072E-1,9.280116E-2,2.7181753E-3,-9.981379E-3,-1.400341E-1],"split_indices":[7,4,2,0,1,4,3,0,0,0,0,0,0],"sum_hessian":[6.021192E3,5.092664E1,5.970265E3,3.6912074E0,4.723543E1,5.0568833E3,9.133818E2,9.585679E0,3.7649754E1,1.5808025E2,4.8988027E3,7.97034E2,1.1634779E2],"tree_param":{"num_deleted":"0","num_feature":"14","num_nodes":"13","size_leaf_vector":"0"}},{"base_weights":[-1.4376207E-3,-2.0654771E-2,7.280813E-2,4.6111012E-1,-6.769483E-2,-5.5235475E-1,3.5974795E-1,-5.1566E-1,6.492711E-1,2.219148E-2,-2.1811646E-1,1.943188E-1,-7.3954016E-1,-1.3941321E-1,4.3987983E-1],"default_left":[true,true,true,true,true,true,true,false,false,false,false,false,false,false,false],"id":34,"leaf_child_counts":[0,0,0,0,0,0,0,0,0,0,0,0,0,0,0],"left_children":[1,3,5,7,9,11,13,-1,-1,-1,-1,-1,-1,-1,-1],"loss_changes":[8.567052E0,1.08125015E2,2.2166415E2,7.833991E1,5.8771156E1,5.4482834E1,3.393235E1,0E0,0E0,0E0,0E0,0E0,0E0,0E0,0E0],"parents":[2147483647,0,0,1,1,2,2,3,3,4,4,5,5,6,6],"right_children":[2,4,6,8,10,12,14,-1,-1,-1,-1,-1,-1,-1,-1],"split_conditions":[9.5E-1,2.4873E-1,2.3851E-1,2.688E-2,2.5E-1,5.36215E-1,5.6218E-1,-1.54698E-1,1.9478133E-1,6.6574444E-3,-6.543494E-2,5.829564E-2,-2.2186206E-1,-4.1823965E-2,1.3196395E-1],"split_indices":[5,4,4,3,5,3,3,0,0,0,0,0,0,0,0],"sum_hessian":[6.002362E3,4.768774E3,1.2335878E3,4.234252E2,4.345349E3,3.8778534E2,8.458025E2,6.811097E1,3.553142E2,2.7205205E3,1.6248282E3,7.772119E1,3.1006415E2,1.16895004E2,7.289075E2],"tree_param":{"num_deleted":"0","num_feature":"14","num_nodes":"15","size_leaf_vector":"0"}},{"base_weights":[-2.3489299E-3,5.0206956E-2,-2.6043287E-2,-2.7304795E-1,8.725026E-2,4.9954924E-1,-3.7371296E-2,3.9802217E-1,-7.5169647E-1,2.9257314E-2,3.934703E-1,1.607848E0,-4.4445089E-1,4.1891873E-2,-7.296598E-2],"default_left":[true,true,true,true,true,true,true,false,false,false,false,false,false,false,false],"id":35,"leaf_child_counts":[0,0,0,0,0,0,0,0,0,0,0,0,0,0,0],"left_children":[1,3,5,7,9,11,13,-1,-1,-1,-1,-1,-1,-1,-1],"loss_changes":[7.4009633E0,2.2138683E1,2.4407896E1,6.1367382E1,2.9427258E1,9.12081E1,1.1319024E1,0E0,0E0,0E0,0E0,0E0,0E0,0E0,0E0],"parents":[2147483647,0,0,1,1,2,2,3,3,4,4,5,5,6,6],"right_children":[2,4,6,8,10,12,14,-1,-1,-1,-1,-1,-1,-1,-1],"split_conditions":[9.99045E-1,6.7535E-2,9.9967E-1,9.5E-1,9.5E-1,5.833334E-1,9.79095E-1,1.19406655E-1,-2.2550894E-1,8.777195E-3,1.1804109E-1,4.8235443E-1,-1.3333528E-1,1.2567562E-2,-2.1889795E-2],"split_indices":[6,4,7,5,5,12,4,0,0,0,0,0,0,0,0],"sum_hessian":[5.9411724E3,1.8458401E3,4.0953325E3,1.8912115E2,1.6567189E3,8.549449E1,4.009838E3,7.880466E1,1.10316505E2,1.3938438E3,2.6287515E2,3.900161E1,4.6492878E1,1.2426022E3,2.7672358E3],"tree_param":{"num_deleted":"0","num_feature":"14","num_nodes":"15","size_leaf_vector":"0"}},{"base_weights":[-1.7900562E-3,3.7996583E-2,-2.960083E-2,-2.6066732E-1,7.8546904E-2,-9.37504E-2,1.21371605E-1,7.6310223E-1,-5.900946E-1,1.5136415E0,6.6387035E-2,-3.0299962E-1,-3.0935153E-2,5.06805E-1,3.1646863E-2],"default_left":[true,true,true,true,true,true,true,false,false,false,false,false,false,false,false],"id":36,"leaf_child_counts":[0,0,0,0,0,0,0,0,0,0,0,0,0,0,0],"left_children":[1,3,5,7,9,11,13,-1,-1,-1,-1,-1,-1,-1,-1],"loss_changes":[6.540322E0,2.9472305E1,3.3704624E1,9.857158E1,3.727693E1,3.2089775E1,3.5876503E1,0E0,0E0,0E0,0E0,0E0,0E0,0E0,0E0],"parents":[2147483647,0,0,1,1,2,2,3,3,4,4,5,5,6,6],"right_children":[2,4,6,8,10,12,14,-1,-1,-1,-1,-1,-1,-1,-1],"split_conditions":[9.66385E-1,7.173E-2,8.5E-1,7.5E-1,2.79085E-1,7.5E-1,7.5E-1,2.2893068E-1,-1.7702839E-1,4.5409247E-1,1.9916112E-2,-9.0899885E-2,-9.280547E-3,1.5204151E-1,9.494059E-3],"split_indices":[0,4,5,5,4,12,12,0,0,0,0,0,0,0,0],"sum_hessian":[5.9088174E3,2.4308416E3,3.4779758E3,2.899386E2,2.140903E3,2.4411064E3,1.0368694E3,7.026326E1,2.1967534E2,1.6950457E1,2.1239526E3,5.627288E2,1.8783776E3,1.9491566E2,8.419538E2],"tree_param":{"num_deleted":"0","num_feature":"14","num_nodes":"15","size_leaf_vector":"0"}},{"base_weights":[-1.6461496E-3,-1.02268964E-1,9.699302E-3,-3.1348985E-1,4.4270453E-1,1.3358215E0,-2.3268643E-3,8.70147E-1,-4.7533914E-1,-6.313302E-1,9.122818E-1,4.911422E-1,1.5451434E0,1.9648802E-1,-2.7840346E-2],"default_left":[true,true,true,true,true,true,true,false,false,false,false,false,false,false,false],"id":37,"leaf_child_counts":[0,0,0,0,0,0,0,0,0,0,0,0,0,0,0],"left_children":[1,3,5,7,9,11,13,-1,-1,-1,-1,-1,-1,-1,-1],"loss_changes":[6.7158246E0,6.87538E1,8.4317986E1,8.282164E1,8.475726E1,7.6422653E0,2.6586643E1,0E0,0E0,0E0,0E0,0E0,0E0,0E0,0E0],"parents":[2147483647,0,0,1,1,2,2,3,3,4,4,5,5,6,6],"right_children":[2,4,6,8,10,12,14,-1,-1,-1,-1,-1,-1,-1,-1],"split_conditions":[3.5562E-1,5.833334E-1,5.4844E-1,7.844E-1,7.802E-1,4.6778E-1,5.2207E-1,2.610441E-1,-1.4260174E-1,-1.8939906E-1,2.7368456E-1,1.4734267E-1,4.6354303E-1,5.894641E-2,-8.352105E-3],"split_indices":[0,12,0,6,1,0,11,0,0,0,0,0,0,0,0],"sum_hessian":[5.8808906E3,5.950832E2,5.2858076E3,4.2917017E2,1.6591307E2,4.6515175E1,5.2392925E3,5.1098694E1,3.7807147E2,5.0367092E1,1.15545975E2,9.902367E0,3.661281E1,5.951169E2,4.6441753E3],"tree_param":{"num_deleted":"0","num_feature":"14","num_nodes":"15","size_leaf_vector":"0"}},{"base_weights":[-1.0211596E-3,3.6861936E-3,-2.8577045E-1,-3.7414595E-2,3.2522053E-2,-1.3543435E0,-1.7463118E-1,8.387635E-2,-8.086721E-2,2.54701E-1,9.459425E-3,-2.3551126E0,-6.528162E-1,5.736143E-1,-3.3119226E-1],"default_left":[true,true,true,true,true,true,true,false,false,false,false,false,false,false,false],"id":38,"leaf_child_counts":[0,0,0,0,0,0,0,0,0,0,0,0,0,0,0],"left_children":[1,3,5,7,9,11,13,-1,-1,-1,-1,-1,-1,-1,-1],"loss_changes":[7.827671E0,6.810032E0,1.1042162E1,1.2493439E1,1.7300308E1,4.6400127E0,1.0401718E1,0E0,0E0,0E0,0E0,0E0,0E0,0E0,0E0],"parents":[2147483647,0,0,1,1,2,2,3,3,4,4,5,5,6,6],"right_children":[2,4,6,8,10,12,14,-1,-1,-1,-1,-1,-1,-1,-1],"split_conditions":[6.9932234E-1,5.711137E-1,1.2096E-1,9.74715E-1,3.57045E-1,3.8949999E-3,8.6010504E-1,2.5162905E-2,-2.4260163E-2,7.64103E-2,2.8378274E-3,-7.065338E-1,-1.9584486E-1,1.720843E-1,-9.935768E-2],"split_indices":[9,8,11,4,11,0,0,0,0,0,0,0,0,0,0],"sum_hessian":[5.837949E3,5.7439795E3,9.3969955E1,2.3682004E3,3.375779E3,7.798975E0,8.617098E1,6.243891E2,1.7438114E3,3.1651526E2,3.0592637E3,2.2426229E0,5.556352E0,1.4449462E1,7.172152E1],"tree_param":{"num_deleted":"0","num_feature":"14","num_nodes":"15","size_leaf_vector":"0"}},{"base_weights":[-9.5193874E-4,-5.501246E-2,2.3711052E-2,-5.511765E-1,3.7037143E-3,7.619651E-1,-1.1763221E-2,8.394837E-1,-7.8135806E-1,2.0064655E-1,-1.0594371E-1,-7.117049E-1,1.4694158E0,-5.9969914E-1,9.525153E-3],"default_left":[true,true,true,true,true,true,true,false,false,false,false,false,false,false,false],"id":39,"leaf_child_counts":[0,0,0,0,0,0,0,0,0,0,0,0,0,0,0],"left_children":[1,3,5,7,9,11,13,-1,-1,-1,-1,-1,-1,-1,-1],"loss_changes":[7.76739E0,5.3172718E1,1.04781425E2,6.2479527E1,3.528416E1,1.9228867E2,4.7794903E1,0E0,0E0,0E0,0E0,0E0,0E0,0E0,0E0],"parents":[2147483647,0,0,1,1,2,2,3,3,4,4,5,5,6,6],"right_children":[2,4,6,8,10,12,14,-1,-1,-1,-1,-1,-1,-1,-1],"split_conditions":[9.42665E-1,3.8225E-2,4.6860002E-2,8.0032E-1,1.5E-1,4.166667E-1,3.5113502E-1,2.5184512E-1,-2.3440742E-1,6.0193967E-2,-3.1783115E-2,-2.1351148E-1,4.4082475E-1,-1.7990975E-1,2.8575459E-3],"split_indices":[11,0,0,6,5,12,0,0,0,0,0,0,0,0,0],"sum_hessian":[5.8237354E3,1.8241105E3,3.999625E3,1.9213576E2,1.6319747E3,1.824378E2,3.8171873E3,2.6909971E1,1.6522578E2,5.8335455E2,1.0486201E3,5.9172104E1,1.232657E2,1.3243611E2,3.684751E3],"tree_param":{"num_deleted":"0","num_feature":"14","num_nodes":"15","size_leaf_vector":"0"}}]},"name":"gbtree"},"learner_model_param":{"base_score":"5E-1","num_class":"0","num_feature":"14"},"objective":{"name":"binary:logistic","reg_loss_param":{"scale_pos_weight":"0.241115823"}}},"version":[1,2,0]}