{"learner":{"attributes":{},"gradient_booster":{"model":{"gbtree_model_param":{"num_trees":"16","size_leaf_vector":"0"},"tree_info":[0,0,0,0,0,0,0,0,0,0,0,0,0,0,0,0],"trees":[{"base_weights":[-2.1605836E-2,1.4268391E0,-8.0273384E-1,1.5806946E0,5.859729E-1,1.3964707E0,-1.0601195E0,1.7961959E0,1.4441702E0,1.709724E0,3.9305812E-1,1.6614256E0,-8.6491156E-1,-1.1880343E0,8.3250165E-1,1.8951263E0,1.5589447E0,1.9854034E0,1.3670043E0,1.791121E0,1.4485E0,1.6886456E-1,1.384055E0,1.7103049E0,1.4619181E0,5.5814594E-1,-1.3624789E0,-3.7705255E-1,-1.5882719E0,1.0480759E-1,1.1703233E0],"default_left":[true,true,true,true,true,true,true,true,true,true,true,true,true,true,true,false,false,false,false,false,false,false,false,false,false,false,false,false,false,false,false],"id":0,"leaf_child_counts":[0,0,0,0,0,0,0,0,0,0,0,0,0,0,0,0,0,0,0,0,0,0,0,0,0,0,0,0,0,0,0],"left_children":[1,3,5,7,9,11,13,15,17,19,21,23,25,27,29,-1,-1,-1,-1,-1,-1,-1,-1,-1,-1,-1,-1,-1,-1,-1,-1],"loss_changes":[2.4064479E4,9.631084E2,7.822836E3,1.8271582E2,2.4953418E2,8.6911597E2,2.9957998E3,5.4283203E1,1.5853564E2,9.948425E-1,2.1890771E2,1.0144043E1,1.0876562E2,3.7605996E3,1.925415E2,0E0,0E0,0E0,0E0,0E0,0E0,0E0,0E0,0E0,0E0,0E0,0E0,0E0,0E0,0E0,0E0],"parents":[2147483647,0,0,1,1,2,2,3,3,4,4,5,5,6,6,7,7,8,8,9,9,10,10,11,11,12,12,13,13,14,14],"right_children":[2,4,6,8,10,12,14,16,18,20,22,24,26,28,30,-1,-1,-1,-1,-1,-1,-1,-1,-1,-1,-1,-1,-1,-1,-1,-1],"split_conditions":[9.00515E-1,8.71105E-1,7.5092E-1,7.2721004E-1,7.50925E-1,1.5E-1,8.5E-1,9.5E-1,7.9225E-2,6.1314E-1,8.5E-1,6.2290645E-1,1.45245E-1,1.5E-1,9.5E-1,5.6853795E-1,4.6768343E-1,5.9562105E-1,4.101013E-1,5.3733635E-1,4.3455002E-1,5.065937E-2,4.1521654E-1,5.130915E-1,4.3857545E-1,1.6744378E-1,-4.0874368E-1,-1.13115765E-1,-4.764816E-1,3.144228E-2,3.51097E-1],"split_indices":[3,3,0,4,0,5,5,5,0,0,5,2,0,5,5,0,0,0,0,0,0,0,0,0,0,0,0,0,0,0,0],"sum_hessian":[2.126724E4,7.4506606E3,1.381658E4,6.2975103E3,1.1531504E3,1.4471484E3,1.2369432E4,2.4376157E3,3.8598945E3,1.6780487E2,9.853456E2,1.2956132E3,1.5153525E2,1.1586705E4,7.8272705E2,1.7153505E3,7.222653E2,4.785652E2,3.3813293E3,1.23473946E2,4.4330917E1,8.0451117E2,1.8083441E2,1.0345713E3,2.6104193E2,3.9225983E1,1.12309265E2,3.8293738E3,7.757331E3,2.4857889E2,5.3414813E2],"tree_param":{"num_deleted":"0","num_feature":"6","num_nodes":"31","size_leaf_vector":"0"}},{"base_weights":[-1.5242384E-2,9.895296E-1,-6.398343E-1,1.2230692E0,4.641284E-1,1.0712794E0,-8.256734E-1,1.5410613E0,1.1667005E0,1.3036969E0,3.2560536E-1,1.2523954E0,-6.938204E-1,-2.9561645E-1,-1.0793985E0,1.5434833E0,1.9650455E-1,1.2686057E0,9.757593E-1,1.3235036E0,6.745945E-1,1.7674197E-1,1.1974146E0,1.1412653E0,1.379769E0,-9.2745054E-1,1.2898335E0,1.1520818E0,-5.8609974E-1,-1.2399054E0,5.4297954E-1],"default_left":[true,true,true,true,true,true,true,true,true,true,true,true,true,true,true,false,false,false,false,false,false,false,false,false,false,false,false,false,false,false,false],"id":1,"leaf_child_counts":[0,0,0,0,0,0,0,0,0,0,0,0,0,0,0,0,0,0,0,0,0,0,0,0,0,0,0,0,0,0,0],"left_children":[1,3,5,7,9,11,13,15,17,19,21,23,25,27,29,-1,-1,-1,-1,-1,-1,-1,-1,-1,-1,-1,-1,-1,-1,-1,-1],"loss_changes":[1.278236E4,9.574585E2,3.9949204E3,9.5078125E1,2.7918237E2,3.943794E2,1.5234751E3,2.3365479E0,8.816943E1,3.3457642E0,2.6778918E2,1.4232666E1,5.4581787E1,1.5436917E3,1.9958955E3,0E0,0E0,0E0,0E0,0E0,0E0,0E0,0E0,0E0,0E0,0E0,0E0,0E0,0E0,0E0,0E0],"parents":[2147483647,0,0,1,1,2,2,3,3,4,4,5,5,6,6,7,7,8,8,9,9,10,10,11,11,12,12,13,13,14,14],"right_children":[2,4,6,8,10,12,14,16,18,20,22,24,26,28,30,-1,-1,-1,-1,-1,-1,-1,-1,-1,-1,-1,-1,-1,-1,-1,-1],"split_conditions":[9.14485E-1,8.5201E-1,7.3862004E-1,2.2413E-1,7.50775E-1,1.5E-1,1.5E-1,9.99665E-1,7.62065E-1,9.12795E-1,9.5E-1,7.6935E-2,8.5E-1,8.53825E-1,8.5E-1,4.63045E-1,5.8951367E-2,3.8058174E-1,2.927278E-1,3.970511E-1,2.0237836E-1,5.3022593E-2,3.592244E-1,3.423796E-1,4.139307E-1,-2.7823517E-1,3.8695008E-1,3.4562457E-1,-1.7582993E-1,-3.719716E-1,1.6289386E-1],"split_indices":[3,3,0,0,0,5,5,1,3,3,5,0,5,1,5,0,0,0,0,0,0,0,0,0,0,0,0,0,0,0,0],"sum_hessian":[2.0365934E4,7.8067476E3,1.2559186E4,5.4035527E3,2.4031948E3,1.2299209E3,1.1329265E4,8.0966547E2,4.593887E3,3.391632E2,2.0640315E3,1.1157272E3,1.14193726E2,3.6681995E3,7.6610654E3,8.08062E2,1.6034656E0,2.991617E3,1.6022703E3,3.2774075E2,1.1422454E1,1.7640233E3,3.000082E2,6.0117596E2,5.145512E2,1.0263775E2,1.155598E1,6.1253046E2,3.055669E3,6.9715815E3,6.894838E2],"tree_param":{"num_deleted":"0","num_feature":"6","num_nodes":"31","size_leaf_vector":"0"}},{"base_weights":[-1.1279968E-2,7.241997E-1,-5.453567E-1,9.388794E-1,2.1077205E-1,1.0113932E-2,-9.1748446E-1,1.2109567E0,8.395166E-1,6.3102454E-1,-1.7221695E-1,6.238192E-1,-5.8950126E-1,-1.1102686E0,3.9422784E-2,1.2939144E0,9.5993763E-1,1.3360958E0,7.8144205E-1,9.806544E-1,2.9255816E-1,-6.147235E-1,6.3724655E-1,1.1153569E0,4.4386018E-2,-4.1790327E-1,-1.1706728E0,-8.580654E-1,-1.2373587E0,-2.7990237E-1,6.12455E-1],"default_left":[true,true,true,true,true,true,true,true,true,true,true,true,true,true,true,false,false,false,false,false,false,false,false,false,false,false,false,false,false,false,false],"id":2,"leaf_child_counts":[0,0,0,0,0,0,0,0,0,0,0,0,0,0,0,0,0,0,0,0,0,0,0,0,0,0,0,0,0,0,0],"left_children":[1,3,5,7,9,11,13,15,17,19,21,23,25,27,29,-1,-1,-1,-1,-1,-1,-1,-1,-1,-1,-1,-1,-1,-1,-1,-1],"loss_changes":[7.3483086E3,8.672339E2,2.2401978E3,1.4900098E2,3.7378748E2,1.600643E3,1.1972642E3,2.9622803E1,1.1627051E2,1.3073694E2,4.357671E2,6.1218494E2,2.1892487E2,1.7207422E2,1.9947746E2,0E0,0E0,0E0,0E0,0E0,0E0,0E0,0E0,0E0,0E0,0E0,0E0,0E0,0E0,0E0,0E0],"parents":[2147483647,0,0,1,1,2,2,3,3,4,4,5,5,6,6,7,7,8,8,9,9,10,10,11,11,12,12,13,13,14,14],"right_children":[2,4,6,8,10,12,14,16,18,20,22,24,26,28,30,-1,-1,-1,-1,-1,-1,-1,-1,-1,-1,-1,-1,-1,-1,-1,-1],"split_conditions":[9.26265E-1,8.77805E-1,1.5E-1,3.5315E-2,2.5E-1,9.6632004E-1,6.5E-1,9.5E-1,7.9225E-2,9.6957004E-1,6.5E-1,9.3192995E-1,6.3683736E-1,9.57025E-1,9.5E-1,3.8817436E-1,2.879813E-1,4.0082875E-1,2.3443262E-1,2.9419634E-1,8.776745E-2,-1.8441705E-1,1.9117397E-1,3.346071E-1,1.3315806E-2,-1.25371E-1,-3.5120183E-1,-2.5741965E-1,-3.7120762E-1,-8.397071E-2,1.837365E-1],"split_indices":[3,3,5,4,5,0,5,5,0,0,5,1,2,3,5,0,0,0,0,0,0,0,0,0,0,0,0,0,0,0,0],"sum_hessian":[1.870538E4,7.8688257E3,1.0836555E4,5.548148E3,2.3206775E3,4.347728E3,6.4888267E3,1.4811752E3,4.066973E3,1.1062003E3,1.2144773E3,2.1485994E3,2.1991287E3,5.400625E3,1.0882015E3,1.1101378E3,3.710373E2,4.2352438E2,3.6434485E3,5.431934E2,5.6300684E2,7.85378E2,4.2909924E2,1.1619679E3,9.866314E2,1.6991522E3,4.9997632E2,1.8121891E3,3.588436E3,6.991231E2,3.8907843E2],"tree_param":{"num_deleted":"0","num_feature":"6","num_nodes":"31","size_leaf_vector":"0"}},{"base_weights":[-9.737196E-3,7.4276483E-1,-3.385512E-1,8.849248E-1,4.727322E-1,7.448829E-1,-4.6015003E-1,1.2188414E0,8.314962E-1,3.3965692E-1,8.7981516E-1,8.961156E-1,-2.17869E-1,-4.95525E-2,-6.211082E-1,1.2206928E0,2.3950481E-1,1.054146E0,7.500136E-1,6.9429994E-1,-9.0363435E-2,1.1280549E0,8.020084E-1,1.0464524E0,7.9262507E-1,6.3770247E-1,-6.8164414E-1,-1.3647388E-1,6.727712E-1,-2.6704103E-1,-8.4159577E-1],"default_left":[true,true,true,true,true,true,true,true,true,true,true,true,true,true,true,false,false,false,false,false,false,false,false,false,false,false,false,false,false,false,false],"id":3,"leaf_child_counts":[0,0,0,0,0,0,0,0,0,0,0,0,0,0,0,0,0,0,0,0,0,0,0,0,0,0,0,0,0,0,0],"left_children":[1,3,5,7,9,11,13,15,17,19,21,23,25,27,29,-1,-1,-1,-1,-1,-1,-1,-1,-1,-1,-1,-1,-1,-1,-1,-1],"loss_changes":[4.2080947E3,1.9810815E2,1.5595856E3,5.9410156E1,9.644101E1,1.741399E2,7.0326807E2,5.507202E-1,5.2235596E1,2.055537E2,7.580597E0,1.5237549E1,6.5108734E1,1.883184E2,5.965813E2,0E0,0E0,0E0,0E0,0E0,0E0,0E0,0E0,0E0,0E0,0E0,0E0,0E0,0E0,0E0,0E0],"parents":[2147483647,0,0,1,1,2,2,3,3,4,4,5,5,6,6,7,7,8,8,9,9,10,10,11,11,12,12,13,13,14,14],"right_children":[2,4,6,8,10,12,14,16,18,20,22,24,26,28,30,-1,-1,-1,-1,-1,-1,-1,-1,-1,-1,-1,-1,-1,-1,-1,-1],"split_conditions":[8.85855E-1,8.0834997E-1,7.6215E-1,1.7355001E-1,8.5E-1,1.5E-1,9.4270504E-1,9.99635E-1,2.5375E-2,2.5E-1,9.2409E-1,5.939474E-1,5.4938E-1,8.5E-1,1.5E-1,3.6620784E-1,7.185145E-2,3.1624383E-1,2.2500409E-1,2.0829E-1,-2.7109032E-2,3.3841646E-1,2.4060252E-1,3.1393573E-1,2.3778753E-1,1.9131075E-1,-2.0449325E-1,-4.0942166E-2,2.0183137E-1,-8.011231E-2,-2.5247875E-1],"split_indices":[3,3,0,0,5,5,3,1,4,5,0,2,0,5,5,0,0,0,0,0,0,0,0,0,0,0,0,0,0,0,0],"sum_hessian":[1.7004975E4,5.1706064E3,1.1834369E4,3.3858386E3,1.784768E3,1.1936787E3,1.064069E4,4.6401855E2,2.92182E3,1.3464487E3,4.3831918E2,1.0316868E3,1.61992E2,2.9969368E3,7.6437534E3,4.6289706E2,1.121493E0,7.796103E2,2.14221E3,7.375597E2,6.0888904E2,1.01378044E2,3.3694116E2,4.169246E2,6.1476215E2,5.6811405E1,1.05180595E2,2.6757583E3,3.211784E2,2.9341682E3,4.709585E3],"tree_param":{"num_deleted":"0","num_feature":"6","num_nodes":"31","size_leaf_vector":"0"}},{"base_weights":[-5.367035E-3,4.434811E-1,-3.5248044E-1,7.195399E-1,1.9502218E-1,8.422625E-3,-6.4135164E-1,1.1382838E0,6.6078943E-1,1.1940699E0,1.2233157E-1,5.578366E-1,-3.0419946E-1,-8.5066277E-1,2.0442663E-1,8.3072007E-1,1.1523039E0,7.1048194E-1,1.9506E-1,1.5125192E0,8.933591E-1,4.5202422E-1,-1.9325508E-1,9.24882E-1,-1.4348443E-1,8.5617006E-1,-4.4659632E-1,-6.632016E-1,-1.0079055E0,4.2419595E-1,-4.4022134E-1],"default_left":[true,true,true,true,true,true,true,true,true,true,true,true,true,true,true,false,false,false,false,false,false,false,false,false,false,false,false,false,false,false,false],"id":4,"leaf_child_counts":[0,0,0,0,0,0,0,0,0,0,0,0,0,0,0,0,0,0,0,0,0,0,0,0,0,0,0,0,0,0,0],"left_children":[1,3,5,7,9,11,13,15,17,19,21,23,25,27,29,-1,-1,-1,-1,-1,-1,-1,-1,-1,-1,-1,-1,-1,-1,-1,-1],"loss_changes":[2.4379023E3,4.6789783E2,9.1991943E2,7.875928E1,2.6076764E2,6.74112E2,8.6779553E2,7.515259E-1,6.551221E1,2.1973053E1,3.486672E2,3.6652133E2,4.1370276E2,1.1514331E2,1.380455E2,0E0,0E0,0E0,0E0,0E0,0E0,0E0,0E0,0E0,0E0,0E0,0E0,0E0,0E0,0E0,0E0],"parents":[2147483647,0,0,1,1,2,2,3,3,4,4,5,5,6,6,7,7,8,8,9,9,10,10,11,11,12,12,13,13,14,14],"right_children":[2,4,6,8,10,12,14,16,18,20,22,24,26,28,30,-1,-1,-1,-1,-1,-1,-1,-1,-1,-1,-1,-1,-1,-1,-1,-1],"split_conditions":[9.30665E-1,8.28295E-1,1.5E-1,1.7355001E-1,5.2194E-1,9.13695E-1,6.5E-1,3.0999999E-3,6.509415E-1,6.5E-1,2.5E-1,9.85295E-1,6.04305E-1,9.6377003E-1,6.677618E-1,2.4921604E-1,3.456912E-1,2.1314459E-1,5.8518004E-2,4.537558E-1,2.6800776E-1,1.3560727E-1,-5.7976525E-2,2.774646E-1,-4.304533E-2,2.5685102E-1,-1.339789E-1,-1.9896048E-1,-3.0237165E-1,1.2725879E-1,-1.3206641E-1],"split_indices":[3,3,5,0,4,1,5,4,2,5,5,0,0,3,2,0,0,0,0,0,0,0,0,0,0,0,0,0,0,0,0],"sum_hessian":[1.5645516E4,6.822782E3,8.822734E3,3.2309868E3,3.5917952E3,3.922769E3,4.8999653E3,3.9527686E2,2.83571E3,2.4256706E2,3.349228E3,1.4223291E3,2.50044E3,3.9278938E3,9.720713E2,1.9859657E1,3.754172E2,2.5618406E3,2.7386932E2,1.1585162E2,1.2671544E2,1.637795E3,1.7114331E3,9.334679E2,4.8886124E2,2.7275885E2,2.227681E3,1.7941575E3,2.1337363E3,7.251871E2,2.4688423E2],"tree_param":{"num_deleted":"0","num_feature":"6","num_nodes":"31","size_leaf_vector":"0"}},{"base_weights":[-4.8219427E-3,5.0533223E-1,-2.0246051E-1,7.875252E-1,3.7507397E-1,1.8222488E-1,-3.6867467E-1,9.603725E-1,4.4364193E-1,2.0795317E-1,8.271087E-1,4.6669498E-1,-2.8491804E-1,-4.445357E-1,3.8657075E-1,1.0098217E0,3.09194E-1,-5.159731E-1,7.2681034E-1,6.0876584E-1,-3.3393067E-1,8.4692824E-1,3.5050675E-2,7.2105086E-1,2.4770219E-2,-5.0200474E-1,4.6796778E-1,-2.3716614E-1,-6.590622E-1,5.42852E-1,-5.62281E-1],"default_left":[true,true,true,true,true,true,true,true,true,true,true,true,true,true,true,false,false,false,false,false,false,false,false,false,false,false,false,false,false,false,false],"id":5,"leaf_child_counts":[0,0,0,0,0,0,0,0,0,0,0,0,0,0,0,0,0,0,0,0,0,0,0,0,0,0,0,0,0,0,0],"left_children":[1,3,5,7,9,11,13,15,17,19,21,23,25,27,29,-1,-1,-1,-1,-1,-1,-1,-1,-1,-1,-1,-1,-1,-1,-1,-1],"loss_changes":[1.4493062E3,1.472428E2,6.625206E2,7.486572E1,2.0742953E2,4.156191E2,4.1468817E2,2.6804504E1,1.16016884E2,4.3625406E2,1.1609253E1,2.1845648E2,1.9374457E2,2.9234167E2,9.831146E1,0E0,0E0,0E0,0E0,0E0,0E0,0E0,0E0,0E0,0E0,0E0,0E0,0E0,0E0,0E0,0E0],"parents":[2147483647,0,0,1,1,2,2,3,3,4,4,5,5,6,6,7,7,8,8,9,9,10,10,11,11,12,12,13,13,14,14],"right_children":[2,4,6,8,10,12,14,16,18,20,22,24,26,28,30,-1,-1,-1,-1,-1,-1,-1,-1,-1,-1,-1,-1,-1,-1,-1,-1],"split_conditions":[8.82345E-1,7.27265E-1,9.55815E-1,9.5E-1,9.5E-1,1.5E-1,8.5E-1,2.4926001E-1,9.4503E-1,2.5E-1,9.96785E-1,9.5325994E-1,6.5E-1,2.5E-1,9.8196E-1,3.029465E-1,9.27582E-2,-1.5479194E-1,2.180431E-1,1.8262976E-1,-1.001792E-1,2.5407848E-1,1.0515203E-2,2.1631527E-1,7.431066E-3,-1.5060143E-1,1.4039034E-1,-7.114984E-2,-1.9771867E-1,1.628556E-1,-1.686843E-1],"split_indices":[3,4,0,5,5,5,5,4,0,5,1,1,5,5,3,0,0,0,0,0,0,0,0,0,0,0,0,0,0,0,0],"sum_hessian":[1.4372295E4,4.012774E3,1.0359521E4,1.2657004E3,2.7470735E3,3.1255845E3,7.233937E3,8.4112823E2,4.245722E2,2.0066566E3,7.4041675E2,1.9426156E3,1.1829689E3,6.5740176E3,6.599194E2,7.8125085E2,5.9877342E1,9.655152E1,3.2802066E2,1.1534019E3,8.5325476E2,7.222741E2,1.814265E1,1.2325645E3,7.100511E2,9.184707E2,2.6449814E2,3.3438394E3,3.2301782E3,5.669649E2,9.295444E1],"tree_param":{"num_deleted":"0","num_feature":"6","num_nodes":"31","size_leaf_vector":"0"}},{"base_weights":[-1.5958458E-3,2.8649476E-1,-2.4864501E-1,7.243862E-1,1.8420564E-1,-1.6040256E-2,-4.6830148E-1,9.1248465E-1,3.856442E-1,9.339367E-2,6.652626E-1,5.39651E-1,-1.9490825E-1,-6.5832317E-1,1.3842727E-1,9.8092407E-1,2.3018873E-1,-1.6752586E-1,6.6197807E-1,3.8674778E-1,-2.4963741E-1,8.2656133E-1,5.202101E-1,7.6105917E-1,1.5490218E-2,4.8313517E-2,-5.374267E-1,-4.4149044E-1,-8.363277E-1,1.9560397E-1,-1.207814E0],"default_left":[true,true,true,true,true,true,true,true,true,true,true,true,true,true,true,false,false,false,false,false,false,false,false,false,false,false,false,false,false,false,false],"id":6,"leaf_child_counts":[0,0,0,0,0,0,0,0,0,0,0,0,0,0,0,0,0,0,0,0,0,0,0,0,0,0,0,0,0,0,0],"left_children":[1,3,5,7,9,11,13,15,17,19,21,23,25,27,29,-1,-1,-1,-1,-1,-1,-1,-1,-1,-1,-1,-1,-1,-1,-1,-1],"loss_changes":[9.5048517E2,2.7601663E2,3.6732306E2,7.401288E1,2.1832787E2,3.4727673E2,4.2639313E2,3.4781433E1,6.407156E1,4.2338748E2,1.8139801E1,9.872464E1,2.2021304E2,1.0831702E2,6.817994E1,0E0,0E0,0E0,0E0,0E0,0E0,0E0,0E0,0E0,0E0,0E0,0E0,0E0,0E0,0E0,0E0],"parents":[2147483647,0,0,1,1,2,2,3,3,4,4,5,5,6,6,7,7,8,8,9,9,10,10,11,11,12,12,13,13,14,14],"right_children":[2,4,6,8,10,12,14,16,18,20,22,24,26,28,30,-1,-1,-1,-1,-1,-1,-1,-1,-1,-1,-1,-1,-1,-1,-1,-1],"split_conditions":[9.35315E-1,6.9791E-1,1.5E-1,9.5E-1,9.5E-1,8.80875E-1,6.5E-1,2.4926001E-1,9.70225E-1,2.5E-1,9.1104496E-1,9.97525E-1,6.135083E-1,9.6377003E-1,9.9109995E-1,2.9427722E-1,6.905662E-2,-5.025776E-2,1.9859342E-1,1.1602434E-1,-7.4891225E-2,2.479684E-1,1.5606304E-1,2.2831775E-1,4.6470654E-3,1.4494056E-2,-1.6122802E-1,-1.3244714E-1,-2.508983E-1,5.8681194E-2,-3.623442E-1],"split_indices":[3,4,5,5,5,1,5,4,0,5,1,0,2,3,3,0,0,0,0,0,0,0,0,0,0,0,0,0,0,0,0],"sum_hessian":[1.335266E4,6.1642285E3,7.188431E3,1.1661127E3,4.998116E3,3.491834E3,3.6965972E3,7.4868524E2,4.174275E2,4.205427E3,7.9268915E2,8.497838E2,2.64205E3,2.8149092E3,8.8168787E2,6.800349E2,6.865029E1,1.391894E2,2.7823807E2,2.266785E3,1.9386418E3,3.731013E2,4.1958783E2,5.971097E2,2.526741E2,1.545472E3,1.0965781E3,1.270615E3,1.5442942E3,8.4658685E2,3.5100994E1],"tree_param":{"num_deleted":"0","num_feature":"6","num_nodes":"31","size_leaf_vector":"0"}},{"base_weights":[-1.2067354E-3,1.794309E-1,-2.6109368E-1,6.283965E-1,1.0723274E-1,-1.1443554E-2,-4.425858E-1,8.2370454E-1,3.169844E-1,5.939724E-1,4.7918703E-2,4.092679E-1,-1.7603846E-1,-5.206885E-1,1.4402336E-1,8.9913076E-1,2.6357073E-1,-4.2229798E-1,4.5770267E-1,9.379259E-1,2.770793E-1,-1.18462555E-2,5.0614476E-1,5.276588E-1,-5.935957E-1,6.486052E-1,-2.881806E-1,-3.5421044E-1,-8.459073E-1,2.5644368E-1,-8.3341503E-1],"default_left":[true,true,true,true,true,true,true,true,true,true,true,true,true,true,true,false,false,false,false,false,false,false,false,false,false,false,false,false,false,false,false],"id":7,"leaf_child_counts":[0,0,0,0,0,0,0,0,0,0,0,0,0,0,0,0,0,0,0,0,0,0,0,0,0,0,0,0,0,0,0],"left_children":[1,3,5,7,9,11,13,15,17,19,21,23,25,27,29,-1,-1,-1,-1,-1,-1,-1,-1,-1,-1,-1,-1,-1,-1,-1,-1],"loss_changes":[5.8752673E2,2.3925795E2,2.3251602E2,6.1935913E1,1.836359E2,1.4973595E2,1.362179E2,2.6288452E1,4.1366447E1,7.504968E1,1.5533112E2,7.251113E1,1.4391714E2,1.416925E2,3.8665848E1,0E0,0E0,0E0,0E0,0E0,0E0,0E0,0E0,0E0,0E0,0E0,0E0,0E0,0E0,0E0,0E0],"parents":[2147483647,0,0,1,1,2,2,3,3,4,4,5,5,6,6,7,7,8,8,9,9,10,10,11,11,12,12,13,13,14,14],"right_children":[2,4,6,8,10,12,14,16,18,20,22,24,26,28,30,-1,-1,-1,-1,-1,-1,-1,-1,-1,-1,-1,-1,-1,-1,-1,-1],"split_conditions":[9.54235E-1,6.9728E-1,9.8367E-1,9.5E-1,8.0219495E-1,9.0899503E-1,7.5E-1,2.3904E-1,8.0937E-1,1.5E-1,9.5E-1,2.5E-1,6.0256004E-1,6.3701916E-1,7.065992E-1,2.6973924E-1,7.9071224E-2,-1.266894E-1,1.373108E-1,2.8137776E-1,8.3123796E-2,-3.553877E-3,1.5184343E-1,1.5829766E-1,-1.7807871E-1,1.9458158E-1,-8.645418E-2,-1.0626314E-1,-2.537722E-1,7.693311E-2,-2.5002453E-1],"split_indices":[3,4,0,5,1,1,5,4,0,5,5,5,0,2,2,0,0,0,0,0,0,0,0,0,0,0,0,0,0,0,0],"sum_hessian":[1.2513119E4,7.382282E3,5.130837E3,1.02161926E3,6.360663E3,2.1603064E3,2.9705305E3,6.268398E2,3.9477948E2,6.899357E2,5.670727E3,6.07085E2,1.5532213E3,2.6215964E3,3.4893393E2,5.519151E2,7.4924675E1,6.280804E1,3.3197144E2,3.2990234E2,3.6003342E2,5.0173096E3,6.5341754E2,5.43408E2,6.3677036E1,1.8536266E2,1.3678586E3,1.7353617E3,8.862348E2,3.136025E2,3.5331432E1],"tree_param":{"num_deleted":"0","num_feature":"6","num_nodes":"31","size_leaf_vector":"0"}},{"base_weights":[-1.8322893E-4,1.2986983E-1,-2.1331291E-1,6.1359596E-1,7.3179916E-2,-1.2467654E-1,-6.5826386E-1,9.558732E-1,4.7265843E-1,4.9761072E-1,2.7934752E-2,2.6790889E-2,-3.600311E-1,-8.266429E-1,-1.06780194E-1,1.0136366E0,6.320366E-1,6.7653084E-1,3.3253065E-1,8.7765825E-1,3.436618E-1,2.4401686E-1,-4.73227E-2,6.002004E-1,-5.9236005E-2,-5.2434134E-1,3.5518268E-1,5.844679E-1,-8.5506916E-1,6.5028125E-1,-3.5126254E-1],"default_left":[true,true,true,true,true,true,true,true,true,true,true,true,true,true,true,false,false,false,false,false,false,false,false,false,false,false,false,false,false,false,false],"id":8,"leaf_child_counts":[0,0,0,0,0,0,0,0,0,0,0,0,0,0,0,0,0,0,0,0,0,0,0,0,0,0,0,0,0,0,0],"left_children":[1,3,5,7,9,11,13,15,17,19,21,23,25,27,29,-1,-1,-1,-1,-1,-1,-1,-1,-1,-1,-1,-1,-1,-1,-1,-1],"loss_changes":[3.3028745E2,2.0288751E2,1.780109E2,3.6989655E1,1.2721063E2,1.342903E2,6.954465E1,3.575653E0,1.5537643E1,3.7035416E1,9.738613E1,1.1313448E2,1.735269E2,2.3537811E1,3.2905617E1,0E0,0E0,0E0,0E0,0E0,0E0,0E0,0E0,0E0,0E0,0E0,0E0,0E0,0E0,0E0,0E0],"parents":[2147483647,0,0,1,1,2,2,3,3,4,4,5,5,6,6,7,7,8,8,9,9,10,10,11,11,12,12,13,13,14,14],"right_children":[2,4,6,8,10,12,14,16,18,20,22,24,26,28,30,-1,-1,-1,-1,-1,-1,-1,-1,-1,-1,-1,-1,-1,-1,-1,-1],"split_conditions":[9.57025E-1,7.5544E-1,6.6141E-1,7.64735E-1,8.003E-1,1.5E-1,7.5E-1,6.9976E-1,5.924685E-1,1.5E-1,9.74955E-1,8.2208E-1,7.5E-1,2.7885001E-2,8.5E-1,3.0409098E-1,1.89611E-1,2.0295925E-1,9.97592E-2,2.632975E-1,1.0309854E-1,7.320506E-2,-1.4196811E-2,1.8006013E-1,-1.7770803E-2,-1.5730241E-1,1.06554806E-1,1.7534037E-1,-2.5652075E-1,1.9508438E-1,-1.0537877E-1],"split_indices":[3,0,2,3,1,5,5,0,2,5,4,1,5,0,5,0,0,0,0,0,0,0,0,0,0,0,0,0,0,0,0],"sum_hessian":[1.191392E4,7.399245E3,4.514675E3,7.751541E2,6.624091E3,3.7657913E3,7.4888354E2,2.2439993E2,5.5075415E2,6.3715356E2,5.9869375E3,2.2917642E3,1.4740272E3,5.733342E2,1.7554935E2,1.886245E2,3.577543E1,2.2278925E2,3.279649E2,1.8233342E2,4.5482013E2,1.5459381E3,4.4409995E3,2.9819278E2,1.9935713E3,1.1988706E3,2.7515662E2,1.0935274E1,5.623989E2,4.2447388E1,1.3310196E2],"tree_param":{"num_deleted":"0","num_feature":"6","num_nodes":"31","size_leaf_vector":"0"}},{"base_weights":[-5.126308E-4,3.3689567E-1,-5.7476223E-2,5.9682274E-1,1.6913928E-1,1.1281591E-1,-1.8855903E-1,8.9441454E-1,3.6426446E-1,4.0365615E-1,-9.561583E-2,4.1000393E-1,1.3001272E-2,-2.3193318E-1,2.946726E-1,1.0349458E0,7.294234E-1,9.663913E-1,7.725556E-2,7.9618555E-1,2.6394838E-1,9.914208E-2,-4.540655E-1,5.4166883E-1,6.677785E-2,7.179199E-1,-3.7867617E-2,1.8247087E0,-2.4084084E-1,5.167616E-1,-4.4363197E-2],"default_left":[true,true,true,true,true,true,true,true,true,true,true,true,true,true,true,false,false,false,false,false,false,false,false,false,false,false,false,false,false,false,false],"id":9,"leaf_child_counts":[0,0,0,0,0,0,0,0,0,0,0,0,0,0,0,0,0,0,0,0,0,0,0,0,0,0,0,0,0,0,0],"left_children":[1,3,5,7,9,11,13,15,17,19,21,23,25,27,29,-1,-1,-1,-1,-1,-1,-1,-1,-1,-1,-1,-1,-1,-1,-1,-1],"loss_changes":[2.2081445E2,7.225867E1,2.1943517E2,4.469481E1,6.2745277E1,1.268333E2,1.16488174E2,5.845627E0,6.3321938E1,2.9169762E1,3.3218803E1,4.8544556E1,1.1484128E2,9.3825195E1,3.4503647E1,0E0,0E0,0E0,0E0,0E0,0E0,0E0,0E0,0E0,0E0,0E0,0E0,0E0,0E0,0E0,0E0],"parents":[2147483647,0,0,1,1,2,2,3,3,4,4,5,5,6,6,7,7,8,8,9,9,10,10,11,11,12,12,13,13,14,14],"right_children":[2,4,6,8,10,12,14,16,18,20,22,24,26,28,30,-1,-1,-1,-1,-1,-1,-1,-1,-1,-1,-1,-1,-1,-1,-1,-1],"split_conditions":[7.96875E-1,4.5E-1,9.84375E-1,6.0337496E-1,9.2006004E-1,9.0002E-1,9.5E-1,1.5E-1,9.7723997E-1,1.8989999E-2,6.1866677E-1,1.5E-1,4.7435E-2,5E-2,6.298686E-1,3.1048375E-1,2.1882702E-1,2.899174E-1,2.317667E-2,2.3885567E-1,7.918452E-2,2.9742626E-2,-1.3621965E-1,1.6250065E-1,2.0033356E-2,2.1537597E-1,-1.1360286E-2,5.4741263E-1,-7.225225E-2,1.5502849E-1,-1.330896E-2],"split_indices":[3,5,0,3,1,1,5,5,4,4,2,5,0,5,2,0,0,0,0,0,0,0,0,0,0,0,0,0,0,0,0],"sum_hessian":[1.1486784E4,1.6584563E3,9.828328E3,6.495168E2,1.0089396E3,4.274885E3,5.5534434E3,2.8367184E2,3.6584497E2,5.347446E2,4.7419495E2,1.0740126E3,3.2008718E3,5.096509E3,4.56935E2,1.5034367E2,1.3332816E2,1.1732897E2,2.48516E2,1.3913252E2,3.956121E2,3.0772232E2,1.6647261E2,7.758216E2,2.9819104E2,2.1455469E2,2.9863171E3,2.1099564E1,5.075409E3,2.757668E2,1.8116818E2],"tree_param":{"num_deleted":"0","num_feature":"6","num_nodes":"31","size_leaf_vector":"0"}},{"base_weights":[1.7303444E-3,8.74794E-2,-1.7836337E-1,4.257339E-1,4.815315E-2,-7.448447E-2,-4.7872362E-1,6.4607877E-1,1.2775812E-1,2.1593066E-1,-9.5810734E-2,2.4774652E-2,-3.6132962E-1,-6.241703E-1,-2.01713E-2,7.50097E-1,8.5181326E-2,6.529673E-1,-7.502881E-2,3.591355E-1,2.2108458E-2,-3.200461E-1,2.2465838E-1,3.523289E-1,-3.3140752E-2,-6.382537E-1,1.4501771E-1,3.3553284E-1,-6.843382E-1,4.7213718E-1,-2.3311935E-1],"default_left":[true,true,true,true,true,true,true,true,true,true,true,true,true,true,true,false,false,false,false,false,false,false,false,false,false,false,false,false,false,false,false],"id":10,"leaf_child_counts":[0,0,0,0,0,0,0,0,0,0,0,0,0,0,0,0,0,0,0,0,0,0,0,0,0,0,0,0,0,0,0],"left_children":[1,3,5,7,9,11,13,15,17,19,21,23,25,27,29,-1,-1,-1,-1,-1,-1,-1,-1,-1,-1,-1,-1,-1,-1,-1,-1],"loss_changes":[1.716809E2,1.0016228E2,1.1184852E2,5.1411026E1,1.6301053E2,7.5904076E1,6.143344E1,2.6227081E1,3.5691338E1,8.6496124E1,2.6109903E2,3.7597263E1,9.618998E1,4.0615997E1,2.347679E1,0E0,0E0,0E0,0E0,0E0,0E0,0E0,0E0,0E0,0E0,0E0,0E0,0E0,0E0,0E0,0E0],"parents":[2147483647,0,0,1,1,2,2,3,3,4,4,5,5,6,6,7,7,8,8,9,9,10,10,11,11,12,12,13,13,14,14],"right_children":[2,4,6,8,10,12,14,16,18,20,22,24,26,28,30,-1,-1,-1,-1,-1,-1,-1,-1,-1,-1,-1,-1,-1,-1,-1,-1],"split_conditions":[9.62685E-1,6.96275E-1,6.443163E-1,9.5E-1,2.5E-1,2.5E-1,7.5E-1,2.3904E-1,5.36215E-1,9.4941497E-1,6.5E-1,8.45075E-1,5.5E-1,8.15535E-1,9.76695E-1,2.250291E-1,2.5554398E-2,1.9589019E-1,-2.2508644E-2,1.07740656E-1,6.6325376E-3,-9.601384E-2,6.739752E-2,1.05698675E-1,-9.942226E-3,-1.9147612E-1,4.3505315E-2,1.00659855E-1,-2.0530148E-1,1.4164115E-1,-6.9935806E-2],"split_indices":[3,4,2,5,5,5,5,4,3,1,5,1,5,1,4,0,0,0,0,0,0,0,0,0,0,0,0,0,0,0,0],"sum_hessian":[1.1115153E4,7.5302476E3,3.584906E3,7.832762E2,6.7469717E3,2.664606E3,9.202999E2,4.496237E2,3.3365253E2,3.1155576E3,3.631414E3,1.9802717E3,6.843343E2,6.9841187E2,2.2188809E2,3.7900082E2,7.062287E1,9.232218E1,2.4133034E2,1.7912476E3,1.32431E3,2.1364915E3,1.4949225E3,2.967648E2,1.683507E3,4.422208E2,2.4211346E2,4.0933224E1,6.5747864E2,6.6630295E1,1.552578E2],"tree_param":{"num_deleted":"0","num_feature":"6","num_nodes":"31","size_leaf_vector":"0"}},{"base_weights":[6.872641E-4,1.7370307E-1,-5.8897793E-2,2.9367083E-1,1.9231664E-2,-1.04093954E-1,2.8814983E-1,4.3428922E-1,1.7105438E-1,4.6397433E-1,-6.1039634E-2,5.913622E-1,-1.2580396E-1,3.201604E-1,-1.185842E0,6.4076585E-1,2.8759477E-1,2.6633328E-1,-2.2745408E-1,6.6400707E-1,1.4632625E-3,4.7602016E-3,-3.8396093E-1,5.379057E-1,3.107947E0,-2.8284278E-2,-2.8921247E-1,5.4671836E-1,2.1923305E-1,-3.2253892E0,-8.931976E-1],"default_left":[true,true,true,true,true,true,true,true,true,true,true,true,true,true,true,false,false,false,false,false,false,false,false,false,false,false,false,false,false,false,false],"id":11,"leaf_child_counts":[0,0,0,0,0,0,0,0,0,0,0,0,0,0,0,0,0,0,0,0,0,0,0,0,0,0,0,0,0,0,0],"left_children":[1,3,5,7,9,11,13,15,17,19,21,23,25,27,29,-1,-1,-1,-1,-1,-1,-1,-1,-1,-1,-1,-1,-1,-1,-1,-1],"loss_changes":[1.1055383E2,5.0902718E1,1.25146965E2,2.6585083E1,4.293756E1,1.0664402E2,4.375917E1,2.1610718E1,3.1484371E1,1.701157E1,2.1654823E1,2.7096413E1,1.0907883E2,2.0473816E1,8.909719E0,0E0,0E0,0E0,0E0,0E0,0E0,0E0,0E0,0E0,0E0,0E0,0E0,0E0,0E0,0E0,0E0],"parents":[2147483647,0,0,1,1,2,2,3,3,4,4,5,5,6,6,7,7,8,8,9,9,10,10,11,11,12,12,13,13,14,14],"right_children":[2,4,6,8,10,12,14,16,18,20,22,24,26,28,30,-1,-1,-1,-1,-1,-1,-1,-1,-1,-1,-1,-1,-1,-1,-1,-1],"split_conditions":[9.36765E-1,9.57005E-1,9.5E-1,9.2627E-1,5.4858E-1,2.3896E-1,7.149627E-1,1.5E-1,2.5E-1,6.2354666E-1,6.34789E-1,9.54835E-1,3.5000002E-1,8.8743997E-1,7.4707997E-1,1.9222976E-1,8.627843E-2,7.989999E-2,-6.8236224E-2,1.9920214E-1,4.3897875E-4,1.4280605E-3,-1.15188286E-1,1.6137171E-1,9.323842E-1,-8.485284E-3,-8.676374E-2,1.6401552E-1,6.576992E-2,-9.676168E-1,-2.679593E-1],"split_indices":[0,1,5,3,0,4,2,5,5,2,2,3,5,1,3,0,0,0,0,0,0,0,0,0,0,0,0,0,0,0,0],"sum_hessian":[1.0721856E4,2.746113E3,7.9757427E3,1.5451759E3,1.2009373E3,7.05736E3,9.1838293E2,7.185686E2,8.266073E2,1.8288483E2,1.01805237E3,2.1284558E2,6.844514E3,8.9962854E2,1.875436E1,2.970684E2,4.215002E2,6.673767E2,1.592306E2,1.273648E2,5.552003E1,8.465425E2,1.7150989E2,2.0960692E2,3.238661E0,4.2871704E3,2.557344E3,2.7589423E2,6.237343E2,1.0957991E0,1.7658562E1],"tree_param":{"num_deleted":"0","num_feature":"6","num_nodes":"31","size_leaf_vector":"0"}},{"base_weights":[1.316997E-3,6.286364E-2,-1.2938592E-1,3.0842385E-1,3.869695E-2,-7.17409E-2,-4.9768183E-1,7.3040366E-1,4.4795416E-2,1.426564E-1,-1.569121E-2,1.1998748E0,-8.365902E-2,-7.4122E-1,-7.48471E-2,7.750823E-1,-8.648594E-1,3.6124802E-1,-2.6317823E-1,4.5453987E-1,1.0524004E-1,-5.948143E-2,2.072045E-1,-3.431008E-1,1.2849386E0,-1.044996E-1,4.309203E-1,1.4352778E0,-7.568055E-1,8.5479975E-1,-1.8409416E-1],"default_left":[true,true,true,true,true,true,true,true,true,true,true,true,true,true,true,false,false,false,false,false,false,false,false,false,false,false,false,false,false,false,false],"id":12,"leaf_child_counts":[0,0,0,0,0,0,0,0,0,0,0,0,0,0,0,0,0,0,0,0,0,0,0,0,0,0,0,0,0,0,0],"left_children":[1,3,5,7,9,11,13,15,17,19,21,23,25,27,29,-1,-1,-1,-1,-1,-1,-1,-1,-1,-1,-1,-1,-1,-1,-1,-1],"loss_changes":[8.415043E1,4.2192772E1,7.106351E1,7.0837685E1,3.6617702E1,4.400321E1,4.659916E1,1.8125061E1,3.8412575E1,2.590963E1,4.1519154E1,3.9798927E0,3.0832998E1,1.0834274E1,1.7086792E1,0E0,0E0,0E0,0E0,0E0,0E0,0E0,0E0,0E0,0E0,0E0,0E0,0E0,0E0,0E0,0E0],"parents":[2147483647,0,0,1,1,2,2,3,3,4,4,5,5,6,6,7,7,8,8,9,9,10,10,11,11,12,12,13,13,14,14],"right_children":[2,4,6,8,10,12,14,16,18,20,22,24,26,28,30,-1,-1,-1,-1,-1,-1,-1,-1,-1,-1,-1,-1,-1,-1,-1,-1],"split_conditions":[9.62685E-1,6.30125E-1,6.6762567E-1,4.5E-1,9.6648E-1,5E-2,6.5E-1,7.0923847E-1,7.28625E-1,8.32295E-1,8.5E-1,8.6095E-1,9.5E-1,6.9541E-1,9.68505E-1,2.325247E-1,-2.5945783E-1,1.0837441E-1,-7.8953475E-2,1.3636197E-1,3.1572014E-2,-1.784443E-2,6.2161352E-2,-1.0293024E-1,3.854816E-1,-3.1349882E-2,1.292761E-1,4.3058336E-1,-2.2704165E-1,2.5643992E-1,-5.5228252E-2],"split_indices":[3,3,2,5,0,5,5,2,4,1,5,1,5,4,3,0,0,0,0,0,0,0,0,0,0,0,0,0,0,0,0],"sum_hessian":[1.0458833E4,7.1109023E3,3.347931E3,6.3606085E2,6.4748413E3,2.8958694E3,4.5206146E2,2.4389574E2,3.921651E2,2.223377E3,4.2514644E3,2.5963758E1,2.8699055E3,2.8636954E2,1.6569194E2,2.3775117E2,6.14457E0,1.9333467E2,1.9883041E2,2.3696992E2,1.986407E3,3.5539805E3,6.9748395E2,1.1980914E0,2.4765667E1,2.7589639E3,1.10941734E2,1.3884075E0,2.849811E2,1.670604E1,1.489859E2],"tree_param":{"num_deleted":"0","num_feature":"6","num_nodes":"31","size_leaf_vector":"0"}},{"base_weights":[1.3150616E-3,2.9350364E-1,-1.968532E-2,-5.249396E-1,3.609727E-1,5.786801E-1,-3.222937E-2,6.882226E-1,-1.8302916E0,6.693766E-1,1.0978462E-1,-1.3263328E0,7.254435E-1,-1.1714898E-2,-3.4172586E-1,7.48275E-1,-4.6173555E-1,4.204746E-1,-2.620538E0,1.057276E0,5.2028084E-1,-1.704304E-1,4.241527E-1,7.0718986E-1,-2.5225272E0,7.44875E-1,-1.3894572E0,-4.280418E-2,1.09570056E-1,-2.0914093E-1,-7.4011296E-1],"default_left":[true,true,true,true,true,true,true,true,true,true,true,true,true,true,true,false,false,false,false,false,false,false,false,false,false,false,false,false,false,false,false],"id":13,"leaf_child_counts":[0,0,0,0,0,0,0,0,0,0,0,0,0,0,0,0,0,0,0,0,0,0,0,0,0,0,0,0,0,0,0],"left_children":[1,3,5,7,9,11,13,15,17,19,21,23,25,27,29,-1,-1,-1,-1,-1,-1,-1,-1,-1,-1,-1,-1,-1,-1,-1,-1],"loss_changes":[6.3024548E1,3.8220097E1,7.1944176E1,8.496654E1,4.926216E1,5.5988678E1,5.9593536E1,2.2876463E0,4.687581E1,1.5971649E1,3.109629E1,3.6888767E1,8.57122E0,3.3202415E1,3.0664124E1,0E0,0E0,0E0,0E0,0E0,0E0,0E0,0E0,0E0,0E0,0E0,0E0,0E0,0E0,0E0,0E0],"parents":[2147483647,0,0,1,1,2,2,3,3,4,4,5,5,6,6,7,7,8,8,9,9,10,10,11,11,12,12,13,13,14,14],"right_children":[2,4,6,8,10,12,14,16,18,20,22,24,26,28,30,-1,-1,-1,-1,-1,-1,-1,-1,-1,-1,-1,-1,-1,-1,-1,-1],"split_conditions":[7.82275E-1,2.6384002E-1,2.7915E-2,8.91145E-1,1.5E-1,8.33265E-1,6.703954E-1,7.226E-2,4.799E-1,6.7017996E-1,6.5E-1,8.8029003E-1,9.99615E-1,6.5E-1,9.8926497E-1,2.244825E-1,-1.3852067E-1,1.2614238E-1,-7.861614E-1,3.171828E-1,1.5608425E-1,-5.1129125E-2,1.2724581E-1,2.1215697E-1,-7.567582E-1,2.234625E-1,-4.168372E-1,-1.2841255E-2,3.287102E-2,-6.274228E-2,-2.220339E-1],"split_indices":[1,0,0,3,5,1,2,0,1,1,5,3,1,5,3,0,0,0,0,0,0,0,0,0,0,0,0,0,0,0,0],"sum_hessian":[1.0269214E4,6.877156E2,9.581498E3,5.1858482E1,6.358571E2,1.9581409E2,9.385685E3,2.7123413E1,2.4735067E1,2.8467444E2,3.5118265E2,1.3431665E1,1.8238242E2,8.803216E3,5.8246906E2,2.6109255E1,1.0141596E0,6.549322E0,1.8185745E1,7.734813E1,2.0732632E2,1.8591943E2,1.6526321E2,5.126111E0,8.305554E0,1.8136386E2,1.0185605E0,7.007589E3,1.7956262E3,4.3816937E2,1.4429968E2],"tree_param":{"num_deleted":"0","num_feature":"6","num_nodes":"31","size_leaf_vector":"0"}},{"base_weights":[2.0164344E-3,6.288774E-2,-6.120234E-2,1.9497621E-1,-3.2865275E-2,-1.7416455E-1,7.964585E-2,6.2646705E-1,1.6892113E-1,2.1864077E-2,-3.8513142E-1,7.258245E-1,-2.3825781E-1,1.9958074E-1,-5.6359407E-2,-3.1491947E-1,8.5437906E-1,2.692754E-1,6.334519E-2,3.3937952E-1,-1.7320983E-2,8.7043726E-1,-4.4798014E-1,-8.076921E-1,8.217121E-1,-1.9316328E-1,-7.3965603E-1,7.5804375E-2,3.5373682E-1,-2.7064726E-1,3.0921068E-2],"default_left":[true,true,true,true,true,true,true,true,true,true,true,true,true,true,true,false,false,false,false,false,false,false,false,false,false,false,false,false,false,false,false],"id":14,"leaf_child_counts":[0,0,0,0,0,0,0,0,0,0,0,0,0,0,0,0,0,0,0,0,0,0,0,0,0,0,0,0,0,0,0],"left_children":[1,3,5,7,9,11,13,15,17,19,21,23,25,27,29,-1,-1,-1,-1,-1,-1,-1,-1,-1,-1,-1,-1,-1,-1,-1,-1],"loss_changes":[3.9047813E1,6.538913E1,7.920917E1,2.4320503E1,5.7803772E1,1.5952428E2,3.6158432E1,2.6735104E1,2.1706047E1,3.230024E1,3.2204586E1,2.7705711E1,5.8183197E1,2.2446655E1,1.9445E1,0E0,0E0,0E0,0E0,0E0,0E0,0E0,0E0,0E0,0E0,0E0,0E0,0E0,0E0,0E0,0E0],"parents":[2147483647,0,0,1,1,2,2,3,3,4,4,5,5,6,6,7,7,8,8,9,9,10,10,11,11,12,12,13,13,14,14],"right_children":[2,4,6,8,10,12,14,16,18,20,22,24,26,28,30,-1,-1,-1,-1,-1,-1,-1,-1,-1,-1,-1,-1,-1,-1,-1,-1],"split_conditions":[2.5E-1,9.29245E-1,6.5E-1,6.8258E-1,6.3831115E-1,4.41695E-1,6.177856E-1,2.5652498E-1,9.91125E-1,7.6862E-1,2.953E-2,2.2195E-2,9.78885E-1,9.9862504E-1,8.33865E-1,-9.447584E-2,2.5631374E-1,8.078262E-2,1.9003557E-2,1.0181386E-1,-5.196295E-3,2.611312E-1,-1.3439405E-1,-2.4230765E-1,2.4651363E-1,-5.7948984E-2,-2.2189681E-1,2.2741314E-2,1.0612105E-1,-8.119418E-2,9.276321E-3],"split_indices":[5,1,5,1,2,4,2,0,0,0,0,3,3,4,3,0,0,0,0,0,0,0,0,0,0,0,0,0,0,0,0],"sum_hessian":[1.0145007E4,5.168465E3,4.9765425E3,2.1716716E3,2.9967932E3,2.7615247E3,2.2150178E3,1.2235418E2,2.0493176E3,2.5946213E3,4.021719E2,1.8290282E2,2.5786218E3,1.1768004E3,1.0382173E3,2.3774065E1,9.858011E1,1.0498456E3,9.99472E2,2.8418854E2,2.3104329E3,1.8558916E1,3.8361298E2,1.0326657E1,1.7257617E2,2.3671145E3,2.1150725E2,6.5354333E2,5.2325714E2,2.9987476E2,7.3834247E2],"tree_param":{"num_deleted":"0","num_feature":"6","num_nodes":"31","size_leaf_vector":"0"}},{"base_weights":[1.6418424E-3,3.9815936E-2,-8.067214E-2,1.4532225E-1,7.3967054E-3,1.6807375E-2,-1.7903021E-1,2.1601242E-1,-1.1042105E-1,1.0138808E-1,-1.09807365E-1,7.1094014E-2,-3.1972146E-1,-2.3247558E-1,4.9938686E-2,6.093984E-1,3.1691264E-2,-4.365184E-1,2.74035E-1,7.4758834E-1,7.745452E-2,-1.9608057E-1,2.8009465E-1,5.012454E-2,6.2904555E-1,-7.1497375E-1,2.1162164E-1,-1.5664124E-1,-5.0415754E-1,7.807511E-1,-2.5915349E-2],"default_left":[true,true,true,true,true,true,true,true,true,true,true,true,true,true,true,false,false,false,false,false,false,false,false,false,false,false,false,false,false,false,false],"id":15,"leaf_child_counts":[0,0,0,0,0,0,0,0,0,0,0,0,0,0,0,0,0,0,0,0,0,0,0,0,0,0,0,0,0,0,0],"left_children":[1,3,5,7,9,11,13,15,17,19,21,23,25,27,29,-1,-1,-1,-1,-1,-1,-1,-1,-1,-1,-1,-1,-1,-1,-1,-1],"loss_changes":[3.1196953E1,2.3198425E1,3.0162136E1,2.8844536E1,5.717876E1,2.890131E1,1.9172829E1,9.056692E1,4.3483788E1,4.4490334E1,7.775915E1,1.5903614E1,4.630334E1,2.6079575E1,1.649235E1,0E0,0E0,0E0,0E0,0E0,0E0,0E0,0E0,0E0,0E0,0E0,0E0,0E0,0E0,0E0,0E0],"parents":[2147483647,0,0,1,1,2,2,3,3,4,4,5,5,6,6,7,7,8,8,9,9,10,10,11,11,12,12,13,13,14,14],"right_children":[2,4,6,8,10,12,14,16,18,20,22,24,26,28,30,-1,-1,-1,-1,-1,-1,-1,-1,-1,-1,-1,-1,-1,-1,-1,-1],"split_conditions":[9.62375E-1,9.74955E-1,6.131666E-1,9.3037E-1,2.5E-1,3.5000002E-1,7.5E-1,4.5E-1,5.5E-1,6.0337496E-1,9.5E-1,9.99455E-1,5.5E-1,3.5000002E-1,8.9645505E-1,1.8281953E-1,9.5073795E-3,-1.3095553E-1,8.22105E-2,2.2427651E-1,2.3236357E-2,-5.882417E-2,8.40284E-2,1.5037362E-2,1.8871367E-1,-2.1449213E-1,6.3486494E-2,-4.6992376E-2,-1.5124726E-1,2.3422535E-1,-7.774605E-3],"split_indices":[3,4,2,3,5,5,5,5,5,3,5,3,5,5,4,0,0,0,0,0,0,0,0,0,0,0,0,0,0,0,0],"sum_hessian":[9.926162E3,6.7816206E3,3.1445415E3,1.5931931E3,5.1884277E3,1.5797406E3,1.5648009E3,1.248304E3,3.448892E2,2.8794211E3,2.3090063E3,1.3609843E3,2.1875635E2,1.2686583E3,2.9614255E2,3.9754358E2,8.507604E2,1.8653444E2,1.5835477E2,1.0175752E2,2.7776636E3,1.8910688E3,4.1793765E2,1.3127375E3,4.8246723E1,1.25244576E2,9.3511765E1,9.930467E2,2.7561166E2,2.6973614E1,2.691689E2],"tree_param":{"num_deleted":"0","num_feature":"6","num_nodes":"31","size_leaf_vector":"0"}}]},"name":"gbtree"},"learner_model_param":{"base_score":"5E-1","num_class":"0","num_feature":"6"},"objective":{"name":"binary:logistic","reg_loss_param":{"scale_pos_weight":"0.989254296"}}},"version":[1,2,0]}