{"learner":{"attributes":{},"gradient_booster":{"model":{"gbtree_model_param":{"num_trees":"20","size_leaf_vector":"0"},"tree_info":[0,0,0,0,0,0,0,0,0,0,0,0,0,0,0,0,0,0,0,0],"trees":[{"base_weights":[-1.6211756E0,-4.816271E-1,-1.8148513E0,1.7888072E0,-6.4713216E-1,-4.1896525E-1,-1.8574976E0,1.9506E0,1.5777638E0,3.371648E-1,-8.464333E-1,-7.3295486E-1,7.60876E-1,-1.8833942E0,-1.0366524E0],"default_left":[true,true,true,true,true,true,true,false,false,false,false,false,false,false,false],"id":0,"leaf_child_counts":[0,0,0,0,0,0,0,0,0,0,0,0,0,0,0],"left_children":[1,3,5,7,9,11,13,-1,-1,-1,-1,-1,-1,-1,-1],"loss_changes":[6.5556484E3,1.6233215E3,1.5107656E3,6.946472E0,7.8974915E2,2.798983E2,5.2178906E2,0E0,0E0,0E0,0E0,0E0,0E0,0E0,0E0],"parents":[2147483647,0,0,1,1,2,2,3,3,4,4,5,5,6,6],"right_children":[2,4,6,8,10,12,14,-1,-1,-1,-1,-1,-1,-1,-1],"split_conditions":[8.55905E-1,1.04595E-1,5.4833996E-1,6.8726003E-1,2.8135E-2,2.59745E-1,9.5E-1,5.8518004E-1,4.7332916E-1,1.0114944E-1,-2.5393E-1,-2.1988647E-1,2.2826281E-1,-5.650183E-1,-3.1099576E-1],"split_indices":[3,0,0,3,4,0,5,0,0,0,0,0,0,0,0],"sum_hessian":[2.9706479E4,4.315926E3,2.5390553E4,2.925706E2,4.0233552E3,7.5304144E2,2.4637512E4,1.6094339E2,1.3162718E2,6.7735944E2,3.3459958E3,5.9505817E2,1.5798328E2,2.3882746E4,7.547664E2],"tree_param":{"num_deleted":"0","num_feature":"6","num_nodes":"15","size_leaf_vector":"0"}},{"base_weights":[-1.2254838E0,-4.0186223E-1,-1.4011469E0,1.3189934E0,-5.136984E-1,-4.1787374E-1,-1.4387008E0,1.418013E0,8.412128E-1,3.9749514E-2,-7.124002E-1,-1.1586776E-1,-1.354209E0,-1.1454954E0,-1.4883674E0],"default_left":[true,true,true,true,true,true,true,false,false,false,false,false,false,false,false],"id":1,"leaf_child_counts":[0,0,0,0,0,0,0,0,0,0,0,0,0,0,0],"left_children":[1,3,5,7,9,11,13,-1,-1,-1,-1,-1,-1,-1,-1],"loss_changes":[4.020961E3,9.4132135E2,8.4534375E2,1.2930847E1,5.0480615E2,2.3856366E2,3.196328E2,0E0,0E0,0E0,0E0,0E0,0E0,0E0,0E0],"parents":[2147483647,0,0,1,1,2,2,3,3,4,4,5,5,6,6],"right_children":[2,4,6,8,10,12,14,-1,-1,-1,-1,-1,-1,-1,-1],"split_conditions":[8.75825E-1,1.04595E-1,6.6648495E-1,8.3154E-1,6.7497504E-1,1.5E-1,1.5E-1,4.2540392E-1,2.5236386E-1,1.19248545E-2,-2.1372007E-1,-3.476033E-2,-4.062627E-1,-3.4364864E-1,-4.4651026E-1],"split_indices":[3,0,0,3,4,5,5,0,0,0,0,0,0,0,0],"sum_hessian":[2.7795018E4,4.8866323E3,2.2908385E4,2.975378E2,4.5890947E3,8.4319525E2,2.206519E4,2.4482927E2,5.2708523E1,1.2125516E3,3.376543E3,6.384069E2,2.0478831E2,3.1997268E3,1.8865463E4],"tree_param":{"num_deleted":"0","num_feature":"6","num_nodes":"15","size_leaf_vector":"0"}},{"base_weights":[-1.0062884E0,-3.1279206E-1,-1.1830039E0,1.0486534E0,-3.9253742E-1,-7.777866E-1,-1.2697617E0,1.1808531E0,5.8233345E-1,-8.288745E-2,-6.523019E-1,-3.3928737E-2,-9.90302E-1,-1.2996413E0,-4.7276208E-1],"default_left":[true,true,true,true,true,true,true,false,false,false,false,false,false,false,false],"id":2,"leaf_child_counts":[0,0,0,0,0,0,0,0,0,0,0,0,0,0,0],"left_children":[1,3,5,7,9,11,13,-1,-1,-1,-1,-1,-1,-1,-1],"loss_changes":[2.985504E3,5.377244E2,6.815996E2,1.6210999E1,3.7605927E2,5.416382E2,3.801875E2,0E0,0E0,0E0,0E0,0E0,0E0,0E0,0E0],"parents":[2147483647,0,0,1,1,2,2,3,3,4,4,5,5,6,6],"right_children":[2,4,6,8,10,12,14,-1,-1,-1,-1,-1,-1,-1,-1],"split_conditions":[8.82405E-1,1.14555E-1,1.5E-1,8.3154E-1,7.57075E-1,7.50635E-1,9.5E-1,3.5425594E-1,1.7470004E-1,-2.4866236E-2,-1.9569059E-1,-1.0178622E-2,-2.9709062E-1,-3.898924E-1,-1.4182863E-1],"split_indices":[3,0,5,3,3,0,5,0,0,0,0,0,0,0,0],"sum_hessian":[2.4363225E4,4.948047E3,1.9415178E4,2.7311777E2,4.674929E3,3.4255415E3,1.5989636E4,2.1159827E2,6.1519505E1,2.133285E3,2.5416443E3,7.6144604E2,2.6640955E3,1.5411237E4,5.783993E2],"tree_param":{"num_deleted":"0","num_feature":"6","num_nodes":"15","size_leaf_vector":"0"}},{"base_weights":[-8.519559E-1,-2.3889768E-1,-1.0393778E0,4.4155678E-1,-3.4549934E-1,-6.2794524E-1,-1.1359802E0,8.3917886E-1,-2.8151804E-1,-4.86799E-1,1.01701096E-1,4.9451474E-2,-8.6494714E-1,-1.1808208E0,-5.489606E-1],"default_left":[true,true,true,true,true,true,true,false,false,false,false,false,false,false,false],"id":3,"leaf_child_counts":[0,0,0,0,0,0,0,0,0,0,0,0,0,0,0],"left_children":[1,3,5,7,9,11,13,-1,-1,-1,-1,-1,-1,-1,-1],"loss_changes":[2.39862E3,3.5482916E2,6.347832E2,1.9076884E2,2.6720483E2,4.8851062E2,3.401621E2,0E0,0E0,0E0,0E0,0E0,0E0,0E0,0E0],"parents":[2147483647,0,0,1,1,2,2,3,3,4,4,5,5,6,6],"right_children":[2,4,6,8,10,12,14,-1,-1,-1,-1,-1,-1,-1,-1],"split_conditions":[8.85865E-1,2.2234999E-2,1.5E-1,9.5E-1,9.5E-1,8.7172496E-1,8.5E-1,2.5175366E-1,-8.4455416E-2,-1.4603971E-1,3.051033E-2,1.4835442E-2,-2.5948414E-1,-3.5424626E-1,-1.646882E-1],"split_indices":[3,4,5,5,5,1,5,0,0,0,0,0,0,0,0],"sum_hessian":[2.0876781E4,4.888557E3,1.5988225E4,6.616978E2,4.2268594E3,3.0415728E3,1.2946651E4,4.2682452E2,2.3487329E2,3.2119175E3,1.01494196E3,7.8854675E2,2.253026E3,1.202694E4,9.197112E2],"tree_param":{"num_deleted":"0","num_feature":"6","num_nodes":"15","size_leaf_vector":"0"}},{"base_weights":[-7.2420835E-1,-2.0754763E-1,-9.414587E-1,5.771524E-1,-2.9797235E-1,-5.182224E-1,-1.0539503E0,1.1272781E0,3.3833805E-1,3.0900767E-1,-3.8176897E-1,1.0720871E-1,-7.386565E-1,-1.1022421E0,-4.8403278E-1],"default_left":[true,true,true,true,true,true,true,false,false,false,false,false,false,false,false],"id":4,"leaf_child_counts":[0,0,0,0,0,0,0,0,0,0,0,0,0,0,0],"left_children":[1,3,5,7,9,11,13,-1,-1,-1,-1,-1,-1,-1,-1],"loss_changes":[2.0069121E3,3.7585168E2,5.987754E2,7.153645E1,2.4162057E2,3.6476105E2,2.7314453E2,0E0,0E0,0E0,0E0,0E0,0E0,0E0,0E0],"parents":[2147483647,0,0,1,1,2,2,3,3,4,4,5,5,6,6],"right_children":[2,4,6,8,10,12,14,-1,-1,-1,-1,-1,-1,-1,-1],"split_conditions":[9.01725E-1,7.55335E-1,1.5E-1,6.8123E-1,8.04325E-1,7.50635E-1,8.5E-1,3.3818343E-1,1.0150142E-1,9.270231E-2,-1.145307E-1,3.2162614E-2,-2.2159697E-1,-3.3067265E-1,-1.4520983E-1],"split_indices":[3,0,5,3,1,0,5,0,0,0,0,0,0,0,0],"sum_hessian":[1.788053E4,5.2935234E3,1.2587006E4,5.4641205E2,4.7471113E3,2.6441838E3,9.942822E3,1.6427428E2,3.8213776E2,5.7553564E2,4.171576E3,6.892134E2,1.9549705E3,9.165271E3,7.775512E2],"tree_param":{"num_deleted":"0","num_feature":"6","num_nodes":"15","size_leaf_vector":"0"}},{"base_weights":[-6.131358E-1,-1.6683447E-1,-8.546889E-1,5.4249957E-2,-3.9586264E-1,-4.2783806E-1,-9.8401517E-1,4.6102914E-1,-1.24325044E-1,-5.2999467E-1,2.5901335E-1,2.0873658E-1,-6.283667E-1,-1.0263938E0,-2.0661762E-1],"default_left":[true,true,true,true,true,true,true,false,false,false,false,false,false,false,false],"id":5,"leaf_child_counts":[0,0,0,0,0,0,0,0,0,0,0,0,0,0,0],"left_children":[1,3,5,7,9,11,13,-1,-1,-1,-1,-1,-1,-1,-1],"loss_changes":[1.6602832E3,2.739527E2,5.51228E2,2.0008049E2,2.3355972E2,2.969763E2,2.5243164E2,0E0,0E0,0E0,0E0,0E0,0E0,0E0,0E0],"parents":[2147483647,0,0,1,1,2,2,3,3,4,4,5,5,6,6],"right_children":[2,4,6,8,10,12,14,-1,-1,-1,-1,-1,-1,-1,-1],"split_conditions":[9.09295E-1,8.03995E-1,1.5E-1,4.5E-1,8.5E-1,8.4965503E-1,9.5E-1,1.3830875E-1,-3.7297513E-2,-1.589984E-1,7.770401E-2,6.2620975E-2,-1.8851002E-1,-3.0791813E-1,-6.1985288E-2],"split_indices":[3,3,5,5,5,1,5,0,0,0,0,0,0,0,0],"sum_hessian":[1.5401055E4,5.4089653E3,9.992089E3,2.7526006E3,2.6563647E3,2.3244346E3,7.667655E3,8.39258E2,1.9133425E3,2.2049387E3,4.5142596E2,5.5681E2,1.7676245E3,7.2709697E3,3.9668515E2],"tree_param":{"num_deleted":"0","num_feature":"6","num_nodes":"15","size_leaf_vector":"0"}},{"base_weights":[-5.126261E-1,-1.5173171E-1,-7.8186E-1,2.4672867E-1,-2.7254578E-1,-3.59582E-1,-9.319551E-1,7.025406E-1,-3.0352363E-1,-4.2301208E-1,4.7820473E-1,1.4349522E-1,-5.7809347E-1,-9.9822825E-1,-3.2279533E-1],"default_left":[true,true,true,true,true,true,true,false,false,false,false,false,false,false,false],"id":6,"leaf_child_counts":[0,0,0,0,0,0,0,0,0,0,0,0,0,0,0],"left_children":[1,3,5,7,9,11,13,-1,-1,-1,-1,-1,-1,-1,-1],"loss_changes":[1.3075635E3,2.7694592E2,4.881997E2,3.3597043E2,4.9880743E2,2.2245285E2,2.2922412E2,0E0,0E0,0E0,0E0,0E0,0E0,0E0,0E0],"parents":[2147483647,0,0,1,1,2,2,3,3,4,4,5,5,6,6],"right_children":[2,4,6,8,10,12,14,-1,-1,-1,-1,-1,-1,-1,-1],"split_conditions":[9.21785E-1,7.0189E-1,1.5E-1,9.5E-1,9.5E-1,7.5495505E-1,8.5E-1,2.1076219E-1,-9.105709E-2,-1.2690362E-1,1.4346142E-1,4.3048568E-2,-1.7342804E-1,-2.994685E-1,-9.68386E-2],"split_indices":[3,4,5,5,5,0,5,0,0,0,0,0,0,0,0],"sum_hessian":[1.345737E4,5.7505767E3,7.7067935E3,1.337683E3,4.4128936E3,2.0218657E3,5.6849277E3,7.3147504E2,6.0620795E2,3.6764849E3,7.3640894E2,6.123653E2,1.4095005E3,5.126549E3,5.583786E2],"tree_param":{"num_deleted":"0","num_feature":"6","num_nodes":"15","size_leaf_vector":"0"}},{"base_weights":[-4.2395303E-1,-1.1346068E-1,-6.942752E-1,4.2768234E-1,-2.1945459E-1,-2.8100073E-1,-8.654685E-1,1.9421874E0,2.2194493E-1,1.7415227E-1,-3.774582E-1,3.5465304E-2,-6.11414E-1,-9.4727767E-1,-2.4511297E-1],"default_left":[true,true,true,true,true,true,true,false,false,false,false,false,false,false,false],"id":7,"leaf_child_counts":[0,0,0,0,0,0,0,0,0,0,0,0,0,0,0],"left_children":[1,3,5,7,9,11,13,-1,-1,-1,-1,-1,-1,-1,-1],"loss_changes":[9.9817236E2,3.1766287E2,4.4957056E2,2.822367E2,2.880394E2,1.9489998E2,2.2789746E2,0E0,0E0,0E0,0E0,0E0,0E0,0E0,0E0],"parents":[2147483647,0,0,1,1,2,2,3,3,4,4,5,5,6,6],"right_children":[2,4,6,8,10,12,14,-1,-1,-1,-1,-1,-1,-1,-1],"split_conditions":[9.21825E-1,1.5E-1,1.5E-1,6.03175E-1,7.07505E-1,9.27465E-1,8.5E-1,5.8265626E-1,6.6583484E-2,5.2245684E-2,-1.1323747E-1,1.0639591E-2,-1.834242E-1,-2.8418332E-1,-7.353389E-2],"split_indices":[3,5,5,3,4,1,5,0,0,0,0,0,0,0,0],"sum_hessian":[1.1892434E4,5.5356265E3,6.356807E3,9.0617755E2,4.6294487E3,1.862712E3,4.494095E3,1.07367516E2,7.9881006E2,1.3260327E3,3.3034163E3,9.518928E2,9.108193E2,3.970023E3,5.240721E2],"tree_param":{"num_deleted":"0","num_feature":"6","num_nodes":"15","size_leaf_vector":"0"}},{"base_weights":[-3.437608E-1,-9.643519E-2,-6.250874E-1,4.582109E-1,-1.6025302E-1,-2.2659858E-1,-8.214578E-1,2.2066706E-1,9.321608E-1,2.172588E-1,-2.4396971E-1,-1.2275227E-2,-7.0813805E-1,-9.507483E-1,-3.7893534E-1],"default_left":[true,true,true,true,true,true,true,false,false,false,false,false,false,false,false],"id":8,"leaf_child_counts":[0,0,0,0,0,0,0,0,0,0,0,0,0,0,0],"left_children":[1,3,5,7,9,11,13,-1,-1,-1,-1,-1,-1,-1,-1],"loss_changes":[7.4498706E2,2.018138E2,3.9180774E2,6.603578E1,1.6161606E2,1.7080115E2,1.9161328E2,0E0,0E0,0E0,0E0,0E0,0E0,0E0,0E0],"parents":[2147483647,0,0,1,1,2,2,3,3,4,4,5,5,6,6],"right_children":[2,4,6,8,10,12,14,-1,-1,-1,-1,-1,-1,-1,-1],"split_conditions":[9.30665E-1,7.49995E-1,1.5E-1,3.5412002E-1,8.40885E-1,9.66555E-1,6.5E-1,6.620012E-2,2.7964824E-1,6.517764E-2,-7.319091E-2,-3.6825684E-3,-2.1244143E-1,-2.852245E-1,-1.1368061E-1],"split_indices":[3,0,5,0,1,0,5,0,0,0,0,0,0,0,0],"sum_hessian":[1.0706892E4,5.6984746E3,5.0084165E3,5.8737445E2,5.1111006E3,1.6540515E3,3.3543652E3,3.9224615E2,1.951283E2,9.2741644E2,4.183684E3,1.145319E3,5.0873257E2,2.5950332E3,7.5933203E2],"tree_param":{"num_deleted":"0","num_feature":"6","num_nodes":"15","size_leaf_vector":"0"}},{"base_weights":[-2.7238253E-1,-3.3649992E-2,-5.02182E-1,5.6986257E-2,-3.4198692E-1,-1.4283048E-1,-7.029356E-1,2.3247196E-1,-1.3684972E-1,7.068312E-1,-3.8650241E-1,1.7418215E-1,-4.135292E-1,-8.2625884E-1,-5.0921194E-2],"default_left":[true,true,true,true,true,true,true,false,false,false,false,false,false,false,false],"id":9,"leaf_child_counts":[0,0,0,0,0,0,0,0,0,0,0,0,0,0,0],"left_children":[1,3,5,7,9,11,13,-1,-1,-1,-1,-1,-1,-1,-1],"loss_changes":[5.4086865E2,1.3518886E2,3.623042E2,1.2720872E2,5.1580215E1,1.5469354E2,2.5909448E2,0E0,0E0,0E0,0E0,0E0,0E0,0E0,0E0],"parents":[2147483647,0,0,1,1,2,2,3,3,4,4,5,5,6,6],"right_children":[2,4,6,8,10,12,14,-1,-1,-1,-1,-1,-1,-1,-1],"split_conditions":[9.09285E-1,6.3059515E-1,1.5E-1,8.07125E-1,6.2525E-2,9.09255E-1,8.5E-1,6.974159E-2,-4.1054916E-2,2.1204938E-1,-1.15950726E-1,5.2254647E-2,-1.2405876E-1,-2.4787766E-1,-1.5276358E-2],"split_indices":[3,2,5,3,0,1,5,0,0,0,0,0,0,0,0],"sum_hessian":[9.85827E3,4.835718E3,5.022552E3,3.7377993E3,1.0979183E3,1.8008025E3,3.221749E3,1.961654E3,1.7761454E3,4.4096386E1,1.0538219E3,8.296104E2,9.7119214E2,2.709081E3,5.12668E2],"tree_param":{"num_deleted":"0","num_feature":"6","num_nodes":"15","size_leaf_vector":"0"}},{"base_weights":[-2.1375597E-1,-5.6856032E-2,-4.9145615E-1,2.1664387E-1,-1.5689564E-1,-1.5947388E-1,-7.236711E-1,1.3624761E0,1.1393291E-1,-3.2067388E-1,1.8817736E-1,5.192473E-2,-5.333723E-1,-8.965164E-1,-2.8119534E-1],"default_left":[true,true,true,true,true,true,true,false,false,false,false,false,false,false,false],"id":10,"leaf_child_counts":[0,0,0,0,0,0,0,0,0,0,0,0,0,0,0],"left_children":[1,3,5,7,9,11,13,-1,-1,-1,-1,-1,-1,-1,-1],"loss_changes":[3.9963348E2,1.6042963E2,2.5516302E2,1.8466641E2,2.4267105E2,1.0785591E2,1.4874469E2,0E0,0E0,0E0,0E0,0E0,0E0,0E0,0E0],"parents":[2147483647,0,0,1,1,2,2,3,3,4,4,5,5,6,6],"right_children":[2,4,6,8,10,12,14,-1,-1,-1,-1,-1,-1,-1,-1],"split_conditions":[9.42735E-1,2.5E-1,1.5E-1,6.0445E-1,9.5E-1,9.4702E-1,6.5E-1,4.0874285E-1,3.4179874E-2,-9.620217E-2,5.645321E-2,1.557742E-2,-1.600117E-1,-2.6895493E-1,-8.43586E-2],"split_indices":[3,5,5,3,5,0,5,0,0,0,0,0,0,0,0],"sum_hessian":[9.171617E3,5.8612373E3,3.3103801E3,1.5694171E3,4.2918203E3,1.3631959E3,1.9471843E3,1.2809854E2,1.4413185E3,2.910508E3,1.3813123E3,8.7138446E2,4.9181143E2,1.3994772E3,5.4770715E2],"tree_param":{"num_deleted":"0","num_feature":"6","num_nodes":"15","size_leaf_vector":"0"}},{"base_weights":[-1.6484171E-1,-4.357812E-2,-4.144959E-1,1.1528607E-1,-1.5690726E-1,-1.2576963E-1,-6.5308464E-1,5.0110954E-1,3.0292775E-3,6.9967484E-1,-1.8107335E-1,4.8628658E-1,-2.627486E-1,-8.2937795E-1,-1.4584231E-1],"default_left":[true,true,true,true,true,true,true,false,false,false,false,false,false,false,false],"id":11,"leaf_child_counts":[0,0,0,0,0,0,0,0,0,0,0,0,0,0,0],"left_children":[1,3,5,7,9,11,13,-1,-1,-1,-1,-1,-1,-1,-1],"loss_changes":[2.6252167E2,1.0512656E2,1.9521536E2,1.0530092E2,7.066873E1,1.0777545E2,1.3867004E2,0E0,0E0,0E0,0E0,0E0,0E0,0E0,0E0],"parents":[2147483647,0,0,1,1,2,2,3,3,4,4,5,5,6,6],"right_children":[2,4,6,8,10,12,14,-1,-1,-1,-1,-1,-1,-1,-1],"split_conditions":[9.44835E-1,9.13545E-1,1.5E-1,1.5E-1,4.7435E-2,7.9717E-1,7.5E-1,1.5033287E-1,9.087833E-4,2.0990247E-1,-5.4322008E-2,1.4588597E-1,-7.882458E-2,-2.4881339E-1,-4.3752696E-2],"split_indices":[3,1,5,5,0,1,5,0,0,0,0,0,0,0,0],"sum_hessian":[8.671129E3,5.8370806E3,2.8340488E3,2.4302925E3,3.406788E3,1.2829836E3,1.5510652E3,5.4695593E2,1.8833364E3,9.270895E1,3.314079E3,2.3415784E2,1.0488258E3,1.1505527E3,4.005125E2],"tree_param":{"num_deleted":"0","num_feature":"6","num_nodes":"15","size_leaf_vector":"0"}},{"base_weights":[-1.2517366E-1,-4.6929643E-2,-4.2254844E-1,-1.2312276E-1,3.051215E-1,-2.6846123E-1,-7.092412E-1,9.382932E-1,-2.2714902E-1,-4.4024903E-1,6.5889984E-1,3.4170058E-1,-3.4170473E-1,-1.6855691E-1,-7.4924874E-1],"default_left":[true,true,true,true,true,true,true,false,false,false,false,false,false,false,false],"id":12,"leaf_child_counts":[0,0,0,0,0,0,0,0,0,0,0,0,0,0,0],"left_children":[1,3,5,7,9,11,13,-1,-1,-1,-1,-1,-1,-1,-1],"loss_changes":[1.9312563E2,1.763496E2,7.619052E1,5.9691925E2,3.087472E2,5.044728E1,1.2935211E1,0E0,0E0,0E0,0E0,0E0,0E0,0E0,0E0],"parents":[2147483647,0,0,1,1,2,2,3,3,4,4,5,5,6,6],"right_children":[2,4,6,8,10,12,14,-1,-1,-1,-1,-1,-1,-1,-1],"split_conditions":[6.400846E-1,9.5E-1,9.68975E-1,2.4873E-1,2.38875E-1,8.14095E-1,6.0889E-1,2.8148797E-1,-6.814471E-2,-1.3207471E-1,1.9766997E-1,1.0251018E-1,-1.0251142E-1,-5.0567076E-2,-2.2477463E-1],"split_indices":[2,5,3,4,4,1,0,0,0,0,0,0,0,0,0],"sum_hessian":[8.299978E3,6.571951E3,1.7280264E3,5.403206E3,1.1687454E3,1.125205E3,6.028215E2,4.8156918E2,4.9216367E3,3.761004E2,7.92645E2,1.2020022E2,1.0050047E3,4.1891335E1,5.609301E2],"tree_param":{"num_deleted":"0","num_feature":"6","num_nodes":"15","size_leaf_vector":"0"}},{"base_weights":[-9.437639E-2,2.5795314E-1,-1.5176995E-1,4.785349E-1,-5.8431942E-2,-6.383538E-2,-4.345763E-1,1.9193389E-1,6.7556596E-1,-3.1607953E-1,2.7927545E-1,3.7074545E-1,-9.556946E-2,7.355964E-2,-5.347666E-1],"default_left":[true,true,true,true,true,true,true,false,false,false,false,false,false,false,false],"id":13,"leaf_child_counts":[0,0,0,0,0,0,0,0,0,0,0,0,0,0,0],"left_children":[1,3,5,7,9,11,13,-1,-1,-1,-1,-1,-1,-1,-1],"loss_changes":[1.6118005E2,7.795642E1,1.7040022E2,3.7029266E1,4.007742E1,7.214693E1,8.278421E1,0E0,0E0,0E0,0E0,0E0,0E0,0E0,0E0],"parents":[2147483647,0,0,1,1,2,2,3,3,4,4,5,5,6,6],"right_children":[2,4,6,8,10,12,14,-1,-1,-1,-1,-1,-1,-1,-1],"split_conditions":[7.48185E-1,6.1059797E-1,9.54005E-1,8.65295E-1,2.59135E-1,1.2545E-2,8.42915E-1,5.758017E-2,2.026698E-1,-9.482386E-2,8.3782636E-2,1.1122364E-1,-2.867084E-2,2.2067893E-2,-1.6042998E-1],"split_indices":[0,2,3,1,0,4,1,0,0,0,0,0,0,0,0],"sum_hessian":[7.967812E3,1.1156328E3,6.852179E3,6.5703766E2,4.585952E2,5.227873E3,1.6243063E3,2.684805E2,3.8855713E2,2.6016852E2,1.984267E2,3.5504483E2,4.872828E3,2.6756436E2,1.356742E3],"tree_param":{"num_deleted":"0","num_feature":"6","num_nodes":"15","size_leaf_vector":"0"}},{"base_weights":[-7.0368215E-2,1.0221137E-1,-1.6672634E-1,1.0735272E0,5.8256593E-2,-4.1555578E-1,3.683973E-2,1.2124871E0,6.7868686E-1,2.4664007E-1,-1.7573614E-1,7.9826015E-1,-6.03101E-1,2.233552E-1,-1.674319E-1],"default_left":[true,true,true,true,true,true,true,false,false,false,false,false,false,false,false],"id":14,"leaf_child_counts":[0,0,0,0,0,0,0,0,0,0,0,0,0,0,0],"left_children":[1,3,5,7,9,11,13,-1,-1,-1,-1,-1,-1,-1,-1],"loss_changes":[1.286711E2,1.1830866E2,2.5150716E2,5.759842E0,1.17013855E2,5.0908395E2,1.0411787E2,0E0,0E0,0E0,0E0,0E0,0E0,0E0,0E0],"parents":[2147483647,0,0,1,1,2,2,3,3,4,4,5,5,6,6],"right_children":[2,4,6,8,10,12,14,-1,-1,-1,-1,-1,-1,-1,-1],"split_conditions":[2.5E-1,6.04855E-1,6.5E-1,1.5E-1,9.29195E-1,1.7793E-1,6.149855E-1,3.6374614E-1,2.0360607E-1,7.399202E-2,-5.2720845E-2,2.3947805E-1,-1.8093032E-1,6.7006566E-2,-5.0229575E-2],"split_indices":[5,3,5,5,1,4,2,0,0,0,0,0,0,0,0],"sum_hessian":[7.735522E3,2.7715508E3,4.963971E3,1.1897648E2,2.6525742E3,2.2331877E3,2.7307837E3,8.647256E1,3.2503925E1,1.469473E3,1.1831012E3,2.9843338E2,1.9347543E3,1.4273821E3,1.3034015E3],"tree_param":{"num_deleted":"0","num_feature":"6","num_nodes":"15","size_leaf_vector":"0"}},{"base_weights":[-5.450266E-2,-1.6421013E-2,-3.448665E-1,-6.5983705E-2,1.7509887E-1,7.6023996E-1,-3.975728E-1,5.127044E-1,-1.2547168E-1,-4.0104145E-1,4.286838E-1,-2.3820686E0,1.0284885E0,-2.4766006E-1,-6.69859E-1],"default_left":[true,true,true,true,true,true,true,false,false,false,false,false,false,false,false],"id":15,"leaf_child_counts":[0,0,0,0,0,0,0,0,0,0,0,0,0,0,0],"left_children":[1,3,5,7,9,11,13,-1,-1,-1,-1,-1,-1,-1,-1],"loss_changes":[8.245634E1,6.2602673E1,5.0662643E1,1.804184E2,1.9826643E2,3.591605E1,3.3547165E1,0E0,0E0,0E0,0E0,0E0,0E0,0E0,0E0],"parents":[2147483647,0,0,1,1,2,2,3,3,4,4,5,5,6,6],"right_children":[2,4,6,8,10,12,14,-1,-1,-1,-1,-1,-1,-1,-1],"split_conditions":[6.5740955E-1,9.5E-1,3.2399997E-2,2.4873E-1,7.2735E-2,2.86E-3,9.6898E-1,1.5381132E-1,-3.7641507E-2,-1.2031244E-1,1.2860514E-1,-7.146206E-1,3.0854657E-1,-7.429802E-2,-2.009577E-1],"split_indices":[2,5,0,4,4,4,3,0,0,0,0,0,0,0,0],"sum_hessian":[7.45654E3,6.592925E3,8.636152E2,5.2380464E3,1.3548784E3,3.8702625E1,8.249126E2,4.8755746E2,4.750489E3,4.1390726E2,9.409712E2,2.4242668E0,3.627836E1,5.332374E2,2.9167514E2],"tree_param":{"num_deleted":"0","num_feature":"6","num_nodes":"15","size_leaf_vector":"0"}},{"base_weights":[-4.029294E-2,1.15451045E-1,-1.3224396E-1,9.214919E-1,8.480587E-2,-2.8195542E-1,7.4795924E-2,1.094946E0,4.841675E-1,2.1549559E-1,-1.5533896E-1,3.213223E-2,-5.699547E-1,-5.723456E-1,1.4765559E-1],"default_left":[true,true,true,true,true,true,true,false,false,false,false,false,false,false,false],"id":16,"leaf_child_counts":[0,0,0,0,0,0,0,0,0,0,0,0,0,0,0],"left_children":[1,3,5,7,9,11,13,-1,-1,-1,-1,-1,-1,-1,-1],"loss_changes":[1.0431957E2,6.67222E1,1.419862E2,6.975769E0,8.183325E1,2.4047537E2,9.0746864E1,0E0,0E0,0E0,0E0,0E0,0E0,0E0,0E0],"parents":[2147483647,0,0,1,1,2,2,3,3,4,4,5,5,6,6],"right_children":[2,4,6,8,10,12,14,-1,-1,-1,-1,-1,-1,-1,-1],"split_conditions":[2.5E-1,5.8263E-1,8.5E-1,1.5E-1,9.67095E-1,9.7170496E-1,7.94315E-1,3.2848382E-1,1.4525025E-1,6.464868E-2,-4.660169E-2,9.639669E-3,-1.7098641E-1,-1.717037E-1,4.429668E-2],"split_indices":[5,3,5,5,0,4,0,0,0,0,0,0,0,0,0],"sum_hessian":[7.282404E3,2.7033284E3,4.579075E3,9.794969E1,2.6053787E3,2.6572466E3,1.9218286E3,6.9056404E1,2.8893291E1,1.6872561E3,9.1812256E2,1.2714792E3,1.3857675E3,1.9378342E2,1.7280452E3],"tree_param":{"num_deleted":"0","num_feature":"6","num_nodes":"15","size_leaf_vector":"0"}},{"base_weights":[-3.1243E-2,4.0121235E-2,-1.4578213E-1,1.9364147E-1,-3.5073735E-2,7.693271E-2,-2.338898E-1,3.2228556E-1,-7.909823E-2,8.520044E-2,-2.2204094E-1,-7.3968786E-1,1.7430885E-1,8.7011755E-1,-2.5900108E-1],"default_left":[true,true,true,true,true,true,true,false,false,false,false,false,false,false,false],"id":17,"leaf_child_counts":[0,0,0,0,0,0,0,0,0,0,0,0,0,0,0],"left_children":[1,3,5,7,9,11,13,-1,-1,-1,-1,-1,-1,-1,-1],"loss_changes":[5.8357414E1,5.0789574E1,5.3796474E1,5.0775955E1,6.643832E1,6.196476E1,5.4672806E1,0E0,0E0,0E0,0E0,0E0,0E0,0E0,0E0],"parents":[2147483647,0,0,1,1,2,2,3,3,4,4,5,5,6,6],"right_children":[2,4,6,8,10,12,14,-1,-1,-1,-1,-1,-1,-1,-1],"split_conditions":[6.151259E-1,1.5E-1,8.8681E-1,9.57255E-1,8.6867E-1,2.5431E-1,2.504E-2,9.668567E-2,-2.3729471E-2,2.5560131E-2,-6.661228E-2,-2.2190636E-1,5.2292656E-2,2.6103526E-1,-7.7700324E-2],"split_indices":[2,5,1,0,3,0,0,0,0,0,0,0,0,0,0],"sum_hessian":[7.1376816E3,4.398082E3,2.7395996E3,1.4454448E3,2.9526372E3,7.766199E2,1.9629797E3,9.820542E2,4.633906E2,1.797115E3,1.1555222E3,8.203742E1,6.945824E2,4.2907707E1,1.920072E3],"tree_param":{"num_deleted":"0","num_feature":"6","num_nodes":"15","size_leaf_vector":"0"}},{"base_weights":[-2.3282563E-2,3.9145884E-1,-3.921182E-2,-2.896852E-1,6.3859576E-1,-7.861794E-4,-2.0015451E-1,2.660011E-1,-9.2388433E-1,1.4805235E0,2.0866174E-1,9.855412E-2,-4.6710197E-2,1.2582289E-1,-3.056805E-1],"default_left":[true,true,true,true,true,true,true,false,false,false,false,false,false,false,false],"id":18,"leaf_child_counts":[0,0,0,0,0,0,0,0,0,0,0,0,0,0,0],"left_children":[1,3,5,7,9,11,13,-1,-1,-1,-1,-1,-1,-1,-1],"loss_changes":[4.6530777E1,4.4038334E1,4.1937756E1,2.4930359E1,6.899706E1,2.4983574E1,4.4998325E1,0E0,0E0,0E0,0E0,0E0,0E0,0E0,0E0],"parents":[2147483647,0,0,1,1,2,2,3,3,4,4,5,5,6,6],"right_children":[2,4,6,8,10,12,14,-1,-1,-1,-1,-1,-1,-1,-1],"split_conditions":[6.6995E-1,2.6963E-1,9.62775E-1,2.482E-2,1.5E-1,2.5E-1,7.4431E-1,7.980034E-2,-2.7716532E-1,4.4415706E-1,6.259853E-2,2.9566238E-2,-1.4013059E-2,3.774687E-2,-9.170416E-2],"split_indices":[1,0,3,0,5,5,0,0,0,0,0,0,0,0,0],"sum_hessian":[7.039834E3,2.5951105E2,6.780323E3,6.904398E1,1.9046706E2,5.474316E3,1.3060074E3,3.7109314E1,3.1934668E1,6.3558544E1,1.26908516E2,1.7302937E3,3.744022E3,3.1934265E2,9.866648E2],"tree_param":{"num_deleted":"0","num_feature":"6","num_nodes":"15","size_leaf_vector":"0"}},{"base_weights":[-1.7222304E-2,-5.2686427E-2,1.04324706E-1,3.4400895E-1,-9.7103015E-2,-5.7477945E-1,1.8230444E-1,-8.7857854E-1,5.277509E-1,4.9342055E-2,-2.8187886E-1,-9.5552707E-1,4.5363417E-1,7.370941E-2,3.7807146E-1],"default_left":[true,true,true,true,true,true,true,false,false,false,false,false,false,false,false],"id":19,"leaf_child_counts":[0,0,0,0,0,0,0,0,0,0,0,0,0,0,0],"left_children":[1,3,5,7,9,11,13,-1,-1,-1,-1,-1,-1,-1,-1],"loss_changes":[3.0088915E1,9.523918E1,8.360028E1,1.2273409E2,1.3152396E2,6.4117584E1,3.0055038E1,0E0,0E0,0E0,0E0,0E0,0E0,0E0,0E0],"parents":[2147483647,0,0,1,1,2,2,3,3,4,4,5,5,6,6],"right_children":[2,4,6,8,10,12,14,-1,-1,-1,-1,-1,-1,-1,-1],"split_conditions":[9.5E-1,2.4873E-1,7.96615E-1,2.688E-2,2.5E-1,7.3365E-2,9.9975E-1,-2.635736E-1,1.5832528E-1,1.4802617E-2,-8.456366E-2,-2.8665814E-1,1.3609026E-1,2.2112824E-2,1.1342144E-1],"split_indices":[5,4,0,3,5,4,4,0,0,0,0,0,0,0,0],"sum_hessian":[6.978009E3,5.4023237E3,1.575685E3,5.4329333E2,4.8590303E3,1.6163956E2,1.4140455E3,7.048914E1,4.728042E2,2.7110815E3,2.147949E3,1.1801716E2,4.36224E1,9.1040576E2,5.0363977E2],"tree_param":{"num_deleted":"0","num_feature":"6","num_nodes":"15","size_leaf_vector":"0"}}]},"name":"gbtree"},"learner_model_param":{"base_score":"5E-1","num_class":"0","num_feature":"6"},"objective":{"name":"binary:logistic","reg_loss_param":{"scale_pos_weight":"0.323414594"}}},"version":[1,2,0]}