{"learner":{"attributes":{},"gradient_booster":{"model":{"gbtree_model_param":{"num_trees":"40","size_leaf_vector":"0"},"tree_info":[0,0,0,0,0,0,0,0,0,0,0,0,0,0,0,0,0,0,0,0,0,0,0,0,0,0,0,0,0,0,0,0,0,0,0,0,0,0,0,0],"trees":[{"base_weights":[-1.1907706E-2,1.4318033E0,-7.8572786E-1,1.628587E0,8.3801204E-1,9.499276E-1,-1.1321884E0,1.9259757E0,1.4819479E0,1.6869925E0,6.750783E-1,1.3799698E0,-1.8326356E0,-1.282642E0,8.6621034E-1],"default_left":[true,true,true,true,true,true,true,false,false,false,false,false,false,false,false],"id":0,"leaf_child_counts":[0,0,0,0,0,0,0,0,0,0,0,0,0,0,0],"left_children":[1,3,5,7,9,11,13,-1,-1,-1,-1,-1,-1,-1,-1],"loss_changes":[2.3760459E4,8.6585156E2,8.327568E3,2.401914E2,2.5468652E2,2.7602622E3,3.4717139E3,0E0,0E0,0E0,0E0,0E0,0E0,0E0,0E0],"parents":[2147483647,0,0,1,1,2,2,3,3,4,4,5,5,6,6],"right_children":[2,4,6,8,10,12,14,-1,-1,-1,-1,-1,-1,-1,-1],"split_conditions":[8.98715E-1,8.45285E-1,5.833334E-1,4.7341502E-1,7.4891996E-1,1.5E-1,8.5E-1,5.777927E-1,4.445844E-1,5.060978E-1,2.0252348E-1,4.1399097E-1,-5.4979074E-1,-3.8479263E-1,2.598631E-1],"split_indices":[3,3,12,11,0,5,5,0,0,0,0,0,0,0,0],"sum_hessian":[2.1266377E4,7.4207266E3,1.384565E4,5.57231E3,1.8484167E3,2.303603E3,1.1542048E4,1.8362341E3,3.7360757E3,2.9611746E2,1.5522993E3,1.9956772E3,3.0792578E2,1.0734256E4,8.07792E2],"tree_param":{"num_deleted":"0","num_feature":"15","num_nodes":"15","size_leaf_vector":"0"}},{"base_weights":[-7.734483E-3,1.0127586E0,-6.132587E-1,1.1856759E0,3.849626E-1,1.3300271E0,-8.35344E-1,1.4958869E0,1.0595117E0,2.2506171E-1,1.2452186E0,-1.7473629E0,1.4672207E0,-2.301637E-1,-1.1116098E0],"default_left":[true,true,true,true,true,true,true,false,false,false,false,false,false,false,false],"id":1,"leaf_child_counts":[0,0,0,0,0,0,0,0,0,0,0,0,0,0,0],"left_children":[1,3,5,7,9,11,13,-1,-1,-1,-1,-1,-1,-1,-1],"loss_changes":[1.2608364E4,8.244048E2,5.5277153E3,2.315586E2,2.2564014E2,5.572322E2,1.9212485E3,0E0,0E0,0E0,0E0,0E0,0E0,0E0,0E0],"parents":[2147483647,0,0,1,1,2,2,3,3,4,4,5,5,6,6],"right_children":[2,4,6,8,10,12,14,-1,-1,-1,-1,-1,-1,-1,-1],"split_conditions":[9.09355E-1,8.69585E-1,7.4533E-1,3.6795002E-1,8.5E-1,3.3333334E-1,1.5E-1,4.4876608E-1,3.178535E-1,6.751852E-2,3.735656E-1,-5.242089E-1,4.401662E-1,-6.904911E-2,-3.3348295E-1],"split_indices":[3,3,0,11,5,12,5,0,0,0,0,0,0,0,0],"sum_hessian":[2.0402082E4,7.5974272E3,1.2804655E4,5.956035E3,1.6413921E3,1.3127626E3,1.1491893E4,1.7188613E3,4.237174E3,1.3851818E3,2.5621033E2,5.5525852E1,1.2572367E3,3.6024019E3,7.8894907E3],"tree_param":{"num_deleted":"0","num_feature":"15","num_nodes":"15","size_leaf_vector":"0"}},{"base_weights":[-3.8928117E-3,7.2313464E-1,-5.287285E-1,1.0046753E0,3.6042583E-1,1.13762945E-1,-9.413177E-1,1.274485E0,8.82827E-1,7.213616E-1,5.4300014E-2,1.2081348E0,-2.3899813E-1,-1.1232437E0,8.188078E-1],"default_left":[true,true,true,true,true,true,true,false,false,false,false,false,false,false,false],"id":2,"leaf_child_counts":[0,0,0,0,0,0,0,0,0,0,0,0,0,0,0],"left_children":[1,3,5,7,9,11,13,-1,-1,-1,-1,-1,-1,-1,-1],"loss_changes":[7.2639185E3,8.1464746E2,2.9308372E3,1.4657812E2,3.8550534E2,1.6696793E3,2.156766E3,0E0,0E0,0E0,0E0,0E0,0E0,0E0,0E0],"parents":[2147483647,0,0,1,1,2,2,3,3,4,4,5,5,6,6],"right_children":[2,4,6,8,10,12,14,-1,-1,-1,-1,-1,-1,-1,-1],"split_conditions":[9.26265E-1,8.37395E-1,1.5E-1,4.7341502E-1,2.5E-1,7.8133E-1,8.5E-1,3.8234553E-1,2.648481E-1,2.1640848E-1,1.6290005E-2,3.6244044E-1,-7.169944E-2,-3.3697313E-1,2.4564235E-1],"split_indices":[3,3,5,11,5,0,5,0,0,0,0,0,0,0,0],"sum_hessian":[1.9034924E4,7.980113E3,1.1054812E4,4.4917617E3,3.488351E3,4.323266E3,6.731545E3,1.3944844E3,3.0972773E3,1.6002407E3,1.8881104E3,1.0532721E3,3.2699941E3,6.1012803E3,6.3026465E2],"tree_param":{"num_deleted":"0","num_feature":"15","num_nodes":"15","size_leaf_vector":"0"}},{"base_weights":[-3.7275904E-3,7.5408643E-1,-3.2076752E-1,1.1585835E0,6.29723E-1,6.43779E-1,-5.113179E-1,1.2201473E0,1.0744122E0,9.73419E-1,4.7023508E-1,8.715822E-1,-1.1123537E0,-6.08397E-1,1.0224568E0],"default_left":[true,true,true,true,true,true,true,false,false,false,false,false,false,false,false],"id":3,"leaf_child_counts":[0,0,0,0,0,0,0,0,0,0,0,0,0,0,0],"left_children":[1,3,5,7,9,11,13,-1,-1,-1,-1,-1,-1,-1,-1],"loss_changes":[4.195519E3,2.583789E2,2.2631748E3,4.9593506E0,2.1561096E2,8.1366E2,1.5314893E3,0E0,0E0,0E0,0E0,0E0,0E0,0E0,0E0],"parents":[2147483647,0,0,1,1,2,2,3,3,4,4,5,5,6,6],"right_children":[2,4,6,8,10,12,14,-1,-1,-1,-1,-1,-1,-1,-1],"split_conditions":[8.82415E-1,3.01205E-1,5.833334E-1,9.44255E-1,7.2056E-1,1.5E-1,9.5E-1,3.660442E-1,3.2232368E-1,2.9202572E-1,1.4107053E-1,2.6147467E-1,-3.337061E-1,-1.8251911E-1,3.0673704E-1],"split_indices":[3,11,12,0,4,5,5,0,0,0,0,0,0,0,0],"sum_hessian":[1.74606E4,5.1497886E3,1.2310812E4,1.2090354E3,3.940753E3,2.0304586E3,1.0280353E4,6.905002E2,5.185353E2,1.2474336E3,2.6933193E3,1.7977594E3,2.3269926E2,9.668966E3,6.113866E2],"tree_param":{"num_deleted":"0","num_feature":"15","num_nodes":"15","size_leaf_vector":"0"}},{"base_weights":[-1.6221259E-4,4.706733E-1,-3.7218294E-1,1.0651041E0,3.491556E-1,1.0039417E-1,-7.188454E-1,1.2344873E0,9.652163E-1,8.626E-1,2.215067E-1,6.495894E-1,-3.283465E-1,-9.322112E-1,2.346243E-1],"default_left":[true,true,true,true,true,true,true,false,false,false,false,false,false,false,false],"id":4,"leaf_child_counts":[0,0,0,0,0,0,0,0,0,0,0,0,0,0,0],"left_children":[1,3,5,7,9,11,13,-1,-1,-1,-1,-1,-1,-1,-1],"loss_changes":[2.812704E3,5.1159534E2,1.4696172E3,1.9153809E1,3.8559027E2,8.9417957E2,1.052925E3,0E0,0E0,0E0,0E0,0E0,0E0,0E0,0E0],"parents":[2147483647,0,0,1,1,2,2,3,3,4,4,5,5,6,6],"right_children":[2,4,6,8,10,12,14,-1,-1,-1,-1,-1,-1,-1,-1],"split_conditions":[9.32065E-1,3.01205E-1,1.5E-1,1.5E-1,6.9806004E-1,9.52725E-1,6.5E-1,3.703462E-1,2.895649E-1,2.5878003E-1,6.645201E-2,1.9487683E-1,-9.8503955E-2,-2.7966338E-1,7.038729E-2],"split_indices":[3,11,5,5,4,0,5,0,0,0,0,0,0,0,0],"sum_hessian":[1.6055862E4,7.0866357E3,8.969227E3,1.2014941E3,5.8851416E3,3.7956423E3,5.1735845E3,4.4148837E2,7.600058E2,1.1706515E3,4.7144897E3,1.6638364E3,2.131806E3,4.2275684E3,9.4601575E2],"tree_param":{"num_deleted":"0","num_feature":"15","num_nodes":"15","size_leaf_vector":"0"}},{"base_weights":[-2.1716638E-3,3.281671E-1,-3.4359986E-1,1.015699E0,2.3907137E-1,8.8900846E-1,-4.4751662E-1,1.1651275E0,9.0581375E-1,1.11198194E-1,7.541848E-1,-2.4926171E0,1.122062E0,1.5300725E0,-5.12686E-1],"default_left":[true,true,true,true,true,true,true,false,false,false,false,false,false,false,false],"id":5,"leaf_child_counts":[0,0,0,0,0,0,0,0,0,0,0,0,0,0,0],"left_children":[1,3,5,7,9,11,13,-1,-1,-1,-1,-1,-1,-1,-1],"loss_changes":[1.6782465E3,4.6302026E2,9.3763245E2,1.3185547E1,4.4100375E2,4.514211E2,8.705614E2,0E0,0E0,0E0,0E0,0E0,0E0,0E0,0E0],"parents":[2147483647,0,0,1,1,2,2,3,3,4,4,5,5,6,6],"right_children":[2,4,6,8,10,12,14,-1,-1,-1,-1,-1,-1,-1,-1],"split_conditions":[9.43705E-1,8.4704995E-2,6.0989E-1,1.5E-1,9.5E-1,3.3333334E-1,3.3333334E-1,3.4953827E-1,2.7174413E-1,3.335946E-2,2.2625545E-1,-7.4778515E-1,3.366186E-1,4.5902175E-1,-1.538058E-1],"split_indices":[3,11,0,5,5,12,12,0,0,0,0,0,0,0,0],"sum_hessian":[1.4877791E4,7.561715E3,7.3160757E3,8.662968E2,6.695418E3,5.6824817E2,6.7478276E3,3.630276E2,5.0326923E2,5.364849E3,1.3305691E3,3.6012226E1,5.3223596E2,2.1455632E2,6.5332715E3],"tree_param":{"num_deleted":"0","num_feature":"15","num_nodes":"15","size_leaf_vector":"0"}},{"base_weights":[8.98867E-4,8.833062E-1,-9.157562E-2,1.1543552E0,5.72983E-1,1.4676921E-1,-4.1146654E-1,7.1161634E-1,1.3243405E0,8.354697E-1,-2.6155734E-1,6.844391E-1,6.1922748E-2,8.093913E-1,-4.8806348E-1],"default_left":[true,true,true,true,true,true,true,false,false,false,false,false,false,false,false],"id":6,"leaf_child_counts":[0,0,0,0,0,0,0,0,0,0,0,0,0,0,0],"left_children":[1,3,5,7,9,11,13,-1,-1,-1,-1,-1,-1,-1,-1],"loss_changes":[1.1447549E3,1.11270386E2,9.682192E2,5.2441162E1,1.365598E2,3.3194122E2,5.0741437E2,0E0,0E0,0E0,0E0,0E0,0E0,0E0,0E0],"parents":[2147483647,0,0,1,1,2,2,3,3,4,4,5,5,6,6],"right_children":[2,4,6,8,10,12,14,-1,-1,-1,-1,-1,-1,-1,-1],"split_conditions":[2.5228E-1,1.5E-1,9.5411503E-1,2.6590502E-1,9.0742505E-1,6.9806004E-1,5.60835E-1,2.1348491E-1,3.9730215E-1,2.5064093E-1,-7.8467205E-2,2.0533174E-1,1.8576825E-2,2.428174E-1,-1.4641905E-1],"split_indices":[11,5,3,0,3,4,0,0,0,0,0,0,0,0,0],"sum_hessian":[1.402684E4,1.3297345E3,1.2697105E4,7.0833E2,6.214045E2,7.276248E3,5.420857E3,1.9794762E2,5.1038242E2,4.727196E2,1.4868489E2,9.9076E2,6.285488E3,3.1946255E2,5.1013945E3],"tree_param":{"num_deleted":"0","num_feature":"15","num_nodes":"15","size_leaf_vector":"0"}},{"base_weights":[2.1339746E-3,6.8677634E-1,-8.277647E-2,-9.773632E-1,7.890883E-1,-1.8216927E-1,6.2409997E-1,1.0608581E0,-1.764046E0,1.0268731E0,4.9671778E-1,9.358475E-1,-2.4251038E-1,-8.71889E-2,7.4938923E-1],"default_left":[true,true,true,true,true,true,true,false,false,false,false,false,false,false,false],"id":7,"leaf_child_counts":[0,0,0,0,0,0,0,0,0,0,0,0,0,0,0],"left_children":[1,3,5,7,9,11,13,-1,-1,-1,-1,-1,-1,-1,-1],"loss_changes":[7.774155E2,2.5199878E2,8.360111E2,1.3962115E2,9.6168335E1,7.039661E2,1.3078961E2,0E0,0E0,0E0,0E0,0E0,0E0,0E0,0E0],"parents":[2147483647,0,0,1,1,2,2,3,3,4,4,5,5,6,6],"right_children":[2,4,6,8,10,12,14,-1,-1,-1,-1,-1,-1,-1,-1],"split_conditions":[7.5476503E-1,3.3333334E-1,9.5E-1,8.5439E-1,1.54075E-1,2.49215E-1,7.2735E-2,3.1825745E-1,-5.292138E-1,3.0806196E-1,1.4901534E-1,2.8075427E-1,-7.275312E-2,-2.6156671E-2,2.2481678E-1],"split_indices":[0,12,5,3,0,4,4,0,0,0,0,0,0,0,0],"sum_hessian":[1.3371008E4,1.4745399E3,1.1896468E4,8.490923E1,1.3896307E3,1.0430582E4,1.4658856E3,2.354857E1,6.1360664E1,7.649693E2,6.2466144E2,5.333841E2,9.897198E3,2.1958243E2,1.2463032E3],"tree_param":{"num_deleted":"0","num_feature":"15","num_nodes":"15","size_leaf_vector":"0"}},{"base_weights":[5.3956406E-3,5.26883E-1,-9.656432E-2,1.0253322E0,9.5385864E-2,5.341179E-2,-3.770568E-1,4.616827E-1,1.1271493E0,-3.3818635E-1,6.082114E-1,8.4993076E-1,8.027371E-3,-1.9288355E-1,-7.37173E-1],"default_left":[true,true,true,true,true,true,true,false,false,false,false,false,false,false,false],"id":8,"leaf_child_counts":[0,0,0,0,0,0,0,0,0,0,0,0,0,0,0],"left_children":[1,3,5,7,9,11,13,-1,-1,-1,-1,-1,-1,-1,-1],"loss_changes":[6.804454E2,4.5004297E2,4.5032745E2,5.520508E1,2.498779E2,2.5216867E2,2.4721808E2,0E0,0E0,0E0,0E0,0E0,0E0,0E0,0E0],"parents":[2147483647,0,0,1,1,2,2,3,3,4,4,5,5,6,6],"right_children":[2,4,6,8,10,12,14,-1,-1,-1,-1,-1,-1,-1,-1],"split_conditions":[8.50995E-1,1.5E-1,9.62785E-1,2.65635E-1,6.5E-1,2.04615E-1,6.409627E-1,1.3850482E-1,3.381448E-1,-1.0145591E-1,1.8246342E-1,2.5497925E-1,2.4082114E-3,-5.786507E-2,-2.2115192E-1],"split_indices":[1,5,3,0,5,0,2,0,0,0,0,0,0,0,0],"sum_hessian":[1.2795388E4,2.0919045E3,1.0703482E4,9.7000964E2,1.121895E3,6.9748955E3,3.7285872E3,1.4925928E2,8.2075037E2,6.0810693E2,5.13788E2,3.7503952E2,6.599856E3,2.4679473E3,1.2606399E3],"tree_param":{"num_deleted":"0","num_feature":"15","num_nodes":"15","size_leaf_vector":"0"}},{"base_weights":[4.515263E-3,8.0431366E-1,-4.8584107E-2,9.778176E-1,5.5275255E-1,-1.4667338E-1,3.0959603E-1,3.594675E-1,1.1492884E0,9.0631783E-1,2.3896566E-1,1.4743611E-1,-5.5733275E-1,3.8369846E-1,-1.0038009E-1],"default_left":[true,true,true,true,true,true,true,false,false,false,false,false,false,false,false],"id":9,"leaf_child_counts":[0,0,0,0,0,0,0,0,0,0,0,0,0,0,0],"left_children":[1,3,5,7,9,11,13,-1,-1,-1,-1,-1,-1,-1,-1],"loss_changes":[5.269418E2,3.317566E1,4.088373E2,4.7921753E1,3.502053E1,1.1033538E3,7.6040726E1,0E0,0E0,0E0,0E0,0E0,0E0,0E0,0E0],"parents":[2147483647,0,0,1,1,2,2,3,3,4,4,5,5,6,6],"right_children":[2,4,6,8,10,12,14,-1,-1,-1,-1,-1,-1,-1,-1],"split_conditions":[4.6985E-2,1.5E-1,6.5E-1,2.6590502E-1,4.4705E-1,2.5E-1,6.624067E-1,1.07840255E-1,3.4478652E-1,2.7189535E-1,7.16897E-2,4.4230834E-2,-1.6719984E-1,1.1510954E-1,-3.0114029E-2],"split_indices":[11,5,5,0,4,5,2,0,0,0,0,0,0,0,0],"sum_hessian":[1.240582E4,7.714759E2,1.1634345E4,4.5486472E2,3.1661118E2,9.133645E3,2.5007E3,9.942378E1,3.5544092E2,1.4798169E2,1.6862949E2,5.322426E3,3.811219E3,2.117949E3,3.827512E2],"tree_param":{"num_deleted":"0","num_feature":"15","num_nodes":"15","size_leaf_vector":"0"}},{"base_weights":[3.2313063E-3,3.9503092E-1,-6.813925E-2,6.6216934E-1,1.1890151E-1,1.0943404E-1,-2.621836E-1,8.752261E-1,4.2936665E-1,6.553037E-1,-1.5837368E-2,4.9374825E-1,-9.5771246E-2,-5.537826E-1,2.8683397E-1],"default_left":[true,true,true,true,true,true,true,false,false,false,false,false,false,false,false],"id":10,"leaf_child_counts":[0,0,0,0,0,0,0,0,0,0,0,0,0,0,0],"left_children":[1,3,5,7,9,11,13,-1,-1,-1,-1,-1,-1,-1,-1],"loss_changes":[3.3626385E2,1.3660739E2,3.5053906E2,4.632846E1,6.5952324E1,4.1899478E2,7.783783E2,0E0,0E0,0E0,0E0,0E0,0E0,0E0,0E0],"parents":[2147483647,0,0,1,1,2,2,3,3,4,4,5,5,6,6],"right_children":[2,4,6,8,10,12,14,-1,-1,-1,-1,-1,-1,-1,-1],"split_conditions":[8.04005E-1,5.5E-1,2.5E-1,6.3982E-1,5.86305E-1,9.12395E-1,6.5E-1,2.6256785E-1,1.2881E-1,1.9659112E-1,-4.7512106E-3,1.4812449E-1,-2.8731374E-2,-1.6613477E-1,8.60502E-2],"split_indices":[3,5,5,3,11,1,5,0,0,0,0,0,0,0,0],"sum_hessian":[1.2023371E4,1.8519996E3,1.0171371E4,9.406143E2,9.1138525E2,5.3113247E3,4.860047E3,4.8969495E2,4.509194E2,1.8219489E2,7.2919037E2,1.8483246E3,3.463E3,3.174154E3,1.685893E3],"tree_param":{"num_deleted":"0","num_feature":"15","num_nodes":"15","size_leaf_vector":"0"}},{"base_weights":[2.1387364E-3,6.2471443E-1,-3.392908E-2,2.5061592E-1,7.556597E-1,7.1278855E-2,-2.5419125E-1,5.3222764E-1,-5.3720396E-2,3.2841694E-1,8.7440467E-1,6.378492E-1,3.5777364E-2,8.258069E-1,-3.048495E-1],"default_left":[true,true,true,true,true,true,true,false,false,false,false,false,false,false,false],"id":11,"leaf_child_counts":[0,0,0,0,0,0,0,0,0,0,0,0,0,0,0],"left_children":[1,3,5,7,9,11,13,-1,-1,-1,-1,-1,-1,-1,-1],"loss_changes":[2.5948453E2,3.0809402E1,2.5314125E2,1.4218406E1,2.3467896E1,1.486798E2,1.9344008E2,0E0,0E0,0E0,0E0,0E0,0E0,0E0,0E0],"parents":[2147483647,0,0,1,1,2,2,3,3,4,4,5,5,6,6],"right_children":[2,4,6,8,10,12,14,-1,-1,-1,-1,-1,-1,-1,-1],"split_conditions":[4.6985E-2,3.95365E-1,9.63765E-1,1.5E-1,2.6643002E-1,2.7224999E-2,3.3333334E-1,1.596683E-1,-1.611612E-2,9.8525085E-2,2.623214E-1,1.9135477E-1,1.073321E-2,2.4774209E-1,-9.1454856E-2],"split_indices":[11,14,3,5,0,4,12,0,0,0,0,0,0,0,0],"sum_hessian":[1.1553842E4,6.318034E2,1.0922038E4,1.6456642E2,4.6723697E2,7.3919565E3,3.5300818E3,8.508544E1,7.948097E1,1.0243675E2,3.6480023E2,4.348702E2,6.9570864E3,1.5747719E2,3.3726045E3],"tree_param":{"num_deleted":"0","num_feature":"15","num_nodes":"15","size_leaf_vector":"0"}},{"base_weights":[2.3384842E-3,4.9009964E-1,-3.6154725E-2,-1.1371049E0,6.5542835E-1,1.2218865E0,-6.8037674E-2,8.2337517E-1,-1.707342E0,3.6108232E-1,8.2878476E-1,-3.0460432E-1,1.2298028E0,-1.058394E-2,-4.3815142E-1],"default_left":[true,true,true,true,true,true,true,false,false,false,false,false,false,false,false],"id":12,"leaf_child_counts":[0,0,0,0,0,0,0,0,0,0,0,0,0,0,0],"left_children":[1,3,5,7,9,11,13,-1,-1,-1,-1,-1,-1,-1,-1],"loss_changes":[2.120091E2,2.2294415E2,4.1987152E2,8.6977455E1,3.7991302E1,3.5012207E0,2.170662E2,0E0,0E0,0E0,0E0,0E0,0E0,0E0,0E0],"parents":[2147483647,0,0,1,1,2,2,3,3,4,4,5,5,6,6],"right_children":[2,4,6,8,10,12,14,-1,-1,-1,-1,-1,-1,-1,-1],"split_conditions":[6.8290997E-1,3.3333334E-1,3.3333334E-1,8.01245E-1,5.833334E-1,9.1144994E-2,6.4985794E-1,2.4701256E-1,-5.122026E-1,1.083247E-1,2.4863544E-1,-9.13813E-2,3.6894086E-1,-3.175182E-3,-1.3144544E-1],"split_indices":[0,12,12,1,12,14,2,0,0,0,0,0,0,0,0],"sum_hessian":[1.1289855E4,8.249455E2,1.046491E4,7.554415E1,7.494013E2,2.577378E2,1.0207172E4,1.692206E1,5.8622093E1,2.7891232E2,4.70489E2,1.1363533E0,2.5660144E2,8.836489E3,1.370683E3],"tree_param":{"num_deleted":"0","num_feature":"15","num_nodes":"15","size_leaf_vector":"0"}},{"base_weights":[3.1769192E-3,-4.097922E-2,3.7005624E-1,8.0514944E-1,-8.230195E-2,-4.596607E-1,5.1637334E-1,9.426934E-1,3.8590387E-1,1.093135E-1,-3.3928403E-1,-2.9213972E0,-1.0258519E-1,5.502809E-1,-1.3257064E0],"default_left":[true,true,true,true,true,true,true,false,false,false,false,false,false,false,false],"id":13,"leaf_child_counts":[0,0,0,0,0,0,0,0,0,0,0,0,0,0,0],"left_children":[1,3,5,7,9,11,13,-1,-1,-1,-1,-1,-1,-1,-1],"loss_changes":[1.7973985E2,3.4632614E2,1.4493672E2,2.623233E1,4.6502722E2,1.5722815E2,6.404544E1,0E0,0E0,0E0,0E0,0E0,0E0,0E0,0E0],"parents":[2147483647,0,0,1,1,2,2,3,3,4,4,5,5,6,6],"right_children":[2,4,6,8,10,12,14,-1,-1,-1,-1,-1,-1,-1,-1],"split_conditions":[9.5E-1,2.3904E-1,7.2735E-2,7.5E-1,2.5E-1,7.9584E-1,9.9093497E-1,2.8280804E-1,1.1577117E-1,3.279405E-2,-1.0178521E-1,-8.764192E-1,-3.0775558E-2,1.6508429E-1,-3.9771193E-1],"split_indices":[5,4,4,5,5,0,3,0,0,0,0,0,0,0,0],"sum_hessian":[1.1093133E4,9.902229E3,1.1909047E3,4.602204E2,9.442008E3,1.782073E2,1.0126974E3,3.4559186E2,1.14628555E2,5.4092466E3,4.0327615E3,2.1664854E1,1.5654247E2,9.95082E2,1.7615408E1],"tree_param":{"num_deleted":"0","num_feature":"15","num_nodes":"15","size_leaf_vector":"0"}},{"base_weights":[3.867534E-3,3.4327653E-1,-3.7630383E-2,6.628923E-1,7.211197E-2,7.704221E-1,-5.8836598E-2,-1.2406696E-1,7.8578335E-1,4.829305E-1,-1.4175211E-1,-1.1797332E0,9.249147E-1,-1.9925636E0,-4.9360264E-2],"default_left":[true,true,true,true,true,true,true,false,false,false,false,false,false,false,false],"id":14,"leaf_child_counts":[0,0,0,0,0,0,0,0,0,0,0,0,0,0,0],"left_children":[1,3,5,7,9,11,13,-1,-1,-1,-1,-1,-1,-1,-1],"loss_changes":[1.5234326E2,1.0207945E2,1.6519765E2,5.2392715E1,5.6177685E1,7.5368576E1,1.720132E2,0E0,0E0,0E0,0E0,0E0,0E0,0E0,0E0],"parents":[2147483647,0,0,1,1,2,2,3,3,4,4,5,5,6,6],"right_children":[2,4,6,8,10,12,14,-1,-1,-1,-1,-1,-1,-1,-1],"split_conditions":[8.22605E-1,1.5E-1,3.337E-2,2.59745E-1,7.806E-1,3.3333334E-1,2.2382501E-1,-3.7220087E-2,2.3573501E-1,1.4487916E-1,-4.2525634E-2,-3.5391995E-1,2.7747443E-1,-5.977691E-1,-1.480808E-2],"split_indices":[1,5,0,0,3,12,7,0,0,0,0,0,0,0,0],"sum_hessian":[1.0814255E4,1.1773671E3,9.636888E3,5.397413E2,6.376258E2,2.4553581E2,9.391352E3,7.290015E1,4.6684113E2,2.1786453E2,4.1976126E2,1.7536531E1,2.2799928E2,4.477788E1,9.346574E3],"tree_param":{"num_deleted":"0","num_feature":"15","num_nodes":"15","size_leaf_vector":"0"}},{"base_weights":[4.097864E-3,2.6991253E0,-7.928306E-4,8.600766E-1,2.864251E0,6.6219315E-2,-1.9935793E-1,5.2880627E-1,4.518726E-2,4.1684676E-2,-3.8897192E-1],"default_left":[true,true,true,false,false,true,true,false,false,false,false],"id":15,"leaf_child_counts":[0,0,0,0,0,0,0,0,0,0,0],"left_children":[1,3,5,-1,-1,7,9,-1,-1,-1,-1],"loss_changes":[1.4100655E2,3.4213562E0,1.4211795E2,0E0,0E0,7.766879E1,1.2319026E2,0E0,0E0,0E0,0E0],"parents":[2147483647,0,0,1,1,2,2,5,5,6,6],"right_children":[2,4,6,-1,-1,8,10,-1,-1,-1,-1],"split_conditions":[5E-2,8.7582E-1,9.70485E-1,2.58023E-1,8.592753E-1,2.2255E-2,6.131666E-1,1.5864189E-1,1.3556179E-2,1.2505404E-2,-1.1669158E-1],"split_indices":[5,1,3,0,0,4,2,0,0,0,0],"sum_hessian":[1.069691E4,1.8378736E1,1.0678531E4,2.0257735E0,1.6352962E1,7.9845547E3,2.6939768E3,3.4618942E2,7.638365E3,1.1864758E3,1.507501E3],"tree_param":{"num_deleted":"0","num_feature":"15","num_nodes":"11","size_leaf_vector":"0"}},{"base_weights":[2.653576E-3,-4.1064795E-2,2.6981193E-1,1.4708509E-1,-1.4596695E-1,-2.6393506E-1,3.588373E-1,4.4600588E-1,4.5191467E-2,5.819322E-1,-1.7631789E-1,7.6432806E-1,-5.6795245E-1,-3.3771783E-1,4.0823242E-1],"default_left":[true,true,true,true,true,true,true,false,false,false,false,false,false,false,false],"id":16,"leaf_child_counts":[0,0,0,0,0,0,0,0,0,0,0,0,0,0,0],"left_children":[1,3,5,7,9,11,13,-1,-1,-1,-1,-1,-1,-1,-1],"loss_changes":[1.2363289E2,1.7956621E2,7.0828354E1,9.91757E1,1.2914255E2,6.713602E1,4.4048187E1,0E0,0E0,0E0,0E0,0E0,0E0,0E0,0E0],"parents":[2147483647,0,0,1,1,2,2,3,3,4,4,5,5,6,6],"right_children":[2,4,6,8,10,12,14,-1,-1,-1,-1,-1,-1,-1,-1],"split_conditions":[8.5E-1,9.6912503E-1,7.9725E-2,8.98905E-1,4.8404002E-1,5.74995E-1,5.46035E-1,1.3380177E-1,1.3557441E-2,1.7457967E-1,-5.2895367E-2,2.2929843E-1,-1.7038575E-1,-1.0131536E-1,1.2246973E-1],"split_indices":[5,0,4,1,4,11,3,0,0,0,0,0,0,0,0],"sum_hessian":[1.0583306E4,9.09571E3,1.4875955E3,3.2557952E3,5.839915E3,2.1237111E2,1.2752244E3,8.268181E2,2.428977E3,2.3303041E2,5.606885E3,4.8116146E1,1.6425496E2,8.4055916E1,1.1911685E3],"tree_param":{"num_deleted":"0","num_feature":"15","num_nodes":"15","size_leaf_vector":"0"}},{"base_weights":[2.9006223E-3,3.0014712E-1,-2.706302E-2,5.39265E-1,3.7652332E-2,6.360621E-1,-4.2409413E-2,-3.300658E-1,7.1096134E-1,6.1270064E-1,-1.4922321E-1,-7.6559126E-1,9.4564545E-1,7.9458445E-1,-6.2958874E-2],"default_left":[true,true,true,true,true,true,true,false,false,false,false,false,false,false,false],"id":17,"leaf_child_counts":[0,0,0,0,0,0,0,0,0,0,0,0,0,0,0],"left_children":[1,3,5,7,9,11,13,-1,-1,-1,-1,-1,-1,-1,-1],"loss_changes":[9.2506065E1,5.967759E1,9.604543E1,7.451251E1,4.892914E1,9.335855E1,1.5867941E2,0E0,0E0,0E0,0E0,0E0,0E0,0E0,0E0],"parents":[2147483647,0,0,1,1,2,2,3,3,4,4,5,5,6,6],"right_children":[2,4,6,8,10,12,14,-1,-1,-1,-1,-1,-1,-1,-1],"split_conditions":[4.6252E-1,1.5E-1,3.926E-2,2.74365E-1,7.2423995E-1,3.3333334E-1,3.3333334E-1,-9.901974E-2,2.1328841E-1,1.838102E-1,-4.4766963E-2,-2.296774E-1,2.8369364E-1,2.3837535E-1,-1.8887663E-2],"split_indices":[11,5,0,0,4,12,12,0,0,0,0,0,0,0,0],"sum_hessian":[1.0384341E4,9.5010046E2,9.43424E3,4.9663748E2,4.5346295E2,2.1247884E2,9.221762E3,8.17582E1,4.1487927E2,1.1066107E2,3.4280188E2,3.8173508E1,1.7430533E2,2.2008006E2,9.001682E3],"tree_param":{"num_deleted":"0","num_feature":"15","num_nodes":"15","size_leaf_vector":"0"}},{"base_weights":[3.3931728E-3,2.2015646E-2,-4.3259668E-1,3.50425E-1,1.7166318E-4,9.236735E-1,-5.26598E-1,8.743756E-1,-3.6114007E-2,-3.889498E-2,2.750688E-1,-1.7272256E-1,1.0333322E0,-7.4941134E-1,-4.0258862E-2],"default_left":[true,true,true,true,true,true,true,false,false,false,false,false,false,false,false],"id":18,"leaf_child_counts":[0,0,0,0,0,0,0,0,0,0,0,0,0,0,0],"left_children":[1,3,5,7,9,11,13,-1,-1,-1,-1,-1,-1,-1,-1],"loss_changes":[8.334364E1,7.0620895E1,5.40951E1,1.2437393E2,9.9149315E1,3.4989395E0,4.265091E1,0E0,0E0,0E0,0E0,0E0,0E0,0E0,0E0],"parents":[2147483647,0,0,1,1,2,2,3,3,4,4,5,5,6,6],"right_children":[2,4,6,8,10,12,14,-1,-1,-1,-1,-1,-1,-1,-1],"split_conditions":[6.812306E-1,6.30085E-1,4.066E-2,4.5E-1,8.5E-1,2.2475E-2,7.5E-1,2.6231268E-1,-1.0834202E-2,-1.1668495E-2,8.252064E-2,-5.1816773E-2,3.0999967E-1,-2.2482342E-1,-1.2077659E-2],"split_indices":[9,3,0,5,5,4,5,0,0,0,0,0,0,0,0],"sum_hessian":[1.0262821E4,9.843332E3,4.194896E2,6.129534E2,9.230379E3,2.6617695E1,3.928719E2,2.596873E2,3.5326614E2,8.0825903E3,1.1477882E3,2.3678849E0,2.424981E1,2.6906186E2,1.2381003E2],"tree_param":{"num_deleted":"0","num_feature":"15","num_nodes":"15","size_leaf_vector":"0"}},{"base_weights":[2.9491503E-3,5.0205046E-1,-9.440408E-3,9.386839E-1,2.1184328E-1,-9.8580414E-1,-2.8359094E-3,1.012412E0,3.4535146E-1,3.4944037E-1,-9.3517405E-1,6.939866E-1,-1.3633249E0,3.2560617E-2,-1.6526437E-1],"default_left":[true,true,true,true,true,true,true,false,false,false,false,false,false,false,false],"id":19,"leaf_child_counts":[0,0,0,0,0,0,0,0,0,0,0,0,0,0,0],"left_children":[1,3,5,7,9,11,13,-1,-1,-1,-1,-1,-1,-1,-1],"loss_changes":[6.259433E1,3.0870579E1,6.3691868E1,3.9202118E0,2.3777527E1,4.3031296E1,5.64199E1,0E0,0E0,0E0,0E0,0E0,0E0,0E0,0E0],"parents":[2147483647,0,0,1,1,2,2,3,3,4,4,5,5,6,6],"right_children":[2,4,6,8,10,12,14,-1,-1,-1,-1,-1,-1,-1,-1],"split_conditions":[7.6641E-1,5.6396496E-1,2.491E-2,1.5E-1,6.548554E-1,6.9968E-1,9.77655E-1,3.037236E-1,1.0360544E-1,1.0483211E-1,-2.8055224E-1,2.0819598E-1,-4.0899748E-1,9.768185E-3,-4.957931E-2],"split_indices":[6,0,7,5,2,1,3,0,0,0,0,0,0,0,0],"sum_hessian":[1.0120796E4,2.441931E2,9.876604E3,9.660729E1,1.475858E2,6.536408E1,9.811239E3,8.530135E1,1.1305937E1,1.3239853E2,1.5187282E1,1.1840612E1,5.3523468E1,8.0563853E3,1.7548536E3],"tree_param":{"num_deleted":"0","num_feature":"15","num_nodes":"15","size_leaf_vector":"0"}},{"base_weights":[2.3744493E-3,8.3040215E-2,-7.845158E-2,2.1035662E-1,-9.440118E-2,-2.2682603E-1,1.2072052E-1,9.112456E-1,1.909674E-1,5.8301125E-4,-5.719973E-1,7.458402E-1,-3.0490884E-1,-8.010962E-2,3.6645523E-1],"default_left":[true,true,true,true,true,true,true,false,false,false,false,false,false,false,false],"id":20,"leaf_child_counts":[0,0,0,0,0,0,0,0,0,0,0,0,0,0,0],"left_children":[1,3,5,7,9,11,13,-1,-1,-1,-1,-1,-1,-1,-1],"loss_changes":[6.565859E1,1.13884766E2,1.486821E2,3.971068E1,9.5551186E1,2.1919426E2,1.06043686E2,0E0,0E0,0E0,0E0,0E0,0E0,0E0,0E0],"parents":[2147483647,0,0,1,1,2,2,3,3,4,4,5,5,6,6],"right_children":[2,4,6,8,10,12,14,-1,-1,-1,-1,-1,-1,-1,-1],"split_conditions":[2.5E-1,9.5441496E-1,6.5E-1,6.0656E-1,6.363236E-1,4.6289998E-1,9.1174996E-1,2.733737E-1,5.7290222E-2,1.7490338E-4,-1.715992E-1,2.2375207E-1,-9.1472656E-2,-2.4032887E-2,1.0993657E-1],"split_indices":[5,1,5,3,2,4,3,0,0,0,0,0,0,0,0],"sum_hessian":[1.0068501E4,5.0392324E3,5.029268E3,2.9339216E3,2.1053108E3,2.8820952E3,2.1471729E3,7.774024E1,2.8561814E3,1.7568982E3,3.4841266E2,2.1353758E2,2.6685576E3,1.1819124E3,9.652605E2],"tree_param":{"num_deleted":"0","num_feature":"15","num_nodes":"15","size_leaf_vector":"0"}},{"base_weights":[1.5193879E-3,1.5328296E0,-2.1813358E-3,2.3533216E-1,1.6289878E0,1.6978712E-1,-3.0177874E-2,3.57016E-1,1.6796073E0,4.7801837E-1,5.562659E-2,4.5128426E-1,-4.1306514E-2],"default_left":[true,true,true,false,true,true,true,false,false,false,false,false,false],"id":21,"leaf_child_counts":[0,0,0,0,0,0,0,0,0,0,0,0,0],"left_children":[1,3,5,-1,7,9,11,-1,-1,-1,-1,-1,-1],"loss_changes":[5.6177616E1,2.598465E0,4.76193E1,0E0,8.2211685E-1,4.8700836E1,4.559352E1,0E0,0E0,0E0,0E0,0E0,0E0],"parents":[2147483647,0,0,1,1,2,2,4,4,5,5,6,6],"right_children":[2,4,6,-1,8,10,12,-1,-1,-1,-1,-1,-1],"split_conditions":[5E-2,3.4126002E-1,9.5346E-1,7.059965E-2,2.9251E-1,8.9448E-1,3.3333334E-1,1.071048E-1,5.038822E-1,1.4340551E-1,1.6687978E-2,1.3538529E-1,-1.2391955E-2],"split_indices":[5,10,6,0,14,0,12,0,0,0,0,0,0],"sum_hessian":[9.911601E3,2.2899488E1,9.888701E3,1.8178544E0,2.1081635E1,1.3837803E3,8.504921E3,1.1150655E0,1.9966568E1,3.731352E2,1.0106451E3,1.912501E2,8.313671E3],"tree_param":{"num_deleted":"0","num_feature":"15","num_nodes":"13","size_leaf_vector":"0"}},{"base_weights":[1.3740368E-3,2.008661E-2,-2.271235E-1,6.961201E-2,-6.1812002E-2,3.4146804E-2,-5.2882284E-1,3.2463413E-1,4.5719557E-2,1.6212417E-1,-1.2534884E-1,-4.750566E-1,1.5906738E-1,-7.865035E-1,-1.3588394E-2],"default_left":[true,true,true,true,true,true,true,false,false,false,false,false,false,false,false],"id":22,"leaf_child_counts":[0,0,0,0,0,0,0,0,0,0,0,0,0,0,0],"left_children":[1,3,5,7,9,11,13,-1,-1,-1,-1,-1,-1,-1,-1],"loss_changes":[4.2210052E1,3.7014164E1,5.8920437E1,3.463404E1,4.8951187E1,2.560849E1,4.604E1,0E0,0E0,0E0,0E0,0E0,0E0,0E0,0E0],"parents":[2147483647,0,0,1,1,2,2,3,3,4,4,5,5,6,6],"right_children":[2,4,6,8,10,12,14,-1,-1,-1,-1,-1,-1,-1,-1],"split_conditions":[6.646084E-1,4.60015E-1,9.75435E-1,7.9971004E-1,8.6947E-1,7.3188996E-1,6.5E-1,9.739024E-2,1.3715868E-2,4.8637252E-2,-3.7604652E-2,-1.4251699E-1,4.7720216E-2,-2.3595105E-1,-4.0765186E-3],"split_indices":[2,10,3,1,3,3,5,0,0,0,0,0,0,0,0],"sum_hessian":[9.869835E3,9.12358E3,7.462543E2,5.685573E3,3.4380068E3,4.003981E2,3.4585617E2,4.8596082E2,5.199613E3,7.5952E2,2.6784868E3,7.83251E1,3.22073E2,2.302009E2,1.1565527E2],"tree_param":{"num_deleted":"0","num_feature":"15","num_nodes":"15","size_leaf_vector":"0"}},{"base_weights":[6.229864E-4,1.9451307E-1,-1.818327E-2,-4.7482985E-1,2.8233418E-1,-8.772243E-1,-9.961955E-3,-5.4449477E0,5.4495066E-1,4.9673754E-1,-3.1742226E-2,-1.3153626E0,9.7399995E-2,5.8605844E-1,-1.8255636E-2],"default_left":[true,true,true,true,true,true,true,false,false,false,false,false,false,false,false],"id":23,"leaf_child_counts":[0,0,0,0,0,0,0,0,0,0,0,0,0,0,0],"left_children":[1,3,5,7,9,11,13,-1,-1,-1,-1,-1,-1,-1,-1],"loss_changes":[3.567289E1,5.0981625E1,6.29756E1,5.133735E2,5.155098E1,3.6223984E1,4.368228E1,0E0,0E0,0E0,0E0,0E0,0E0,0E0,0E0],"parents":[2147483647,0,0,1,1,2,2,3,3,4,4,5,5,6,6],"right_children":[2,4,6,8,10,12,14,-1,-1,-1,-1,-1,-1,-1,-1],"split_conditions":[4.6252E-1,2.7675E-1,6.27075E-1,5.833334E-1,2.5E-1,9.8044E-1,2.9520001E-2,-1.6334844E0,1.634852E-1,1.4902127E-1,-9.522668E-3,-3.946088E-1,2.922E-2,1.7581753E-1,-5.476691E-3],"split_indices":[11,0,7,12,5,0,0,0,0,0,0,0,0,0,0],"sum_hessian":[9.781215E3,8.640127E2,8.917202E3,9.970304E1,7.643097E2,8.352966E1,8.833673E3,1.6235678E1,8.346737E1,4.5388492E2,3.1042477E2,5.7383533E1,2.6146132E1,1.2027836E2,8.713395E3],"tree_param":{"num_deleted":"0","num_feature":"15","num_nodes":"15","size_leaf_vector":"0"}},{"base_weights":[3.6877408E-3,7.037759E-1,-1.4383071E-3,8.187597E-1,-1.6781166E-1,4.3984577E-2,-7.4984536E-2,8.6010164E-1,-7.4792635E-1,3.745218E-1,-1.255622E0,1.10032715E-1,-6.8665996E-2,-1.338516E-1,3.60399E-1],"default_left":[true,true,true,true,true,true,true,false,false,false,false,false,false,false,false],"id":24,"leaf_child_counts":[0,0,0,0,0,0,0,0,0,0,0,0,0,0,0],"left_children":[1,3,5,7,9,11,13,-1,-1,-1,-1,-1,-1,-1,-1],"loss_changes":[3.509669E1,7.2616615E0,3.243948E1,4.722004E0,5.847739E0,4.4671844E1,9.5069954E1,0E0,0E0,0E0,0E0,0E0,0E0,0E0,0E0],"parents":[2147483647,0,0,1,1,2,2,3,3,4,4,5,5,6,6],"right_children":[2,4,6,8,10,12,14,-1,-1,-1,-1,-1,-1,-1,-1],"split_conditions":[5.07955E-1,9.94285E-1,9.5415497E-1,4.99685E-1,8.8904E-1,4.5E-1,7.5E-1,2.580305E-1,-2.2437792E-1,1.1235654E-1,-3.7668663E-1,3.3009816E-2,-2.05998E-2,-4.015548E-2,1.08119704E-1],"split_indices":[6,0,3,10,1,5,5,0,0,0,0,0,0,0,0],"sum_hessian":[9.778537E3,7.008736E1,9.708449E3,6.19723E1,8.115056E0,6.001973E3,3.7064766E3,6.081842E1,1.1538804E0,5.8528156E0,2.262241E0,3.7836218E3,2.2183513E3,3.2656316E3,4.4084497E2],"tree_param":{"num_deleted":"0","num_feature":"15","num_nodes":"15","size_leaf_vector":"0"}},{"base_weights":[2.6376427E-3,2.800799E-1,-1.0200032E-2,9.21684E-1,1.6470847E-1,1.079887E-1,-3.6066253E-2,-1.1162597E-1,9.8186135E-1,-7.1668005E-1,2.7236348E-1,3.532959E-2,4.037327E-1,3.5908263E-2,-1.778836E-1],"default_left":[true,true,true,true,true,true,true,false,false,false,false,false,false,false,false],"id":25,"leaf_child_counts":[0,0,0,0,0,0,0,0,0,0,0,0,0,0,0],"left_children":[1,3,5,7,9,11,13,-1,-1,-1,-1,-1,-1,-1,-1],"loss_changes":[3.4623043E1,3.1671165E1,2.8407942E1,4.170395E0,3.488574E1,3.5840523E1,7.7822556E1,0E0,0E0,0E0,0E0,0E0,0E0,0E0,0E0],"parents":[2147483647,0,0,1,1,2,2,3,3,4,4,5,5,6,6],"right_children":[2,4,6,8,10,12,14,-1,-1,-1,-1,-1,-1,-1,-1],"split_conditions":[2.633E-2,9.67995E-1,9.69295E-1,2.84725E-1,3.1174999E-2,9.5071E-1,3.5000002E-1,-3.3487793E-2,2.945584E-1,-2.1500403E-1,8.170905E-2,1.0598877E-2,1.2111981E-1,1.077248E-2,-5.336508E-2],"split_indices":[11,7,4,10,0,4,5,0,0,0,0,0,0,0,0],"sum_hessian":[9.719094E3,4.289078E2,9.290186E3,6.43051E1,3.646027E2,1.6675573E3,7.6226284E3,3.4918215E0,6.0813282E1,3.9070366E1,3.2553235E2,1.3395682E3,3.2798898E2,5.056913E3,2.5657156E3],"tree_param":{"num_deleted":"0","num_feature":"15","num_nodes":"15","size_leaf_vector":"0"}},{"base_weights":[2.1266514E-3,1.0747424E0,-5.7441165E-4,7.09048E-1,1.400664E0,-1.9189052E-2,1.5673596E-1,-5.8117473E-1,8.703098E-1,3.725941E-1,1.4814128E0,4.529022E-1,-3.4990888E-2,-4.2076893E-2,3.9841247E-1],"default_left":[true,true,true,true,true,true,true,false,false,false,false,false,false,false,false],"id":26,"leaf_child_counts":[0,0,0,0,0,0,0,0,0,0,0,0,0,0,0],"left_children":[1,3,5,7,9,11,13,-1,-1,-1,-1,-1,-1,-1,-1],"loss_changes":[2.80687E1,1.9073639E0,2.8303793E1,3.3132586E0,4.3112946E-1,6.449132E1,4.915717E1,0E0,0E0,0E0,0E0,0E0,0E0,0E0,0E0],"parents":[2147483647,0,0,1,1,2,2,3,3,4,4,5,5,6,6],"right_children":[2,4,6,8,10,12,14,-1,-1,-1,-1,-1,-1,-1,-1],"split_conditions":[5E-2,4.3554002E-1,9.5E-1,8.7582E-1,3.9508E-1,2.5222498E-1,9.9966E-1,-1.7435242E-1,2.6109296E-1,1.1177823E-1,4.4442385E-1,1.3587067E-1,-1.0497266E-2,-1.2623069E-2,1.1952374E-1],"split_indices":[5,10,5,1,14,4,4,0,0,0,0,0,0,0,0],"sum_hessian":[9.686994E3,2.3335575E1,9.663658E3,1.2493256E1,1.08423195E1,8.641931E3,1.02172736E3,1.098718E0,1.1394538E1,1.1984347E0,9.643885E0,2.7899817E2,8.362933E3,5.610285E2,4.6069882E2],"tree_param":{"num_deleted":"0","num_feature":"15","num_nodes":"15","size_leaf_vector":"0"}},{"base_weights":[2.0040162E-3,1.1181168E-2,-3.2950047E-1,-3.4297433E-2,7.504446E-2,-7.4321516E-2,-6.7222816E-1,8.650691E-2,-1.2490536E-1,5.435652E-1,5.4012537E-2,-1.4321319E0,5.409563E-2,-1.2340288E0,-5.302966E-1],"default_left":[true,true,true,true,true,true,true,false,false,false,false,false,false,false,false],"id":27,"leaf_child_counts":[0,0,0,0,0,0,0,0,0,0,0,0,0,0,0],"left_children":[1,3,5,7,9,11,13,-1,-1,-1,-1,-1,-1,-1,-1],"loss_changes":[2.925898E1,2.7182682E1,2.260772E1,5.9846558E1,3.832865E1,2.6167522E1,8.152142E0,0E0,0E0,0E0,0E0,0E0,0E0,0E0,0E0],"parents":[2147483647,0,0,1,1,2,2,3,3,4,4,5,5,6,6],"right_children":[2,4,6,8,10,12,14,-1,-1,-1,-1,-1,-1,-1,-1],"split_conditions":[6.9448024E-1,6.60655E-1,9.84445E-1,1.5E-1,4.42445E-1,6.9631004E-1,7.5E-1,2.5952075E-2,-3.747161E-2,1.6306958E-1,1.6203761E-2,-4.2963958E-1,1.6228689E-2,-3.7020865E-1,-1.59089E-1],"split_indices":[2,14,3,5,11,2,12,0,0,0,0,0,0,0,0],"sum_hessian":[9.615281E3,9.357209E3,2.5807254E2,5.465533E3,3.8916758E3,1.4862798E2,1.0944457E2,2.3424597E3,3.1230735E3,1.6612495E2,3.7255508E3,1.1964969E1,1.36663E2,2.0521355E1,8.892322E1],"tree_param":{"num_deleted":"0","num_feature":"15","num_nodes":"15","size_leaf_vector":"0"}},{"base_weights":[1.2485987E-3,4.1720864E-1,-5.653322E-3,2.7651292E-1,7.717021E-1,7.571269E-2,-3.827036E-2,5.4391986E-1,-4.25579E-1,5.7966065E-1,1.8872341E0,1.5995234E-1,-9.147833E-2,-8.188865E-2,1.0510103E-1],"default_left":[true,true,true,true,true,true,true,false,false,false,false,false,false,false,false],"id":28,"leaf_child_counts":[0,0,0,0,0,0,0,0,0,0,0,0,0,0,0],"left_children":[1,3,5,7,9,11,13,-1,-1,-1,-1,-1,-1,-1,-1],"loss_changes":[2.7535301E1,7.5944138E0,2.50419E1,2.1563942E1,8.314955E0,3.804384E1,4.213033E1,0E0,0E0,0E0,0E0,0E0,0E0,0E0,0E0],"parents":[2147483647,0,0,1,1,2,2,3,3,4,4,5,5,6,6],"right_children":[2,4,6,8,10,12,14,-1,-1,-1,-1,-1,-1,-1,-1],"split_conditions":[1.4939001E-1,5.5E-1,9.99765E-1,2.5E-1,9.41815E-1,6.15217E-1,6.5E-1,1.6317597E-1,-1.2767372E-1,1.738982E-1,5.661703E-1,4.7985706E-2,-2.74435E-2,-2.4566596E-2,3.153031E-2],"split_indices":[14,5,6,5,3,2,5,0,0,0,0,0,0,0,0],"sum_hessian":[9.589274E3,1.555451E2,9.4337295E3,1.126251E2,4.2920006E1,2.699149E3,6.7345806E3,8.1724014E1,3.090108E1,3.791285E1,5.007158E0,1.7948514E3,9.0429755E2,5.1639624E3,1.5706182E3],"tree_param":{"num_deleted":"0","num_feature":"15","num_nodes":"15","size_leaf_vector":"0"}},{"base_weights":[9.6298195E-4,1.759908E-1,-1.3536283E-2,4.1609067E-1,-2.0145658E-2,-7.670398E-1,-8.992962E-3,5.3896767E-1,-8.841635E-2,-1.4981362E-1,3.034611E-1,-1.1538823E0,1.0180913E0,1.5919214E-2,-1.2136356E-1],"default_left":[true,true,true,true,true,true,true,false,false,false,false,false,false,false,false],"id":29,"leaf_child_counts":[0,0,0,0,0,0,0,0,0,0,0,0,0,0,0],"left_children":[1,3,5,7,9,11,13,-1,-1,-1,-1,-1,-1,-1,-1],"loss_changes":[2.4204552E1,3.4369606E1,3.0146866E1,2.0387794E1,1.6936993E1,3.76222E1,2.4514374E1,0E0,0E0,0E0,0E0,0E0,0E0,0E0,0E0],"parents":[2147483647,0,0,1,1,2,2,3,3,4,4,5,5,6,6],"right_children":[2,4,6,8,10,12,14,-1,-1,-1,-1,-1,-1,-1,-1],"split_conditions":[7.9947E-1,1.5E-1,2.8425E-1,4.74235E-1,8.5E-1,7.5E-1,6.3660127E-1,1.6169031E-1,-2.6524907E-2,-4.494409E-2,9.103833E-2,-3.461647E-1,3.054274E-1,4.7757644E-3,-3.640907E-2],"split_indices":[1,5,7,10,5,12,2,0,0,0,0,0,0,0,0],"sum_hessian":[9.535769E3,7.2865643E2,8.807111E3,3.2710742E2,4.0154898E2,5.177918E1,8.755333E3,2.629865E2,6.4120926E1,2.8706158E2,1.14487404E2,4.2847607E1,8.931573E0,7.167239E3,1.5880939E3],"tree_param":{"num_deleted":"0","num_feature":"15","num_nodes":"15","size_leaf_vector":"0"}},{"base_weights":[8.422633E-4,1.9469157E-1,-1.0624215E-2,7.972236E-1,-3.2033652E-2,1.500671E-2,-1.1720317E-1,8.525433E-1,-6.4458907E-1,6.427116E-1,-1.1051176E-1,1.2904696E-1,-2.0373486E-2,-1.7636997E-1,1.501681E-1],"default_left":[true,true,true,true,true,true,true,false,false,false,false,false,false,false,false],"id":30,"leaf_child_counts":[0,0,0,0,0,0,0,0,0,0,0,0,0,0,0],"left_children":[1,3,5,7,9,11,13,-1,-1,-1,-1,-1,-1,-1,-1],"loss_changes":[2.1108622E1,7.247799E1,2.4495018E1,1.2118332E1,2.0527672E1,2.9169516E1,2.7526468E1,0E0,0E0,0E0,0E0,0E0,0E0,0E0,0E0],"parents":[2147483647,0,0,1,1,2,2,3,3,4,4,5,5,6,6],"right_children":[2,4,6,8,10,12,14,-1,-1,-1,-1,-1,-1,-1,-1],"split_conditions":[6.18225E-1,3.5000002E-1,4.7802502E-1,7.0923847E-1,4.166667E-1,9.34485E-1,6.5E-1,2.55763E-1,-1.9337673E-1,1.9281349E-1,-3.315353E-2,3.871409E-2,-6.112046E-3,-5.291099E-2,4.5050435E-2],"split_indices":[3,5,10,2,13,0,5,0,0,0,0,0,0,0,0],"sum_hessian":[9.494613E3,5.2936285E2,8.965251E3,1.4404385E2,3.85319E2,7.227891E3,1.7373595E3,1.3911497E2,4.9288836E0,3.9397175E1,3.459218E2,1.7108136E3,5.5170776E3,1.4228387E3,3.1452075E2],"tree_param":{"num_deleted":"0","num_feature":"15","num_nodes":"15","size_leaf_vector":"0"}},{"base_weights":[1.0341435E-3,3.0802557E-1,-5.8409027E-3,-1.4464751E0,1.0335305E0,4.3330187E-1,-1.8666409E-2,8.025095E-1,-1.8335099E0,5.067569E-1,1.131064E0,-1.5152395E-1,9.30557E-1,-8.428456E-1,-1.36631895E-2],"default_left":[true,true,true,true,true,true,true,false,false,false,false,false,false,false,false],"id":31,"leaf_child_counts":[0,0,0,0,0,0,0,0,0,0,0,0,0,0,0],"left_children":[1,3,5,7,9,11,13,-1,-1,-1,-1,-1,-1,-1,-1],"loss_changes":[1.9926098E1,2.647307E2,5.2018337E1,5.4493477E1,6.9735413E0,7.63576E1,3.6990395E1,0E0,0E0,0E0,0E0,0E0,0E0,0E0,0E0],"parents":[2147483647,0,0,1,1,2,2,3,3,4,4,5,5,6,6],"right_children":[2,4,6,8,10,12,14,-1,-1,-1,-1,-1,-1,-1,-1],"split_conditions":[3.3333334E-1,2.0579E-1,1.01615E-1,8.3389497E-1,7.8901005E-1,8.3275E-1,3.5703E-1,2.4075286E-1,-5.50053E-1,1.5202707E-1,3.3931923E-1,-4.5457184E-2,2.7916712E-1,-2.528537E-1,-4.098957E-3],"split_indices":[12,0,0,3,1,11,0,0,0,0,0,0,0,0,0],"sum_hessian":[9.4392E3,2.0580022E2,9.2334E3,5.9914417E1,1.458858E2,2.6108594E2,8.972314E3,8.639348E0,5.127507E1,2.3759237E1,1.2212656E2,1.2029789E2,1.4078804E2,5.3127777E1,8.919187E3],"tree_param":{"num_deleted":"0","num_feature":"15","num_nodes":"15","size_leaf_vector":"0"}},{"base_weights":[1.7870513E-3,3.4792206E-1,-4.087271E-3,8.5428494E-1,3.7455212E-2,1.710832E-1,-1.6944421E-2,-8.531622E-1,9.162112E-1,3.0103365E-1,-5.857187E-1,6.194729E-1,9.221358E-2,-5.418271E-2,6.334231E-2],"default_left":[true,true,true,true,true,true,true,false,false,false,false,false,false,false,false],"id":32,"leaf_child_counts":[0,0,0,0,0,0,0,0,0,0,0,0,0,0,0],"left_children":[1,3,5,7,9,11,13,-1,-1,-1,-1,-1,-1,-1,-1],"loss_changes":[1.9087896E1,2.459635E1,2.0793442E1,7.072815E0,1.6299831E1,2.2268864E1,2.5717978E1,0E0,0E0,0E0,0E0,0E0,0E0,0E0,0E0],"parents":[2147483647,0,0,1,1,2,2,3,3,4,4,5,5,6,6],"right_children":[2,4,6,8,10,12,14,-1,-1,-1,-1,-1,-1,-1,-1],"split_conditions":[1.2155E-2,7.5E-1,8.84725E-1,8.97545E-1,6.2486506E-1,5.3965497E-1,7.0415497E-1,-2.559487E-1,2.7486336E-1,9.03101E-2,-1.7571561E-1,1.8584189E-1,2.7664075E-2,-1.6254812E-2,1.9002695E-2],"split_indices":[4,12,6,6,9,11,14,0,0,0,0,0,0,0,0],"sum_hessian":[9.385903E3,1.5566002E2,9.230244E3,5.8498676E1,9.716134E1,6.303138E2,8.59993E3,1.600209E0,5.6898464E1,6.864436E1,2.8516975E1,9.325962E1,5.370542E2,5.8752285E3,2.7247012E3],"tree_param":{"num_deleted":"0","num_feature":"15","num_nodes":"15","size_leaf_vector":"0"}},{"base_weights":[1.5761956E-3,3.4394988E-1,-3.8496186E-3,-2.7657738E-1,4.8145846E-1,-6.469605E-1,1.696378E-4,4.96944E-1,-1.1860957E0,8.1221634E-1,2.4011518E-1,9.112965E-1,-8.378768E-1,1.1474349E-1,-1.4911593E-2],"default_left":[true,true,true,true,true,true,true,false,false,false,false,false,false,false,false],"id":33,"leaf_child_counts":[0,0,0,0,0,0,0,0,0,0,0,0,0,0,0],"left_children":[1,3,5,7,9,11,13,-1,-1,-1,-1,-1,-1,-1,-1],"loss_changes":[1.74031E1,1.2603773E1,2.3838547E1,1.9688072E1,9.384327E0,1.7804142E1,1.584007E1,0E0,0E0,0E0,0E0,0E0,0E0,0E0,0E0],"parents":[2147483647,0,0,1,1,2,2,3,3,4,4,5,5,6,6],"right_children":[2,4,6,8,10,12,14,-1,-1,-1,-1,-1,-1,-1,-1],"split_conditions":[6.59755E-1,2.91875E-1,7.1935E-2,9.9953496E-1,1.5E-1,4.4123E-1,5.833334E-1,1.4908321E-1,-3.5582873E-1,2.436649E-1,7.203456E-2,2.7338895E-1,-2.5136304E-1,3.442305E-2,-4.473478E-3],"split_indices":[1,0,7,6,5,4,12,0,0,0,0,0,0,0,0],"sum_hessian":[9.366599E3,1.4514943E2,9.221449E3,2.6146816E1,1.1900261E2,5.627991E1,9.165169E3,1.4374932E1,1.1771883E1,4.9203903E1,6.9798706E1,5.7309213E0,5.0548992E1,1.0653062E3,8.099863E3],"tree_param":{"num_deleted":"0","num_feature":"15","num_nodes":"15","size_leaf_vector":"0"}},{"base_weights":[1.2720071E-3,8.2275134E-1,-8.0170925E-4,5.583811E-1,1.1825175E0,1.829642E-2,-1.0754013E-1,9.6044976E-1,1.2612908E-1,-2.7692256E-2,9.201699E-2,6.9573894E-2,-2.9405218E-1],"default_left":[true,true,true,true,false,true,true,false,false,false,false,false,false],"id":34,"leaf_child_counts":[0,0,0,0,0,0,0,0,0,0,0,0,0],"left_children":[1,3,5,7,-1,9,11,-1,-1,-1,-1,-1,-1],"loss_changes":[1.5915348E1,1.5771933E0,1.9000294E1,2.5648484E0,0E0,2.6806839E1,4.6750084E1,0E0,0E0,0E0,0E0,0E0,0E0],"parents":[2147483647,0,0,1,1,2,2,3,3,5,5,6,6],"right_children":[2,4,6,8,-1,10,12,-1,-1,-1,-1,-1,-1],"split_conditions":[5E-2,4.49555E-1,9.79695E-1,5.848081E-1,3.5475528E-1,6.2767893E-1,6.173991E-1,2.8813493E-1,3.7838724E-2,-8.307678E-3,2.7605098E-2,2.0872168E-2,-8.821566E-2],"split_indices":[5,10,3,2,0,8,2,0,0,0,0,0,0],"sum_hessian":[9.341265E3,2.2524908E1,9.318739E3,1.4454928E1,8.069979E0,7.9051436E3,1.4135961E3,6.855846E0,7.5990825E0,4.868611E3,3.036533E3,7.25387E2,6.8820905E2],"tree_param":{"num_deleted":"0","num_feature":"15","num_nodes":"13","size_leaf_vector":"0"}},{"base_weights":[8.3716767E-4,2.6482973E-1,-5.200007E-3,9.0170555E-2,5.968011E-1,-5.0755296E-2,3.0400734E-2,5.99255E-1,-7.079636E-2,3.5064372E-1,2.0508647E0,1.5212218E-1,-8.8103026E-2,5.0183934E-1,2.162567E-2],"default_left":[true,true,true,true,true,true,true,false,false,false,false,false,false,false,false],"id":35,"leaf_child_counts":[0,0,0,0,0,0,0,0,0,0,0,0,0,0,0],"left_children":[1,3,5,7,9,11,13,-1,-1,-1,-1,-1,-1,-1,-1],"loss_changes":[1.4853475E1,1.2027569E1,1.4778571E1,1.132716E1,2.4928291E1,3.0301094E1,2.1150131E1,0E0,0E0,0E0,0E0,0E0,0E0,0E0,0E0],"parents":[2147483647,0,0,1,1,2,2,3,3,4,4,5,5,6,6],"right_children":[2,4,6,8,10,12,14,-1,-1,-1,-1,-1,-1,-1,-1],"split_conditions":[5.7931757E-1,9.4418E-1,6.06305E-1,8.03175E-1,5.5E-1,7.99665E-1,3.3333334E-1,1.7977652E-1,-2.123891E-2,1.0519312E-1,6.152594E-1,4.5636658E-2,-2.6430909E-2,1.5055181E-1,6.487701E-3],"split_indices":[2,3,14,3,5,3,12,0,0,0,0,0,0,0,0],"sum_hessian":[9.317851E3,2.0736494E2,9.110486E3,1.3670981E2,7.065513E1,3.996313E3,5.114173E3,3.2187782E1,1.04522026E2,6.148716E1,9.16797E0,6.208276E2,3.3754856E3,9.242581E1,5.021747E3],"tree_param":{"num_deleted":"0","num_feature":"15","num_nodes":"15","size_leaf_vector":"0"}},{"base_weights":[7.6864124E-4,3.8448744E-2,-4.9362656E-2,6.862181E-1,2.3387391E-2,-1.8864861E-1,4.0522676E-2,7.404022E-1,-6.2903845E-1,6.838247E-2,-1.0943006E-1,6.0880903E-2,-5.832903E-1,-1.791145E-1,2.8010303E-1],"default_left":[true,true,true,true,true,true,true,false,false,false,false,false,false,false,false],"id":36,"leaf_child_counts":[0,0,0,0,0,0,0,0,0,0,0,0,0,0,0],"left_children":[1,3,5,7,9,11,13,-1,-1,-1,-1,-1,-1,-1,-1],"loss_changes":[1.7537144E1,5.1694515E1,4.988414E1,9.046234E0,3.0968822E1,1.5392267E2,1.2750362E2,0E0,0E0,0E0,0E0,0E0,0E0,0E0,0E0],"parents":[2147483647,0,0,1,1,2,2,3,3,4,4,5,5,6,6],"right_children":[2,4,6,8,10,12,14,-1,-1,-1,-1,-1,-1,-1,-1],"split_conditions":[3.5000002E-1,6.22735E-1,5.5E-1,9.008462E-1,9.74375E-1,9.3860495E-1,9.1053E-1,2.2212067E-1,-1.8871154E-1,2.0514742E-2,-3.282902E-2,1.8264271E-2,-1.749871E-1,-5.3734355E-2,8.403091E-2],"split_indices":[5,3,5,8,1,3,3,0,0,0,0,0,0,0,0],"sum_hessian":[9.282054E3,5.299233E3,3.9828206E3,1.1940071E2,5.179832E3,1.5617068E3,2.4211138E3,1.150962E2,4.3045135E0,3.869449E3,1.310383E3,9.5727405E2,6.044328E2,1.2632614E3,1.1578524E3],"tree_param":{"num_deleted":"0","num_feature":"15","num_nodes":"15","size_leaf_vector":"0"}},{"base_weights":[-3.7230337E-5,5.205138E-3,-2.9383838E-1,1.7416919E-2,-1.18557066E-1,-1.1614674E-1,-8.149433E-1,-4.347319E-2,5.0715156E-2,8.6470246E-1,-1.5977016E-1,4.2003384E-1,-3.222279E-1,-1.1545924E0,-6.750083E-2],"default_left":[true,true,true,true,true,true,true,false,false,false,false,false,false,false,false],"id":37,"leaf_child_counts":[0,0,0,0,0,0,0,0,0,0,0,0,0,0,0],"left_children":[1,3,5,7,9,11,13,-1,-1,-1,-1,-1,-1,-1,-1],"loss_changes":[1.4224035E1,1.371493E1,1.4896226E1,1.6748055E1,3.3164158E1,1.3604297E1,1.0330902E1,0E0,0E0,0E0,0E0,0E0,0E0,0E0,0E0],"parents":[2147483647,0,0,1,1,2,2,3,3,4,4,5,5,6,6],"right_children":[2,4,6,8,10,12,14,-1,-1,-1,-1,-1,-1,-1,-1],"split_conditions":[8.6593497E-1,6.5741235E-1,6.182611E-1,5.48315E-1,3.88825E-1,9.78415E-1,6.5432537E-1,-1.3041958E-2,1.52145475E-2,2.5941074E-1,-4.793105E-2,1.2601016E-1,-9.666837E-2,-3.4637773E-1,-2.025025E-2],"split_indices":[14,2,9,14,11,4,9,0,0,0,0,0,0,0,0],"sum_hessian":[9.23311E3,9.072215E3,1.6089555E2,8.258225E3,8.139906E2,1.20894585E2,4.0000973E1,2.9194072E3,5.338817E3,3.1941883E1,7.8204877E2,3.3276863E1,8.761772E1,2.7128603E1,1.2872368E1],"tree_param":{"num_deleted":"0","num_feature":"15","num_nodes":"15","size_leaf_vector":"0"}},{"base_weights":[-8.951562E-5,3.1649628E-1,-5.140805E-3,-1.9479775E-1,3.9158547E-1,-8.230671E-2,1.2070704E-2,-7.47385E-1,7.4452096E-1,1.2420913E0,3.1591904E-1,8.7478176E-2,-4.4403532E-1,6.947374E-1,1.8673255E-3],"default_left":[true,true,true,true,true,true,true,false,false,false,false,false,false,false,false],"id":38,"leaf_child_counts":[0,0,0,0,0,0,0,0,0,0,0,0,0,0,0],"left_children":[1,3,5,7,9,11,13,-1,-1,-1,-1,-1,-1,-1,-1],"loss_changes":[1.4757237E1,5.6403885E0,1.2064687E1,1.0535973E1,7.7613506E0,1.0178128E2,5.173519E1,0E0,0E0,0E0,0E0,0E0,0E0,0E0,0E0],"parents":[2147483647,0,0,1,1,2,2,3,3,4,4,5,5,6,6],"right_children":[2,4,6,8,10,12,14,-1,-1,-1,-1,-1,-1,-1,-1],"split_conditions":[1.4959E-1,2.72045E-1,7.5E-1,4.5E-1,3.4811997E-1,1.5E-1,1.0159E-1,-2.2421552E-1,2.2335629E-1,3.726274E-1,9.4775714E-2,2.6243454E-2,-1.332106E-1,2.0842122E-1,5.601977E-4],"split_indices":[14,10,12,5,10,5,0,0,0,0,0,0,0,0,0],"sum_hessian":[9.226063E3,1.4392642E2,9.082137E3,1.822632E1,1.25700096E2,1.65561E3,7.426527E3,1.1604121E1,6.622199E0,9.010042E0,1.16690056E2,1.1272635E3,5.2834656E2,1.0837694E2,7.31815E3],"tree_param":{"num_deleted":"0","num_feature":"15","num_nodes":"15","size_leaf_vector":"0"}},{"base_weights":[3.5283816E-4,2.5104198E-1,-5.8526634E-3,8.8984184E-2,8.177789E-1,-3.3389246E-1,6.3250016E-4,3.1844407E-1,-4.5645607E-1,3.5821238E-1,1.0891205E0,4.0618193E-1,-7.241868E-1,-1.9268189E-2,2.0187801E-1],"default_left":[true,true,true,true,true,true,true,false,false,false,false,false,false,false,false],"id":39,"leaf_child_counts":[0,0,0,0,0,0,0,0,0,0,0,0,0,0,0],"left_children":[1,3,5,7,9,11,13,-1,-1,-1,-1,-1,-1,-1,-1],"loss_changes":[1.4338737E1,2.0376211E1,1.913524E1,2.1955374E1,5.7683983E0,5.066117E1,3.5332222E1,0E0,0E0,0E0,0E0,0E0,0E0,0E0,0E0],"parents":[2147483647,0,0,1,1,2,2,3,3,4,4,5,5,6,6],"right_children":[2,4,6,8,10,12,14,-1,-1,-1,-1,-1,-1,-1,-1],"split_conditions":[1.9935E-2,8.30165E-1,6.095E-2,6.6903996E-1,7.56E-3,7.5E-1,9.5E-1,9.553323E-2,-1.3693683E-1,1.0746372E-1,3.2673615E-1,1.2185458E-1,-2.1725604E-1,-5.7804566E-3,6.0563404E-2],"split_indices":[4,3,4,14,4,5,5,0,0,0,0,0,0,0,0],"sum_hessian":[9.215244E3,2.2164874E2,8.993596E3,1.7326175E2,4.8386993E1,1.7337279E2,8.820223E3,1.22249214E2,5.101254E1,1.8824469E1,2.9562525E1,5.9848194E1,1.135246E2,8.0273237E3,7.928987E2],"tree_param":{"num_deleted":"0","num_feature":"15","num_nodes":"15","size_leaf_vector":"0"}}]},"name":"gbtree"},"learner_model_param":{"base_score":"5E-1","num_class":"0","num_feature":"15"},"objective":{"name":"binary:logistic","reg_loss_param":{"scale_pos_weight":"0.994063497"}}},"version":[1,2,0]}