{"learner":{"attributes":{},"gradient_booster":{"model":{"gbtree_model_param":{"num_trees":"80","size_leaf_vector":"0"},"tree_info":[0,0,0,0,0,0,0,0,0,0,0,0,0,0,0,0,0,0,0,0,0,0,0,0,0,0,0,0,0,0,0,0,0,0,0,0,0,0,0,0,0,0,0,0,0,0,0,0,0,0,0,0,0,0,0,0,0,0,0,0,0,0,0,0,0,0,0,0,0,0,0,0,0,0,0,0,0,0,0,0],"trees":[{"base_weights":[-1.8549984E0,-9.0229326E-1,-1.9192294E0,1.3033066E0,-1.1410532E0,-8.0289775E-1,-1.9358389E0,1.7678914E0,9.133416E-1,3.7593177E-1,-1.2111537E0,-1.9075543E0,-3.1478852E-1,1.1211808E-1,-1.9409788E0],"default_left":[true,true,true,true,true,true,true,false,false,false,false,false,false,false,false],"id":0,"leaf_child_counts":[0,0,0,0,0,0,0,0,0,0,0,0,0,0,0],"left_children":[1,3,5,7,9,11,13,-1,-1,-1,-1,-1,-1,-1,-1],"loss_changes":[3.4798281E3,1.8948738E3,9.8671875E2,6.2096436E1,3.4550928E2,4.2165143E2,5.530469E2,0E0,0E0,0E0,0E0,0E0,0E0,0E0,0E0],"parents":[2147483647,0,0,1,1,2,2,3,3,4,4,5,5,6,6],"right_children":[2,4,6,8,10,12,14,-1,-1,-1,-1,-1,-1,-1,-1],"split_conditions":[8.45285E-1,2.0544E-1,5.4833996E-1,1.88695E-1,4.166667E-1,2.5E-1,4.166667E-1,5.3036743E-1,2.740025E-1,1.12779535E-1,-3.6334613E-1,-5.722663E-1,-9.443656E-2,3.3635426E-2,-5.822936E-1],"split_indices":[3,11,0,4,12,12,12,0,0,0,0,0,0,0,0],"sum_hessian":[5.6893707E4,3.5944326E3,5.3299273E4,3.5066113E2,3.2437715E3,7.821181E2,5.2517156E4,1.5840814E2,1.9225299E2,1.4308261E2,3.100689E3,2.3879193E2,5.433262E2,1.3142354E2,5.238573E4],"tree_param":{"num_deleted":"0","num_feature":"14","num_nodes":"15","size_leaf_vector":"0"}},{"base_weights":[-1.421748E0,-7.196925E-1,-1.4833733E0,8.280901E-1,-8.892172E-1,-7.551882E-1,-1.5019192E0,1.3606975E0,3.5889193E-1,-6.332944E-2,-9.813697E-1,2.2992094E0,-8.8451564E-1,-1.5106857E0,-9.242615E-1],"default_left":[true,true,true,true,true,true,true,false,false,false,false,false,false,false,false],"id":1,"leaf_child_counts":[0,0,0,0,0,0,0,0,0,0,0,0,0,0,0],"left_children":[1,3,5,7,9,11,13,-1,-1,-1,-1,-1,-1,-1,-1],"loss_changes":[2.2728672E3,1.1140964E3,6.51375E2,1.0431561E2,2.910349E2,4.7684827E2,2.3720312E2,0E0,0E0,0E0,0E0,0E0,0E0,0E0,0E0],"parents":[2147483647,0,0,1,1,2,2,3,3,4,4,5,5,6,6],"right_children":[2,4,6,8,10,12,14,-1,-1,-1,-1,-1,-1,-1,-1],"split_conditions":[8.68645E-1,3.28705E-1,5.833334E-1,7.8245497E-1,2.223E-2,8.268E-2,9.5E-1,4.0820926E-1,1.0766759E-1,-1.8998833E-2,-2.944109E-1,6.8976283E-1,-2.653547E-1,-4.5320573E-1,-2.7727845E-1],"split_indices":[3,11,12,0,4,11,5,0,0,0,0,0,0,0,0],"sum_hessian":[5.255799E4,4.2421934E3,4.8315797E4,4.1838626E2,3.8238071E3,1.20101E3,4.7114785E4,1.9506235E2,2.2332391E2,3.8400146E2,3.4398057E3,4.8105156E1,1.1529048E3,4.640887E4,7.0591614E2],"tree_param":{"num_deleted":"0","num_feature":"14","num_nodes":"15","size_leaf_vector":"0"}},{"base_weights":[-1.2041565E0,-5.748178E-1,-1.2714543E0,8.663392E-1,-6.822642E-1,-3.4231874E-1,-1.2885047E0,1.070466E0,3.5227165E-1,1.4153932E0,-7.21146E-1,1.4502089E0,-5.922536E-1,4.2129034E-1,-1.2935741E0],"default_left":[true,true,true,true,true,true,true,false,false,false,false,false,false,false,false],"id":2,"leaf_child_counts":[0,0,0,0,0,0,0,0,0,0,0,0,0,0,0],"left_children":[1,3,5,7,9,11,13,-1,-1,-1,-1,-1,-1,-1,-1],"loss_changes":[1.8961875E3,6.708522E2,6.4053516E2,3.1183792E1,3.2960913E2,3.2811847E2,3.4491406E2,0E0,0E0,0E0,0E0,0E0,0E0,0E0,0E0],"parents":[2147483647,0,0,1,1,2,2,3,3,4,4,5,5,6,6],"right_children":[2,4,6,8,10,12,14,-1,-1,-1,-1,-1,-1,-1,-1],"split_conditions":[8.77715E-1,3.715E-3,6.41665E-1,8.06895E-1,1.0391E-1,8.1263E-1,4.166667E-1,3.211398E-1,1.056815E-1,4.2461798E-1,-2.163438E-1,4.3506268E-1,-1.776761E-1,1.263871E-1,-3.8807225E-1],"split_indices":[3,11,0,3,0,6,12,0,0,0,0,0,0,0,0],"sum_hessian":[4.478711E4,4.3275312E3,4.045958E4,2.9976624E2,4.0277651E3,7.294654E2,3.9730113E4,2.137913E2,8.5974945E1,7.265491E1,3.9551104E3,8.867658E1,6.407888E2,1.1720293E2,3.961291E4],"tree_param":{"num_deleted":"0","num_feature":"14","num_nodes":"15","size_leaf_vector":"0"}},{"base_weights":[-1.0633246E0,-4.5547011E-1,-1.1410894E0,4.536096E-1,-5.643025E-1,-3.9176145E-1,-1.1642392E0,1.1513258E0,8.98003E-2,-8.692907E-2,-6.902397E-1,1.7642615E0,-5.191559E-1,-1.1749191E0,-4.9867776E-1],"default_left":[true,true,true,true,true,true,true,false,false,false,false,false,false,false,false],"id":3,"leaf_child_counts":[0,0,0,0,0,0,0,0,0,0,0,0,0,0,0],"left_children":[1,3,5,7,9,11,13,-1,-1,-1,-1,-1,-1,-1,-1],"loss_changes":[1.7436992E3,4.1449524E2,5.670117E2,1.1366694E2,2.2476611E2,2.7060022E2,2.2497656E2,0E0,0E0,0E0,0E0,0E0,0E0,0E0,0E0],"parents":[2147483647,0,0,1,1,2,2,3,3,4,4,5,5,6,6],"right_children":[2,4,6,8,10,12,14,-1,-1,-1,-1,-1,-1,-1,-1],"split_conditions":[8.82415E-1,4.6915E-1,5.833334E-1,1.88695E-1,6.7497504E-1,2.5717E-1,9.5E-1,3.4539777E-1,2.694009E-2,-2.6078722E-2,-2.0707193E-1,5.2927846E-1,-1.5574679E-1,-3.5247576E-1,-1.4960334E-1],"split_indices":[3,11,12,4,4,11,5,0,0,0,0,0,0,0,0],"sum_hessian":[3.6898258E4,4.1858857E3,3.2712371E4,4.4720474E2,3.7386807E3,9.808649E2,3.1731506E4,1.5252551E2,2.9467923E2,7.807786E2,2.957902E3,5.400672E1,9.268582E2,3.1229611E4,5.018951E2],"tree_param":{"num_deleted":"0","num_feature":"14","num_nodes":"15","size_leaf_vector":"0"}},{"base_weights":[-9.549468E-1,-3.6125717E-1,-1.0465412E0,9.76898E-1,-4.203609E-1,-1.320902E-1,-1.075063E0,1.2423428E0,2.8012723E-1,2.3492305E-1,-5.1489186E-1,2.649097E-1,-1.059163E0,4.696959E-1,-1.082003E0],"default_left":[true,true,true,true,true,true,true,false,false,false,false,false,false,false,false],"id":4,"leaf_child_counts":[0,0,0,0,0,0,0,0,0,0,0,0,0,0,0],"left_children":[1,3,5,7,9,11,13,-1,-1,-1,-1,-1,-1,-1,-1],"loss_changes":[1.6314648E3,3.177577E2,6.77916E2,3.1099365E1,2.3820227E2,2.9010938E2,2.707871E2,0E0,0E0,0E0,0E0,0E0,0E0,0E0,0E0],"parents":[2147483647,0,0,1,1,2,2,3,3,4,4,5,5,6,6],"right_children":[2,4,6,8,10,12,14,-1,-1,-1,-1,-1,-1,-1,-1],"split_conditions":[8.85895E-1,1.04595E-1,7.25785E-1,8.3154E-1,2.8265E-2,1.5E-1,4.166667E-1,3.7270287E-1,8.403817E-2,7.047692E-2,-1.5446757E-1,7.9472914E-2,-3.177489E-1,1.4090878E-1,-3.246009E-1],"split_indices":[3,0,0,3,4,5,12,0,0,0,0,0,0,0,0],"sum_hessian":[3.0007879E4,4.011482E3,2.5996396E4,1.6902791E2,3.842454E3,7.8647595E2,2.5209922E4,1.2183145E2,4.7196453E1,4.8424017E2,3.3582139E3,5.5116504E2,2.3531088E2,1.1245433E2,2.5097467E4],"tree_param":{"num_deleted":"0","num_feature":"14","num_nodes":"15","size_leaf_vector":"0"}},{"base_weights":[-8.61513E-1,-3.096567E-1,-9.7675574E-1,1.4617855E-2,-4.9741513E-1,-1.507787E-1,-1.0105358E0,4.3791807E-1,-1.5665904E-1,-6.1224705E-1,2.3162831E-1,-1.2171458E0,1.4674234E-1,-1.0252905E0,-1.8007147E-1],"default_left":[true,true,true,true,true,true,true,false,false,false,false,false,false,false,false],"id":5,"leaf_child_counts":[0,0,0,0,0,0,0,0,0,0,0,0,0,0,0],"left_children":[1,3,5,7,9,11,13,-1,-1,-1,-1,-1,-1,-1,-1],"loss_changes":[1.5482656E3,2.56206E2,5.618594E2,1.12008995E2,2.2324231E2,2.5163885E2,2.3692773E2,0E0,0E0,0E0,0E0,0E0,0E0,0E0,0E0],"parents":[2147483647,0,0,1,1,2,2,3,3,4,4,5,5,6,6],"right_children":[2,4,6,8,10,12,14,-1,-1,-1,-1,-1,-1,-1,-1],"split_conditions":[8.98715E-1,7.57075E-1,7.43675E-1,4.5E-1,9.5E-1,2.5E-1,9.5E-1,1.3137543E-1,-4.6997715E-2,-1.8367413E-1,6.9488496E-2,-3.6514375E-1,4.4022705E-2,-3.0758715E-1,-5.4021444E-2],"split_indices":[3,3,0,5,5,12,5,0,0,0,0,0,0,0,0],"sum_hessian":[2.4348518E4,4.2068936E3,2.0141625E4,1.5429725E3,2.6639211E3,7.915833E2,1.9350041E4,4.4402805E2,1.0989445E3,2.3015613E3,3.623597E2,1.7200316E2,6.1958014E2,1.9012023E4,3.380186E2],"tree_param":{"num_deleted":"0","num_feature":"14","num_nodes":"15","size_leaf_vector":"0"}},{"base_weights":[-7.7119505E-1,-2.4726488E-1,-9.0884596E-1,6.749308E-1,-3.1179833E-1,6.333415E-2,-9.5359546E-1,1.1467738E0,4.1063866E-1,7.1827596E-1,-3.5620832E-1,1.9119691E0,-7.0449926E-2,-9.764138E-1,-3.2325488E-1],"default_left":[true,true,true,true,true,true,true,false,false,false,false,false,false,false,false],"id":6,"leaf_child_counts":[0,0,0,0,0,0,0,0,0,0,0,0,0,0,0],"left_children":[1,3,5,7,9,11,13,-1,-1,-1,-1,-1,-1,-1,-1],"loss_changes":[1.4374795E3,2.4713522E2,6.868623E2,3.340811E1,1.7767801E2,1.7217719E2,2.1676172E2,0E0,0E0,0E0,0E0,0E0,0E0,0E0,0E0],"parents":[2147483647,0,0,1,1,2,2,3,3,4,4,5,5,6,6],"right_children":[2,4,6,8,10,12,14,-1,-1,-1,-1,-1,-1,-1,-1],"split_conditions":[9.03335E-1,3.715E-3,5.833334E-1,1.5E-1,2.5E-1,1.21989995E-1,8.5E-1,3.4403217E-1,1.231916E-1,2.154828E-1,-1.068625E-1,5.7359076E-1,-2.1134978E-2,-2.9292414E-1,-9.697647E-2],"split_indices":[3,11,12,5,12,11,5,0,0,0,0,0,0,0,0],"sum_hessian":[1.993403E4,4.148127E3,1.5785902E4,2.7067465E2,3.8774521E3,6.9463293E2,1.509127E4,9.5980606E1,1.7469405E2,1.596336E2,3.7178186E3,4.5980515E1,6.486524E2,1.4563521E4,5.277481E2],"tree_param":{"num_deleted":"0","num_feature":"14","num_nodes":"15","size_leaf_vector":"0"}},{"base_weights":[-6.841711E-1,-2.0004174E-1,-8.4597504E-1,2.147696E-1,-3.119188E-1,4.7773346E-2,-8.9760524E-1,7.3698217E-1,-3.4034902E-1,-4.686298E-1,6.475538E-1,3.563985E-1,-5.327497E-1,-1.4372754E-1,-9.260987E-1],"default_left":[true,true,true,true,true,true,true,false,false,false,false,false,false,false,false],"id":7,"leaf_child_counts":[0,0,0,0,0,0,0,0,0,0,0,0,0,0,0],"left_children":[1,3,5,7,9,11,13,-1,-1,-1,-1,-1,-1,-1,-1],"loss_changes":[1.2889492E3,1.9143678E2,5.691885E2,2.5434561E2,4.8869186E2,1.2104508E2,2.5034082E2,0E0,0E0,0E0,0E0,0E0,0E0,0E0,0E0],"parents":[2147483647,0,0,1,1,2,2,3,3,4,4,5,5,6,6],"right_children":[2,4,6,8,10,12,14,-1,-1,-1,-1,-1,-1,-1,-1],"split_conditions":[9.09355E-1,6.7565E-1,5.833334E-1,9.5E-1,9.5E-1,9.73695E-1,7.506E-1,2.2109465E-1,-1.0210471E-1,-1.4058895E-1,1.9426616E-1,1.0691955E-1,-1.5982492E-1,-4.3118265E-2,-2.7782962E-1],"split_indices":[3,4,12,5,5,0,0,0,0,0,0,0,0,0,0],"sum_hessian":[1.6455684E4,4.12265E3,1.2333034E4,8.7552155E2,3.2471284E3,6.7355066E2,1.1659483E4,4.5096295E2,4.245586E2,2.7916746E3,4.5545374E2,4.4001193E2,2.3353873E2,4.2485168E2,1.1234632E4],"tree_param":{"num_deleted":"0","num_feature":"14","num_nodes":"15","size_leaf_vector":"0"}},{"base_weights":[-5.988358E-1,-1.8365029E-1,-7.922459E-1,4.8571694E-1,-2.4556041E-1,-1.67122E-1,-8.7365305E-1,-3.2972872E-1,8.057556E-1,-8.573696E-3,-4.2215237E-1,2.3893242E-1,-6.996523E-1,1.3960823E0,-8.893401E-1],"default_left":[true,true,true,true,true,true,true,false,false,false,false,false,false,false,false],"id":8,"leaf_child_counts":[0,0,0,0,0,0,0,0,0,0,0,0,0,0,0],"left_children":[1,3,5,7,9,11,13,-1,-1,-1,-1,-1,-1,-1,-1],"loss_changes":[1.1077065E3,1.8186563E2,4.7880225E2,9.725174E1,1.6802713E2,2.3492192E2,2.977246E2,0E0,0E0,0E0,0E0,0E0,0E0,0E0,0E0],"parents":[2147483647,0,0,1,1,2,2,3,3,4,4,5,5,6,6],"right_children":[2,4,6,8,10,12,14,-1,-1,-1,-1,-1,-1,-1,-1],"split_conditions":[9.21795E-1,7.49995E-1,7.5E-1,5.833334E-1,8.04085E-1,9.6928E-1,7.9635E-2,-9.8918624E-2,2.417267E-1,-2.572109E-3,-1.2664571E-1,7.1679726E-2,-2.098957E-1,4.188247E-1,-2.6680204E-1],"split_indices":[3,0,12,12,3,0,0,0,0,0,0,0,0,0,0],"sum_hessian":[1.3795229E4,4.3847075E3,9.410521E3,3.7063086E2,4.0140764E3,1.0846399E3,8.325882E3,1.0445457E2,2.661763E2,1.7143989E3,2.2996775E3,6.157113E2,4.689286E2,5.6544643E1,8.269337E3],"tree_param":{"num_deleted":"0","num_feature":"14","num_nodes":"15","size_leaf_vector":"0"}},{"base_weights":[-5.146123E-1,-1.5034446E-1,-7.2833866E-1,2.4485087E-1,-2.3618361E-1,-3.6188048E-1,-8.927849E-1,2.1642878E0,8.284685E-2,-3.9390102E-1,1.297342E-1,3.2220367E-1,-5.365915E-1,-9.52594E-1,1.66712E-1],"default_left":[true,true,true,true,true,true,true,false,false,false,false,false,false,false,false],"id":9,"leaf_child_counts":[0,0,0,0,0,0,0,0,0,0,0,0,0,0,0],"left_children":[1,3,5,7,9,11,13,-1,-1,-1,-1,-1,-1,-1,-1],"loss_changes":[9.159263E2,1.4769339E2,4.4652954E2,2.4146533E2,2.0642484E2,2.7488058E2,3.24448E2,0E0,0E0,0E0,0E0,0E0,0E0,0E0,0E0],"parents":[2147483647,0,0,1,1,2,2,3,3,4,4,5,5,6,6],"right_children":[2,4,6,8,10,12,14,-1,-1,-1,-1,-1,-1,-1,-1],"split_conditions":[9.26265E-1,1.5E-1,1.5E-1,6.0445E-1,8.5E-1,7.7805996E-1,8.5E-1,6.492864E-1,2.4854057E-2,-1.1817031E-1,3.892026E-2,9.6661106E-2,-1.6097745E-1,-2.857782E-1,5.00136E-2],"split_indices":[3,5,5,3,5,0,5,0,0,0,0,0,0,0,0],"sum_hessian":[1.1765126E4,4.3510493E3,7.4140767E3,7.761011E2,3.5749485E3,2.2974822E3,5.1165947E3,5.9444016E1,7.1665704E2,2.4981309E3,1.0768175E3,4.6722186E2,1.8302603E3,4.8432896E3,2.733049E2],"tree_param":{"num_deleted":"0","num_feature":"14","num_nodes":"15","size_leaf_vector":"0"}},{"base_weights":[-4.318824E-1,-1.21676266E-1,-6.606367E-1,3.6438918E-1,-1.8279882E-1,-2.965961E-1,-8.508409E-1,9.664953E-1,9.7341664E-2,5.794612E-1,-2.2297643E-1,3.3937955E-1,-4.6970412E-1,-9.21498E-1,7.257788E-2],"default_left":[true,true,true,true,true,true,true,false,false,false,false,false,false,false,false],"id":10,"leaf_child_counts":[0,0,0,0,0,0,0,0,0,0,0,0,0,0,0],"left_children":[1,3,5,7,9,11,13,-1,-1,-1,-1,-1,-1,-1,-1],"loss_changes":[7.290934E2,1.2967764E2,4.092517E2,7.831564E1,1.1883336E2,2.2377017E2,2.534812E2,0E0,0E0,0E0,0E0,0E0,0E0,0E0,0E0],"parents":[2147483647,0,0,1,1,2,2,3,3,4,4,5,5,6,6],"right_children":[2,4,6,8,10,12,14,-1,-1,-1,-1,-1,-1,-1,-1],"split_conditions":[9.30665E-1,8.04935E-1,1.5E-1,7.5E-1,3.715E-3,8.82035E-1,8.5E-1,2.8994858E-1,2.92025E-2,1.7383838E-1,-6.689293E-2,1.0181387E-1,-1.4091124E-1,-2.764494E-1,2.1773364E-2],"split_indices":[3,1,5,12,11,1,5,0,0,0,0,0,0,0,0],"sum_hessian":[1.0274698E4,4.361604E3,5.913094E3,4.8665005E2,3.8749536E3,2.0301176E3,3.8829766E3,1.4871852E2,3.3793152E2,1.9334479E2,3.681609E3,4.3414954E2,1.595968E3,3.6069836E3,2.7599295E2],"tree_param":{"num_deleted":"0","num_feature":"14","num_nodes":"15","size_leaf_vector":"0"}},{"base_weights":[-3.548669E-1,-5.1788203E-2,-5.566778E-1,2.0082457E-1,-1.4488363E-1,-2.0487939E-1,-7.6363987E-1,1.4764129E0,9.068819E-2,1.263997E-1,-4.004403E-1,1.895956E-1,-4.6155092E-1,-8.561066E-1,1.6496883E-1],"default_left":[true,true,true,true,true,true,true,false,false,false,false,false,false,false,false],"id":11,"leaf_child_counts":[0,0,0,0,0,0,0,0,0,0,0,0,0,0,0],"left_children":[1,3,5,7,9,11,13,-1,-1,-1,-1,-1,-1,-1,-1],"loss_changes":[5.594758E2,8.604257E1,3.9964026E2,1.3829526E2,1.8537524E2,2.0615448E2,2.9696252E2,0E0,0E0,0E0,0E0,0E0,0E0,0E0,0E0],"parents":[2147483647,0,0,1,1,2,2,3,3,4,4,5,5,6,6],"right_children":[2,4,6,8,10,12,14,-1,-1,-1,-1,-1,-1,-1,-1],"split_conditions":[9.14485E-1,2.5E-1,1.5E-1,6.05905E-1,9.6877503E-1,7.5E-1,8.5E-1,4.4292387E-1,2.7206458E-2,3.791991E-2,-1.20132096E-1,5.6878682E-2,-1.3846529E-1,-2.5683197E-1,4.9490653E-2],"split_indices":[3,5,5,3,4,12,5,0,0,0,0,0,0,0,0],"sum_hessian":[9.146525E3,3.656487E3,5.4900386E3,9.843403E2,2.6721467E3,2.0342194E3,3.4558193E3,7.724868E1,9.0709155E2,1.2964355E3,1.3757113E3,8.019597E2,1.2322596E3,3.1429375E3,3.1288177E2],"tree_param":{"num_deleted":"0","num_feature":"14","num_nodes":"15","size_leaf_vector":"0"}},{"base_weights":[-2.8759524E-1,-7.773032E-2,-5.339363E-1,-1.5346174E-1,2.1202517E-1,-2.1599977E-1,-7.680432E-1,7.8417504E-1,-2.6735446E-1,-4.4204754E-1,6.1367863E-1,1.397961E-1,-4.6155903E-1,-8.756187E-1,-1.1457211E-1],"default_left":[true,true,true,true,true,true,true,false,false,false,false,false,false,false,false],"id":12,"leaf_child_counts":[0,0,0,0,0,0,0,0,0,0,0,0,0,0,0],"left_children":[1,3,5,7,9,11,13,-1,-1,-1,-1,-1,-1,-1,-1],"loss_changes":[4.2823987E2,9.821855E1,2.834734E2,3.7909113E2,2.4395149E2,1.4137802E2,1.541554E2,0E0,0E0,0E0,0E0,0E0,0E0,0E0,0E0],"parents":[2147483647,0,0,1,1,2,2,3,3,4,4,5,5,6,6],"right_children":[2,4,6,8,10,12,14,-1,-1,-1,-1,-1,-1,-1,-1],"split_conditions":[9.42735E-1,9.5E-1,1.5E-1,2.4873E-1,2.3851E-1,9.43955E-1,7.5E-1,2.3525251E-1,-8.020634E-2,-1.3261427E-1,1.841036E-1,4.193883E-2,-1.3846771E-1,-2.6268563E-1,-3.4371633E-2],"split_indices":[3,5,5,4,4,0,5,0,0,0,0,0,0,0,0],"sum_hessian":[8.283234E3,4.473473E3,3.809762E3,3.5469114E3,9.2656165E2,1.6164336E3,2.1933284E3,3.8353378E2,3.1633774E3,3.5247424E2,5.740874E2,6.602355E2,9.5619806E2,1.8830051E3,3.1032324E2],"tree_param":{"num_deleted":"0","num_feature":"14","num_nodes":"15","size_leaf_vector":"0"}},{"base_weights":[-2.2949171E-1,-6.190448E-2,-4.5748273E-1,2.0086564E-1,-1.7821923E-1,-1.7089847E-1,-7.057236E-1,1.0502661E0,1.400537E-1,-3.5161135E-1,1.17191374E-1,5.825622E-1,-2.718673E-1,-8.525452E-1,-1.4550672E-1],"default_left":[true,true,true,true,true,true,true,false,false,false,false,false,false,false,false],"id":13,"leaf_child_counts":[0,0,0,0,0,0,0,0,0,0,0,0,0,0,0],"left_children":[1,3,5,7,9,11,13,-1,-1,-1,-1,-1,-1,-1,-1],"loss_changes":[2.9114194E2,1.3431194E2,2.2954791E2,6.950581E1,1.560534E2,1.1425364E2,1.421358E2,0E0,0E0,0E0,0E0,0E0,0E0,0E0,0E0],"parents":[2147483647,0,0,1,1,2,2,3,3,4,4,5,5,6,6],"right_children":[2,4,6,8,10,12,14,-1,-1,-1,-1,-1,-1,-1,-1],"split_conditions":[9.44205E-1,2.5E-1,1.5E-1,6.1818E-1,8.5E-1,4.4232E-1,6.5E-1,3.1507987E-1,4.201611E-2,-1.05483405E-1,3.5157412E-2,1.7476867E-1,-8.1560194E-2,-2.5576356E-1,-4.365202E-2],"split_indices":[3,5,5,3,5,11,5,0,0,0,0,0,0,0,0],"sum_hessian":[7.6195864E3,4.3922715E3,3.227315E3,1.3474594E3,3.0448123E3,1.4987528E3,1.7285621E3,8.893766E1,1.2585216E3,1.9185333E3,1.126279E3,1.7654555E2,1.3222072E3,1.3692003E3,3.593618E2],"tree_param":{"num_deleted":"0","num_feature":"14","num_nodes":"15","size_leaf_vector":"0"}},{"base_weights":[-1.7844063E-1,1.5654145E-1,-2.6453298E-1,-4.1940933E-1,3.7637407E-1,1.1463189E0,-2.9964203E-1,-1.1389163E0,9.27099E-2,8.599632E-1,3.54905E-2,2.2892466E0,2.6721758E-1,-1.4976451E-1,-6.0029316E-1],"default_left":[true,true,true,true,true,true,true,false,false,false,false,false,false,false,false],"id":14,"leaf_child_counts":[0,0,0,0,0,0,0,0,0,0,0,0,0,0,0],"left_children":[1,3,5,7,9,11,13,-1,-1,-1,-1,-1,-1,-1,-1],"loss_changes":[2.0652623E2,1.8558426E2,2.825021E2,1.4935231E2,1.747862E2,1.3856389E2,2.5039365E2,0E0,0E0,0E0,0E0,0E0,0E0,0E0,0E0],"parents":[2147483647,0,0,1,1,2,2,3,3,4,4,5,5,6,6],"right_children":[2,4,6,8,10,12,14,-1,-1,-1,-1,-1,-1,-1,-1],"split_conditions":[7.5E-1,2.4904999E-1,1.0678E-1,4.166667E-1,8.8738E-1,1.5E-1,9.53995E-1,-3.416749E-1,2.781297E-2,2.5798896E-1,1.0647151E-2,6.86774E-1,8.0165274E-2,-4.4929355E-2,-1.8008795E-1],"split_indices":[12,0,0,12,1,5,3,0,0,0,0,0,0,0,0],"sum_hessian":[7.1588174E3,1.4635157E3,5.695302E3,4.0404077E2,1.059475E3,1.3751779E2,5.5577837E3,1.6749422E2,2.3654654E2,4.3741724E2,6.220578E2,5.9090115E1,7.842767E1,3.7098738E3,1.84791E3],"tree_param":{"num_deleted":"0","num_feature":"14","num_nodes":"15","size_leaf_vector":"0"}},{"base_weights":[-1.3804893E-1,-5.7150267E-2,-4.5779356E-1,-1.1759944E-1,2.9296476E-1,-2.7111736E-1,-7.1566087E-1,8.504483E-1,-1.8470097E-1,-3.2512885E-1,5.788898E-1,3.539165E-1,-3.3814165E-1,7.224267E-1,-7.386302E-1],"default_left":[true,true,true,true,true,true,true,false,false,false,false,false,false,false,false],"id":15,"leaf_child_counts":[0,0,0,0,0,0,0,0,0,0,0,0,0,0,0],"left_children":[1,3,5,7,9,11,13,-1,-1,-1,-1,-1,-1,-1,-1],"loss_changes":[1.7489793E2,1.1428112E2,6.553067E1,2.992241E2,1.4070062E2,3.336593E1,1.9452179E1,0E0,0E0,0E0,0E0,0E0,0E0,0E0,0E0],"parents":[2147483647,0,0,1,1,2,2,3,3,4,4,5,5,6,6],"right_children":[2,4,6,8,10,12,14,-1,-1,-1,-1,-1,-1,-1,-1],"split_conditions":[6.400846E-1,9.5E-1,9.68975E-1,2.4873E-1,2.38875E-1,8.14095E-1,2.9804498E-1,2.551345E-1,-5.5410292E-2,-9.753866E-2,1.7366694E-1,1.0617495E-1,-1.014425E-1,2.1672802E-1,-2.2158906E-1],"split_indices":[2,5,3,4,4,1,6,0,0,0,0,0,0,0,0],"sum_hessian":[6.761466E3,5.3971187E3,1.3643474E3,4.6030435E3,7.940752E2,7.926099E2,5.717375E2,2.976265E2,4.305417E3,2.511085E2,5.429667E2,7.634793E1,7.1626196E2,8.509552E0,5.6322797E2],"tree_param":{"num_deleted":"0","num_feature":"14","num_nodes":"15","size_leaf_vector":"0"}},{"base_weights":[-1.04663335E-1,6.583266E-2,-2.2706099E-1,2.9111215E-1,-1.2245831E-1,-4.6617782E-1,1.5152325E-2,-1.4053813E-1,4.3603525E-1,9.65281E-1,-1.9606352E-1,7.9179204E-1,-6.157608E-1,2.1224846E-1,-1.9005322E-1],"default_left":[true,true,true,true,true,true,true,false,false,false,false,false,false,false,false],"id":16,"leaf_child_counts":[0,0,0,0,0,0,0,0,0,0,0,0,0,0,0],"left_children":[1,3,5,7,9,11,13,-1,-1,-1,-1,-1,-1,-1,-1],"loss_changes":[1.351568E2,1.1486191E2,2.1835083E2,7.717719E1,1.1830366E2,3.5747043E2,7.5826775E1,0E0,0E0,0E0,0E0,0E0,0E0,0E0,0E0],"parents":[2147483647,0,0,1,1,2,2,3,3,4,4,5,5,6,6],"right_children":[2,4,6,8,10,12,14,-1,-1,-1,-1,-1,-1,-1,-1],"split_conditions":[2.5E-1,9.29195E-1,6.5E-1,2.6761E-1,2.8995E-1,3.25535E-1,6.149855E-1,-4.216144E-2,1.3081057E-1,2.895843E-1,-5.881906E-2,2.3753762E-1,-1.8472825E-1,6.367454E-2,-5.701597E-2],"split_indices":[5,1,5,0,11,4,2,0,0,0,0,0,0,0,0],"sum_hessian":[6.4749365E3,2.7060115E3,3.768925E3,1.2317483E3,1.4742632E3,1.8961202E3,1.8728047E3,3.096105E2,9.221378E2,9.2669975E1,1.3815933E3,2.0104764E2,1.6950726E3,9.5526044E2,9.1754425E2],"tree_param":{"num_deleted":"0","num_feature":"14","num_nodes":"15","size_leaf_vector":"0"}},{"base_weights":[-8.176224E-2,-1.1062009E-2,-3.0220392E-1,2.393527E-1,-8.556608E-2,-1.3508716E-1,-5.527181E-1,-1.8732579E-1,4.406352E-1,9.8802024E-1,-1.165409E-1,3.150298E-1,-1.8220405E-1,-6.590862E-1,-5.8574907E-2],"default_left":[true,true,true,true,true,true,true,false,false,false,false,false,false,false,false],"id":17,"leaf_child_counts":[0,0,0,0,0,0,0,0,0,0,0,0,0,0,0],"left_children":[1,3,5,7,9,11,13,-1,-1,-1,-1,-1,-1,-1,-1],"loss_changes":[9.718691E1,8.813196E1,6.33219E1,9.310978E1,1.2117811E2,1.934985E1,3.1794067E1,0E0,0E0,0E0,0E0,0E0,0E0,0E0,0E0],"parents":[2147483647,0,0,1,1,2,2,3,3,4,4,5,5,6,6],"right_children":[2,4,6,8,10,12,14,-1,-1,-1,-1,-1,-1,-1,-1],"split_conditions":[6.309794E-1,7.5E-1,9.63065E-1,9.6668994E-1,2.46005E-1,6.2254E-1,7.5E-1,-5.619774E-2,1.3219057E-1,2.964061E-1,-3.496227E-2,9.4508946E-2,-5.4661218E-2,-1.9772588E-1,-1.7572474E-2],"split_indices":[2,12,3,11,0,11,5,0,0,0,0,0,0,0,0],"sum_hessian":[6.23503E3,4.7217246E3,1.513305E3,1.0821869E3,3.6395378E3,9.0867303E2,6.04632E2,3.4689932E2,7.352876E2,1.0119582E2,3.5383418E3,8.556526E1,8.231078E2,4.972593E2,1.0737268E2],"tree_param":{"num_deleted":"0","num_feature":"14","num_nodes":"15","size_leaf_vector":"0"}},{"base_weights":[-6.0999982E-2,8.773333E-2,-1.3982268E-1,3.039808E-1,-1.237566E-1,-6.4384826E-2,-5.309924E-1,-4.0824182E-2,6.244798E-1,1.4744804E0,-2.1713187E-1,-1.4159562E-1,7.5865075E-2,-7.5319713E-1,1.9302092E-1],"default_left":[true,true,true,true,true,true,true,false,false,false,false,false,false,false,false],"id":18,"leaf_child_counts":[0,0,0,0,0,0,0,0,0,0,0,0,0,0,0],"left_children":[1,3,5,7,9,11,13,-1,-1,-1,-1,-1,-1,-1,-1],"loss_changes":[7.122135E1,9.628887E1,1.1712936E2,1.15052284E2,1.5921231E2,3.606698E1,1.0339351E2,0E0,0E0,0E0,0E0,0E0,0E0,0E0,0E0],"parents":[2147483647,0,0,1,1,2,2,3,3,4,4,5,5,6,6],"right_children":[2,4,6,8,10,12,14,-1,-1,-1,-1,-1,-1,-1,-1],"split_conditions":[1.5E-1,9.5546997E-1,9.6122503E-1,3.5703E-1,3.27985E-1,8.5E-1,7.5E-1,-1.2247255E-2,1.8734394E-1,4.4234413E-1,-6.513956E-2,-4.2478688E-2,2.2759523E-2,-2.2595915E-1,5.790628E-2],"split_indices":[5,0,3,0,11,5,5,0,0,0,0,0,0,0,0],"sum_hessian":[6.073015E3,2.1035808E3,3.969434E3,1.0398756E3,1.0637053E3,3.32866E3,6.4077405E2,5.0136288E2,5.385127E2,5.7899006E1,1.00580634E3,2.146792E3,1.1818679E3,4.9026727E2,1.5050679E2],"tree_param":{"num_deleted":"0","num_feature":"14","num_nodes":"15","size_leaf_vector":"0"}},{"base_weights":[-4.742055E-2,-1.3582903E-2,-3.3559197E-1,-7.672339E-1,-9.658561E-5,7.1663696E-1,-3.9104447E-1,1.2319534E0,-9.253258E-1,6.0624075E-1,-1.8092956E-2,-3.53528E0,1.0604453E0,-2.7176535E-1,-7.6417327E-1],"default_left":[true,true,true,true,true,true,true,false,false,false,false,false,false,false,false],"id":19,"leaf_child_counts":[0,0,0,0,0,0,0,0,0,0,0,0,0,0,0],"left_children":[1,3,5,7,9,11,13,-1,-1,-1,-1,-1,-1,-1,-1],"loss_changes":[5.805459E1,5.4168945E1,3.6785347E1,3.0752117E1,5.715445E1,5.0050735E1,2.6272049E1,0E0,0E0,0E0,0E0,0E0,0E0,0E0,0E0],"parents":[2147483647,0,0,1,1,2,2,3,3,4,4,5,5,6,6],"right_children":[2,4,6,8,10,12,14,-1,-1,-1,-1,-1,-1,-1,-1],"split_conditions":[6.5740955E-1,3.395E-3,3.2399997E-2,5.6669E-1,7.7222E-1,2.86E-3,9.85025E-1,3.6958602E-1,-2.7759776E-1,1.8187223E-1,-5.427887E-3,-1.0605841E0,3.181336E-1,-8.152961E-2,-2.29252E-1],"split_indices":[2,7,0,4,6,4,3,0,0,0,0,0,0,0,0],"sum_hessian":[5.953147E3,5.3285103E3,6.246369E2,9.269296E1,5.2358174E3,3.0673521E1,5.939634E2,6.2950335E0,8.639793E1,1.4997983E2,5.0858374E3,1.6002568E0,2.9073263E1,4.513935E2,1.4256987E2],"tree_param":{"num_deleted":"0","num_feature":"14","num_nodes":"15","size_leaf_vector":"0"}},{"base_weights":[-3.485511E-2,4.081E0,-3.709501E-2,1.2408822E-2,-1.9453163E-1,1.5243337E-1,-6.7470334E-2,2.2754486E-1,-3.161587E-1],"default_left":[true,false,true,true,true,false,false,false,false],"id":20,"leaf_child_counts":[0,0,0,0,0,0,0,0,0],"left_children":[1,-1,3,5,7,-1,-1,-1,-1],"loss_changes":[5.4301334E1,0E0,4.5762897E1,4.998328E1,7.2179276E1,0E0,0E0,0E0,0E0],"parents":[2147483647,0,0,2,2,3,3,4,4],"right_children":[2,-1,4,6,8,-1,-1,-1,-1],"split_conditions":[5E-2,1.2243E0,9.62785E-1,2.5E-1,5.833334E-1,4.573001E-2,-2.02411E-2,6.826346E-2,-9.484762E-2],"split_indices":[5,0,3,5,12,0,0,0,0],"sum_hessian":[5.8726626E3,2.203793E0,5.870459E3,4.466842E3,1.4036172E3,1.6222328E3,2.844609E3,3.137959E2,1.0898213E3],"tree_param":{"num_deleted":"0","num_feature":"14","num_nodes":"9","size_leaf_vector":"0"}},{"base_weights":[-2.5894465E-2,-6.65476E-1,-1.4034256E-2,-8.764034E-1,7.436542E-1,2.2522071E-1,-4.941762E-2,2.2068126E0,-9.75045E-1,9.2924374E-1,-3.1269887E-1,5.4467124E-1,1.0972781E-1,3.4101328E-1,-6.8105474E-2],"default_left":[true,true,true,true,true,true,true,false,false,false,false,false,false,false,false],"id":21,"leaf_child_counts":[0,0,0,0,0,0,0,0,0,0,0,0,0,0,0],"left_children":[1,3,5,7,9,11,13,-1,-1,-1,-1,-1,-1,-1,-1],"loss_changes":[4.408202E1,3.2098618E1,4.8330734E1,3.0279778E1,3.097219E0,2.7077515E1,3.6309162E1,0E0,0E0,0E0,0E0,0E0,0E0,0E0,0E0],"parents":[2147483647,0,0,1,1,2,2,3,3,4,4,5,5,6,6],"right_children":[2,4,6,8,10,12,14,-1,-1,-1,-1,-1,-1,-1,-1],"split_conditions":[1.777E-1,7.5E-1,9.44885E-1,6.6579E-1,9.58515E-1,7.55655E-1,1.2545E-2,6.620438E-1,-2.9251352E-1,2.7877313E-1,-9.3809664E-2,1.6340138E-1,3.2918345E-2,1.0230399E-1,-2.0431643E-2],"split_indices":[7,12,6,1,11,0,4,0,0,0,0,0,0,0,0],"sum_hessian":[5.811531E3,1.0480192E2,5.7067285E3,9.148581E1,1.331611E1,7.3454205E2,4.9721865E3,2.1736174E0,8.9312195E1,1.1428566E1,1.8875439E0,1.9406023E2,5.404818E2,2.2633324E2,4.7458535E3],"tree_param":{"num_deleted":"0","num_feature":"14","num_nodes":"15","size_leaf_vector":"0"}},{"base_weights":[-1.8896924E-2,3.76888E-2,-1.12932965E-1,2.189503E-1,-1.8582067E-2,-4.522797E-2,-3.913618E-1,-1.4709394E-1,3.9655077E-1,1.4982004E-1,-1.4242843E-1,-3.2948565E-1,7.3110564E-3,7.5349534E-1,-4.2473254E-1],"default_left":[true,true,true,true,true,true,true,false,false,false,false,false,false,false,false],"id":22,"leaf_child_counts":[0,0,0,0,0,0,0,0,0,0,0,0,0,0,0],"left_children":[1,3,5,7,9,11,13,-1,-1,-1,-1,-1,-1,-1,-1],"loss_changes":[3.0574173E1,3.6595512E1,4.067321E1,5.5312977E1,5.713634E1,2.5950752E1,1.6445854E1,0E0,0E0,0E0,0E0,0E0,0E0,0E0,0E0],"parents":[2147483647,0,0,1,1,2,2,3,3,4,4,5,5,6,6],"right_children":[2,4,6,8,10,12,14,-1,-1,-1,-1,-1,-1,-1,-1],"split_conditions":[6.1331224E-1,7.5E-1,9.77635E-1,4.1907E-1,8.68545E-1,5.833334E-1,1.7932999E-1,-4.4128183E-2,1.1896524E-1,4.4946015E-2,-4.272853E-2,-9.88457E-2,2.193317E-3,2.260486E-1,-1.2741977E-1],"split_indices":[2,12,3,0,3,12,6,0,0,0,0,0,0,0,0],"sum_hessian":[5.7440396E3,3.5864875E3,2.157552E3,8.489457E2,2.7375417E3,1.7364623E3,4.2108972E2,2.7739377E2,5.7155194E2,1.1600013E3,1.5775405E3,2.700593E2,1.466403E3,1.131525E1,4.0977448E2],"tree_param":{"num_deleted":"0","num_feature":"14","num_nodes":"15","size_leaf_vector":"0"}},{"base_weights":[-1.4541362E-2,7.0302345E-2,-8.335836E-2,1.682508E-1,-9.361785E-2,-2.6863843E-1,6.08486E-2,-6.406112E-1,1.9698904E-1,1.1207749E0,-1.284111E-1,3.837247E-1,-4.6813542E-1,-8.793929E-2,3.907267E-1],"default_left":[true,true,true,true,true,true,true,false,false,false,false,false,false,false,false],"id":23,"leaf_child_counts":[0,0,0,0,0,0,0,0,0,0,0,0,0,0,0],"left_children":[1,3,5,7,9,11,13,-1,-1,-1,-1,-1,-1,-1,-1],"loss_changes":[3.3170563E1,4.0868034E1,8.382634E1,3.7157352E1,4.0382957E1,1.7887486E2,8.664933E1,0E0,0E0,0E0,0E0,0E0,0E0,0E0,0E0],"parents":[2147483647,0,0,1,1,2,2,3,3,4,4,5,5,6,6],"right_children":[2,4,6,8,10,12,14,-1,-1,-1,-1,-1,-1,-1,-1],"split_conditions":[2.5E-1,9.53775E-1,6.5E-1,1.777E-1,6.2247E-1,7.9988503E-1,8.5680497E-1,-1.9218336E-1,5.9096716E-2,3.3623248E-1,-3.852333E-2,1.1511741E-1,-1.4044063E-1,-2.6381789E-2,1.1721801E-1],"split_indices":[5,1,5,7,3,3,3,0,0,0,0,0,0,0,0],"sum_hessian":[5.679162E3,2.543405E3,3.1357568E3,1.5920619E3,9.513432E2,1.3720527E3,1.7637042E3,5.3893482E1,1.5381685E3,2.562816E1,9.25715E2,3.2110455E2,1.0509481E3,1.2159822E3,5.4772205E2],"tree_param":{"num_deleted":"0","num_feature":"14","num_nodes":"15","size_leaf_vector":"0"}},{"base_weights":[-1.3100787E-2,5.9661143E-3,-2.4220043E-1,6.5822256E-1,-4.7972865E-4,4.6157196E-1,-2.9762098E-1,8.7597555E-1,-8.661252E-2,-6.0245514E-1,7.6861177E-3,-1.9033484E0,7.517344E-1,4.913055E-1,-3.5027865E-1],"default_left":[true,true,true,true,true,true,true,false,false,false,false,false,false,false,false],"id":24,"leaf_child_counts":[0,0,0,0,0,0,0,0,0,0,0,0,0,0,0],"left_children":[1,3,5,7,9,11,13,-1,-1,-1,-1,-1,-1,-1,-1],"loss_changes":[2.4595718E1,2.1857304E1,1.7010422E1,8.326996E0,2.5314253E1,2.3370218E1,1.685711E1,0E0,0E0,0E0,0E0,0E0,0E0,0E0,0E0],"parents":[2147483647,0,0,1,1,2,2,3,3,4,4,5,5,6,6],"right_children":[2,4,6,8,10,12,14,-1,-1,-1,-1,-1,-1,-1,-1],"split_conditions":[6.642064E-1,1.60905E-1,4.9815E-2,3.5000002E-1,1.83365E-1,2.86E-3,6.20965E-1,2.6279268E-1,-2.5983758E-2,-1.8073654E-1,2.3058355E-3,-5.7100457E-1,2.2552033E-1,1.4739166E-1,-1.050836E-1],"split_indices":[2,6,0,5,7,4,11,0,0,0,0,0,0,0,0],"sum_hessian":[5.6292734E3,5.1976694E3,4.3160397E2,4.987319E1,5.147796E3,3.0971807E1,4.0063214E2,3.845483E1,1.1418361E1,6.7921684E1,5.0798745E3,2.7771895E0,2.8194618E1,2.4546217E1,3.7608594E2],"tree_param":{"num_deleted":"0","num_feature":"14","num_nodes":"15","size_leaf_vector":"0"}},{"base_weights":[-9.564787E-3,8.116446E-2,-4.6384927E-2,-4.7840202E-1,1.1560328E-1,1.301593E-1,-7.932013E-2,8.0516696E-1,-8.5468715E-1,2.2644234E-1,-2.5136521E-2,-5.3932726E-1,2.6333758E-1,4.1543238E-2,-1.6447674E-1],"default_left":[true,true,true,true,true,true,true,false,false,false,false,false,false,false,false],"id":25,"leaf_child_counts":[0,0,0,0,0,0,0,0,0,0,0,0,0,0,0],"left_children":[1,3,5,7,9,11,13,-1,-1,-1,-1,-1,-1,-1,-1],"loss_changes":[1.8702322E1,3.119973E1,2.316441E1,4.6037994E1,2.3767582E1,5.599812E1,3.4554543E1,0E0,0E0,0E0,0E0,0E0,0E0,0E0,0E0],"parents":[2147483647,0,0,1,1,2,2,3,3,4,4,5,5,6,6],"right_children":[2,4,6,8,10,12,14,-1,-1,-1,-1,-1,-1,-1,-1],"split_conditions":[9.98965E-1,8.07195E-1,6.843E-1,7.53375E-1,5.998118E-1,7.99315E-1,9.83815E-1,2.415501E-1,-2.5640616E-1,6.79327E-2,-7.5409566E-3,-1.6179818E-1,7.900128E-2,1.2462972E-2,-4.9343023E-2],"split_indices":[6,7,4,1,9,0,0,0,0,0,0,0,0,0,0],"sum_hessian":[5.596259E3,1.6151445E3,3.981114E3,9.289433E1,1.5222502E3,6.2546277E2,3.3556514E3,2.0800547E1,7.209379E1,8.5124603E2,6.710042E2,1.0327088E2,5.221919E2,1.3872416E3,1.9684098E3],"tree_param":{"num_deleted":"0","num_feature":"14","num_nodes":"15","size_leaf_vector":"0"}},{"base_weights":[-7.706343E-3,-3.5032693E-2,1.0606712E-1,3.0592448E-1,-6.677745E-2,-5.258858E-2,5.510109E-1,-7.0102656E-1,5.1170564E-1,5.181718E-2,-2.5751856E-1,-2.4228226E-1,3.7221727E-1,1.596184E0,4.4242728E-1],"default_left":[true,true,true,true,true,true,true,false,false,false,false,false,false,false,false],"id":26,"leaf_child_counts":[0,0,0,0,0,0,0,0,0,0,0,0,0,0,0],"left_children":[1,3,5,7,9,11,13,-1,-1,-1,-1,-1,-1,-1,-1],"loss_changes":[1.7290964E1,4.855626E1,7.6065E1,7.953931E1,9.28298E1,6.414581E1,3.1434242E1,0E0,0E0,0E0,0E0,0E0,0E0,0E0,0E0],"parents":[2147483647,0,0,1,1,2,2,3,3,4,4,5,5,6,6],"right_children":[2,4,6,8,10,12,14,-1,-1,-1,-1,-1,-1,-1,-1],"split_conditions":[9.5E-1,2.4873E-1,8.5889E-1,2.688E-2,2.5E-1,9.99785E-1,6.2292E-1,-2.1030797E-1,1.535117E-1,1.5545154E-2,-7.725557E-2,-7.268468E-2,1.1166518E-1,4.7885522E-1,1.3272819E-1],"split_indices":[5,4,3,3,5,4,4,0,0,0,0,0,0,0,0],"sum_hessian":[5.5593647E3,4.4832583E3,1.0761063E3,3.8112433E2,4.102134E3,7.939026E2,2.8220377E2,6.4262314E1,3.1686203E2,2.529887E3,1.5722468E3,5.491249E2,2.447777E2,2.5269728E1,2.5693402E2],"tree_param":{"num_deleted":"0","num_feature":"14","num_nodes":"15","size_leaf_vector":"0"}},{"base_weights":[-6.990267E-3,2.1083402E-3,-3.1926414E-1,-1.7717797E-1,2.3102764E-2,3.9234483E-1,-4.555011E-1,-1.029254E0,9.8200776E-2,6.602432E-1,-2.349038E-2,-1.3325971E0,7.9161745E-1,-3.107883E-1,-7.349889E-1],"default_left":[true,true,true,true,true,true,true,false,false,false,false,false,false,false,false],"id":27,"leaf_child_counts":[0,0,0,0,0,0,0,0,0,0,0,0,0,0,0],"left_children":[1,3,5,7,9,11,13,-1,-1,-1,-1,-1,-1,-1,-1],"loss_changes":[1.5661373E1,2.0167282E1,1.53081045E1,1.3188754E2,1.4239694E2,1.8695505E1,5.0878906E0,0E0,0E0,0E0,0E0,0E0,0E0,0E0,0E0],"parents":[2147483647,0,0,1,1,2,2,3,3,4,4,5,5,6,6],"right_children":[2,4,6,8,10,12,14,-1,-1,-1,-1,-1,-1,-1,-1],"split_conditions":[6.9447905E-1,3.5703E-1,7.76025E-1,4.166667E-1,3.1915E-1,3.095E-3,9.84625E-1,-3.087762E-1,2.9460235E-2,1.9807297E-1,-7.0471144E-3,-3.9977917E-1,2.3748524E-1,-9.323649E-2,-2.2049668E-1],"split_indices":[2,0,0,12,11,0,3,0,0,0,0,0,0,0,0],"sum_hessian":[5.5108906E3,5.355833E3,1.5505765E2,5.606453E2,4.795188E3,2.4613522E1,1.3044414E2,1.3626793E2,4.2437738E2,3.2587143E2,4.4693164E3,4.1870446E0,2.0426476E1,8.733562E1,4.3108513E1],"tree_param":{"num_deleted":"0","num_feature":"14","num_nodes":"15","size_leaf_vector":"0"}},{"base_weights":[-6.104195E-3,1.0864077E-1,-2.517952E-2,-8.003034E-1,2.75587E-1,4.9694166E-1,-5.004E-2,1.2495235E0,-9.62687E-1,-3.256439E-1,8.330352E-1,1.7631154E-1,1.4506364E0,4.5935932E-1,-7.167947E-2],"default_left":[true,true,true,true,true,true,true,false,false,false,false,false,false,false,false],"id":28,"leaf_child_counts":[0,0,0,0,0,0,0,0,0,0,0,0,0,0,0],"left_children":[1,3,5,7,9,11,13,-1,-1,-1,-1,-1,-1,-1,-1],"loss_changes":[1.1956387E1,1.1837871E2,6.0819138E1,4.1505913E1,2.209984E2,6.486492E1,4.9324623E1,0E0,0E0,0E0,0E0,0E0,0E0,0E0,0E0],"parents":[2147483647,0,0,1,1,2,2,3,3,4,4,5,5,6,6],"right_children":[2,4,6,8,10,12,14,-1,-1,-1,-1,-1,-1,-1,-1],"split_conditions":[7.55315E-1,4.166667E-1,4.166667E-1,7.5514E-1,9.0716004E-1,9.5055497E-1,2.4535E-2,3.7485707E-1,-2.888061E-1,-9.7693175E-2,2.4991056E-1,5.2893464E-2,4.3519095E-1,1.378078E-1,-2.1503843E-2],"split_indices":[0,12,12,1,11,3,11,0,0,0,0,0,0,0,0],"sum_hessian":[5.4602866E3,7.776637E2,4.682623E3,1.2008161E2,6.575821E2,2.1196352E2,4.470659E3,8.322963E0,1.11758644E2,3.1656714E2,3.4101492E2,1.5951859E2,5.244493E1,1.8135208E2,4.289307E3],"tree_param":{"num_deleted":"0","num_feature":"14","num_nodes":"15","size_leaf_vector":"0"}},{"base_weights":[-5.6752604E-3,-3.2279525E-2,7.9625204E-2,2.8976926E-1,-6.819021E-2,-5.6993836E-1,1.5021515E-1,6.35111E-1,7.213962E-2,1.4362449E-2,-2.1710849E-1,7.589144E-1,-7.8378636E-1,7.638421E-1,5.2222725E-2],"default_left":[true,true,true,true,true,true,true,false,false,false,false,false,false,false,false],"id":29,"leaf_child_counts":[0,0,0,0,0,0,0,0,0,0,0,0,0,0,0],"left_children":[1,3,5,7,9,11,13,-1,-1,-1,-1,-1,-1,-1,-1],"loss_changes":[1.2254505E1,4.7621788E1,5.8951935E1,3.1002445E1,4.5537758E1,3.6414497E1,6.963762E1,0E0,0E0,0E0,0E0,0E0,0E0,0E0,0E0],"parents":[2147483647,0,0,1,1,2,2,3,3,4,4,5,5,6,6],"right_children":[2,4,6,8,10,12,14,-1,-1,-1,-1,-1,-1,-1,-1],"split_conditions":[8.5E-1,6.58345E-1,7.94315E-1,3.5000002E-1,2.5E-1,6.3874E-1,7.5E-1,1.905333E-1,2.1641888E-2,4.308735E-3,-6.513255E-2,2.2767434E-1,-2.3513591E-1,2.2915263E-1,1.5666818E-2],"split_indices":[5,3,0,5,5,11,12,0,0,0,0,0,0,0,0],"sum_hessian":[5.39786E3,4.115045E3,1.282815E3,4.1211435E2,3.7029304E3,1.2504902E2,1.157766E3,1.5857079E2,2.5354355E2,2.3828848E3,1.3200457E3,1.6980879E1,1.0806814E2,1.5849265E2,9.992733E2],"tree_param":{"num_deleted":"0","num_feature":"14","num_nodes":"15","size_leaf_vector":"0"}},{"base_weights":[-4.744153E-3,-1.3327959E-1,9.80135E-3,-6.4693457E-1,2.2270851E-1,1.6982034E0,-2.614097E-3,8.2634443E-1,-8.6092716E-1,-7.8418005E-1,6.464269E-1,2.0065851E0,7.039153E-1,1.8279266E-1,-3.7033293E-2],"default_left":[true,true,true,true,true,true,true,false,false,false,false,false,false,false,false],"id":30,"leaf_child_counts":[0,0,0,0,0,0,0,0,0,0,0,0,0,0,0],"left_children":[1,3,5,7,9,11,13,-1,-1,-1,-1,-1,-1,-1,-1],"loss_changes":[9.985723E0,9.942821E1,1.0058978E2,7.08652E1,1.3764821E2,9.32795E0,3.0410856E1,0E0,0E0,0E0,0E0,0E0,0E0,0E0,0E0],"parents":[2147483647,0,0,1,1,2,2,3,3,4,4,5,5,6,6],"right_children":[2,4,6,8,10,12,14,-1,-1,-1,-1,-1,-1,-1,-1],"split_conditions":[3.67555E-1,6.86955E-1,5.4844E-1,8.0032E-1,4.166667E-1,9.6342504E-1,8.40855E-1,2.4790333E-1,-2.5827816E-1,-2.3525402E-1,1.9392808E-1,6.0197556E-1,2.1117459E-1,5.48378E-2,-1.1109988E-2],"split_indices":[0,11,0,6,12,11,1,0,0,0,0,0,0,0,0],"sum_hessian":[5.3393667E3,5.4196625E2,4.7974004E3,2.2151913E2,3.2044708E2,3.402839E1,4.763372E3,2.7731812E1,1.9378732E2,9.465833E1,2.2578876E2,2.5195736E1,8.832655E0,7.4514886E2,4.0182234E3],"tree_param":{"num_deleted":"0","num_feature":"14","num_nodes":"15","size_leaf_vector":"0"}},{"base_weights":[-3.940966E-3,-4.2244783E-1,1.042519E-3,-6.683492E-1,7.5706154E-1,8.11726E-3,-2.6072598E-1,5.3088075E-1,-7.9453176E-1,2.2749832E0,1.4154957E-1,-1.0164945E-1,2.610204E-2,3.9918384E-1,-3.556124E-1],"default_left":[true,true,true,true,true,true,true,false,false,false,false,false,false,false,false],"id":31,"leaf_child_counts":[0,0,0,0,0,0,0,0,0,0,0,0,0,0,0],"left_children":[1,3,5,7,9,11,13,-1,-1,-1,-1,-1,-1,-1,-1],"loss_changes":[1.1056331E1,1.8599672E1,9.7056E0,8.313553E0,1.0170811E1,1.0076058E1,8.777602E0,0E0,0E0,0E0,0E0,0E0,0E0,0E0,0E0],"parents":[2147483647,0,0,1,1,2,2,3,3,4,4,5,5,6,6],"right_children":[2,4,6,8,10,12,14,-1,-1,-1,-1,-1,-1,-1,-1],"split_conditions":[1.7973E-1,9.85475E-1,6.9447905E-1,4.0275E-2,7.0375E-1,7.5E-1,6.057E-2,1.5926424E-1,-2.3835954E-1,6.82495E-1,4.2464875E-2,-3.0494835E-2,7.830612E-3,1.1975516E-1,-1.0668372E-1],"split_indices":[7,0,2,0,1,13,0,0,0,0,0,0,0,0,0],"sum_hessian":[5.300002E3,6.1382786E1,5.238619E3,5.1152084E1,1.0230702E1,5.101706E3,1.3691333E2,4.5644665E0,4.6587616E1,2.1737955E0,8.056907E0,7.175603E2,4.3841455E3,1.6808403E1,1.20104935E2],"tree_param":{"num_deleted":"0","num_feature":"14","num_nodes":"15","size_leaf_vector":"0"}},{"base_weights":[-3.00844E-3,1.1001459E0,-4.583851E-3,-5.793428E-1,1.4595342E0,6.7701384E-2,-2.596261E-2,1.7832132E-1,1.6905357E0,-6.010023E-1,1.2778465E-1,3.6118302E-1,-4.5267124E-2],"default_left":[true,true,true,false,true,true,true,false,false,false,false,false,false],"id":32,"leaf_child_counts":[0,0,0,0,0,0,0,0,0,0,0,0,0],"left_children":[1,3,5,-1,7,9,11,-1,-1,-1,-1,-1,-1],"loss_changes":[9.204369E0,5.404293E0,8.17172E0,0E0,1.6239386E0,4.8570427E1,3.0514605E1,0E0,0E0,0E0,0E0,0E0,0E0],"parents":[2147483647,0,0,1,1,2,2,4,4,5,5,6,6],"right_children":[2,4,6,-1,8,10,12,-1,-1,-1,-1,-1,-1],"split_conditions":[5E-2,8.53915E-1,8.92965E-1,-1.7380284E-1,3.77385E-1,2.5E-1,4.166667E-1,5.3496398E-2,5.071607E-1,-1.8030068E-1,3.8335398E-2,1.0835491E-1,-1.3580138E-2],"split_indices":[5,1,0,0,10,12,12,0,0,0,0,0,0],"sum_hessian":[5.2922925E3,6.5527005E0,5.2857397E3,1.0471492E0,5.5055513E0,1.2059728E3,4.0797668E3,1.11169E0,4.3938613E0,9.86816E1,1.1072911E3,1.9292905E2,3.886838E3],"tree_param":{"num_deleted":"0","num_feature":"14","num_nodes":"13","size_leaf_vector":"0"}},{"base_weights":[-2.431759E-3,-1.18136555E-1,9.951123E-3,-5.7612044E-1,1.4663081E-1,1.3042382E0,1.4950504E-3,-9.7063416E-1,8.384743E-2,6.056989E-1,-5.233838E-1,-4.011329E-1,1.4237026E0,2.4285488E-1,-2.272328E-2],"default_left":[true,true,true,true,true,true,true,false,false,false,false,false,false,false,false],"id":33,"leaf_child_counts":[0,0,0,0,0,0,0,0,0,0,0,0,0,0,0],"left_children":[1,3,5,7,9,11,13,-1,-1,-1,-1,-1,-1,-1,-1],"loss_changes":[7.546431E0,6.1828674E1,5.2072945E1,4.8701286E1,9.9806175E1,6.8629646E0,2.7643225E1,0E0,0E0,0E0,0E0,0E0,0E0,0E0,0E0],"parents":[2147483647,0,0,1,1,2,2,3,3,4,4,5,5,6,6],"right_children":[2,4,6,8,10,12,14,-1,-1,-1,-1,-1,-1,-1,-1],"split_conditions":[3.7195998E-1,3.13515E-1,5.3784E-1,7.5E-1,4.6860002E-2,3.6809504E-1,5.48225E-1,-2.9119027E-1,2.5154231E-2,1.8170968E-1,-1.5701514E-1,-1.2033988E-1,4.271108E-1,7.285646E-2,-6.816984E-3],"split_indices":[0,11,0,12,0,8,11,0,0,0,0,0,0,0,0],"sum_hessian":[5.265242E3,5.081919E2,4.7570503E3,1.8573648E2,3.224554E2,2.9883236E1,4.727167E3,1.1595219E2,6.9784294E1,1.9140685E2,1.3104858E2,1.8019776E0,2.8081259E1,4.302517E2,4.2969155E3],"tree_param":{"num_deleted":"0","num_feature":"14","num_nodes":"15","size_leaf_vector":"0"}},{"base_weights":[-2.234374E-3,-1.1244076E-1,1.0383805E-2,5.146445E-1,-2.3216331E-1,1.3211274E-1,-2.202717E-2,-2.5267893E-1,6.2494266E-1,-4.5196167E-1,-3.9947152E-2,-4.0449667E-1,2.9492897E-1,2.4857798E-1,-4.892057E-2],"default_left":[true,true,true,true,true,true,true,false,false,false,false,false,false,false,false],"id":34,"leaf_child_counts":[0,0,0,0,0,0,0,0,0,0,0,0,0,0,0],"left_children":[1,3,5,7,9,11,13,-1,-1,-1,-1,-1,-1,-1,-1],"loss_changes":[7.2897644E0,4.0551247E1,1.8560965E1,7.4911327E0,1.9116287E1,8.6544876E1,2.7052197E1,0E0,0E0,0E0,0E0,0E0,0E0,0E0,0E0],"parents":[2147483647,0,0,1,1,2,2,3,3,4,4,5,5,6,6],"right_children":[2,4,6,8,10,12,14,-1,-1,-1,-1,-1,-1,-1,-1],"split_conditions":[5.833334E-1,7.0490503E-1,7.5E-1,9.41535E-1,7.5E-1,9.99985E-1,5.35565E-1,-7.580368E-2,1.874828E-1,-1.3558851E-1,-1.1984146E-2,-1.2134901E-1,8.847869E-2,7.45734E-2,-1.4676172E-2],"split_indices":[13,4,12,6,12,4,11,0,0,0,0,0,0,0,0],"sum_hessian":[5.240318E3,5.3754266E2,4.702775E3,8.564594E1,4.5189673E2,9.88205E2,3.71457E3,1.0601618E1,7.504433E1,2.101919E2,2.4170483E2,2.2969437E2,7.585106E2,3.3504614E2,3.379524E3],"tree_param":{"num_deleted":"0","num_feature":"14","num_nodes":"15","size_leaf_vector":"0"}},{"base_weights":[-2.1709893E-3,-7.956489E-2,2.6934478E-2,-4.63918E-1,-2.1656293E-2,6.01994E-1,7.91905E-3,7.8296703E-1,-6.588488E-1,2.0268686E-1,-1.3830149E-1,-5.933591E-1,1.099495E0,-6.508542E-1,1.8201469E-2],"default_left":[true,true,true,true,true,true,true,false,false,false,false,false,false,false,false],"id":35,"leaf_child_counts":[0,0,0,0,0,0,0,0,0,0,0,0,0,0,0],"left_children":[1,3,5,7,9,11,13,-1,-1,-1,-1,-1,-1,-1,-1],"loss_changes":[1.1752613E1,3.1725937E1,4.1456078E1,4.588235E1,3.248267E1,7.281741E1,2.4879908E1,0E0,0E0,0E0,0E0,0E0,0E0,0E0,0E0],"parents":[2147483647,0,0,1,1,2,2,3,3,4,4,5,5,6,6],"right_children":[2,4,6,8,10,12,14,-1,-1,-1,-1,-1,-1,-1,-1],"split_conditions":[9.9307E-1,5E-2,3.3375002E-2,8.00745E-1,1.5E-1,4.166667E-1,9.07055E-1,2.3489012E-1,-1.9765465E-1,6.0806062E-2,-4.149045E-2,-1.7800774E-1,3.2984853E-1,-1.9525626E-1,5.4604406E-3],"split_indices":[11,0,0,6,5,12,7,0,0,0,0,0,0,0,0],"sum_hessian":[5.2154365E3,1.4248654E3,3.7905713E3,1.8565013E2,1.2392152E3,1.2034906E2,3.6702222E3,2.4691706E1,1.6095842E2,4.2365805E2,8.155572E2,3.5311916E1,8.503714E1,5.5448593E1,3.6147734E3],"tree_param":{"num_deleted":"0","num_feature":"14","num_nodes":"15","size_leaf_vector":"0"}},{"base_weights":[-1.8620063E-3,-3.563985E-2,6.8599634E-2,4.6110815E-1,-6.316075E-2,-4.2601556E-2,3.817392E-1,-8.7361956E-1,8.036458E-1,-2.389975E-2,-3.9747843E-1,-4.4939983E-1,5.508757E-3,-4.8835494E-2,5.038833E-1],"default_left":[true,true,true,true,true,true,true,false,false,false,false,false,false,false,false],"id":36,"leaf_child_counts":[0,0,0,0,0,0,0,0,0,0,0,0,0,0,0],"left_children":[1,3,5,7,9,11,13,-1,-1,-1,-1,-1,-1,-1,-1],"loss_changes":[1.2376797E1,4.80841E1,5.869395E1,8.51196E1,4.3718235E1,2.4357029E1,2.325412E1,0E0,0E0,0E0,0E0,0E0,0E0,0E0,0E0],"parents":[2147483647,0,0,1,1,2,2,3,3,4,4,5,5,6,6],"right_children":[2,4,6,8,10,12,14,-1,-1,-1,-1,-1,-1,-1,-1],"split_conditions":[6.5E-1,1.7793E-1,8.8612497E-1,2.73E-2,4.5E-1,7.91795E-1,9.93085E-1,-2.6208588E-1,2.4109374E-1,-7.1699256E-3,-1.1924353E-1,-1.3481995E-1,1.6526273E-3,-1.4650648E-2,1.51165E-1],"split_indices":[5,4,3,3,5,0,11,0,0,0,0,0,0,0,0],"sum_hessian":[5.198216E3,3.5141157E3,1.6840997E3,1.8364247E2,3.3304734E3,1.2434083E3,4.406915E2,3.7187546E1,1.4645493E2,2.9814185E3,3.4905493E2,1.306185E2,1.1127898E3,9.752009E1,3.431714E2],"tree_param":{"num_deleted":"0","num_feature":"14","num_nodes":"15","size_leaf_vector":"0"}},{"base_weights":[-2.4650367E-3,1.7983248E-2,-9.7912155E-2,-1.8656425E-1,3.613387E-2,1.7678206E-1,-1.7519636E-1,4.3486457E-2,-8.443643E-1,4.2866966E-1,1.8560544E-2,-3.1222528E-1,3.738211E-1,-2.3908208E-1,2.3293728E-1],"default_left":[true,true,true,true,true,true,true,false,false,false,false,false,false,false,false],"id":37,"leaf_child_counts":[0,0,0,0,0,0,0,0,0,0,0,0,0,0,0],"left_children":[1,3,5,7,9,11,13,-1,-1,-1,-1,-1,-1,-1,-1],"loss_changes":[1.012555E1,1.5869968E1,1.9463444E1,5.2759773E1,2.7069595E1,1.953024E1,1.8695122E1,0E0,0E0,0E0,0E0,0E0,0E0,0E0,0E0],"parents":[2147483647,0,0,1,1,2,2,3,3,4,4,5,5,6,6],"right_children":[2,4,6,8,10,12,14,-1,-1,-1,-1,-1,-1,-1,-1],"split_conditions":[9.69285E-1,3.55625E-1,5.833334E-1,1.0675E-1,7.49995E-1,7.5E-1,7.5E-1,1.3045938E-2,-2.533093E-1,1.2860091E-1,5.5681635E-3,-9.366759E-2,1.1214634E-1,-7.172463E-2,6.9881186E-2],"split_indices":[3,0,12,0,0,13,5,0,0,0,0,0,0,0,0],"sum_hessian":[5.1860854E3,4.2717344E3,9.1435114E2,3.47404E2,3.9243303E3,2.004822E2,7.138689E2,2.5808017E2,8.932382E1,1.6715657E2,3.7571738E3,5.7412495E1,1.430697E2,6.176081E2,9.626083E1],"tree_param":{"num_deleted":"0","num_feature":"14","num_nodes":"15","size_leaf_vector":"0"}},{"base_weights":[-2.4196594E-3,2.539292E-2,-5.2296232E-2,-2.2437043E-1,5.956148E-2,-1.17947005E-1,2.512275E-1,8.485162E-1,-3.2459897E-1,4.486575E-1,2.5681784E-2,9.724825E-3,-4.5894292E-1,2.9862574E-1,-7.5012434E-1],"default_left":[true,true,true,true,true,true,true,false,false,false,false,false,false,false,false],"id":38,"leaf_child_counts":[0,0,0,0,0,0,0,0,0,0,0,0,0,0,0],"left_children":[1,3,5,7,9,11,13,-1,-1,-1,-1,-1,-1,-1,-1],"loss_changes":[7.1769586E0,2.836002E1,3.6936928E1,4.328171E1,3.851632E1,6.632972E1,1.5871967E1,0E0,0E0,0E0,0E0,0E0,0E0,0E0,0E0],"parents":[2147483647,0,0,1,1,2,2,3,3,4,4,5,5,6,6],"right_children":[2,4,6,8,10,12,14,-1,-1,-1,-1,-1,-1,-1,-1],"split_conditions":[9.35315E-1,5.833334E-1,5.5E-1,1.1595E-2,7.5E-1,1.5E-1,9.91085E-1,2.5455487E-1,-9.737969E-2,1.3459726E-1,7.7045355E-3,2.9174476E-3,-1.3768288E-1,8.9587726E-2,-2.250373E-1],"split_indices":[3,12,5,4,12,5,3,0,0,0,0,0,0,0,0],"sum_hessian":[5.1717583E3,3.3205933E3,1.8511653E3,3.9893256E2,2.9216606E3,1.5224729E3,3.2869238E2,3.3446106E1,3.6548645E2,2.3303983E2,2.6886208E3,1.1084363E3,4.1403665E2,3.145072E2,1.4185183E1],"tree_param":{"num_deleted":"0","num_feature":"14","num_nodes":"15","size_leaf_vector":"0"}},{"base_weights":[-2.868688E-3,-6.232254E-1,-6.4995047E-4,2.943855E-1,-9.260674E-1,5.78028E-2,-2.4990031E-2,-1.7889611E-1,7.623729E-1,-1.6998074E0,-2.3468417E-1,-5.5052567E-1,8.0897935E-2,3.0948952E-1,-3.0482478E-2],"default_left":[true,true,true,true,true,true,true,false,false,false,false,false,false,false,false],"id":39,"leaf_child_counts":[0,0,0,0,0,0,0,0,0,0,0,0,0,0,0],"left_children":[1,3,5,7,9,11,13,-1,-1,-1,-1,-1,-1,-1,-1],"loss_changes":[7.096279E0,5.3785186E0,7.312317E0,1.3142753E0,7.1201916E0,2.127292E1,6.675558E0,0E0,0E0,0E0,0E0,0E0,0E0,0E0,0E0],"parents":[2147483647,0,0,1,1,2,2,3,3,4,4,5,5,6,6],"right_children":[2,4,6,8,10,12,14,-1,-1,-1,-1,-1,-1,-1,-1],"split_conditions":[3.203E-2,3.71495E-1,9.9958503E-1,5.711137E-1,3.248E-2,6.4591E-1,9.67995E-1,-5.3668838E-2,2.2871189E-1,-5.0994223E-1,-7.040525E-2,-1.651577E-1,2.4269382E-2,9.2846856E-2,-9.144744E-3],"split_indices":[6,7,6,8,0,7,7,0,0,0,0,0,0,0,0],"sum_hessian":[5.154943E3,1.7373734E1,5.1375693E3,4.318031E0,1.3055702E1,1.5099784E3,3.6275908E3,2.4540012E0,1.8640295E0,5.472625E0,7.5830774E0,5.439412E1,1.4555844E3,5.7711662E1,3.5698792E3],"tree_param":{"num_deleted":"0","num_feature":"14","num_nodes":"15","size_leaf_vector":"0"}},{"base_weights":[-2.226E-3,1.9716816E-2,-5.1707346E-2,7.3359855E-2,-3.439095E-2,-7.2348624E-1,-4.4832245E-2,1.8054266E-1,-2.6939023E-2,-9.52575E-2,1.1394602E-1,9.0348506E-1,-9.786641E-1,-1.2802166E-1,2.1526907E-3],"default_left":[true,true,true,true,true,true,true,false,false,false,false,false,false,false,false],"id":40,"leaf_child_counts":[0,0,0,0,0,0,0,0,0,0,0,0,0,0,0],"left_children":[1,3,5,7,9,11,13,-1,-1,-1,-1,-1,-1,-1,-1],"loss_changes":[5.5940766E0,1.0362834E1,7.2780113E0,1.927734E1,1.6061302E1,7.5139894E0,6.1285524E0,0E0,0E0,0E0,0E0,0E0,0E0,0E0,0E0],"parents":[2147483647,0,0,1,1,2,2,3,3,4,4,5,5,6,6],"right_children":[2,4,6,8,10,12,14,-1,-1,-1,-1,-1,-1,-1,-1],"split_conditions":[9.63935E-1,9.97475E-1,8.48125E-1,1.5E-1,8.5E-1,4.16325E-1,1.5E-1,5.41628E-2,-8.081707E-3,-2.8577251E-2,3.4183808E-2,2.7104554E-1,-2.9359925E-1,-3.84065E-2,6.4580725E-4],"split_indices":[1,0,7,5,5,4,5,0,0,0,0,0,0,0,0],"sum_hessian":[5.1502827E3,3.568438E3,1.5818448E3,1.7917356E3,1.7767024E3,1.49689455E1,1.566876E3,8.657575E2,9.2597815E2,1.2600349E3,5.1666754E2,1.6850083E0,1.3283937E1,5.6492334E2,1.0019526E3],"tree_param":{"num_deleted":"0","num_feature":"14","num_nodes":"15","size_leaf_vector":"0"}},{"base_weights":[-1.9126385E-3,-1.1046146E-1,9.155307E-3,-4.03236E-1,9.561951E-2,8.7258476E-1,3.452712E-3,-7.5473017E-1,1.4090869E-1,-6.079133E-1,3.6286044E-1,1.2125125E0,1.7618026E-1,5.2138674E-1,-3.2204802E-3],"default_left":[true,true,true,true,true,true,true,false,false,false,false,false,false,false,false],"id":41,"leaf_child_counts":[0,0,0,0,0,0,0,0,0,0,0,0,0,0,0],"left_children":[1,3,5,7,9,11,13,-1,-1,-1,-1,-1,-1,-1,-1],"loss_changes":[6.1640673E0,2.8681664E1,2.2922684E1,3.765279E1,5.2756104E1,7.017433E0,1.5992347E1,0E0,0E0,0E0,0E0,0E0,0E0,0E0,0E0],"parents":[2147483647,0,0,1,1,2,2,3,3,4,4,5,5,6,6],"right_children":[2,4,6,8,10,12,14,-1,-1,-1,-1,-1,-1,-1,-1],"split_conditions":[4.1907E-1,7.51475E-1,5.62065E-1,7.5E-1,4.166667E-1,9.02865E-1,6.2593997E-1,-2.2641906E-1,4.227261E-2,-1.82374E-1,1.0885814E-1,3.6375377E-1,5.285408E-2,1.5641603E-1,-9.661441E-4],"split_indices":[0,11,0,12,12,11,1,0,0,0,0,0,0,0,0],"sum_hessian":[5.128842E3,4.7373248E2,4.6551094E3,1.9530724E2,2.7842523E2,2.9545937E1,4.6255635E3,1.1842364E2,7.68836E1,7.6295784E1,2.0212946E2,1.9356548E1,1.0189389E1,5.7857685E1,4.5677056E3],"tree_param":{"num_deleted":"0","num_feature":"14","num_nodes":"15","size_leaf_vector":"0"}},{"base_weights":[-1.6294654E-3,-7.350254E-1,-1.2194302E-5,4.8777553E-1,-1.1398302E0,-4.0517814E-2,2.743506E-2,8.378954E-1,9.531174E-3,-1.8335484E0,-5.2291083E-1,-2.0429152E-1,-5.8598304E-3,2.28735E-1,3.9295307E-3],"default_left":[true,true,true,true,true,true,true,false,false,false,false,false,false,false,false],"id":42,"leaf_child_counts":[0,0,0,0,0,0,0,0,0,0,0,0,0,0,0],"left_children":[1,3,5,7,9,11,13,-1,-1,-1,-1,-1,-1,-1,-1],"loss_changes":[6.056824E0,6.117748E0,5.666987E0,5.7719886E-1,2.782154E0,1.168509E1,1.43758E1,0E0,0E0,0E0,0E0,0E0,0E0,0E0,0E0],"parents":[2147483647,0,0,1,1,2,2,3,3,4,4,5,5,6,6],"right_children":[2,4,6,8,10,12,14,-1,-1,-1,-1,-1,-1,-1,-1],"split_conditions":[2.235E-3,7.5E-1,5.711137E-1,8.89205E-1,4.96E-3,7.5841E-1,5.42035E-1,2.5136864E-1,2.8593522E-3,-5.5006456E-1,-1.5687326E-1,-6.128746E-2,-1.7579492E-3,6.86205E-2,1.1788593E-3],"split_indices":[0,12,8,3,4,11,11,0,0,0,0,0,0,0,0],"sum_hessian":[5.1055107E3,1.0235989E1,5.095275E3,2.4948347E0,7.741154E0,2.0578708E3,3.0374038E3,1.0061873E0,1.4886473E0,2.715502E0,5.025652E0,3.5857184E2,1.699299E3,3.1667627E2,2.7207275E3],"tree_param":{"num_deleted":"0","num_feature":"14","num_nodes":"15","size_leaf_vector":"0"}},{"base_weights":[-1.3062487E-3,1.0223455E-2,-1.0018225E-1,-2.8946871E-2,4.2017967E-2,4.7482944E-1,-1.363968E-1,9.287365E-2,-7.02981E-2,-1.4770128E-1,6.0103413E-2,7.9337853E-1,-2.0173706E-2,-6.4076626E-1,-9.682323E-2],"default_left":[true,true,true,true,true,true,true,false,false,false,false,false,false,false,false],"id":43,"leaf_child_counts":[0,0,0,0,0,0,0,0,0,0,0,0,0,0,0],"left_children":[1,3,5,7,9,11,13,-1,-1,-1,-1,-1,-1,-1,-1],"loss_changes":[5.8209853E0,5.696376E0,1.1168594E1,1.0330336E1,8.670941E0,5.032903E0,9.965945E0,0E0,0E0,0E0,0E0,0E0,0E0,0E0,0E0],"parents":[2147483647,0,0,1,1,2,2,3,3,4,4,5,5,6,6],"right_children":[2,4,6,8,10,12,14,-1,-1,-1,-1,-1,-1,-1,-1],"split_conditions":[6.518335E-1,5.711137E-1,2.5E-1,9.74715E-1,3.9382E-1,9.4279003E-1,5.833334E-1,2.7862096E-2,-2.108943E-2,-4.4310383E-2,1.8031025E-2,2.3801357E-1,-6.052112E-3,-1.9222988E-1,-2.904697E-2],"split_indices":[2,8,12,4,0,3,12,0,0,0,0,0,0,0,0],"sum_hessian":[5.1041797E3,4.5719517E3,5.322282E2,2.0484202E3,2.5235312E3,3.081639E1,5.014118E2,5.18798E2,1.5296223E3,2.1900166E2,2.3045295E3,1.8383373E1,1.2433016E1,3.537403E1,4.6603778E2],"tree_param":{"num_deleted":"0","num_feature":"14","num_nodes":"15","size_leaf_vector":"0"}},{"base_weights":[-1.1436796E-3,1.690141E-1,-7.2189537E-3,6.746999E-2,5.521612E-1,-5.125668E-1,-5.3072083E-3,1.2275109E0,4.327014E-2,1.4926696E0,3.539805E-1,7.9910356E-1,-7.0042986E-1,5.201354E-1,-7.371021E-3],"default_left":[true,true,true,true,true,true,true,false,false,false,false,false,false,false,false],"id":44,"leaf_child_counts":[0,0,0,0,0,0,0,0,0,0,0,0,0,0,0],"left_children":[1,3,5,7,9,11,13,-1,-1,-1,-1,-1,-1,-1,-1],"loss_changes":[5.276067E0,6.808039E0,4.757879E0,3.883301E0,6.3161306E0,5.133359E0,5.328425E0,0E0,0E0,0E0,0E0,0E0,0E0,0E0,0E0],"parents":[2147483647,0,0,1,1,2,2,3,3,4,4,5,5,6,6],"right_children":[2,4,6,8,10,12,14,-1,-1,-1,-1,-1,-1,-1,-1],"split_conditions":[5.797708E-1,9.4358504E-1,3.3905E-2,8.43315E-1,9.5109E-1,5.833334E-1,9.381E-2,3.682533E-1,1.2981043E-2,4.478009E-1,1.0619416E-1,2.3973107E-1,-2.1012896E-1,1.5604062E-1,-2.2113065E-3],"split_indices":[2,3,6,7,3,12,6,0,0,0,0,0,0,0,0],"sum_hessian":[5.101608E3,1.7494293E2,4.9266646E3,1.3922162E2,3.572131E1,1.756078E1,4.909104E3,1.8288778E0,1.3739275E2,5.0802155E0,3.0641094E1,1.7924116E0,1.5768367E1,1.8224232E1,4.89088E3],"tree_param":{"num_deleted":"0","num_feature":"14","num_nodes":"15","size_leaf_vector":"0"}},{"base_weights":[-6.661268E-4,6.9557273E-1,-1.9211431E-3,-3.3638924E-2,9.7677386E-1,7.304108E-4,-3.169851E-1,-3.9782873E-1,2.7591133E-1,1.4480153E0,3.2982096E-1,-7.079369E-2,1.2041329E-2,-9.1472083E-1,1.2141091E-1],"default_left":[true,true,true,true,true,true,true,false,false,false,false,false,false,false,false],"id":45,"leaf_child_counts":[0,0,0,0,0,0,0,0,0,0,0,0,0,0,0],"left_children":[1,3,5,7,9,11,13,-1,-1,-1,-1,-1,-1,-1,-1],"loss_changes":[4.4581876E0,1.9153376E0,4.2544775E0,5.0677675E-1,1.5524678E0,4.087054E0,1.124848E1,0E0,0E0,0E0,0E0,0E0,0E0,0E0,0E0],"parents":[2147483647,0,0,1,1,2,2,3,3,4,4,5,5,6,6],"right_children":[2,4,6,8,10,12,14,-1,-1,-1,-1,-1,-1,-1,-1],"split_conditions":[5E-2,9.18905E-1,7.2682655E-1,5.816814E-1,9.71125E-1,7.5E-1,7.33745E-1,-1.1934862E-1,8.27734E-2,4.344046E-1,9.8946296E-2,-2.1238107E-2,3.6123989E-3,-2.7441627E-1,3.6423273E-2],"split_indices":[5,1,2,2,1,13,3,0,0,0,0,0,0,0,0],"sum_hessian":[5.099591E3,8.180361E0,5.0914106E3,2.5216315E0,5.6587296E0,5.0499087E3,4.1501957E1,1.0275376E0,1.494094E0,2.5575776E0,3.101152E0,6.8883453E2,4.3610737E3,1.7100111E1,2.4401846E1],"tree_param":{"num_deleted":"0","num_feature":"14","num_nodes":"15","size_leaf_vector":"0"}},{"base_weights":[-5.3576904E-4,5.44829E-2,-1.6549297E-2,-2.3796728E-1,1.7178987E-1,3.606238E-1,-2.7387332E-2,7.977575E-1,-2.9749304E-1,-1.3287012E-2,6.9387716E-1,1.0950222E0,-1.639591E-1,7.986129E-2,-7.338832E-2],"default_left":[true,true,true,true,true,true,true,false,false,false,false,false,false,false,false],"id":46,"leaf_child_counts":[0,0,0,0,0,0,0,0,0,0,0,0,0,0,0],"left_children":[1,3,5,7,9,11,13,-1,-1,-1,-1,-1,-1,-1,-1],"loss_changes":[4.496777E0,3.951502E1,1.6170107E1,2.0571941E1,7.9417274E1,4.274781E1,1.8969284E1,0E0,0E0,0E0,0E0,0E0,0E0,0E0,0E0],"parents":[2147483647,0,0,1,1,2,2,3,3,4,4,5,5,6,6],"right_children":[2,4,6,8,10,12,14,-1,-1,-1,-1,-1,-1,-1,-1],"split_conditions":[7.5E-1,9.50955E-1,7.966E-2,2.5595E-2,5.833334E-1,1.5E-1,9.77575E-1,2.3932727E-1,-8.924791E-2,-3.986104E-3,2.0816316E-1,3.2850668E-1,-4.918773E-2,2.3958389E-2,-2.2016497E-2],"split_indices":[12,11,0,4,12,5,4,0,0,0,0,0,0,0,0],"sum_hessian":[5.1019014E3,1.1496332E3,3.9522683E3,3.288273E2,8.208059E2,1.0949438E2,3.842774E3,1.7197401E1,3.1162988E2,6.0670654E2,2.1409937E2,4.5170197E1,6.432417E1,1.1532659E3,2.689508E3],"tree_param":{"num_deleted":"0","num_feature":"14","num_nodes":"15","size_leaf_vector":"0"}},{"base_weights":[-7.496947E-4,2.5672197E-2,-3.7395272E-2,3.7058038E-1,-1.15874745E-2,-3.9680356E-1,-9.321276E-3,1.12390004E-1,1.4890321E0,2.5066255E-2,-4.5356244E-1,2.3511645E-1,-6.5295684E-1,-5.7292398E-2,1.2924784E-1],"default_left":[true,true,true,true,true,true,true,false,false,false,false,false,false,false,false],"id":47,"leaf_child_counts":[0,0,0,0,0,0,0,0,0,0,0,0,0,0,0],"left_children":[1,3,5,7,9,11,13,-1,-1,-1,-1,-1,-1,-1,-1],"loss_changes":[4.9168825E0,3.792405E1,2.1462416E1,8.2915405E1,4.3167873E1,2.5099913E1,1.3131491E1,0E0,0E0,0E0,0E0,0E0,0E0,0E0,0E0],"parents":[2147483647,0,0,1,1,2,2,3,3,4,4,5,5,6,6],"right_children":[2,4,6,8,10,12,14,-1,-1,-1,-1,-1,-1,-1,-1],"split_conditions":[4.5E-1,9.76045E-1,7.7682495E-1,9.50985E-1,3.5000002E-1,8.2657504E-1,9.11955E-1,3.3717003E-2,4.4670966E-1,7.5198766E-3,-1.3606873E-1,7.053494E-2,-1.9588706E-1,-1.718772E-2,3.8774356E-2],"split_indices":[5,4,0,4,5,11,3,0,0,0,0,0,0,0,0],"sum_hessian":[5.0761445E3,2.9496858E3,2.1264587E3,2.867091E2,2.6629768E3,1.531153E2,1.9733434E3,2.3383067E2,5.2878445E1,2.4599153E3,2.0306161E2,4.418782E1,1.0892748E2,1.4663096E3,5.0703387E2],"tree_param":{"num_deleted":"0","num_feature":"14","num_nodes":"15","size_leaf_vector":"0"}},{"base_weights":[-2.1560884E-3,5.4316923E-2,-1.8031806E-2,-4.417311E-1,9.424728E-2,2.9004875E-1,-3.3232E-2,9.281208E-1,-7.561021E-1,2.4256073E-1,-8.862097E-2,8.971977E-1,-6.741893E-2,2.4819882E-3,-1.4526024E-1],"default_left":[true,true,true,true,true,true,true,false,false,false,false,false,false,false,false],"id":48,"leaf_child_counts":[0,0,0,0,0,0,0,0,0,0,0,0,0,0,0],"left_children":[1,3,5,7,9,11,13,-1,-1,-1,-1,-1,-1,-1,-1],"loss_changes":[4.562836E0,2.2162067E1,1.861221E1,3.660682E1,2.8076359E1,4.0620667E1,1.5150366E1,0E0,0E0,0E0,0E0,0E0,0E0,0E0,0E0],"parents":[2147483647,0,0,1,1,2,2,3,3,4,4,5,5,6,6],"right_children":[2,4,6,8,10,12,14,-1,-1,-1,-1,-1,-1,-1,-1],"split_conditions":[8.92965E-1,2.5E-1,4.166667E-1,8.84305E-1,1.5E-1,9.8574E-1,9.54235E-1,2.7843624E-1,-2.2683063E-1,7.276822E-2,-2.6586292E-2,2.6915932E-1,-2.0225681E-2,7.445965E-4,-4.3578073E-2],"split_indices":[0,12,12,3,5,0,3,0,0,0,0,0,0,0,0],"sum_hessian":[5.087238E3,1.1157777E3,3.97146E3,8.2375725E1,1.033402E3,1.8588216E2,3.785578E3,1.5011545E1,6.736418E1,5.704323E2,4.6296973E2,6.8324684E1,1.17557465E2,2.8712249E3,9.143529E2],"tree_param":{"num_deleted":"0","num_feature":"14","num_nodes":"15","size_leaf_vector":"0"}},{"base_weights":[-1.8573058E-3,-1.5199164E-1,3.701156E-3,-6.627379E-1,-2.9010963E-2,5.035448E-2,-1.5540791E-2,-1.1177275E0,-9.418159E-2,-1.0339972E0,2.8758015E-2,2.3512633E-1,3.6703213E-3,-1.7331412E-1,-1.2078149E-3],"default_left":[true,true,true,true,true,true,true,false,false,false,false,false,false,false,false],"id":49,"leaf_child_counts":[0,0,0,0,0,0,0,0,0,0,0,0,0,0,0],"left_children":[1,3,5,7,9,11,13,-1,-1,-1,-1,-1,-1,-1,-1],"loss_changes":[4.21354E0,1.1303213E1,4.371822E0,8.932033E0,8.52488E0,1.2265766E1,7.797153E0,0E0,0E0,0E0,0E0,0E0,0E0,0E0,0E0],"parents":[2147483647,0,0,1,1,2,2,3,3,4,4,5,5,6,6],"right_children":[2,4,6,8,10,12,14,-1,-1,-1,-1,-1,-1,-1,-1],"split_conditions":[3.6809504E-1,5E-1,5.8355105E-1,8.8165E-1,3.5025E-2,8.6584496E-1,3.5703E-1,-3.3531827E-1,-2.8254477E-2,-3.1019917E-1,8.627405E-3,7.05379E-2,1.1010964E-3,-5.1994238E-2,-3.623445E-4],"split_indices":[8,11,9,3,0,0,0,0,0,0,0,0,0,0,0],"sum_hessian":[5.0474087E3,1.792594E2,4.8681494E3,3.3935253E1,1.4532414E2,1.4210664E3,3.447083E3,1.8313717E1,1.5621533E1,6.980911E0,1.3834323E2,2.8581174E2,1.1352546E3,2.8614856E2,3.1609346E3],"tree_param":{"num_deleted":"0","num_feature":"14","num_nodes":"15","size_leaf_vector":"0"}},{"base_weights":[-1.4330792E-3,-2.413929E-1,1.6649328E-3,-5.159432E-1,7.537854E-1,-5.88876E-1,3.1503271E-3,6.015637E-1,-6.030272E-1,1.705621E0,1.4957224E-1,-1.1808616E0,-4.6098545E-2,8.097518E-2,-8.322661E-3],"default_left":[true,true,true,true,true,true,true,false,false,false,false,false,false,false,false],"id":50,"leaf_child_counts":[0,0,0,0,0,0,0,0,0,0,0,0,0,0,0],"left_children":[1,3,5,7,9,11,13,-1,-1,-1,-1,-1,-1,-1,-1],"loss_changes":[3.7574754E0,1.7991257E1,4.379446E0,5.3344326E0,7.9900236E0,3.9705238E0,4.446311E0,0E0,0E0,0E0,0E0,0E0,0E0,0E0,0E0],"parents":[2147483647,0,0,1,1,2,2,3,3,4,4,5,5,6,6],"right_children":[2,4,6,8,10,12,14,-1,-1,-1,-1,-1,-1,-1,-1],"split_conditions":[3.85E-1,9.8223E-1,3.1089999E-2,9.26945E-1,7.4513E-1,3.248E-2,9.41885E-1,1.8046911E-1,-1.8090817E-1,5.116863E-1,4.4871673E-2,-3.5425848E-1,-1.3829564E-2,2.4292557E-2,-2.4967983E-3],"split_indices":[7,0,6,4,1,0,6,0,0,0,0,0,0,0,0],"sum_hessian":[5.0529165E3,6.3424007E1,4.989492E3,5.0087418E1,1.3336588E1,1.1526467E1,4.977966E3,3.1938925E0,4.6893528E1,4.4707685E0,8.865819E0,4.9510098E0,6.5754576E0,6.3879083E2,4.3391753E3],"tree_param":{"num_deleted":"0","num_feature":"14","num_nodes":"15","size_leaf_vector":"0"}},{"base_weights":[-1.0957855E-3,8.7514105E-5,-5.6105757E-1,-1.408561E-3,4.7088173E-1,-6.6017145E-1,1.0038679E-1,-3.1455365E-4,-6.8729615E-1,2.1721105E-1,1.4090189E0,-1.4453723E-1,-8.278217E-1],"default_left":[true,true,true,true,true,true,false,false,false,false,false,false,false],"id":51,"leaf_child_counts":[0,0,0,0,0,0,0,0,0,0,0,0,0],"left_children":[1,3,5,7,9,11,-1,-1,-1,-1,-1,-1,-1],"loss_changes":[3.3475943E0,3.552289E0,7.647095E-1,3.7722394E0,3.4958813E0,6.927099E-1,0E0,0E0,0E0,0E0,0E0,0E0,0E0],"parents":[2147483647,0,0,1,1,2,2,3,3,4,4,5,5],"right_children":[2,4,6,8,10,12,-1,-1,-1,-1,-1,-1,-1],"split_conditions":[5.0975E-1,5.04385E-1,5.945759E-1,5.03495E-1,9.5E-1,8.26915E-1,3.0116038E-2,-9.43661E-5,-2.0618886E-1,6.516332E-2,4.2270568E-1,-4.336117E-2,-2.4834651E-1],"split_indices":[10,10,2,10,5,3,0,0,0,0,0,0,0],"sum_hessian":[5.051116E3,5.0414624E3,9.653671E0,5.026487E3,1.4976004E1,8.397305E0,1.2563667E0,5.019481E3,7.0057354E0,1.275784E1,2.2181635E0,2.5172496E0,5.880055E0],"tree_param":{"num_deleted":"0","num_feature":"14","num_nodes":"13","size_leaf_vector":"0"}},{"base_weights":[-8.133726E-4,9.3696326E-1,-1.501337E-3,7.4089505E-2,1.2310714E0,-1.8279031E-1,2.1324994E-3,1.5350562E-1,-3.3235204E-1,3.6432868E-1,-1.888181E-3],"default_left":[true,true,true,false,false,true,true,false,false,false,false],"id":52,"leaf_child_counts":[0,0,0,0,0,0,0,0,0,0,0],"left_children":[1,3,5,-1,-1,7,9,-1,-1,-1,-1],"loss_changes":[3.260006E0,8.4885025E-1,3.3259876E0,0E0,0E0,5.041017E0,7.2091727E0,0E0,0E0,0E0,0E0],"parents":[2147483647,0,0,1,1,2,2,5,5,6,6],"right_children":[2,4,6,-1,-1,8,10,-1,-1,-1,-1],"split_conditions":[1.824E-1,2.046E-2,7.36935E-1,2.2226851E-2,3.693214E-1,8.1492E-1,7.7222E-1,4.605169E-2,-9.9705614E-2,1.0929861E-1,-5.664543E-4],"split_indices":[1,6,6,0,0,1,6,0,0,0,0],"sum_hessian":[5.0498623E3,2.7042582E0,5.047158E3,1.0056697E0,1.6985884E0,9.8210655E1,4.9489473E3,3.0224104E1,6.798655E1,5.3350433E1,4.895597E3],"tree_param":{"num_deleted":"0","num_feature":"14","num_nodes":"11","size_leaf_vector":"0"}},{"base_weights":[-5.175093E-4,1.1871219E-2,-4.8119646E-2,5.1431246E-2,-2.1555088E-2,4.1812178E-1,-6.480716E-2,6.500907E-1,3.8634047E-2,1.09214345E-2,-1.398439E-1,-7.347772E-1,6.945163E-1,-8.521456E-1,-4.9416468E-2],"default_left":[true,true,true,true,true,true,true,false,false,false,false,false,false,false,false],"id":53,"leaf_child_counts":[0,0,0,0,0,0,0,0,0,0,0,0,0,0,0],"left_children":[1,3,5,7,9,11,13,-1,-1,-1,-1,-1,-1,-1,-1],"loss_changes":[2.9781675E0,5.3000107E0,8.141174E0,1.4037056E1,8.348135E0,1.203635E1,1.2169059E1,0E0,0E0,0E0,0E0,0E0,0E0,0E0,0E0],"parents":[2147483647,0,0,1,1,2,2,3,3,4,4,5,5,6,6],"right_children":[2,4,6,8,10,12,14,-1,-1,-1,-1,-1,-1,-1,-1],"split_conditions":[9.76475E-1,2.5E-1,9.8135E-2,5.4175E-1,9.30585E-1,4.166667E-1,4.6947E-1,1.9502722E-1,1.1590214E-2,3.2764305E-3,-4.195317E-2,-2.2043318E-1,2.083549E-1,-2.556437E-1,-1.4824941E-2],"split_indices":[1,5,0,3,3,12,0,0,0,0,0,0,0,0,0],"sum_hessian":[5.0480845E3,4.0061992E3,1.0418856E3,1.8345138E3,2.1716853E3,3.5170895E1,1.00671466E3,3.7352352E1,1.7971614E3,1.7045924E3,4.6709293E2,6.480586E0,2.869031E1,1.8259312E1,9.884554E2],"tree_param":{"num_deleted":"0","num_feature":"14","num_nodes":"15","size_leaf_vector":"0"}},{"base_weights":[-5.4948643E-4,-2.5651386E-1,1.6496254E-3,9.2492783E-1,-4.1739953E-1,1.0982685E0,1.0360318E-3,7.951754E-2,1.0971941E0,4.224813E-1,-7.425089E-1,-7.824176E-2,8.296334E-3],"default_left":[true,true,true,true,true,false,true,false,false,false,false,false,false],"id":54,"leaf_child_counts":[0,0,0,0,0,0,0,0,0,0,0,0,0],"left_children":[1,3,5,7,9,-1,11,-1,-1,-1,-1,-1,-1],"loss_changes":[2.8325682E0,8.533775E0,3.3562107E0,7.06265E-1,1.0803495E1,0E0,2.8714979E0,0E0,0E0,0E0,0E0,0E0,0E0],"parents":[2147483647,0,0,1,1,2,2,3,3,4,4,6,6],"right_children":[2,4,6,8,10,-1,12,-1,-1,-1,-1,-1,-1],"split_conditions":[1.777E-1,2.52325E-1,1.824E-1,2.125E-2,7.4522E-1,3.2948056E-1,3.85405E-1,2.3855263E-2,3.2915825E-1,1.2674439E-1,-2.2275268E-1,-2.3472529E-2,2.4889004E-3],"split_indices":[7,4,1,0,1,0,0,0,0,0,0,0,0],"sum_hessian":[5.030398E3,4.1865303E1,4.9885327E3,4.4486055E0,3.74167E1,1.789299E0,4.986743E3,1.0004439E0,3.4481618E0,1.0358153E1,2.7058544E1,4.1755353E2,4.5691895E3],"tree_param":{"num_deleted":"0","num_feature":"14","num_nodes":"13","size_leaf_vector":"0"}},{"base_weights":[-3.620604E-4,-1.9073002E-2,2.8491467E-2,-4.450103E-2,7.4295916E-2,2.29515E-1,2.5902234E-3,-5.1638108E-2,4.8953643E-1,5.4887444E-1,3.9521422E-2,-7.405906E-2,4.2244986E-1,4.0869247E-2,-2.4077821E-1],"default_left":[true,true,true,true,true,true,true,false,false,false,false,false,false,false,false],"id":55,"leaf_child_counts":[0,0,0,0,0,0,0,0,0,0,0,0,0,0,0],"left_children":[1,3,5,7,9,11,13,-1,-1,-1,-1,-1,-1,-1,-1],"loss_changes":[2.7171614E0,7.2518444E0,1.0308071E1,9.173525E0,1.076928E1,1.3266381E1,1.6358246E1,0E0,0E0,0E0,0E0,0E0,0E0,0E0,0E0],"parents":[2147483647,0,0,1,1,2,2,3,3,4,4,5,5,6,6],"right_children":[2,4,6,8,10,12,14,-1,-1,-1,-1,-1,-1,-1,-1],"split_conditions":[6.2767893E-1,9.166666E-1,6.22385E-1,9.166666E-1,4.3562502E-1,7.5E-1,9.79255E-1,-1.54914325E-2,1.4686094E-1,1.6466233E-1,1.1856427E-2,-2.2217719E-2,1.2673496E-1,1.2260775E-2,-7.223347E-2],"split_indices":[8,13,11,12,11,13,3,0,0,0,0,0,0,0,0],"sum_hessian":[5.030923E3,3.0520608E3,1.9788622E3,2.3991904E3,6.528704E2,2.2497049E2,1.7538916E3,2.368441E3,3.0749434E1,4.356338E1,6.0930707E2,8.7659096E1,1.3731139E2,1.5162372E3,2.3765442E2],"tree_param":{"num_deleted":"0","num_feature":"14","num_nodes":"15","size_leaf_vector":"0"}},{"base_weights":[-4.2846074E-4,-5.4564863E-1,7.223017E-4,4.739271E-1,-8.7109095E-1,1.5357374E-1,-3.8076648E-3,2.264302E-2,7.2383785E-1,-1.3932527E0,-4.0206274E-1,-5.01108E-1,7.181811E-1,-1.6802354E-1,5.848332E-3],"default_left":[true,true,true,true,true,true,true,false,false,false,false,false,false,false,false],"id":56,"leaf_child_counts":[0,0,0,0,0,0,0,0,0,0,0,0,0,0,0],"left_children":[1,3,5,7,9,11,13,-1,-1,-1,-1,-1,-1,-1,-1],"loss_changes":[3.1498308E0,3.921331E0,3.469636E0,3.4519333E-1,1.4891329E0,5.367341E1,7.718216E0,0E0,0E0,0E0,0E0,0E0,0E0,0E0,0E0],"parents":[2147483647,0,0,1,1,2,2,3,3,4,4,5,5,6,6],"right_children":[2,4,6,8,10,12,14,-1,-1,-1,-1,-1,-1,-1,-1],"split_conditions":[2.235E-3,7.5E-1,2.3525E-2,8.2041E-1,4.96E-3,8.39795E-1,3.85405E-1,6.792906E-3,2.1715136E-1,-4.1797584E-1,-1.2061883E-1,-1.503324E-1,2.1545433E-1,-5.0407063E-2,1.7544996E-3],"split_indices":[0,12,0,1,4,1,0,0,0,0,0,0,0,0,0],"sum_hessian":[5.0186714E3,9.573717E0,5.0090977E3,2.2060726E0,7.367644E0,1.4323167E2,4.8658657E3,1.1749587E0,1.031114E0,2.5539083E0,4.8137355E0,6.637733E1,7.685434E1,2.6931564E2,4.5965503E3],"tree_param":{"num_deleted":"0","num_feature":"14","num_nodes":"15","size_leaf_vector":"0"}},{"base_weights":[-3.7545964E-4,-6.564253E-2,8.619087E-3,3.2501614E-1,-2.695962E-1,9.037549E-1,1.8312902E-3,-5.665078E-1,5.478995E-1,3.236432E-1,-4.5885822E-1,1.8130068E0,2.3442364E-1,-2.01923E-1,1.6139142E-2],"default_left":[true,true,true,true,true,true,true,false,false,false,false,false,false,false,false],"id":57,"leaf_child_counts":[0,0,0,0,0,0,0,0,0,0,0,0,0,0,0],"left_children":[1,3,5,7,9,11,13,-1,-1,-1,-1,-1,-1,-1,-1],"loss_changes":[2.946007E0,4.8516438E1,2.6796907E1,4.182744E1,4.5046387E1,1.9774998E1,1.2767458E1,0E0,0E0,0E0,0E0,0E0,0E0,0E0,0E0],"parents":[2147483647,0,0,1,1,2,2,3,3,4,4,5,5,6,6],"right_children":[2,4,6,8,10,12,14,-1,-1,-1,-1,-1,-1,-1,-1],"split_conditions":[5.8595E-2,7.5E-1,1.55625E-1,2.73E-2,5.41795E-1,4.5E-1,5.5843E-1,-1.6995235E-1,1.6436985E-1,9.7092964E-2,-1.3765748E-1,5.4390204E-1,7.0327096E-2,-6.05769E-2,4.841743E-3],"split_indices":[4,5,4,3,3,5,3,0,0,0,0,0,0,0,0],"sum_hessian":[5.0163804E3,6.0681976E2,4.4095605E3,2.0793726E2,3.988825E2,3.2191452E1,4.377369E3,4.1279453E1,1.666578E2,9.630517E1,3.0257733E2,1.2924926E1,1.9266527E1,2.8635477E2,4.0910142E3],"tree_param":{"num_deleted":"0","num_feature":"14","num_nodes":"15","size_leaf_vector":"0"}},{"base_weights":[-5.305491E-4,5.2742296E-1,-1.5929935E-3,-2.1900003E-1,6.469612E-1,-4.427968E-2,1.1483566E-2,9.8955727E-1,3.3010048E-1,-3.6879396E-1,-4.6566376E-4,4.72186E-1,-5.624318E-3],"default_left":[true,true,true,false,true,true,true,false,false,false,false,false,false],"id":58,"leaf_child_counts":[0,0,0,0,0,0,0,0,0,0,0,0,0],"left_children":[1,3,5,-1,7,9,11,-1,-1,-1,-1,-1,-1],"loss_changes":[2.8103046E0,1.0394876E0,2.7912593E0,0E0,6.423135E-1,1.6672445E1,3.0173428E1,0E0,0E0,0E0,0E0,0E0,0E0],"parents":[2147483647,0,0,1,1,2,2,4,4,5,5,6,6],"right_children":[2,4,6,-1,8,10,12,-1,-1,-1,-1,-1,-1],"split_conditions":[5E-2,3.4289002E-1,9.39295E-1,-6.570001E-2,5.77243E-1,3.7320003E-2,5.2649997E-2,2.968672E-1,9.9030145E-2,-1.10638194E-1,-1.3969913E-4,1.416558E-1,-1.6872955E-3],"split_indices":[5,10,11,0,9,0,0,0,0,0,0,0,0],"sum_hessian":[5.007661E3,9.062111E0,4.998599E3,1.1360871E0,7.9260235E0,1.1716189E3,3.82698E3,2.7882783E0,5.1377454E0,1.384861E2,1.0331328E3,1.3607169E2,3.6909084E3],"tree_param":{"num_deleted":"0","num_feature":"14","num_nodes":"13","size_leaf_vector":"0"}},{"base_weights":[-3.699957E-4,-1.2675217E-2,4.50161E-2,6.500758E-2,-4.717742E-2,-5.9287317E-2,2.2517584E-1,3.6652946E-1,1.3381419E-2,-1.7994559E-1,-2.173969E-2,-8.729829E-2,8.3989596E-1,6.706976E-1,1.2324684E-1],"default_left":[true,true,true,true,true,true,true,false,false,false,false,false,false,false,false],"id":59,"leaf_child_counts":[0,0,0,0,0,0,0,0,0,0,0,0,0,0,0],"left_children":[1,3,5,7,9,11,13,-1,-1,-1,-1,-1,-1,-1,-1],"loss_changes":[2.7941446E0,1.0552232E1,2.0066042E1,1.8844513E1,9.202727E0,1.71158E1,1.76955E1,0E0,0E0,0E0,0E0,0E0,0E0,0E0,0E0],"parents":[2147483647,0,0,1,1,2,2,3,3,4,4,5,5,6,6],"right_children":[2,4,6,8,10,12,14,-1,-1,-1,-1,-1,-1,-1,-1],"split_conditions":[9.5E-1,9.34475E-1,9.9975E-1,9.70215E-1,7.5E-1,9.166666E-1,7.5E-1,1.0995884E-1,4.014426E-3,-5.3983677E-2,-6.521907E-3,-2.6189487E-2,2.519688E-1,2.0120929E-1,3.6974054E-2],"split_indices":[5,0,4,4,12,12,12,0,0,0,0,0,0,0,0],"sum_hessian":[5.001049E3,3.9349214E3,1.0661277E3,1.2099028E3,2.7250186E3,6.756381E2,3.904895E2,1.759821E2,1.0339207E3,4.371757E2,2.287843E3,6.561024E2,1.9535706E1,7.166569E1,3.1882382E2],"tree_param":{"num_deleted":"0","num_feature":"14","num_nodes":"15","size_leaf_vector":"0"}},{"base_weights":[-3.813292E-4,-8.255405E-2,6.9949087E-3,-4.9237143E-2,-1.4030417E0,2.588668E-1,-4.485952E-3,7.456492E-2,-4.655546E-1,6.1774153E-2,-1.5763748E0,-3.4515578E-1,6.850567E-1,2.1034463E-1,-1.4896701E-2],"default_left":[true,true,true,true,true,true,true,false,false,false,false,false,false,false,false],"id":60,"leaf_child_counts":[0,0,0,0,0,0,0,0,0,0,0,0,0,0,0],"left_children":[1,3,5,7,9,11,13,-1,-1,-1,-1,-1,-1,-1,-1],"loss_changes":[3.0232012E0,1.8005884E1,1.3236352E1,2.0742373E1,2.6552963E0,5.160604E1,9.795632E0,0E0,0E0,0E0,0E0,0E0,0E0,0E0,0E0],"parents":[2147483647,0,0,1,1,2,2,3,3,4,4,5,5,6,6],"right_children":[2,4,6,8,10,12,14,-1,-1,-1,-1,-1,-1,-1,-1],"split_conditions":[3.85405E-1,9.166666E-1,2.4535E-2,1.54075E-1,8.94195E-1,8.67585E-1,4.166667E-1,2.2369476E-2,-1.3966638E-1,1.8532246E-2,-4.7291246E-1,-1.0354674E-1,2.0551701E-1,6.310339E-2,-4.4690105E-3],"split_indices":[0,12,11,0,11,3,12,0,0,0,0,0,0,0,0],"sum_hessian":[4.9857944E3,4.098454E2,4.575949E3,4.0077094E2,9.074469E0,1.985491E2,4.3774E3,3.0954202E2,9.122891E1,1.0282732E0,8.046196E0,8.221669E1,1.1633242E2,2.0143764E2,4.1759624E3],"tree_param":{"num_deleted":"0","num_feature":"14","num_nodes":"15","size_leaf_vector":"0"}},{"base_weights":[-5.7258894E-4,-4.192411E-2,1.3153159E-2,2.7870062E-1,-6.466673E-2,-1.3603583E-1,2.3574606E-2,-2.9126394E-1,5.2420723E-1,-1.9935343E-1,-3.0876646E-2,-5.116414E-1,8.820742E-2,2.3956886E-1,1.4479383E-2],"default_left":[true,true,true,true,true,true,true,false,false,false,false,false,false,false,false],"id":61,"leaf_child_counts":[0,0,0,0,0,0,0,0,0,0,0,0,0,0,0],"left_children":[1,3,5,7,9,11,13,-1,-1,-1,-1,-1,-1,-1,-1],"loss_changes":[2.827596E0,9.070967E0,5.8185773E0,1.1685581E1,5.273532E0,2.06274E1,6.866416E0,0E0,0E0,0E0,0E0,0E0,0E0,0E0,0E0],"parents":[2147483647,0,0,1,1,2,2,3,3,4,4,5,5,6,6],"right_children":[2,4,6,8,10,12,14,-1,-1,-1,-1,-1,-1,-1,-1],"split_conditions":[4.09255E-1,2.391E-2,1.2665E-2,8.19515E-1,9.0045E-1,2.62325E-1,4.558E-2,-8.737919E-2,1.5726218E-1,-5.980603E-2,-9.262994E-3,-1.5349242E-1,2.6462229E-2,7.187066E-2,4.343815E-3],"split_indices":[10,11,11,3,11,0,0,0,0,0,0,0,0,0,0],"sum_hessian":[4.9798687E3,1.2405157E3,3.7393528E3,8.1419E1,1.1590968E3,2.4336661E2,3.495986E3,2.445598E1,5.6963017E1,2.314884E2,9.2760834E2,9.049934E1,1.5286726E2,1.4023889E2,3.3557473E3],"tree_param":{"num_deleted":"0","num_feature":"14","num_nodes":"15","size_leaf_vector":"0"}},{"base_weights":[-5.5076217E-4,2.4935205E-3,-1.8933399E-1,1.1789601E-3,4.9540177E-1,-5.009063E-1,-2.8660592E-2,2.769446E-3,-3.9877793E-1,7.735929E-1,-5.82142E-1,5.4024917E-1,-6.381353E-1,1.1488359E0,-1.8482637E-1],"default_left":[true,true,true,true,true,true,true,false,false,false,false,false,false,false,false],"id":62,"leaf_child_counts":[0,0,0,0,0,0,0,0,0,0,0,0,0,0,0],"left_children":[1,3,5,7,9,11,13,-1,-1,-1,-1,-1,-1,-1,-1],"loss_changes":[2.8620305E0,3.1751268E0,3.9420655E0,3.1111705E0,4.357407E0,4.1779037E0,9.995558E0,0E0,0E0,0E0,0E0,0E0,0E0,0E0,0E0],"parents":[2147483647,0,0,1,1,2,2,3,3,4,4,5,5,6,6],"right_children":[2,4,6,8,10,12,14,-1,-1,-1,-1,-1,-1,-1,-1],"split_conditions":[6.9932234E-1,6.942321E-1,7.3484E-1,6.8974864E-1,9.85285E-1,3.27135E-1,4.7235E-2,8.3083386E-4,-1.19633384E-1,2.3207788E-1,-1.7464261E-1,1.6207476E-1,-1.914406E-1,3.4465078E-1,-5.5447914E-2],"split_indices":[9,9,3,9,3,3,4,0,0,0,0,0,0,0,0],"sum_hessian":[4.9781387E3,4.9001074E3,7.803142E1,4.8880737E3,1.2033845E1,2.5828379E1,5.2203037E1,4.8697017E3,1.8371994E1,9.788747E0,2.245098E0,2.665839E0,2.316254E1,5.368419E0,4.683462E1],"tree_param":{"num_deleted":"0","num_feature":"14","num_nodes":"15","size_leaf_vector":"0"}},{"base_weights":[-4.6860048E-4,-5.209069E-2,9.936911E-3,-2.6700377E-1,-7.2259977E-3,2.974907E-1,6.4074798E-3,9.135449E-3,-4.9368662E-1,-5.4671973E-2,1.5024813E-1,1.6374008E-1,1.0556176E0,8.394688E-2,-5.1884917E-3],"default_left":[true,true,true,true,true,true,true,false,false,false,false,false,false,false,false],"id":63,"leaf_child_counts":[0,0,0,0,0,0,0,0,0,0,0,0,0,0,0],"left_children":[1,3,5,7,9,11,13,-1,-1,-1,-1,-1,-1,-1,-1],"loss_changes":[2.6745641E0,8.051842E0,4.203737E0,9.032633E0,5.1788826E0,4.919799E0,3.6821368E0,0E0,0E0,0E0,0E0,0E0,0E0,0E0,0E0],"parents":[2147483647,0,0,1,1,2,2,3,3,4,4,5,5,6,6],"right_children":[2,4,6,8,10,12,14,-1,-1,-1,-1,-1,-1,-1,-1],"split_conditions":[4.9122447E-1,6.6822004E-1,5.790895E-1,1.5E-1,8.5E-1,4.8645002E-1,6.35815E-1,2.7406348E-3,-1.48106E-1,-1.6401593E-2,4.507444E-2,4.9122028E-2,3.166853E-1,2.5184067E-2,-1.5565476E-3],"split_indices":[8,11,2,5,5,10,11,0,0,0,0,0,0,0,0],"sum_hessian":[4.9771733E3,8.3427936E2,4.142894E3,1.4322836E2,6.91051E2,4.9223373E1,4.0936704E3,6.500304E1,7.8225334E1,5.3155084E2,1.5950015E2,4.2875206E1,6.348169E0,5.3174994E2,3.5619204E3],"tree_param":{"num_deleted":"0","num_feature":"14","num_nodes":"15","size_leaf_vector":"0"}},{"base_weights":[-4.0338867E-4,2.2260385E-2,-2.2584276E-2,-2.1486421E-1,5.3951383E-2,-7.252146E-2,1.5974954E-1,8.132341E-1,-3.0518034E-1,1.6344713E-1,-2.7578646E-2,-1.5300405E-2,-4.2308268E-1,-6.1018056E-1,1.9356439E-1],"default_left":[true,true,true,true,true,true,true,false,false,false,false,false,false,false,false],"id":64,"leaf_child_counts":[0,0,0,0,0,0,0,0,0,0,0,0,0,0,0],"left_children":[1,3,5,7,9,11,13,-1,-1,-1,-1,-1,-1,-1,-1],"loss_changes":[2.5019119E0,1.8510374E1,2.2913513E1,2.7213919E1,1.9396725E1,3.9614395E1,1.4205134E1,0E0,0E0,0E0,0E0,0E0,0E0,0E0,0E0],"parents":[2147483647,0,0,1,1,2,2,3,3,4,4,5,5,6,6],"right_children":[2,4,6,8,10,12,14,-1,-1,-1,-1,-1,-1,-1,-1],"split_conditions":[8.93775E-1,5.833334E-1,5.5E-1,8.66E-3,4.5E-1,3.5000002E-1,7.49895E-1,2.4397023E-1,-9.1554105E-2,4.903414E-2,-8.273594E-3,-4.5901216E-3,-1.2692481E-1,-1.8305418E-1,5.806932E-2],"split_indices":[3,12,5,4,5,5,0,0,0,0,0,0,0,0,0],"sum_hessian":[4.9749224E3,2.4606746E3,2.5142478E3,2.894105E2,2.171264E3,1.9741691E3,5.400788E2,2.2724598E1,2.666859E2,9.262692E2,1.2449948E3,1.6980458E3,2.7612326E2,2.200489E1,5.180739E2],"tree_param":{"num_deleted":"0","num_feature":"14","num_nodes":"15","size_leaf_vector":"0"}},{"base_weights":[-1.0401902E-3,4.9354393E-2,-1.5141085E-2,1.739958E-1,-1.7903525E-1,-1.1317336E-1,2.291727E-2,-1.9728741E-1,3.4224752E-1,-7.2569937E-1,6.754961E-2,4.749426E-1,-2.2034556E-1,-1.07808456E-1,6.283675E-2],"default_left":[true,true,true,true,true,true,true,false,false,false,false,false,false,false,false],"id":65,"leaf_child_counts":[0,0,0,0,0,0,0,0,0,0,0,0,0,0,0],"left_children":[1,3,5,7,9,11,13,-1,-1,-1,-1,-1,-1,-1,-1],"loss_changes":[3.5344174E0,3.0987188E1,1.4502149E1,4.404678E1,5.1869354E1,6.861714E1,1.4620178E1,0E0,0E0,0E0,0E0,0E0,0E0,0E0,0E0],"parents":[2147483647,0,0,1,1,2,2,3,3,4,4,5,5,6,6],"right_children":[2,4,6,8,10,12,14,-1,-1,-1,-1,-1,-1,-1,-1],"split_conditions":[7.5E-1,1.5E-1,1.5E-1,9.35575E-1,7.5E-1,6.3954E-1,8.78005E-1,-5.9186224E-2,1.0267426E-1,-2.1770982E-1,2.0264883E-2,1.4248279E-1,-6.610367E-2,-3.234254E-2,1.8851027E-2],"split_indices":[12,5,5,11,5,11,1,0,0,0,0,0,0,0,0],"sum_hessian":[4.971737E3,1.0864432E3,3.8852932E3,7.030169E2,3.834264E2,1.0859878E3,2.7993057E3,2.191791E2,4.8383783E2,1.18585754E2,2.6484064E2,1.6686597E2,9.1912177E2,6.5445105E2,2.1448545E3],"tree_param":{"num_deleted":"0","num_feature":"14","num_nodes":"15","size_leaf_vector":"0"}},{"base_weights":[-1.8629759E-3,-7.685447E-2,4.646425E-3,-6.1726725E-1,2.296504E-2,1.05765425E-1,-1.7287673E-2,1.1863394E0,-8.616328E-1,-3.9965338E-1,2.1958762E-1,9.099362E-1,9.831231E-3,1.022862E0,-2.1584813E-2],"default_left":[true,true,true,true,true,true,true,false,false,false,false,false,false,false,false],"id":66,"leaf_child_counts":[0,0,0,0,0,0,0,0,0,0,0,0,0,0,0],"left_children":[1,3,5,7,9,11,13,-1,-1,-1,-1,-1,-1,-1,-1],"loss_changes":[2.4184237E0,2.1359241E1,1.0113134E1,2.8228436E1,2.7921923E1,6.269267E1,1.6770348E1,0E0,0E0,0E0,0E0,0E0,0E0,0E0,0E0],"parents":[2147483647,0,0,1,1,2,2,3,3,4,4,5,5,6,6],"right_children":[2,4,6,8,10,12,14,-1,-1,-1,-1,-1,-1,-1,-1],"split_conditions":[3.32405E-1,4.166667E-1,7.5E-1,8.34165E-1,8.22205E-1,7.4997497E-1,7.6506996E-1,3.5590184E-1,-2.5848985E-1,-1.1989602E-1,6.587629E-2,2.7298087E-1,2.9493694E-3,3.068586E-1,-6.475444E-3],"split_indices":[0,12,12,3,1,0,7,0,0,0,0,0,0,0,0],"sum_hessian":[4.952535E3,3.9469128E2,4.5578438E3,6.0728645E1,3.3396265E2,8.1175006E2,3.7460938E3,6.786232E0,5.3942413E1,1.05712585E2,2.2825006E2,8.561289E1,7.261372E2,1.4437238E1,3.7316565E3],"tree_param":{"num_deleted":"0","num_feature":"14","num_nodes":"15","size_leaf_vector":"0"}},{"base_weights":[-1.5249469E-3,-1.5563E-1,1.7761053E-3,2.897872E-1,-5.117586E-1,-5.253266E-2,1.7939659E-2,-4.2464602E-1,8.354907E-1,2.1178687E-1,-7.6110035E-1,2.1784733E-1,-1.02870494E-1,-1.4908302E-1,3.9366804E-2],"default_left":[true,true,true,true,true,true,true,false,false,false,false,false,false,false,false],"id":67,"leaf_child_counts":[0,0,0,0,0,0,0,0,0,0,0,0,0,0,0],"left_children":[1,3,5,7,9,11,13,-1,-1,-1,-1,-1,-1,-1,-1],"loss_changes":[2.5061572E0,1.6536953E1,4.2352486E0,1.8500126E1,1.0584245E1,1.5083718E1,1.3312055E1,0E0,0E0,0E0,0E0,0E0,0E0,0E0,0E0],"parents":[2147483647,0,0,1,1,2,2,3,3,4,4,5,5,6,6],"right_children":[2,4,6,8,10,12,14,-1,-1,-1,-1,-1,-1,-1,-1],"split_conditions":[8.05785E-1,5.12825E-1,9.39295E-1,3.1954998E-1,7.7691E-1,4.2830998E-1,6.171E-2,-1.2739381E-1,2.5064722E-1,6.353606E-2,-2.2833012E-1,6.5354206E-2,-3.0861149E-2,-4.4724908E-2,1.1810042E-2],"split_indices":[7,11,11,0,1,4,4,0,0,0,0,0,0,0,0],"sum_hessian":[4.9249624E3,1.02316414E2,4.822646E3,4.554218E1,5.677423E1,1.1056075E3,3.7170386E3,1.9818153E1,2.5724026E1,1.4589294E1,4.2184937E1,1.7300685E2,9.3260077E2,4.2195773E2,3.2950808E3],"tree_param":{"num_deleted":"0","num_feature":"14","num_nodes":"15","size_leaf_vector":"0"}},{"base_weights":[-1.2878601E-3,-5.0624543E-1,-3.453121E-4,-9.8564154E-1,7.0198584E-1,3.6976153E-1,-1.8728866E-3,4.9868664E-1,-1.3301588E0,1.1111271E0,-8.852071E-2,1.3325942E0,1.0364053E-1,-9.197826E-4,-4.8531476E-1],"default_left":[true,true,true,true,true,true,true,false,false,false,false,false,false,false,false],"id":68,"leaf_child_counts":[0,0,0,0,0,0,0,0,0,0,0,0,0,0,0],"left_children":[1,3,5,7,9,11,13,-1,-1,-1,-1,-1,-1,-1,-1],"loss_changes":[2.34284E0,6.0040226E0,2.779284E0,4.233711E0,1.1298499E0,5.039387E0,2.2552423E0,0E0,0E0,0E0,0E0,0E0,0E0,0E0,0E0],"parents":[2147483647,0,0,1,1,2,2,3,3,4,4,5,5,6,6],"right_children":[2,4,6,8,10,12,14,-1,-1,-1,-1,-1,-1,-1,-1],"split_conditions":[4.3932515E-1,4.5E-1,5.329158E-1,6.5586996E-1,2.5E-1,5.833334E-1,5.0975E-1,1.49606E-1,-3.9904767E-1,3.3333814E-1,-2.6556214E-2,3.9977828E-1,3.109216E-2,-2.7593478E-4,-1.4559443E-1],"split_indices":[9,5,9,1,13,12,10,0,0,0,0,0,0,0,0],"sum_hessian":[4.9218506E3,8.171133E0,4.913679E3,5.981894E0,2.1892393E0,1.9206448E1,4.8944727E3,1.0425686E0,4.939326E0,1.1753343E0,1.013905E0,3.2912276E0,1.5915221E1,4.8858423E3,8.630518E0],"tree_param":{"num_deleted":"0","num_feature":"14","num_nodes":"15","size_leaf_vector":"0"}},{"base_weights":[-8.716812E-4,1.5186902E-2,-2.978301E-2,-1.6877961E-1,3.7873656E-2,1.6716251E-1,-6.992299E-2,-4.7311327E-1,5.2822858E-2,-1.4646782E-1,5.5090852E-2,-7.074523E-1,2.5814733E-1,-1.3961107E-1,1.3149287E-1],"default_left":[true,true,true,true,true,true,true,false,false,false,false,false,false,false,false],"id":69,"leaf_child_counts":[0,0,0,0,0,0,0,0,0,0,0,0,0,0,0],"left_children":[1,3,5,7,9,11,13,-1,-1,-1,-1,-1,-1,-1,-1],"loss_changes":[2.285212E0,1.3213669E1,1.3906643E1,2.3466515E1,8.951622E0,2.3886646E1,2.0522272E1,0E0,0E0,0E0,0E0,0E0,0E0,0E0,0E0],"parents":[2147483647,0,0,1,1,2,2,3,3,4,4,5,5,6,6],"right_children":[2,4,6,8,10,12,14,-1,-1,-1,-1,-1,-1,-1,-1],"split_conditions":[9.32165E-1,5.833334E-1,5.833334E-1,9.2157996E-1,2.5181502E-1,2.5E-1,5.5E-1,-1.4193399E-1,1.5846858E-2,-4.3940347E-2,1.6527256E-2,-2.122357E-1,7.74442E-2,-4.188332E-2,3.9447863E-2],"split_indices":[3,12,12,0,11,13,5,0,0,0,0,0,0,0,0],"sum_hessian":[4.920135E3,3.1634785E3,1.756656E3,3.4658517E2,2.8168933E3,2.968765E2,1.4597795E3,1.4555498E2,2.010302E2,2.3997855E2,2.5769148E3,2.7335129E1,2.6954138E2,1.0847668E3,3.750127E2],"tree_param":{"num_deleted":"0","num_feature":"14","num_nodes":"15","size_leaf_vector":"0"}},{"base_weights":[-1.1319096E-3,9.526937E-3,-4.225555E-2,-7.346714E-3,1.4768733E-1,3.179675E-1,-6.389707E-2,4.3540012E-2,-4.0141463E-2,-9.6318975E-2,2.0813482E-1,-5.2704847E-1,6.171867E-1,2.7305785E-1,-8.623148E-2],"default_left":[true,true,true,true,true,true,true,false,false,false,false,false,false,false,false],"id":70,"leaf_child_counts":[0,0,0,0,0,0,0,0,0,0,0,0,0,0,0],"left_children":[1,3,5,7,9,11,13,-1,-1,-1,-1,-1,-1,-1,-1],"loss_changes":[2.155759E0,9.106702E0,7.912242E0,5.812079E0,6.2908983E0,1.4873892E1,7.2165527E0,0E0,0E0,0E0,0E0,0E0,0E0,0E0,0E0],"parents":[2147483647,0,0,1,1,2,2,3,3,4,4,5,5,6,6],"right_children":[2,4,6,8,10,12,14,-1,-1,-1,-1,-1,-1,-1,-1],"split_conditions":[6.310901E-1,6.700721E-1,3.5075998E-1,8.5977E-1,8.91925E-1,5.4570997E-1,2.5E-1,1.3062004E-2,-1.204244E-2,-2.8895693E-2,6.2440448E-2,-1.5811455E-1,1.8515602E-1,8.191736E-2,-2.5869444E-2],"split_indices":[2,8,11,3,4,3,12,0,0,0,0,0,0,0,0],"sum_hessian":[4.9161943E3,3.9048606E3,1.0113335E3,3.4807058E3,4.2415485E2,5.6539604E1,9.547939E2,1.3639594E3,2.1167463E3,8.40956E1,3.4005927E2,1.4586082E1,4.195352E1,5.865476E1,8.9613916E2],"tree_param":{"num_deleted":"0","num_feature":"14","num_nodes":"15","size_leaf_vector":"0"}},{"base_weights":[-9.597886E-4,7.8535354E-1,-1.5047085E-3,7.8392655E-2,1.0549443E0,-1.5116371E-1,1.4209851E-3,1.1173413E0,-3.0190974E-1,9.238581E-2,-6.365934E-3],"default_left":[true,true,true,false,false,true,true,false,false,false,false],"id":71,"leaf_child_counts":[0,0,0,0,0,0,0,0,0,0,0],"left_children":[1,3,5,-1,-1,7,9,-1,-1,-1,-1],"loss_changes":[2.1026819E0,5.650122E-1,2.1466622E0,0E0,0E0,1.8313112E1,3.4070942E0,0E0,0E0,0E0,0E0],"parents":[2147483647,0,0,1,1,2,2,5,5,6,6],"right_children":[2,4,6,-1,-1,8,10,-1,-1,-1,-1],"split_conditions":[1.824E-1,1.8245E-2,8.07195E-1,2.3517797E-2,3.164833E-1,2.51335E-1,8.90905E-1,3.352024E-1,-9.057292E-2,2.7715744E-2,-1.9097802E-3],"split_indices":[1,6,7,0,0,4,6,0,0,0,0],"sum_hessian":[4.903572E3,2.3984563E0,4.901173E3,1.0184665E0,1.3799899E0,9.300469E1,4.8081685E3,9.197453E0,8.380724E1,3.7828412E2,4.4298843E3],"tree_param":{"num_deleted":"0","num_feature":"14","num_nodes":"11","size_leaf_vector":"0"}},{"base_weights":[-5.189384E-4,4.3868986E-1,-1.458108E-3,-4.000519E-1,5.6976235E-1,-4.3484288E-1,-5.53333E-4,6.554101E-1,4.3287337E-2,3.7341833E-1,-6.7794544E-1,1.0116216E0,-1.1557821E-3],"default_left":[true,true,true,false,true,true,true,false,false,false,false,false,false],"id":72,"leaf_child_counts":[0,0,0,0,0,0,0,0,0,0,0,0,0],"left_children":[1,3,5,-1,7,9,11,-1,-1,-1,-1,-1,-1],"loss_changes":[2.0215828E0,1.3775742E0,1.9171659E0,0E0,3.980372E-1,2.254623E0,2.97735E0,0E0,0E0,0E0,0E0,0E0,0E0],"parents":[2147483647,0,0,1,1,2,2,4,4,5,5,6,6],"right_children":[2,4,6,-1,8,10,12,-1,-1,-1,-1,-1,-1],"split_conditions":[5E-2,8.6095E-1,2.235E-3,-1.2001557E-1,4.87705E-1,7.5E-1,1.824E-1,1.9662304E-1,1.2986202E-2,1.1202551E-1,-2.0338364E-1,3.034865E-1,-3.4673465E-4],"split_indices":[5,1,0,0,10,12,1,0,0,0,0,0,0],"sum_hessian":[4.8983574E3,9.457359E0,4.8889E3,1.0008311E0,8.456529E0,9.186074E0,4.879714E3,7.062661E0,1.3938673E0,2.0001094E0,7.185965E0,1.9044269E0,4.8778096E3],"tree_param":{"num_deleted":"0","num_feature":"14","num_nodes":"13","size_leaf_vector":"0"}},{"base_weights":[-3.1456634E-4,2.6628822E-1,-1.6887827E-3,-4.7484112E-1,5.4903793E-1,1.6302821E-3,-1.1494087E-1,1.336863E-1,-6.3832766E-1,7.095058E-1,-1.8730672E-1,6.862709E-2,-7.0551024E-3,1.81314E0,-1.8261446E-1],"default_left":[true,true,true,true,true,true,true,false,false,false,false,false,false,false,false],"id":73,"leaf_child_counts":[0,0,0,0,0,0,0,0,0,0,0,0,0,0,0],"left_children":[1,3,5,7,9,11,13,-1,-1,-1,-1,-1,-1,-1,-1],"loss_changes":[1.7953814E0,5.5268264E0,1.832695E0,8.290986E-1,2.3370543E0,2.7570765E0,1.8444372E1,0E0,0E0,0E0,0E0,0E0,0E0,0E0,0E0],"parents":[2147483647,0,0,1,1,2,2,3,3,4,4,5,5,6,6],"right_children":[2,4,6,8,10,12,14,-1,-1,-1,-1,-1,-1,-1,-1],"split_conditions":[5.7871675E-1,5.785727E-1,9.166666E-1,8.0062497E-1,9.78275E-1,6.1898994E-1,2.6055E-2,4.0105894E-2,-1.9149831E-1,2.1285175E-1,-5.6192018E-2,2.0588128E-2,-2.116531E-3,5.4394203E-1,-5.478434E-2],"split_indices":[2,2,12,3,1,3,3,0,0,0,0,0,0,0,0],"sum_hessian":[4.898234E3,2.4130125E1,4.8741035E3,6.4760523E0,1.7654074E1,4.7362837E3,1.3782007E2,1.4100102E0,5.066042E0,1.4525133E1,3.1289403E0,5.4274994E2,4.1935337E3,3.7987206E0,1.3402135E2],"tree_param":{"num_deleted":"0","num_feature":"14","num_nodes":"15","size_leaf_vector":"0"}},{"base_weights":[-2.2925182E-4,-6.669478E-2,6.0096947E-3,8.669025E-1,-1.2185361E-1,3.094729E-1,-2.717696E-3,-1.5232284E-1,1.2246184E0,1.15107805E-1,-3.0174634E-1,-8.029979E-1,5.6105185E-1,-1.5645681E-1,1.0044041E-2],"default_left":[true,true,true,true,true,true,true,false,false,false,false,false,false,false,false],"id":74,"leaf_child_counts":[0,0,0,0,0,0,0,0,0,0,0,0,0,0,0],"left_children":[1,3,5,7,9,11,13,-1,-1,-1,-1,-1,-1,-1,-1],"loss_changes":[2.0292282E0,2.1730211E1,1.1849036E1,8.772446E0,1.6973972E1,3.545468E1,8.535346E0,0E0,0E0,0E0,0E0,0E0,0E0,0E0,0E0],"parents":[2147483647,0,0,1,1,2,2,3,3,4,4,5,5,6,6],"right_children":[2,4,6,8,10,12,14,-1,-1,-1,-1,-1,-1,-1,-1],"split_conditions":[5.23625E-1,1.5E-1,6.04105E-1,9.40325E-1,2.8671002E-1,5.833334E-1,4.2375E-2,-4.5696855E-2,3.6738554E-1,3.4532342E-2,-9.0523906E-2,-2.4089937E-1,1.6831556E-1,-4.6937045E-2,3.0132125E-3],"split_indices":[3,5,3,0,4,12,4,0,0,0,0,0,0,0,0],"sum_hessian":[4.8915737E3,4.189262E2,4.4726475E3,2.2549278E1,3.9637695E2,1.24071E2,4.3485767E3,6.0072503E0,1.6542028E1,1.7121123E2,2.2516571E2,2.2478827E1,1.0159218E2,3.3244092E2,4.0161357E3],"tree_param":{"num_deleted":"0","num_feature":"14","num_nodes":"15","size_leaf_vector":"0"}},{"base_weights":[-2.7753922E-4,3.9457798E-2,-9.315971E-3,2.6611644E-1,-9.7001955E-2,3.8124064E-1,-1.7821645E-2,-2.1972544E-1,4.323821E-1,-3.5788527E-1,9.640058E-2,-9.018384E-1,5.5813223E-1,-5.297842E-1,-1.2480501E-2],"default_left":[true,true,true,true,true,true,true,false,false,false,false,false,false,false,false],"id":75,"leaf_child_counts":[0,0,0,0,0,0,0,0,0,0,0,0,0,0,0],"left_children":[1,3,5,7,9,11,13,-1,-1,-1,-1,-1,-1,-1,-1],"loss_changes":[1.7561141E0,2.8052193E1,1.3239946E1,2.7623636E1,2.8609417E1,1.9784256E1,1.0656716E1,0E0,0E0,0E0,0E0,0E0,0E0,0E0,0E0],"parents":[2147483647,0,0,1,1,2,2,3,3,4,4,5,5,6,6],"right_children":[2,4,6,8,10,12,14,-1,-1,-1,-1,-1,-1,-1,-1],"split_conditions":[8.48065E-1,1.5E-1,2.6685E-2,2.6394E-1,6.5E-1,4.166667E-1,9.68785E-1,-6.591763E-2,1.2971464E-1,-1.07365586E-1,2.8920176E-2,-2.7055153E-1,1.6743967E-1,-1.5893526E-1,-3.7441505E-3],"split_indices":[1,5,0,0,5,12,7,0,0,0,0,0,0,0,0],"sum_hessian":[4.8876826E3,9.051293E2,3.9825532E3,3.3979016E2,5.653391E2,8.395071E1,3.8986025E3,8.6553185E1,2.53237E2,2.4031902E2,3.2502008E2,9.675007E0,7.42757E1,3.9239136E1,3.8593633E3],"tree_param":{"num_deleted":"0","num_feature":"14","num_nodes":"15","size_leaf_vector":"0"}},{"base_weights":[-6.3219306E-4,3.5800476E-2,-1.39126675E-2,1.7792483E-1,-5.1761344E-2,-1.737649E-1,6.9470485E-3,5.531714E-1,-1.21292226E-1,-1.899078E-1,8.914265E-2,1.6902985E-2,-2.7935743E-1,-2.258963E-2,1.6995595E-1],"default_left":[true,true,true,true,true,true,true,false,false,false,false,false,false,false,false],"id":76,"leaf_child_counts":[0,0,0,0,0,0,0,0,0,0,0,0,0,0,0],"left_children":[1,3,5,7,9,11,13,-1,-1,-1,-1,-1,-1,-1,-1],"loss_changes":[2.3557909E0,1.619595E1,1.189923E1,5.5767254E1,1.5698537E1,8.297892E0,1.5205285E1,0E0,0E0,0E0,0E0,0E0,0E0,0E0,0E0],"parents":[2147483647,0,0,1,1,2,2,3,3,4,4,5,5,6,6],"right_children":[2,4,6,8,10,12,14,-1,-1,-1,-1,-1,-1,-1,-1],"split_conditions":[9.6789503E-1,7.5E-1,7.0375E-1,7.9131997E-1,4.4511998E-1,5.954263E-1,8.5E-1,1.6595143E-1,-3.638767E-2,-5.6972343E-2,2.6742795E-2,5.070896E-3,-8.380723E-2,-6.7768893E-3,5.098679E-2],"split_indices":[4,5,3,3,10,2,5,0,0,0,0,0,0,0,0],"sum_hessian":[4.8668853E3,1.2996969E3,3.5671882E3,4.950819E2,8.0461505E2,4.1091708E2,3.156271E3,2.1926016E2,2.7582175E2,4.0610745E2,3.985076E2,1.467576E2,2.641595E2,2.6728252E3,4.8344574E2],"tree_param":{"num_deleted":"0","num_feature":"14","num_nodes":"15","size_leaf_vector":"0"}},{"base_weights":[-7.514386E-4,1.9088017E-2,-2.7602863E-2,1.417565E-1,-1.2504174E-2,6.1685465E-2,-8.678881E-2,2.4263218E-1,-3.7242386E-2,-3.703077E-2,1.7377102E-1,-3.34506E-1,9.24433E-2,6.470136E-1,-1.0540043E-1],"default_left":[true,true,true,true,true,true,true,false,false,false,false,false,false,false,false],"id":77,"leaf_child_counts":[0,0,0,0,0,0,0,0,0,0,0,0,0,0,0],"left_children":[1,3,5,7,9,11,13,-1,-1,-1,-1,-1,-1,-1,-1],"loss_changes":[2.5842555E0,1.0813371E1,1.0898339E1,1.0327145E1,1.014618E1,1.0050993E1,1.7003223E1,0E0,0E0,0E0,0E0,0E0,0E0,0E0,0E0],"parents":[2147483647,0,0,1,1,2,2,3,3,4,4,5,5,6,6],"right_children":[2,4,6,8,10,12,14,-1,-1,-1,-1,-1,-1,-1,-1],"split_conditions":[4.53975E-1,7.5E-1,8.6561E-1,1.5E-1,4.46525E-1,8.951E-2,5.15705E-1,7.2789654E-2,-1.11727165E-2,-1.1109232E-2,5.213131E-2,-1.003518E-1,2.7732993E-2,1.9410409E-1,-3.162013E-2],"split_indices":[10,12,3,5,10,11,4,0,0,0,0,0,0,0,0],"sum_hessian":[4.8490903E3,2.7888262E3,2.0602642E3,5.704303E2,2.2183958E3,8.2126135E2,1.2390027E3,3.646017E2,2.0582855E2,1.9609955E3,2.5740033E2,5.8453014E1,7.6280835E2,2.9812634E1,1.2091901E3],"tree_param":{"num_deleted":"0","num_feature":"14","num_nodes":"15","size_leaf_vector":"0"}},{"base_weights":[-7.753665E-4,-5.8409728E-2,7.057271E-3,2.6757583E-1,-1.4293034E-1,1.0237855E0,2.3825306E-3,-8.25797E-1,4.0419963E-1,-1.8901609E-1,7.1981144E-1,1.5499271E0,1.2771253E-1,5.177515E-1,-3.282029E-3],"default_left":[true,true,true,true,true,true,true,false,false,false,false,false,false,false,false],"id":78,"leaf_child_counts":[0,0,0,0,0,0,0,0,0,0,0,0,0,0,0],"left_children":[1,3,5,7,9,11,13,-1,-1,-1,-1,-1,-1,-1,-1],"loss_changes":[2.1838918E0,1.5985539E1,2.0240427E1,1.8187588E1,1.843676E1,8.990967E0,1.2381239E1,0E0,0E0,0E0,0E0,0E0,0E0,0E0,0E0],"parents":[2147483647,0,0,1,1,2,2,3,3,4,4,5,5,6,6],"right_children":[2,4,6,8,10,12,14,-1,-1,-1,-1,-1,-1,-1,-1],"split_conditions":[7.148E-2,8.23125E-1,1.52225E-1,4.2E-4,8.7734497E-1,6.0456306E-1,6.07E-3,-2.4773912E-1,1.2125989E-1,-5.670483E-2,2.1594344E-1,4.6497816E-1,3.831376E-2,1.5532546E-1,-9.846088E-4],"split_indices":[4,11,4,3,3,9,3,0,0,0,0,0,0,0,0],"sum_hessian":[4.835816E3,5.7779675E2,4.2580195E3,1.18518745E2,4.5927798E2,1.8490278E1,4.239529E3,1.2604351E1,1.059144E2,4.3672974E2,2.2548225E1,1.1190142E1,7.3001356E0,4.5108376E1,4.1944204E3],"tree_param":{"num_deleted":"0","num_feature":"14","num_nodes":"15","size_leaf_vector":"0"}},{"base_weights":[-5.2020134E-4,2.5248268E-1,-2.0578909E-3,-2.3800115E-1,6.492548E-1,-5.499506E-2,5.91883E-3,5.3647184E-1,-8.114524E-1,1.2195722E0,3.4151492E-1,3.516859E-1,-1.3156788E-1,-1.09134644E-1,2.107286E-2],"default_left":[true,true,true,true,true,true,true,false,false,false,false,false,false,false,false],"id":79,"leaf_child_counts":[0,0,0,0,0,0,0,0,0,0,0,0,0,0,0],"left_children":[1,3,5,7,9,11,13,-1,-1,-1,-1,-1,-1,-1,-1],"loss_changes":[1.8801113E0,5.836078E0,2.0285344E0,6.558553E0,2.4631267E0,1.9636126E1,7.28167E0,0E0,0E0,0E0,0E0,0E0,0E0,0E0,0E0],"parents":[2147483647,0,0,1,1,2,2,3,3,4,4,5,5,6,6],"right_children":[2,4,6,8,10,12,14,-1,-1,-1,-1,-1,-1,-1,-1],"split_conditions":[5.3454995E-1,6.22865E-1,7.5E-1,2.1375E-2,6.34235E-1,7.0490503E-1,6.061E-2,1.6094156E-1,-2.4343573E-1,3.6587167E-1,1.02454476E-1,1.0550578E-1,-3.9470367E-2,-3.2740396E-2,6.3218586E-3],"split_indices":[1,0,13,0,11,4,4,0,0,0,0,0,0,0,0],"sum_hessian":[4.8303604E3,2.819452E1,4.802166E3,1.2787258E1,1.5407262E1,6.2807544E2,4.1740903E3,5.467554E0,7.3197045E0,4.3614435E0,1.1045819E1,9.895089E1,5.291246E2,4.850743E2,3.689016E3],"tree_param":{"num_deleted":"0","num_feature":"14","num_nodes":"15","size_leaf_vector":"0"}}]},"name":"gbtree"},"learner_model_param":{"base_score":"5E-1","num_class":"0","num_feature":"14"},"objective":{"name":"binary:logistic","reg_loss_param":{"scale_pos_weight":"0.193920493"}}},"version":[1,2,0]}