{"learner":{"attributes":{},"gradient_booster":{"model":{"gbtree_model_param":{"num_trees":"20","size_leaf_vector":"0"},"tree_info":[0,0,0,0,0,0,0,0,0,0,0,0,0,0,0,0,0,0,0,0],"trees":[{"base_weights":[-1.1907706E-2,1.4318033E0,-7.8572786E-1,1.628587E0,8.3801204E-1,9.187129E-1,-1.1550426E0,1.9444622E0,1.5086329E0,1.6869925E0,6.750783E-1,1.3279996E0,-1.785626E0,-1.3094683E0,8.6586183E-1,1.9457072E0,5.41519E-1,1.7772158E0,1.4144647E0,1.0356416E-1,1.7573904E0,4.510235E-1,1.513817E0,1.5873954E0,3.545774E-1,-2.86601E-1,-1.9326736E0,1.6604471E0,-1.3856965E0,1.7489378E-1,1.1947278E0],"default_left":[true,true,true,true,true,true,true,true,true,true,true,true,true,true,true,false,false,false,false,false,false,false,false,false,false,false,false,false,false,false,false],"id":0,"leaf_child_counts":[0,0,0,0,0,0,0,0,0,0,0,0,0,0,0,0,0,0,0,0,0,0,0,0,0,0,0,0,0,0,0],"left_children":[1,3,5,7,9,11,13,15,17,19,21,23,25,27,29,-1,-1,-1,-1,-1,-1,-1,-1,-1,-1,-1,-1,-1,-1,-1,-1],"loss_changes":[2.3760459E4,8.6585156E2,8.717186E3,2.0824219E2,2.5468652E2,2.7324224E3,3.5529521E3,1.6196289E0,9.976172E1,3.2937683E1,2.9121857E2,5.405117E2,7.100781E1,2.3960781E3,1.8352112E2,0E0,0E0,0E0,0E0,0E0,0E0,0E0,0E0,0E0,0E0,0E0,0E0,0E0,0E0,0E0,0E0],"parents":[2147483647,0,0,1,1,2,2,3,3,4,4,5,5,6,6,7,7,8,8,9,9,10,10,11,11,12,12,13,13,14,14],"right_children":[2,4,6,8,10,12,14,16,18,20,22,24,26,28,30,-1,-1,-1,-1,-1,-1,-1,-1,-1,-1,-1,-1,-1,-1,-1,-1],"split_conditions":[8.98715E-1,8.45285E-1,5.833334E-1,3.68695E-1,7.4891996E-1,1.5E-1,8.5E-1,7.6295E-1,2.9445E-2,4.166667E-1,8.5E-1,9.70675E-1,3.3333334E-1,5.60935E-1,9.5E-1,5.8371216E-1,1.6245571E-1,5.331648E-1,4.2433944E-1,3.1069249E-2,5.2721715E-1,1.3530706E-1,4.541451E-1,4.7621864E-1,1.0637322E-1,-8.59803E-2,-5.798021E-1,4.9813417E-1,-4.15709E-1,5.2468136E-2,3.5841835E-1],"split_indices":[3,3,12,11,0,5,5,9,4,12,5,0,12,0,5,0,0,0,0,0,0,0,0,0,0,0,0,0,0,0,0],"sum_hessian":[2.1266377E4,7.4207266E3,1.384565E4,5.57231E3,1.8484167E3,2.465505E3,1.13801455E4,1.5294899E3,4.04282E3,2.9611746E2,1.5522993E3,2.141856E3,3.2364908E2,1.0572603E4,8.0754346E2,1.5277473E3,1.7425793E0,1.0448551E3,2.997965E3,1.27099285E1,2.8340753E2,1.226262E3,3.2603732E2,1.6906924E3,4.5116348E2,2.9175795E1,2.944733E2,2.6405447E2,1.0308548E4,2.6090256E2,5.466409E2],"tree_param":{"num_deleted":"0","num_feature":"14","num_nodes":"31","size_leaf_vector":"0"}},{"base_weights":[-7.750068E-3,1.013981E0,-6.1558306E-1,1.1857104E0,3.855601E-1,1.6913784E-1,-1.085335E0,1.5084388E0,1.0805103E0,7.639538E-1,4.329753E-2,9.6445745E-1,-3.9099804E-1,-1.2519435E0,5.795047E-1,1.5094042E0,4.403623E-1,1.302031E0,9.60167E-1,1.2935919E0,5.433229E-1,-3.8873702E-1,1.0996443E0,1.1431987E0,1.6463941E-2,1.3270881E0,-5.81466E-1,-6.3965523E-1,-1.348393E0,7.8558713E-1,-3.3582798E-1],"default_left":[true,true,true,true,true,true,true,true,true,true,true,true,true,true,true,false,false,false,false,false,false,false,false,false,false,false,false,false,false,false,false],"id":1,"leaf_child_counts":[0,0,0,0,0,0,0,0,0,0,0,0,0,0,0,0,0,0,0,0,0,0,0,0,0,0,0,0,0,0,0],"left_children":[1,3,5,7,9,11,13,15,17,19,21,23,25,27,29,-1,-1,-1,-1,-1,-1,-1,-1,-1,-1,-1,-1,-1,-1,-1,-1],"loss_changes":[1.2619387E4,8.174912E2,4.696595E3,2.0045215E2,2.1083084E2,2.1260845E3,2.2113408E3,8.4155273E-1,1.1851123E2,8.9649994E1,3.9106854E2,3.3415344E2,9.1720776E2,4.269922E2,1.371549E2,0E0,0E0,0E0,0E0,0E0,0E0,0E0,0E0,0E0,0E0,0E0,0E0,0E0,0E0,0E0,0E0],"parents":[2147483647,0,0,1,1,2,2,3,3,4,4,5,5,6,6,7,7,8,8,9,9,10,10,11,11,12,12,13,13,14,14],"right_children":[2,4,6,8,10,12,14,16,18,20,22,24,26,28,30,-1,-1,-1,-1,-1,-1,-1,-1,-1,-1,-1,-1,-1,-1,-1,-1],"split_conditions":[9.09225E-1,8.69585E-1,1.5E-1,2.96585E-1,2.5E-1,5.833334E-1,8.5E-1,7.6295E-1,6.7567503E-1,5.833334E-1,8.5E-1,9.89125E-1,7.67215E-1,9.33535E-1,6.6159505E-1,4.5282128E-1,1.321087E-1,3.9060932E-1,2.8805012E-1,3.880776E-1,1.6299689E-1,-1.16621114E-1,3.298933E-1,3.4295964E-1,4.9391827E-3,3.9812645E-1,-1.7443982E-1,-1.9189657E-1,-4.0451792E-1,2.3567615E-1,-1.007484E-1],"split_indices":[3,3,5,11,5,12,5,9,4,12,5,0,0,3,9,0,0,0,0,0,0,0,0,0,0,0,0,0,0,0,0],"sum_hessian":[2.0317701E4,7.578323E3,1.2739378E4,5.9511562E3,1.6271671E3,4.770648E3,7.96873E3,1.4597274E3,4.4914287E3,7.722082E2,8.5495886E2,1.9711505E3,2.7994976E3,7.2440327E3,7.2469714E2,1.4579962E3,1.7311323E0,1.5776202E3,2.9138083E3,2.2565242E2,5.465558E2,6.072373E2,2.4772157E2,1.6582808E3,3.1286975E2,2.7878595E2,2.5207114E3,9.8685187E2,6.257181E3,5.916353E2,1.3306184E2],"tree_param":{"num_deleted":"0","num_feature":"14","num_nodes":"31","size_leaf_vector":"0"}},{"base_weights":[-5.5298214E-3,7.3705864E-1,-5.251717E-1,9.4656503E-1,2.4177912E-1,8.7450534E-2,-9.128301E-1,1.2801777E0,8.400122E-1,6.0889274E-1,-8.269617E-2,1.0286287E0,-2.1844573E-1,-1.1093552E0,4.2337272E-2,1.3372977E0,1.2115443E0,1.2896467E0,7.779112E-1,9.7867787E-1,3.6139184E-1,-4.9944824E-1,6.234295E-1,-1.6640586E0,1.1860441E0,9.18358E-1,-4.399177E-1,-8.699194E-1,-1.2439398E0,-2.8986678E-1,6.5414786E-1],"default_left":[true,true,true,true,true,true,true,true,true,true,true,true,true,true,true,false,false,false,false,false,false,false,false,false,false,false,false,false,false,false,false],"id":2,"leaf_child_counts":[0,0,0,0,0,0,0,0,0,0,0,0,0,0,0,0,0,0,0,0,0,0,0,0,0,0,0,0,0,0,0],"left_children":[1,3,5,7,9,11,13,15,17,19,21,23,25,27,29,-1,-1,-1,-1,-1,-1,-1,-1,-1,-1,-1,-1,-1,-1,-1,-1],"loss_changes":[7.165097E3,7.929717E2,2.5943845E3,1.8986963E2,2.708912E2,1.2193434E3,1.2559414E3,3.4699707E0,1.12758545E2,9.7289185E1,3.5574698E2,4.4231372E2,8.052185E2,1.777251E2,2.3242337E2,0E0,0E0,0E0,0E0,0E0,0E0,0E0,0E0,0E0,0E0,0E0,0E0,0E0,0E0,0E0,0E0],"parents":[2147483647,0,0,1,1,2,2,3,3,4,4,5,5,6,6,7,7,8,8,9,9,10,10,11,11,12,12,13,13,14,14],"right_children":[2,4,6,8,10,12,14,16,18,20,22,24,26,28,30,-1,-1,-1,-1,-1,-1,-1,-1,-1,-1,-1,-1,-1,-1,-1,-1],"split_conditions":[9.22205E-1,8.71055E-1,1.5E-1,3.6793E-1,2.5E-1,7.8133E-1,6.5E-1,7.84125E-1,4.166667E-1,9.10895E-1,6.5E-1,2.5E-1,8.5502E-1,9.57025E-1,9.5E-1,4.0118933E-1,3.6346328E-1,3.8689405E-1,2.3337336E-1,2.9360336E-1,1.08417556E-1,-1.4983448E-1,1.8702886E-1,-4.992176E-1,3.5581324E-1,2.7550742E-1,-1.3197532E-1,-2.6097584E-1,-3.7318194E-1,-8.696003E-2,1.9624437E-1],"split_indices":[3,3,5,11,5,0,5,0,12,1,5,12,1,3,5,0,0,0,0,0,0,0,0,0,0,0,0,0,0,0,0],"sum_hessian":[1.8566193E4,7.6432593E3,1.0922934E4,5.370565E3,2.272694E3,4.2334785E3,6.6894546E3,1.2974104E3,4.0731548E3,1.065877E3,1.2068171E3,1.0378552E3,3.1956235E3,5.54783E3,1.1416243E3,6.980099E2,5.994006E2,4.9189346E2,3.5812612E3,4.2617896E2,6.39698E2,7.5909534E2,4.4772183E2,5.6793663E1,9.810615E2,5.205454E2,2.6750781E3,1.998973E3,3.5488572E3,7.402213E2,4.0140295E2],"tree_param":{"num_deleted":"0","num_feature":"14","num_nodes":"31","size_leaf_vector":"0"}},{"base_weights":[-4.389722E-3,7.4765944E-1,-3.3180928E-1,1.1215851E0,6.3319635E-1,4.9425846E-1,-5.085402E-1,1.1800724E0,9.497315E-1,9.209105E-1,5.042346E-1,6.9292986E-1,-9.9472296E-1,-9.928747E-2,-6.944914E-1,1.1837596E0,5.086077E-1,1.1215497E0,7.024251E-1,1.095179E0,5.872411E-1,3.061073E-1,1.0011951E0,9.1710657E-1,2.0875017E-1,3.2112136E-1,-1.2140853E0,1.5500656E0,-1.521783E-1,-7.7413374E-1,9.0117216E-2],"default_left":[true,true,true,true,true,true,true,true,true,true,true,true,true,true,true,false,false,false,false,false,false,false,false,false,false,false,false,false,false,false,false],"id":3,"leaf_child_counts":[0,0,0,0,0,0,0,0,0,0,0,0,0,0,0,0,0,0,0,0,0,0,0,0,0,0,0,0,0,0,0],"left_children":[1,3,5,7,9,11,13,15,17,19,21,23,25,27,29,-1,-1,-1,-1,-1,-1,-1,-1,-1,-1,-1,-1,-1,-1,-1,-1],"loss_changes":[4.1457485E3,2.1786353E2,1.712695E3,1.089624E1,1.4469446E2,6.1236035E2,7.352949E2,1.5960693E0,1.2329315E1,6.969409E1,2.6589203E2,1.9788684E2,7.076901E1,2.6369116E2,4.1523828E2,0E0,0E0,0E0,0E0,0E0,0E0,0E0,0E0,0E0,0E0,0E0,0E0,0E0,0E0,0E0,0E0],"parents":[2147483647,0,0,1,1,2,2,3,3,4,4,5,5,6,6,7,7,8,8,9,9,10,10,11,11,12,12,13,13,14,14],"right_children":[2,4,6,8,10,12,14,16,18,20,22,24,26,28,30,-1,-1,-1,-1,-1,-1,-1,-1,-1,-1,-1,-1,-1,-1,-1,-1],"split_conditions":[8.82415E-1,4.7341502E-1,5.833334E-1,7.9964E-1,6.9806004E-1,1.5E-1,9.43705E-1,7.3028314E-1,9.44255E-1,9.5E-1,9.5E-1,6.0832465E-1,3.3333334E-1,4.46325E-1,7.5E-1,3.5512787E-1,1.5258232E-1,3.3646494E-1,2.1072754E-1,3.285537E-1,1.7617235E-1,9.18322E-2,3.0035853E-1,2.7513197E-1,6.262506E-2,9.633642E-2,-3.6422563E-1,4.650197E-1,-4.5653492E-2,-2.3224013E-1,2.7035166E-2],"split_indices":[3,11,12,3,4,5,3,9,0,5,5,9,12,4,5,0,0,0,0,0,0,0,0,0,0,0,0,0,0,0,0],"sum_hessian":[1.6834504E4,5.105776E3,1.1728728E4,1.1945724E3,3.9112036E3,2.0667278E3,9.662E3,8.868741E2,3.0769824E2,1.2086223E3,2.7025813E3,1.8239031E3,2.4282458E2,3.0190413E3,6.642959E3,8.81272E2,5.6021614E0,1.7947287E2,1.2822537E2,7.924566E2,4.161657E2,1.9333949E3,7.691864E2,1.2460731E3,5.7782996E2,3.463039E1,2.081942E2,9.292582E1,2.9261152E3,6.0308096E3,6.121494E2],"tree_param":{"num_deleted":"0","num_feature":"14","num_nodes":"31","size_leaf_vector":"0"}},{"base_weights":[-1.6014132E-3,4.571319E-1,-3.440162E-1,7.532448E-1,2.1542266E-1,1.145468E-1,-6.687295E-1,1.1049519E0,6.553833E-1,1.0826359E0,1.4031062E-1,6.98413E-1,-1.3652772E-1,-8.464309E-1,4.4908367E-2,1.109927E0,3.8921028E-1,1.0629199E0,5.9333676E-1,1.2240461E0,8.606035E-1,4.392453E-2,7.504301E-1,-6.461933E-1,8.040757E-1,1.3841738E0,-2.6782024E-1,-6.638523E-1,-1.0157367E0,2.1694323E-1,-5.154272E-1],"default_left":[true,true,true,true,true,true,true,true,true,true,true,true,true,true,true,false,false,false,false,false,false,false,false,false,false,false,false,false,false,false,false],"id":4,"leaf_child_counts":[0,0,0,0,0,0,0,0,0,0,0,0,0,0,0,0,0,0,0,0,0,0,0,0,0,0,0,0,0,0,0],"left_children":[1,3,5,7,9,11,13,15,17,19,21,23,25,27,29,-1,-1,-1,-1,-1,-1,-1,-1,-1,-1,-1,-1,-1,-1,-1,-1],"loss_changes":[2.421001E3,4.7132776E2,1.3141772E3,1.0116101E2,2.361917E2,5.365487E2,6.552693E2,1.8573608E0,5.7989624E1,8.022491E0,1.9639893E2,1.5688629E2,5.1146326E2,1.2720117E2,9.950086E1,0E0,0E0,0E0,0E0,0E0,0E0,0E0,0E0,0E0,0E0,0E0,0E0,0E0,0E0,0E0,0E0],"parents":[2147483647,0,0,1,1,2,2,3,3,4,4,5,5,6,6,7,7,8,8,9,9,10,10,11,11,12,12,13,13,14,14],"right_children":[2,4,6,8,10,12,14,16,18,20,22,24,26,28,30,-1,-1,-1,-1,-1,-1,-1,-1,-1,-1,-1,-1,-1,-1,-1,-1],"split_conditions":[9.26265E-1,8.07605E-1,1.5E-1,3.01095E-1,3.0815E-2,8.92625E-1,6.5E-1,7.3028314E-1,4.166667E-1,1.5E-1,9.5E-1,2.5E-1,2.5E-1,9.63765E-1,7.991736E-1,3.3297813E-1,1.1676309E-1,3.1887597E-1,1.7800103E-1,3.6721385E-1,2.5818107E-1,1.31773595E-2,2.2512904E-1,-1.9385801E-1,2.4122272E-1,4.1525215E-1,-8.034608E-2,-1.9915569E-1,-3.0472103E-1,6.5082975E-2,-1.5462816E-1],"split_indices":[3,3,5,11,11,0,5,9,12,5,5,12,12,3,8,0,0,0,0,0,0,0,0,0,0,0,0,0,0,0,0],"sum_hessian":[1.5410822E4,6.586521E3,8.824302E3,2.959178E3,3.627343E3,3.6584514E3,5.16585E3,6.419097E2,2.317268E3,2.8806363E2,3.3392793E3,1.0995948E3,2.5588564E3,4.135814E3,1.030036E3,6.369316E2,4.978127E0,3.040519E2,2.0132163E3,1.7322527E2,1.1483836E2,2.884639E3,4.5464044E2,7.974079E1,1.01985406E3,2.0260718E2,2.3562493E3,1.9922747E3,2.1435393E3,7.88548E2,2.4148808E2],"tree_param":{"num_deleted":"0","num_feature":"14","num_nodes":"31","size_leaf_vector":"0"}},{"base_weights":[-1.2539623E-3,4.9801296E-1,-2.0239735E-1,1.1129684E0,4.2042115E-1,1.4558491E-1,-4.4351938E-1,9.1816723E-1,1.1449782E0,8.399129E-1,3.2526264E-1,1.0133797E0,1.2265443E-3,-6.107277E-1,1.0462402E-1,1.0485668E0,-9.5916E-2,1.1475573E0,4.408516E-1,9.616217E-1,5.666426E-1,1.9365445E-1,6.492417E-1,2.3980902E-1,1.1885692E0,7.8123164E-1,-1.8122756E-1,1.5425053E0,-6.4109385E-1,-1.2923947E-1,5.0225693E-1],"default_left":[true,true,true,true,true,true,true,true,true,true,true,true,true,true,true,false,false,false,false,false,false,false,false,false,false,false,false,false,false,false,false],"id":5,"leaf_child_counts":[0,0,0,0,0,0,0,0,0,0,0,0,0,0,0,0,0,0,0,0,0,0,0,0,0,0,0,0,0,0,0],"left_children":[1,3,5,7,9,11,13,15,17,19,21,23,25,27,29,-1,-1,-1,-1,-1,-1,-1,-1,-1,-1,-1,-1,-1,-1,-1,-1],"loss_changes":[1.419447E3,1.93216E2,8.4544995E2,1.7807617E0,1.436706E2,5.1670496E2,5.455652E2,9.244041E0,1.951294E-1,2.1609528E1,1.25267456E2,7.943866E1,5.0356052E2,2.9919263E2,1.2951225E2,0E0,0E0,0E0,0E0,0E0,0E0,0E0,0E0,0E0,0E0,0E0,0E0,0E0,0E0,0E0,0E0],"parents":[2147483647,0,0,1,1,2,2,3,3,4,4,5,5,6,6,7,7,8,8,9,9,10,10,11,11,12,12,13,13,14,14],"right_children":[2,4,6,8,10,12,14,16,18,20,22,24,26,28,30,-1,-1,-1,-1,-1,-1,-1,-1,-1,-1,-1,-1,-1,-1,-1,-1],"split_conditions":[8.82215E-1,2.04615E-1,1.5E-1,5.833334E-1,2.7605E-2,4.6245497E-1,6.5E-1,4.0675E-2,5.03845E-1,9.5E-1,9.5E-1,2.74925E-1,7.50635E-1,4.1061E-1,9.5E-1,3.1457007E-1,-2.8774802E-2,3.442672E-1,1.3225548E-1,2.884865E-1,1.6999277E-1,5.8096338E-2,1.9477251E-1,7.194271E-2,3.5657078E-1,2.343695E-1,-5.4368272E-2,4.627516E-1,-1.9232817E-1,-3.877184E-2,1.5067708E-1],"split_indices":[3,0,5,12,4,11,5,0,10,5,5,0,0,4,5,0,0,0,0,0,0,0,0,0,0,0,0,0,0,0,0],"sum_hessian":[1.4132503E4,4.0581394E3,1.0074363E4,4.531719E2,3.6049675E3,4.123627E3,5.9507363E3,6.814504E1,3.8502686E2,6.651092E2,2.9398584E3,5.872738E2,3.5363533E3,4.559707E3,1.3910294E3,6.035063E1,7.79441E0,3.8299426E2,2.032613E0,4.5841974E2,2.0668944E2,2.0917402E3,8.481181E2,1.08878105E2,4.7839572E2,6.69767E2,2.8665864E3,6.2716965E1,4.4969897E3,8.7631134E2,5.14718E2],"tree_param":{"num_deleted":"0","num_feature":"14","num_nodes":"31","size_leaf_vector":"0"}},{"base_weights":[2.948669E-4,2.2523533E-1,-3.337174E-1,9.2871594E-1,1.5759166E-1,-4.2625193E-2,-6.1544454E-1,-7.425789E-1,9.3624336E-1,4.013786E-1,8.922439E-3,4.3407658E-1,-3.032509E-1,-7.4430764E-1,-3.8553197E-2,5.881349E-1,-1.5541215E0,1.0278766E0,8.464446E-1,7.9374903E-1,2.9845917E-1,6.184699E-1,-1.705403E-1,6.775933E-1,4.6617173E-2,-1.3052735E-1,-9.577386E-1,-6.2499976E-1,-9.375265E-1,-2.5884924E0,3.4192182E-2],"default_left":[true,true,true,true,true,true,true,true,true,true,true,true,true,true,true,false,false,false,false,false,false,false,false,false,false,false,false,false,false,false,false],"id":6,"leaf_child_counts":[0,0,0,0,0,0,0,0,0,0,0,0,0,0,0,0,0,0,0,0,0,0,0,0,0,0,0,0,0,0,0],"left_children":[1,3,5,7,9,11,13,15,17,19,21,23,25,27,29,-1,-1,-1,-1,-1,-1,-1,-1,-1,-1,-1,-1,-1,-1,-1,-1],"loss_changes":[9.8376276E2,3.7218277E2,4.3210156E2,9.327332E0,2.5874628E2,3.2224442E2,1.9902777E2,4.838727E0,4.7543335E0,1.0897467E2,4.8533807E2,8.647531E1,1.8943028E2,4.9868774E1,9.0975075E1,0E0,0E0,0E0,0E0,0E0,0E0,0E0,0E0,0E0,0E0,0E0,0E0,0E0,0E0,0E0,0E0],"parents":[2147483647,0,0,1,1,2,2,3,3,4,4,5,5,6,6,7,7,8,8,9,9,10,10,11,11,12,12,13,13,14,14],"right_children":[2,4,6,8,10,12,14,16,18,20,22,24,26,28,30,-1,-1,-1,-1,-1,-1,-1,-1,-1,-1,-1,-1,-1,-1,-1,-1],"split_conditions":[9.5411503E-1,8.347E-2,1.5E-1,2.5E-1,2.5E-1,9.12395E-1,7.5E-1,8.5659504E-1,7.9973E-1,8.63675E-1,6.9806004E-1,9.85765E-1,6.4151216E-1,9.77625E-1,7.5E-1,1.7644048E-1,-4.6623647E-1,3.08363E-1,2.539334E-1,2.3812471E-1,8.9537755E-2,1.8554097E-1,-5.1162094E-2,2.0327799E-1,1.3985152E-2,-3.9158206E-2,-2.873216E-1,-1.8749994E-1,-2.8125796E-1,-7.7654773E-1,1.0257655E-2],"split_indices":[3,11,5,13,5,1,5,3,3,1,4,0,2,3,12,0,0,0,0,0,0,0,0,0,0,0,0,0,0,0,0],"sum_hessian":[1.309164E4,7.8233394E3,5.2683E3,6.8515326E2,7.1381865E3,2.5916501E3,2.6766497E3,2.6342075E0,6.8251904E2,2.7034253E3,4.434761E3,9.158444E2,1.6758058E3,2.1876853E3,4.889643E2,1.1021926E0,1.5320147E0,3.3263846E2,3.4988058E2,5.6036707E2,2.143058E3,1.0081433E3,3.4266177E3,5.619268E2,3.5391763E2,1.3268428E3,3.4896304E2,1.355149E3,8.3253625E2,1.2603172E1,4.763611E2],"tree_param":{"num_deleted":"0","num_feature":"14","num_nodes":"31","size_leaf_vector":"0"}},{"base_weights":[-1.8091107E-4,2.3724088E-1,-2.0487781E-1,8.0895245E-1,1.7504819E-1,5.4742885E-1,-2.6728493E-1,9.597203E-1,6.361951E-1,4.1463733E-1,7.322085E-2,-1.4763488E0,7.931453E-1,1.14808E0,-3.1260937E-1,9.7143257E-1,-1.485691E-1,9.1158825E-1,3.3417454E-1,6.632598E-1,2.6573968E-1,2.776842E-1,-7.63129E-2,-2.2830498E0,1.3495446E0,2.2613722E-1,1.0193001E0,-6.5457076E-1,1.2127044E0,9.49648E-1,-3.6335105E-1],"default_left":[true,true,true,true,true,true,true,true,true,true,true,true,true,true,true,false,false,false,false,false,false,false,false,false,false,false,false,false,false,false,false],"id":7,"leaf_child_counts":[0,0,0,0,0,0,0,0,0,0,0,0,0,0,0,0,0,0,0,0,0,0,0,0,0,0,0,0,0,0,0],"left_children":[1,3,5,7,9,11,13,15,17,19,21,23,25,27,29,-1,-1,-1,-1,-1,-1,-1,-1,-1,-1,-1,-1,-1,-1,-1,-1],"loss_changes":[6.015181E2,2.0361212E2,3.1219876E2,1.4025909E1,1.2608888E2,2.5451134E2,3.9412375E2,4.013855E0,2.1723312E1,5.6892395E1,1.10972534E2,1.2961995E2,5.8108337E1,2.3006775E1,3.8133765E2,0E0,0E0,0E0,0E0,0E0,0E0,0E0,0E0,0E0,0E0,0E0,0E0,0E0,0E0,0E0,0E0],"parents":[2147483647,0,0,1,1,2,2,3,3,4,4,5,5,6,6,7,7,8,8,9,9,10,10,11,11,12,12,13,13,14,14],"right_children":[2,4,6,8,10,12,14,16,18,20,22,24,26,28,30,-1,-1,-1,-1,-1,-1,-1,-1,-1,-1,-1,-1,-1,-1,-1,-1],"split_conditions":[9.32065E-1,1.99445E-1,6.8290496E-1,8.03115E-1,7.7953E-1,2.5E-1,2.5E-1,7.2998565E-1,1.5E-1,4.5E-1,2.5E-1,1.42635E-1,7.14845E-1,9.5535004E-1,4.6180002E-2,2.914298E-1,-4.4570733E-2,2.7347648E-1,1.0025237E-1,1.9897795E-1,7.9721905E-2,8.330527E-2,-2.289387E-2,-6.8491495E-1,4.0486342E-1,6.784117E-2,3.0579004E-1,-1.9637124E-1,3.6381134E-1,2.848944E-1,-1.0900532E-1],"split_indices":[3,11,0,3,3,12,12,9,5,5,5,0,11,4,11,0,0,0,0,0,0,0,0,0,0,0,0,0,0,0,0],"sum_hessian":[1.2375042E4,5.729457E3,6.6455845E3,5.6094214E2,5.168515E3,5.084568E2,6.137128E3,2.9710175E2,2.638404E2,1.5405916E3,3.6279236E3,5.4507996E1,4.539488E2,1.8967705E2,5.9474507E3,2.9411707E2,2.9847002E0,1.36948E2,1.26892395E2,5.7575977E2,9.6483185E2,1.5321278E3,2.0957957E3,4.255268E1,1.1955316E1,1.3000482E2,3.2394397E2,6.2485824E0,1.8342847E2,2.2915831E2,5.7182925E3],"tree_param":{"num_deleted":"0","num_feature":"14","num_nodes":"31","size_leaf_vector":"0"}},{"base_weights":[2.273814E-3,5.4906446E-1,-5.599793E-2,-7.0816284E-1,6.676419E-1,-1.2937678E-1,4.5493504E-1,8.269702E-1,-1.3422087E0,8.703531E-1,4.2692664E-1,8.012519E-1,-1.7596711E-1,-1.5263865E0,4.977506E-1,9.383094E-1,9.309548E-2,-1.64902E0,1.0851926E0,5.8776015E-1,1.1141227E0,7.0016444E-1,-1.1012118E-2,3.3535746E-1,8.888692E-1,4.288538E-2,-4.0968302E-1,7.8394616E-1,-2.5973566E0,6.157338E-1,2.1682028E-2],"default_left":[true,true,true,true,true,true,true,true,true,true,true,true,true,true,true,false,false,false,false,false,false,false,false,false,false,false,false,false,false,false,false],"id":8,"leaf_child_counts":[0,0,0,0,0,0,0,0,0,0,0,0,0,0,0,0,0,0,0,0,0,0,0,0,0,0,0,0,0,0,0],"left_children":[1,3,5,7,9,11,13,15,17,19,21,23,25,27,29,-1,-1,-1,-1,-1,-1,-1,-1,-1,-1,-1,-1,-1,-1,-1,-1],"loss_changes":[3.743193E2,1.691423E2,3.9809296E2,9.6496826E1,5.0103302E1,4.0268506E2,1.13880066E2,2.303749E0,5.372522E1,3.7961548E1,5.6827965E1,1.7777802E1,4.5229584E2,7.243534E1,7.334326E1,0E0,0E0,0E0,0E0,0E0,0E0,0E0,0E0,0E0,0E0,0E0,0E0,0E0,0E0,0E0,0E0],"parents":[2147483647,0,0,1,1,2,2,3,3,4,4,5,5,6,6,7,7,8,8,9,9,10,10,11,11,12,12,13,13,14,14],"right_children":[2,4,6,8,10,12,14,16,18,20,22,24,26,28,30,-1,-1,-1,-1,-1,-1,-1,-1,-1,-1,-1,-1,-1,-1,-1,-1],"split_conditions":[7.4834E-1,2.5E-1,9.5E-1,7.9867E-1,1.54075E-1,2.49215E-1,7.7682495E-1,7.7443004E-1,3.1699002E-1,8.20485E-1,7.5E-1,2.64E-1,2.5E-1,7.3170996E-1,6.4468503E-1,2.8149283E-1,2.7928645E-2,-4.94706E-1,3.2555777E-1,1.7632805E-1,3.3423683E-1,2.1004935E-1,-3.3036356E-3,1.0060724E-1,2.6666078E-1,1.2865615E-2,-1.2290491E-1,2.3518385E-1,-7.79207E-1,1.8472014E-1,6.504609E-3],"split_indices":[0,12,5,1,0,4,0,1,0,11,12,3,5,11,2,0,0,0,0,0,0,0,0,0,0,0,0,0,0,0,0],"sum_hessian":[1.1746012E4,1.130412E3,1.0615601E4,9.699905E1,1.033413E3,9.283129E3,1.3324717E3,2.8263655E1,6.87354E1,5.595711E2,4.7384183E2,4.4181436E2,8.841314E3,2.7452175E1,1.3050195E3,2.429864E1,3.965014E0,6.1307148E1,7.4282494E0,2.6072903E2,2.988421E2,2.9142056E2,1.8242126E2,7.0700516E1,3.7111386E2,4.5662637E3,4.275051E3,8.779895E0,1.8672281E1,1.0455977E3,2.5942184E2],"tree_param":{"num_deleted":"0","num_feature":"14","num_nodes":"31","size_leaf_vector":"0"}},{"base_weights":[4.593086E-3,1.20525554E-1,-2.5366935E-1,6.8998E-1,8.485509E-2,-9.05923E-2,-5.8168775E-1,9.1498846E-1,5.5995166E-1,2.474877E-2,3.5170332E-1,2.632059E0,-1.13754965E-1,-7.133508E-1,-5.7407636E-2,9.318474E-1,-9.000172E-1,-1.5152948E-1,6.5066004E-1,7.0890075E-1,-2.3885602E-2,-1.9405042E-1,4.574979E-1,7.009909E-1,2.755823E0,1.6902233E-2,-4.536247E-1,6.527901E-1,-7.5721776E-1,-1.6202503E0,2.9963942E-2],"default_left":[true,true,true,true,true,true,true,true,true,true,true,true,true,true,true,false,false,false,false,false,false,false,false,false,false,false,false,false,false,false,false],"id":9,"leaf_child_counts":[0,0,0,0,0,0,0,0,0,0,0,0,0,0,0,0,0,0,0,0,0,0,0,0,0,0,0,0,0,0,0],"left_children":[1,3,5,7,9,11,13,15,17,19,21,23,25,27,29,-1,-1,-1,-1,-1,-1,-1,-1,-1,-1,-1,-1,-1,-1,-1,-1],"loss_changes":[3.3661563E2,1.5755646E2,1.862705E2,1.2865829E1,1.171288E2,1.470939E2,7.9788055E1,5.9147034E0,1.8967293E1,1.9838092E2,7.760272E1,2.7709503E0,1.0254366E2,5.588318E1,3.189394E1,0E0,0E0,0E0,0E0,0E0,0E0,0E0,0E0,0E0,0E0,0E0,0E0,0E0,0E0,0E0,0E0],"parents":[2147483647,0,0,1,1,2,2,3,3,4,4,5,5,6,6,7,7,8,8,9,9,10,10,11,11,12,12,13,13,14,14],"right_children":[2,4,6,8,10,12,14,16,18,20,22,24,26,28,30,-1,-1,-1,-1,-1,-1,-1,-1,-1,-1,-1,-1,-1,-1,-1,-1],"split_conditions":[9.63715E-1,3.1179998E-2,6.380002E-1,7.9973E-1,8.5E-1,5E-2,7.5E-1,7.323011E-1,3.1185E-2,2.55005E-1,7.050499E-2,3.4126002E-1,2.5E-1,3.6354E-1,7.5E-1,2.7955422E-1,-2.7000517E-1,-4.5458846E-2,1.9519801E-1,2.1267024E-1,-7.165681E-3,-5.8215126E-2,1.3724938E-1,2.1029729E-1,8.267469E-1,5.07067E-3,-1.3608742E-1,1.9583705E-1,-2.2716534E-1,-4.8607513E-1,8.989183E-3],"split_indices":[3,11,2,3,5,5,5,2,0,4,4,10,5,11,12,0,0,0,0,0,0,0,0,0,0,0,0,0,0,0,0],"sum_hessian":[1.1240609E4,7.75843E3,3.4821797E3,4.562571E2,7.302173E3,2.326712E3,1.1554678E3,1.6488817E2,2.9136893E2,5.960656E3,1.3415171E3,1.867714E1,2.308035E3,9.2325024E2,2.3221748E2,1.6385278E2,1.0353818E0,3.287102E1,2.5849792E2,3.9470236E2,5.5659536E3,2.1769217E2,1.1238248E3,1.526307E0,1.7150831E1,1.6678198E3,6.4021497E2,2.829153E1,8.9495874E2,1.1365995E1,2.2085149E2],"tree_param":{"num_deleted":"0","num_feature":"14","num_nodes":"31","size_leaf_vector":"0"}},{"base_weights":[3.394916E-3,3.8640353E-1,-4.660796E-2,6.884888E-1,1.3534147E-1,5.355219E-1,-8.0807015E-2,5.1042225E-2,7.999899E-1,-2.5424024E-1,5.4414344E-1,-1.0787481E0,7.348251E-1,8.928875E-1,-1.08684905E-1,7.9366773E-1,-8.339868E-1,-3.2278037E-1,8.6080205E-1,6.1103773E-1,-3.8417932E-1,8.694519E-1,2.9348475E-1,6.296148E-1,-1.3439294E0,8.9820015E-1,3.0390015E-1,1.1705196E0,5.696037E-1,-1.8667316E-3,-3.256488E-1],"default_left":[true,true,true,true,true,true,true,true,true,true,true,true,true,true,true,false,false,false,false,false,false,false,false,false,false,false,false,false,false,false,false],"id":10,"leaf_child_counts":[0,0,0,0,0,0,0,0,0,0,0,0,0,0,0,0,0,0,0,0,0,0,0,0,0,0,0,0,0,0,0],"left_children":[1,3,5,7,9,11,13,15,17,19,21,23,25,27,29,-1,-1,-1,-1,-1,-1,-1,-1,-1,-1,-1,-1,-1,-1,-1,-1],"loss_changes":[2.0854199E2,9.5273315E1,1.9179347E2,4.05065E1,1.0970338E2,1.7278152E2,2.4706078E2,5.7184536E1,3.3425446E1,3.9917034E1,2.714399E1,2.764383E1,3.3268433E1,2.2072083E1,2.0500578E2,0E0,0E0,0E0,0E0,0E0,0E0,0E0,0E0,0E0,0E0,0E0,0E0,0E0,0E0,0E0,0E0],"parents":[2147483647,0,0,1,1,2,2,3,3,4,4,5,5,6,6,7,7,8,8,9,9,10,10,11,11,12,12,13,13,14,14],"right_children":[2,4,6,8,10,12,14,16,18,20,22,24,26,28,30,-1,-1,-1,-1,-1,-1,-1,-1,-1,-1,-1,-1,-1,-1,-1,-1],"split_conditions":[8.22605E-1,1.5E-1,6.28755E-1,2.59745E-1,6.5E-1,2.5E-1,2.5E-1,9.2288E-1,5.405E-3,7.4889004E-1,7.5E-1,8.5063E-1,1.09285E-1,2E-1,9.62075E-1,2.3810034E-1,-2.5019607E-1,-9.6834116E-2,2.5824064E-1,1.8331133E-1,-1.152538E-1,2.608356E-1,8.8045426E-2,1.8888444E-1,-4.0317884E-1,2.6946005E-1,9.117005E-2,3.5115588E-1,1.708811E-1,-5.600195E-4,-9.769465E-2],"split_indices":[1,5,0,0,5,12,12,3,7,4,12,3,0,5,3,0,0,0,0,0,0,0,0,0,0,0,0,0,0,0,0],"sum_hessian":[1.0887109E4,1.2564341E3,9.630675E3,5.694785E2,6.869556E2,5.3357654E2,9.097099E3,8.49993E1,4.844792E2,3.5194028E2,3.3501532E2,5.8152622E1,4.7542395E2,2.5234607E2,8.844753E3,4.627408E1,3.8725224E1,2.4671095E1,4.598081E2,4.5467167E1,3.064731E2,1.4472304E2,1.902923E2,7.629196E0,5.0523426E1,3.4394202E2,1.3148192E2,1.3434851E2,1.1799756E2,5.927477E3,2.9172754E3],"tree_param":{"num_deleted":"0","num_feature":"14","num_nodes":"31","size_leaf_vector":"0"}},{"base_weights":[4.4620093E-3,5.613541E-1,-2.5836423E-2,9.8205805E-1,4.734156E-1,1.3575471E-2,-3.5446468E-1,-4.2184517E-1,1.0025163E0,-2.0688353E-1,5.75145E-1,-1.2890233E0,2.3217347E-2,-9.759605E-2,-6.404549E-1,1.023825E0,2.0072917E-2,-2.1306262E0,6.3087153E-1,7.8053653E-1,2.1959326E-1,4.4675115E-1,-2.1742373E0,-3.4933694E-2,2.3721598E-1,9.3546253E-1,-1.7731023E-1,-8.2614547E-1,-1.9582091E-1],"default_left":[true,true,true,true,true,true,true,false,true,true,true,true,true,true,true,false,false,false,false,false,false,false,false,false,false,false,false,false,false],"id":11,"leaf_child_counts":[0,0,0,0,0,0,0,0,0,0,0,0,0,0,0,0,0,0,0,0,0,0,0,0,0,0,0,0,0],"left_children":[1,3,5,7,9,11,13,-1,15,17,19,21,23,25,27,-1,-1,-1,-1,-1,-1,-1,-1,-1,-1,-1,-1,-1,-1],"loss_changes":[1.7790886E2,1.9663177E1,1.2952478E2,3.097763E0,3.1395409E1,1.12188705E2,7.860834E1,0E0,1.9073181E0,9.727492E1,2.8557938E1,1.0181946E2,1.1033352E2,4.6722717E1,4.1661133E1,0E0,0E0,0E0,0E0,0E0,0E0,0E0,0E0,0E0,0E0,0E0,0E0,0E0,0E0],"parents":[2147483647,0,0,1,1,2,2,3,3,4,4,5,5,6,6,8,8,9,9,10,10,11,11,12,12,13,13,14,14],"right_children":[2,4,6,8,10,12,14,-1,16,18,20,22,24,26,28,-1,-1,-1,-1,-1,-1,-1,-1,-1,-1,-1,-1,-1,-1],"split_conditions":[4.6985E-2,9.67995E-1,6.5741235E-1,1.8822E-1,3.695E-2,1.777E-1,9.75035E-1,-1.2655355E-1,9.6906996E-1,5.833334E-1,2.5E-1,7.53375E-1,6.5E-1,5.87E-2,6.5E-1,3.0714753E-1,6.0218754E-3,-6.391879E-1,1.8926147E-1,2.3416097E-1,6.587798E-2,1.3402535E-1,-6.522712E-1,-1.0480109E-2,7.1164794E-2,2.8063878E-1,-5.319307E-2,-2.4784365E-1,-5.8746275E-2],"split_indices":[11,7,2,10,0,7,3,0,1,12,5,1,5,0,5,0,0,0,0,0,0,0,0,0,0,0,0,0,0],"sum_hessian":[1.0542164E4,5.4306055E2,9.999104E3,9.2131134E1,4.5092938E2,8.929197E3,1.0699066E3,1.0414886E0,9.1089645E1,5.8524246E1,3.9240515E2,6.46336E1,8.864563E3,5.643574E2,5.0554916E2,8.911467E1,1.9749813E0,1.7286312E1,4.1237934E1,2.4796689E2,1.4443825E2,2.1996675E1,4.2636925E1,6.9711035E3,1.8934602E3,3.9659077E1,5.246983E2,3.5601154E2,1.4953761E2],"tree_param":{"num_deleted":"0","num_feature":"14","num_nodes":"29","size_leaf_vector":"0"}},{"base_weights":[3.9741853E-3,3.672469E-1,-2.9039297E-2,9.28516E-1,2.4323447E-1,7.5254136E-1,-5.4727614E-2,1.0242758E0,3.9385948E-1,5.14063E-1,-4.6297543E-2,1.0060873E0,4.7975323E-1,3.735401E-1,-8.112314E-2,3.3301473E-1,1.043251E0,8.976795E-1,-1.0964135E0,-3.253788E-1,5.843647E-1,-3.524924E-1,2.1099283E-1,6.2338635E-2,1.0518774E0,8.5161644E-1,8.9381725E-2,5.980569E-1,5.3145133E-2,-2.1001503E-2,-2.7505496E-1],"default_left":[true,true,true,true,true,true,true,true,true,true,true,true,true,true,true,false,false,false,false,false,false,false,false,false,false,false,false,false,false,false,false],"id":12,"leaf_child_counts":[0,0,0,0,0,0,0,0,0,0,0,0,0,0,0,0,0,0,0,0,0,0,0,0,0,0,0,0,0,0,0],"left_children":[1,3,5,7,9,11,13,15,17,19,21,23,25,27,29,-1,-1,-1,-1,-1,-1,-1,-1,-1,-1,-1,-1,-1,-1,-1,-1],"loss_changes":[1.2449061E2,5.9965034E1,1.9109286E2,7.5905457E0,5.566771E1,2.0465118E1,1.0418683E2,1.3813171E0,2.001159E1,2.1832771E1,2.7165995E1,6.6784515E0,2.1380707E1,3.845936E1,1.01195816E2,0E0,0E0,0E0,0E0,0E0,0E0,0E0,0E0,0E0,0E0,0E0,0E0,0E0,0E0,0E0,0E0],"parents":[2147483647,0,0,1,1,2,2,3,3,4,4,5,5,6,6,7,7,8,8,9,9,10,10,11,11,12,12,13,13,14,14],"right_children":[2,4,6,8,10,12,14,16,18,20,22,24,26,28,30,-1,-1,-1,-1,-1,-1,-1,-1,-1,-1,-1,-1,-1,-1,-1,-1],"split_conditions":[7.5476503E-1,8.07525E-1,2.5E-1,1.5E-1,5.920919E-1,2E-1,3.02835E-1,3.6809504E-1,9.5835495E-1,4.166667E-1,5.833334E-1,2.5E-1,6.96435E-1,2.5E-1,9.70485E-1,9.9904425E-2,3.1297532E-1,2.6930386E-1,-3.2892406E-1,-9.761365E-2,1.7530942E-1,-1.0574772E-1,6.329785E-2,1.870159E-2,3.1556323E-1,2.5548494E-1,2.6814518E-2,1.7941707E-1,1.594354E-2,-6.3004512E-3,-8.251649E-2],"split_indices":[0,6,12,5,9,5,11,8,4,12,12,13,4,5,3,0,0,0,0,0,0,0,0,0,0,0,0,0,0,0,0],"sum_hessian":[1.0378472E4,8.637578E2,9.514714E3,1.551365E2,7.086213E2,3.0186984E2,9.212845E3,1.3079472E2,2.434179E1,3.65736E2,3.4288528E2,1.5505972E2,1.4681012E2,5.340892E2,8.678755E3,3.9900174E0,1.268047E2,1.848886E1,5.852931E0,2.7982376E1,3.3775363E2,1.563943E2,1.8649098E2,7.2845435E0,1.4777518E2,7.458233E1,7.222779E1,3.1352197E2,2.2056721E2,6.625778E3,2.0529773E3],"tree_param":{"num_deleted":"0","num_feature":"14","num_nodes":"31","size_leaf_vector":"0"}},{"base_weights":[4.332696E-3,1.0760241E-1,-8.981446E-2,9.815422E-1,7.687147E-2,-2.753223E-1,1.4805801E-1,1.0358204E0,1.885721E-1,2.1558489E-1,-1.1842283E-1,6.781108E-1,-3.6042297E-1,2.821235E-1,-7.7742087E-3,-2.663502E-1,1.0546066E0,9.0010434E-1,-5.793501E-1,-7.246907E-1,2.3282884E-1,-3.3133127E-2,-5.641284E-1,-1.4129014E-1,8.0433685E-1,-1.1647413E0,-3.106632E-1,1.4164163E-1,4.2214236E-1,-4.586811E-1,7.7721536E-2],"default_left":[true,true,true,true,true,true,true,true,true,true,true,true,true,true,true,false,false,false,false,false,false,false,false,false,false,false,false,false,false,false,false],"id":13,"leaf_child_counts":[0,0,0,0,0,0,0,0,0,0,0,0,0,0,0,0,0,0,0,0,0,0,0,0,0,0,0,0,0,0,0],"left_children":[1,3,5,7,9,11,13,15,17,19,21,23,25,27,29,-1,-1,-1,-1,-1,-1,-1,-1,-1,-1,-1,-1,-1,-1,-1,-1],"loss_changes":[9.883569E1,1.3012492E2,2.3469627E2,6.888977E0,1.2692343E2,2.4268874E2,4.869349E1,4.0439453E0,6.9510674E0,4.4583527E1,7.395837E1,2.5474373E1,1.0945474E2,2.45839E1,4.162409E1,0E0,0E0,0E0,0E0,0E0,0E0,0E0,0E0,0E0,0E0,0E0,0E0,0E0,0E0,0E0,0E0],"parents":[2147483647,0,0,1,1,2,2,3,3,4,4,5,5,6,6,7,7,8,8,9,9,10,10,11,11,12,12,13,13,14,14],"right_children":[2,4,6,8,10,12,14,16,18,20,22,24,26,28,30,-1,-1,-1,-1,-1,-1,-1,-1,-1,-1,-1,-1,-1,-1,-1,-1],"split_conditions":[2.5E-1,6.2383497E-1,6.5E-1,8.109596E-1,9.5441496E-1,4.6289998E-1,6.177856E-1,9.7805E-1,9.99165E-1,3.395E-3,6.363236E-1,3.48285E-1,7.5E-1,9.5E-1,7.2047997E-1,-7.990506E-2,3.16382E-1,2.700313E-1,-1.7380504E-1,-2.1740721E-1,6.984866E-2,-9.939939E-3,-1.6923852E-1,-4.2387046E-2,2.4130106E-1,-3.494224E-1,-9.319896E-2,4.249249E-2,1.2664272E-1,-1.3760434E-1,2.3316462E-2],"split_indices":[5,3,5,8,1,4,2,7,0,7,2,3,12,5,3,0,0,0,0,0,0,0,0,0,0,0,0,0,0,0,0],"sum_hessian":[1.0163619E4,4.846913E3,5.3167065E3,1.6359476E2,4.6833184E3,2.9870562E3,2.3296504E3,1.528276E2,1.07671585E1,2.7382754E3,1.9450431E3,2.4419766E2,2.7428584E3,1.2518495E3,1.0778008E3,1.986049E0,1.5084155E2,5.499431E0,5.2677274E0,4.857472E1,2.6897007E3,1.6335275E3,3.115156E2,3.258055E1,2.1161711E2,1.5849725E2,2.584361E3,6.258957E2,6.259538E2,1.7109198E2,9.067088E2],"tree_param":{"num_deleted":"0","num_feature":"14","num_nodes":"31","size_leaf_vector":"0"}},{"base_weights":[3.3906954E-3,1.5959603E-1,-4.4652764E-2,7.072557E-1,1.1020284E-1,6.11263E-1,-6.23225E-2,8.1438893E-1,2.0511551E-1,2.0810431E-1,-3.5256848E-2,1.0122982E0,3.325653E-1,-1.0608312E-1,1.7789887E-1,-5.1400864E-1,8.415095E-1,9.094188E-1,-2.850064E-1,2.926777E-1,4.1357882E-2,2.9981586E-1,-1.2228357E-1,1.0833635E0,-1.05848715E-1,7.4544936E-1,-3.9063286E-2,-6.969202E-3,-2.7231753E-1,3.0473504E-2,3.3076075E-1],"default_left":[true,true,true,true,true,true,true,true,true,true,true,true,true,true,true,false,false,false,false,false,false,false,false,false,false,false,false,false,false,false,false],"id":14,"leaf_child_counts":[0,0,0,0,0,0,0,0,0,0,0,0,0,0,0,0,0,0,0,0,0,0,0,0,0,0,0,0,0,0,0],"left_children":[1,3,5,7,9,11,13,15,17,19,21,23,25,27,29,-1,-1,-1,-1,-1,-1,-1,-1,-1,-1,-1,-1,-1,-1,-1,-1],"loss_changes":[7.423162E1,6.285972E1,8.771326E1,1.0177681E1,3.0416433E1,2.1853188E1,7.746545E1,6.130081E0,1.2392613E1,1.798914E1,2.5111227E1,6.5440826E0,1.8230595E1,1.026879E2,2.5582504E1,0E0,0E0,0E0,0E0,0E0,0E0,0E0,0E0,0E0,0E0,0E0,0E0,0E0,0E0,0E0,0E0],"parents":[2147483647,0,0,1,1,2,2,3,3,4,4,5,5,6,6,7,7,8,8,9,9,10,10,11,11,12,12,13,13,14,14],"right_children":[2,4,6,8,10,12,14,16,18,20,22,24,26,28,30,-1,-1,-1,-1,-1,-1,-1,-1,-1,-1,-1,-1,-1,-1,-1,-1],"split_conditions":[9.34485E-1,8.24275E-1,2.5E-1,5.5E-1,6.0105646E-1,2E-1,8.5E-1,1.795E-3,8.2733E-1,4.6206498E-1,8.9361E-1,9.99615E-1,6.96435E-1,3.5000002E-1,9.9966E-1,-1.542026E-1,2.5245288E-1,2.7282566E-1,-8.5501924E-2,8.780331E-2,1.2407365E-2,8.9944765E-2,-3.6685072E-2,3.2500908E-1,-3.1754617E-2,2.2363482E-1,-1.1718987E-2,-2.0907607E-3,-8.169526E-2,9.142051E-3,9.9228226E-2],"split_indices":[0,6,12,5,9,5,5,7,11,10,1,0,4,5,4,0,0,0,0,0,0,0,0,0,0,0,0,0,0,0,0],"sum_hessian":[9.889475E3,2.325659E3,7.563816E3,1.91296E2,2.1343628E3,1.9753552E2,7.3662803E3,1.5714648E2,3.414953E1,1.2754752E3,8.588877E2,7.99124E1,1.17623116E2,6.2316353E3,1.1346453E3,2.7849276E0,1.5436156E2,1.3661914E1,2.0487614E1,8.4575507E2,4.2972018E2,1.765778E2,6.823099E2,7.516622E1,4.7461815E0,5.5242313E1,6.2380806E1,3.904624E3,2.3270112E3,5.782042E2,5.5644104E2],"tree_param":{"num_deleted":"0","num_feature":"14","num_nodes":"31","size_leaf_vector":"0"}},{"base_weights":[3.2166017E-3,2.6809284E-1,-2.0220522E-2,4.803625E-1,9.9680424E-2,-1.1345946E0,-1.2896942E-2,-1.9733332E-1,5.996321E-1,4.5213082E-1,-9.49098E-2,-1.6439928E0,9.836197E-1,1.58628E0,-1.719751E-2,9.697661E-1,-8.8709825E-1,7.1666354E-1,1.726033E-1,8.520286E-1,3.5819566E-1,-2.2119582E-1,3.9437395E-1,3.215261E-1,-1.7982088E0,2.0230404E-1,1.0871168E0,4.20311E-1,1.688351E0,6.1315006E-1,-2.6908856E-2],"default_left":[true,true,true,true,true,true,true,true,true,true,true,true,true,true,true,false,false,false,false,false,false,false,false,false,false,false,false,false,false,false,false],"id":15,"leaf_child_counts":[0,0,0,0,0,0,0,0,0,0,0,0,0,0,0,0,0,0,0,0,0,0,0,0,0,0,0,0,0,0,0],"left_children":[1,3,5,7,9,11,13,15,17,19,21,23,25,27,29,-1,-1,-1,-1,-1,-1,-1,-1,-1,-1,-1,-1,-1,-1,-1,-1],"loss_changes":[6.0367012E1,2.82109E1,7.289605E1,2.8363373E1,3.03593E1,6.4542496E1,6.1074207E1,4.3565475E1,1.4738899E1,5.607914E0,1.7735878E1,1.494162E1,7.4488354E-1,2.1249542E0,5.4214485E1,0E0,0E0,0E0,0E0,0E0,0E0,0E0,0E0,0E0,0E0,0E0,0E0,0E0,0E0,0E0,0E0],"parents":[2147483647,0,0,1,1,2,2,3,3,4,4,5,5,6,6,7,7,8,8,9,9,10,10,11,11,12,12,13,13,14,14],"right_children":[2,4,6,8,10,12,14,16,18,20,22,24,26,28,30,-1,-1,-1,-1,-1,-1,-1,-1,-1,-1,-1,-1,-1,-1,-1,-1],"split_conditions":[7.9947E-1,1.5E-1,2.8425E-1,2.65635E-1,7.806E-1,7.5E-1,5E-2,8.7731004E-1,4.7058E-1,6.29995E-1,8.5E-1,8.0123E-1,3.61955E-1,8.7582E-1,2.6685E-2,2.9092982E-1,-2.661295E-1,2.1499906E-1,5.178099E-2,2.556086E-1,1.074587E-1,-6.6358745E-2,1.1831219E-1,9.645784E-2,-5.394627E-1,6.069121E-2,3.2613507E-1,1.2609331E-1,5.065053E-1,1.8394503E-1,-8.0726575E-3],"split_indices":[1,5,7,0,3,12,5,6,10,1,5,0,10,1,0,0,0,0,0,0,0,0,0,0,0,0,0,0,0,0,0],"sum_hessian":[9.722293E3,7.8948096E2,8.932812E3,3.4844418E2,4.4103677E2,5.7317486E1,8.875494E3,5.204834E1,2.9639584E2,1.5641234E2,2.8462442E2,4.6386192E1,1.0931295E1,2.2817713E1,8.852677E3,1.918348E1,3.286486E1,2.321065E2,6.428934E1,2.8217087E1,1.2819525E2,2.2666838E2,5.7956055E1,3.2957833E0,4.309041E1,1.6242521E0,9.307043E0,2.2486753E0,2.0569036E1,1.3337518E2,8.719302E3],"tree_param":{"num_deleted":"0","num_feature":"14","num_nodes":"31","size_leaf_vector":"0"}},{"base_weights":[3.1008304E-3,1.8125929E-2,-3.7294522E-1,3.0946416E-1,-1.7049478E-3,8.9036316E-1,-4.479189E-1,8.035622E-1,3.1744244E-3,-4.1755147E-2,1.23142675E-1,-4.5580786E-1,9.8157656E-1,-6.5214473E-1,-1.0794498E-1,4.2628825E-1,9.014426E-1,4.901486E-1,-3.1247324E-1,2.5128838E-2,-2.6550698E-1,-4.360079E-2,2.7909377E-1,2.497429E-1,1.0150927E0,3.6983857E-1,-6.881669E-1,-7.780076E-1,7.450706E-2],"default_left":[true,true,true,true,true,true,true,true,true,true,true,false,true,true,true,false,false,false,false,false,false,false,false,false,false,false,false,false,false],"id":16,"leaf_child_counts":[0,0,0,0,0,0,0,0,0,0,0,0,0,0,0,0,0,0,0,0,0,0,0,0,0,0,0,0,0],"left_children":[1,3,5,7,9,11,13,15,17,19,21,-1,23,25,27,-1,-1,-1,-1,-1,-1,-1,-1,-1,-1,-1,-1,-1,-1],"loss_changes":[5.4546577E1,5.3632607E1,3.5529724E1,8.952986E1,4.346826E1,3.0399837E0,2.4286041E1,7.97583E0,5.6445347E1,9.850736E1,5.491757E1,0E0,2.3929405E-1,8.315071E0,1.6298834E1,0E0,0E0,0E0,0E0,0E0,0E0,0E0,0E0,0E0,0E0,0E0,0E0,0E0,0E0],"parents":[2147483647,0,0,1,1,2,2,3,3,4,4,5,5,6,6,7,7,8,8,9,9,10,10,12,12,13,13,14,14],"right_children":[2,4,6,8,10,12,14,16,18,20,22,-1,24,26,28,-1,-1,-1,-1,-1,-1,-1,-1,-1,-1,-1,-1,-1,-1],"split_conditions":[6.812306E-1,6.30085E-1,3.406E-2,4.5E-1,5.5E-1,4.23E-3,7.5E-1,4.45E-4,3.841E-2,3.5000002E-1,9.10735E-1,-1.3674237E-1,4.16995E-1,2.9825E-2,4.2935002E-1,1.2788647E-1,2.704328E-1,1.4704458E-1,-9.3741976E-2,7.5386516E-3,-7.96521E-2,-1.3080237E-2,8.3728135E-2,7.4922875E-2,3.0452782E-1,1.1095157E-1,-2.0645009E-1,-2.334023E-1,2.2352118E-2],"split_indices":[9,3,0,5,5,4,5,3,4,5,3,0,10,4,10,0,0,0,0,0,0,0,0,0,0,0,0,0,0],"sum_hessian":[9.651846E3,9.281934E3,3.6991226E2,5.906089E2,8.691324E3,2.011407E1,3.497982E2,2.2539095E2,3.6521796E2,6.580889E3,2.1104353E3,1.0227458E0,1.9091324E1,2.1795322E2,1.3184497E2,4.7533016E1,1.7785794E2,1.4341211E2,2.2180585E2,5.0671133E3,1.5137759E3,1.02027454E3,1.0901608E3,1.2061504E0,1.7885174E1,7.1051936E0,2.1084802E2,2.7518385E1,1.04326584E2],"tree_param":{"num_deleted":"0","num_feature":"14","num_nodes":"29","size_leaf_vector":"0"}},{"base_weights":[2.4882713E-3,5.4177903E-2,-8.561044E-2,1.9466826E-1,5.9679947E-3,1.2886866E-2,-1.8312268E-1,4.6955281E-1,4.292909E-2,1.19893335E-1,-1.2737776E-1,-4.1927072E-1,6.8930365E-2,-5.8537686E-1,-7.361499E-2,6.627879E-1,-2.8665772E-1,7.351742E-1,-2.1374973E-2,8.714386E-1,8.9059316E-2,-2.4847797E-1,3.622979E-1,-6.6284746E-1,7.354755E-2,3.2070178E-1,-8.34899E-3,3.510787E-1,-7.2733194E-1,3.4111926E-1,-1.280835E-1],"default_left":[true,true,true,true,true,true,true,true,true,true,true,true,true,true,true,false,false,false,false,false,false,false,false,false,false,false,false,false,false,false,false],"id":17,"leaf_child_counts":[0,0,0,0,0,0,0,0,0,0,0,0,0,0,0,0,0,0,0,0,0,0,0,0,0,0,0,0,0,0,0],"left_children":[1,3,5,7,9,11,13,15,17,19,21,23,25,27,29,-1,-1,-1,-1,-1,-1,-1,-1,-1,-1,-1,-1,-1,-1,-1,-1],"loss_changes":[4.354729E1,4.0818314E1,3.3965313E1,6.4202385E1,6.819543E1,4.2657566E1,7.823322E1,8.019942E1,4.422613E1,5.60197E1,1.2273808E2,2.4319714E1,3.0333696E1,5.0783737E1,3.1621983E1,0E0,0E0,0E0,0E0,0E0,0E0,0E0,0E0,0E0,0E0,0E0,0E0,0E0,0E0,0E0,0E0],"parents":[2147483647,0,0,1,1,2,2,3,3,4,4,5,5,6,6,7,7,8,8,9,9,10,10,11,11,12,12,13,13,14,14],"right_children":[2,4,6,8,10,12,14,16,18,20,22,24,26,28,30,-1,-1,-1,-1,-1,-1,-1,-1,-1,-1,-1,-1,-1,-1,-1,-1],"split_conditions":[9.5411503E-1,9.73935E-1,6.132541E-1,4.5E-1,2.5E-1,9.99495E-1,7.5E-1,9.30145E-1,2.9654E-1,6.0664E-1,9.5E-1,5.5E-1,5.833334E-1,2.5E-1,7.0930004E-1,1.9883639E-1,-8.599732E-2,2.2055227E-1,-6.412492E-3,2.614316E-1,2.6717795E-2,-7.4543394E-2,1.08689375E-1,-1.9885425E-1,2.2064265E-2,9.621054E-2,-2.504697E-3,1.0532361E-1,-2.181996E-1,1.0233578E-1,-3.842505E-2],"split_indices":[3,4,2,5,5,4,12,3,11,3,5,5,12,12,11,0,0,0,0,0,0,0,0,0,0,0,0,0,0,0,0],"sum_hessian":[9.560849E3,6.02577E3,3.5350789E3,1.5387118E3,4.487058E3,1.7590881E3,1.7759906E3,5.465356E2,9.921762E2,2.4197878E3,2.0672703E3,2.0119214E2,1.557896E3,3.7909964E2,1.396891E3,4.3540082E2,1.1113478E2,8.344479E1,9.0873145E2,9.429081E1,2.325497E3,1.6577817E3,4.0948843E2,1.344131E2,6.677905E1,3.6514053E2,1.1927555E3,4.970832E1,3.2939133E2,1.6155043E2,1.2353406E3],"tree_param":{"num_deleted":"0","num_feature":"14","num_nodes":"31","size_leaf_vector":"0"}},{"base_weights":[2.155832E-3,1.5209977E-1,-2.2008322E-2,-5.853361E-1,1.8525605E-1,4.0119216E-1,-3.4370672E-2,8.9539844E-1,-1.105099E0,-4.7585717E-1,2.1168473E-1,6.7012954E-1,1.8633462E-1,1.0688854E0,-3.772646E-2,5.431776E-1,1.341734E0,-1.4747393E0,7.3588276E-1,4.439795E-1,-1.6269081E0,3.5801116E-1,7.071586E-2,-2.0474783E-1,7.944503E-1,5.886863E-1,-1.2155092E-1,6.449009E-1,1.3441411E0,-1.0738317E-2,-1.8671471E-1],"default_left":[true,true,true,true,true,true,true,true,true,true,true,true,true,true,true,false,false,false,false,false,false,false,false,false,false,false,false,false,false,false,false],"id":18,"leaf_child_counts":[0,0,0,0,0,0,0,0,0,0,0,0,0,0,0,0,0,0,0,0,0,0,0,0,0,0,0,0,0,0,0],"left_children":[1,3,5,7,9,11,13,15,17,19,21,23,25,27,29,-1,-1,-1,-1,-1,-1,-1,-1,-1,-1,-1,-1,-1,-1,-1,-1],"loss_changes":[3.3951157E1,3.1906155E1,4.2233517E1,4.4240044E1,2.1858894E1,1.3114578E1,2.907288E1,1.6534157E0,2.969572E1,5.1730137E1,2.4688759E1,1.1188236E1,1.6021185E1,1.9123764E0,3.1437397E1,0E0,0E0,0E0,0E0,0E0,0E0,0E0,0E0,0E0,0E0,0E0,0E0,0E0,0E0,0E0,0E0],"parents":[2147483647,0,0,1,1,2,2,3,3,4,4,5,5,6,6,7,7,8,8,9,9,10,10,11,11,12,12,13,13,14,14],"right_children":[2,4,6,8,10,12,14,16,18,20,22,24,26,28,30,-1,-1,-1,-1,-1,-1,-1,-1,-1,-1,-1,-1,-1,-1,-1,-1],"split_conditions":[9.5346E-1,6.27075E-1,1.9935E-2,6.5925E-1,6.205E-2,7.5E-1,5E-2,4.9565002E-2,7.5E-1,9.5E-1,9.33555E-1,2.364E-2,7.5E-1,4.2035002E-1,9.79695E-1,1.6295329E-1,4.0252024E-1,-4.4242182E-1,2.2076483E-1,1.3319385E-1,-4.8807243E-1,1.0740335E-1,2.1214759E-2,-6.142435E-2,2.3833509E-1,1.766059E-1,-3.6465276E-2,1.9347028E-1,4.0324235E-1,-3.2214953E-3,-5.6014415E-2],"split_indices":[6,7,4,1,4,5,5,6,12,5,3,3,12,10,3,0,0,0,0,0,0,0,0,0,0,0,0,0,0,0,0],"sum_hessian":[9.368388E3,1.299487E3,8.068901E3,5.5196472E1,1.2442906E3,2.2812268E2,7.8407783E3,1.4153202E1,4.104327E1,4.717609E1,1.1971145E3,1.00370224E2,1.2775245E2,2.2814186E1,7.817964E3,9.14975E0,5.0034523E0,3.4346058E1,6.6972113E0,2.656308E1,2.0613008E1,5.866398E2,6.104748E2,1.2407629E1,8.796259E1,5.4984913E1,7.276754E1,1.0296735E1,1.2517451E1,6.6198906E3,1.1980731E3],"tree_param":{"num_deleted":"0","num_feature":"14","num_nodes":"31","size_leaf_vector":"0"}},{"base_weights":[2.1908612E-3,6.653024E-1,-2.424528E-3,7.854129E-1,-1.9777796E-1,6.291592E-3,-3.2103255E-1,8.3343256E-1,-9.3550074E-1,3.3903587E-1,-1.2298849E0,4.12182E-1,-5.428593E-4,-1.2869934E0,-2.4768762E-1,-2.991913E-1,8.8113976E-1,9.42962E-1,-4.1668406E-1,7.974568E-1,2.1808673E-1,3.3928033E-2,-7.490667E-2,7.2252023E-1,-1.4745913E0,3.9861355E-2,-6.217394E-1],"default_left":[true,true,true,true,true,true,true,true,false,true,false,true,true,true,true,false,false,false,false,false,false,false,false,false,false,false,false],"id":19,"leaf_child_counts":[0,0,0,0,0,0,0,0,0,0,0,0,0,0,0,0,0,0,0,0,0,0,0,0,0,0,0],"left_children":[1,3,5,7,9,11,13,15,-1,17,-1,19,21,23,25,-1,-1,-1,-1,-1,-1,-1,-1,-1,-1,-1,-1],"loss_changes":[2.848221E1,6.823719E0,2.5668634E1,5.462673E0,5.2134852E0,2.4959223E1,1.7119259E1,3.2711525E0,0E0,3.3499248E0,0E0,1.0967674E1,2.2686876E1,7.523651E0,2.476321E1,0E0,0E0,0E0,0E0,0E0,0E0,0E0,0E0,0E0,0E0,0E0,0E0],"parents":[2147483647,0,0,1,1,2,2,3,3,4,4,5,5,6,6,7,7,9,9,11,11,12,12,13,13,14,14],"right_children":[2,4,6,8,10,12,14,16,-1,18,-1,20,22,24,26,-1,-1,-1,-1,-1,-1,-1,-1,-1,-1,-1,-1],"split_conditions":[5.07955E-1,9.94285E-1,6.9448024E-1,4.99525E-1,8.8904E-1,1.2155E-2,6.964129E-1,3.9880502E-1,-2.8065023E-1,3.5000002E-1,-3.6896548E-1,7.5E-1,4.65705E-1,8.2134116E-1,9.84445E-1,-8.975739E-2,2.6434195E-1,2.8288862E-1,-1.2500523E-1,2.3923706E-1,6.542602E-2,1.017841E-2,-2.2472002E-2,2.1675608E-1,-4.423774E-1,1.1958407E-2,-1.8652183E-1],"split_indices":[6,0,2,10,1,4,2,3,0,5,0,12,10,8,3,0,0,0,0,0,0,0,0,0,0,0,0],"sum_hessian":[9.304811E3,6.3326233E1,9.241484E3,5.5669044E1,7.657191E0,8.996353E3,2.4513182E2,5.465955E1,1.0094929E0,5.4789963E0,2.1781948E0,1.4799153E2,8.84836E3,1.6131468E1,2.2900037E2,1.9961945E0,5.2663357E1,2.9076276E0,2.5713685E0,4.853736E1,9.945417E1,6.0462173E3,2.8021436E3,1.1339009E0,1.4997567E1,1.2997594E2,9.9024414E1],"tree_param":{"num_deleted":"0","num_feature":"14","num_nodes":"27","size_leaf_vector":"0"}}]},"name":"gbtree"},"learner_model_param":{"base_score":"5E-1","num_class":"0","num_feature":"14"},"objective":{"name":"binary:logistic","reg_loss_param":{"scale_pos_weight":"0.994063497"}}},"version":[1,2,0]}