{"learner":{"attributes":{},"gradient_booster":{"model":{"gbtree_model_param":{"num_trees":"35","size_leaf_vector":"0"},"tree_info":[0,0,0,0,0,0,0,0,0,0,0,0,0,0,0,0,0,0,0,0,0,0,0,0,0,0,0,0,0,0,0,0,0,0,0],"trees":[{"base_weights":[-1.80040264129638672e+00,-6.12364828586578369e-01,-1.88577342033386230e+00,6.56765937805175781e-01,-7.19204485416412354e-01,1.20363600552082062e-01,-1.91549086570739746e+00,1.61961281299591064e+00,-9.66029688715934753e-02,-3.55547666549682617e-02,-8.99374425411224365e-01,6.79541110992431641e-01,-1.40768039226531982e+00,-1.92485535144805908e+00,-1.34946787357330322e+00],"default_left":[true,true,true,true,true,true,true,false,false,false,false,false,false,false,false],"id":0,"leaf_child_counts":[0,0,0,0,0,0,0,0,0,0,0,0,0,0,0],"left_children":[1,3,5,7,9,11,13,-1,-1,-1,-1,-1,-1,-1,-1],"loss_changes":[5.70146875000000000e+03,5.11783691406250000e+02,3.12748437500000000e+03,2.12925979614257812e+02,4.28437011718750000e+02,6.56008422851562500e+02,2.71390625000000000e+02,0.00000000000000000e+00,0.00000000000000000e+00,0.00000000000000000e+00,0.00000000000000000e+00,0.00000000000000000e+00,0.00000000000000000e+00,0.00000000000000000e+00,0.00000000000000000e+00],"parents":[2147483647,0,0,1,1,2,2,3,3,4,4,5,5,6,6],"right_children":[2,4,6,8,10,12,14,-1,-1,-1,-1,-1,-1,-1,-1],"split_conditions":[8.41979980468750000e-01,5.76669991016387939e-01,5.57144999504089355e-01,6.49999976158142090e-01,3.31149995326995850e-02,1.50000005960464478e-01,9.49999988079071045e-01,4.85883861780166626e-01,-2.89808921515941620e-02,-1.06664299964904785e-02,-2.69812345504760742e-01,2.03862339258193970e-01,-4.22304123640060425e-01,-5.77456653118133545e-01,-4.04840379953384399e-01],"split_indices":[3,0,0,5,4,5,5,0,0,0,0,0,0,0,0],"sum_hessian":[5.62246210937500000e+04,3.76991284179687500e+03,5.24547070312500000e+04,2.92321929931640625e+02,3.47759082031250000e+03,7.65637634277343750e+02,5.16890703125000000e+04,1.27816101074218750e+02,1.64505828857421875e+02,7.25583251953125000e+02,2.75200756835937500e+03,5.60925842285156250e+02,2.04711776733398438e+02,5.08454609375000000e+04,8.43611755371093750e+02],"tree_param":{"num_deleted":"0","num_feature":"6","num_nodes":"15","size_leaf_vector":"0"}},{"base_weights":[-1.37524318695068359e+00,-3.36694419384002686e-01,-1.44180333614349365e+00,4.84155923128128052e-01,-4.58390533924102783e-01,1.15315042436122894e-01,-1.46676659584045410e+00,8.84084522724151611e-01,-7.71219730377197266e-02,-1.04420460760593414e-01,-8.67469966411590576e-01,5.09175121784210205e-01,-9.88881230354309082e-01,-1.17562437057495117e+00,-1.49257028102874756e+00],"default_left":[true,true,true,true,true,true,true,false,false,false,false,false,false,false,false],"id":1,"leaf_child_counts":[0,0,0,0,0,0,0,0,0,0,0,0,0,0,0],"left_children":[1,3,5,7,9,11,13,-1,-1,-1,-1,-1,-1,-1,-1],"loss_changes":[3.60143750000000000e+03,3.13856933593750000e+02,1.90359375000000000e+03,9.11724853515625000e+01,3.95914428710937500e+02,3.36932739257812500e+02,3.60320312500000000e+02,0.00000000000000000e+00,0.00000000000000000e+00,0.00000000000000000e+00,0.00000000000000000e+00,0.00000000000000000e+00,0.00000000000000000e+00,0.00000000000000000e+00,0.00000000000000000e+00],"parents":[2147483647,0,0,1,1,2,2,3,3,4,4,5,5,6,6],"right_children":[2,4,6,8,10,12,14,-1,-1,-1,-1,-1,-1,-1,-1],"split_conditions":[8.18965017795562744e-01,1.50000005960464478e-01,5.57144999504089355e-01,7.74394989013671875e-01,9.45155024528503418e-01,1.50000005960464478e-01,9.05004978179931641e-01,2.65225380659103394e-01,-2.31365934014320374e-02,-3.13261412084102631e-02,-2.60241001844406128e-01,1.52752548456192017e-01,-2.96664386987686157e-01,-3.52687329053878784e-01,-4.47771102190017700e-01],"split_indices":[3,5,0,3,4,5,3,0,0,0,0,0,0,0,0],"sum_hessian":[5.21057500000000000e+04,3.13866796875000000e+03,4.89670820312500000e+04,4.04862030029296875e+02,2.73380615234375000e+03,7.72580505371093750e+02,4.81945000000000000e+04,2.36075500488281250e+02,1.68786544799804688e+02,1.46629711914062500e+03,1.26750891113281250e+03,5.69855407714843750e+02,2.02725082397460938e+02,3.92748144531250000e+03,4.42670195312500000e+04],"tree_param":{"num_deleted":"0","num_feature":"6","num_nodes":"15","size_leaf_vector":"0"}},{"base_weights":[-1.15701997280120850e+00,-3.91489624977111816e-01,-1.24362158775329590e+00,5.86925864219665527e-01,-4.78240668773651123e-01,-1.91597752273082733e-02,-1.26457512378692627e+00,1.71036350727081299e+00,3.27070236206054688e-01,8.52496251463890076e-02,-6.11720860004425049e-01,2.83290296792984009e-01,-9.41363155841827393e-01,-1.27327525615692139e+00,-7.31458187103271484e-01],"default_left":[true,true,true,true,true,true,true,false,false,false,false,false,false,false,false],"id":2,"leaf_child_counts":[0,0,0,0,0,0,0,0,0,0,0,0,0,0,0],"left_children":[1,3,5,7,9,11,13,-1,-1,-1,-1,-1,-1,-1,-1],"loss_changes":[2.96188281250000000e+03,3.85854248046875000e+02,1.02989843750000000e+03,1.07577568054199219e+02,3.13940795898437500e+02,1.88925125122070312e+02,1.82121093750000000e+02,0.00000000000000000e+00,0.00000000000000000e+00,0.00000000000000000e+00,0.00000000000000000e+00,0.00000000000000000e+00,0.00000000000000000e+00,0.00000000000000000e+00,0.00000000000000000e+00],"parents":[2147483647,0,0,1,1,2,2,3,3,4,4,5,5,6,6],"right_children":[2,4,6,8,10,12,14,-1,-1,-1,-1,-1,-1,-1,-1],"split_conditions":[8.70660006999969482e-01,1.74964994192123413e-01,5.44595003128051758e-01,7.96079993247985840e-01,1.50000005960464478e-01,1.50000005960464478e-01,9.49999988079071045e-01,5.13109087944030762e-01,9.81210768222808838e-02,2.55748890340328217e-02,-1.83516263961791992e-01,8.49870890378952026e-02,-2.82408952713012695e-01,-3.81982594728469849e-01,-2.19437465071678162e-01],"split_indices":[3,3,0,0,5,5,5,0,0,0,0,0,0,0,0],"sum_hessian":[4.46828085937500000e+04,4.54164892578125000e+03,4.01411601562500000e+04,3.69418853759765625e+02,4.17222998046875000e+03,6.75388061523437500e+02,3.94657695312500000e+04,6.83478088378906250e+01,3.01071044921875000e+02,7.99113037109375000e+02,3.37311694335937500e+03,5.09110595703125000e+02,1.66277450561523438e+02,3.88306953125000000e+04,6.35074890136718750e+02],"tree_param":{"num_deleted":"0","num_feature":"6","num_nodes":"15","size_leaf_vector":"0"}},{"base_weights":[-1.01011323928833008e+00,-3.45843374729156494e-01,-1.11692702770233154e+00,-3.57834473252296448e-02,-5.94182074069976807e-01,-8.56649130582809448e-02,-1.13725233078002930e+00,1.53387293219566345e-01,-2.85724252462387085e-01,1.04649043083190918e+00,-6.85759902000427246e-01,1.37393608689308167e-01,-8.30675601959228516e-01,-1.14604437351226807e+00,-6.24471247196197510e-01],"default_left":[true,true,true,true,true,true,true,false,false,false,false,false,false,false,false],"id":3,"leaf_child_counts":[0,0,0,0,0,0,0,0,0,0,0,0,0,0,0],"left_children":[1,3,5,7,9,11,13,-1,-1,-1,-1,-1,-1,-1,-1],"loss_changes":[2.63966796875000000e+03,3.96968261718750000e+02,6.71773437500000000e+02,1.08506851196289062e+02,4.30840942382812500e+02,1.03249694824218750e+02,1.41000000000000000e+02,0.00000000000000000e+00,0.00000000000000000e+00,0.00000000000000000e+00,0.00000000000000000e+00,0.00000000000000000e+00,0.00000000000000000e+00,0.00000000000000000e+00,0.00000000000000000e+00],"parents":[2147483647,0,0,1,1,2,2,3,3,4,4,5,5,6,6],"right_children":[2,4,6,8,10,12,14,-1,-1,-1,-1,-1,-1,-1,-1],"split_conditions":[8.88665020465850830e-01,7.74384975433349609e-01,5.66330015659332275e-01,7.50000000000000000e-01,5.73544979095458984e-01,1.50000005960464478e-01,9.49999988079071045e-01,4.60161902010440826e-02,-8.57172757387161255e-02,3.13947141170501709e-01,-2.05727979540824890e-01,4.12180833518505096e-02,-2.49202683568000793e-01,-3.43813329935073853e-01,-1.87341377139091492e-01],"split_indices":[3,3,0,5,0,5,5,0,0,0,0,0,0,0,0],"sum_hessian":[3.72074375000000000e+04,5.15471679687500000e+03,3.20527207031250000e+04,2.29298510742187500e+03,2.86173168945312500e+03,6.19621948242187500e+02,3.14330996093750000e+04,1.30537927246093750e+03,9.87605834960937500e+02,1.50738220214843750e+02,2.71099365234375000e+03,4.77478881835937500e+02,1.42143096923828125e+02,3.09020195312500000e+04,5.31080200195312500e+02],"tree_param":{"num_deleted":"0","num_feature":"6","num_nodes":"15","size_leaf_vector":"0"}},{"base_weights":[-8.95453870296478271e-01,-2.75587439537048340e-01,-1.01944375038146973e+00,-3.81810739636421204e-02,-4.97460514307022095e-01,-9.31464433670043945e-02,-1.04183769226074219e+00,8.24450105428695679e-02,-3.64053994417190552e-01,7.46935963630676270e-01,-5.69689273834228516e-01,-1.29531219601631165e-01,3.03246712684631348e+00,-9.07568395137786865e-01,-1.09120082855224609e+00],"default_left":[true,true,true,true,true,true,true,false,false,false,false,false,false,false,false],"id":4,"leaf_child_counts":[0,0,0,0,0,0,0,0,0,0,0,0,0,0,0],"left_children":[1,3,5,7,9,11,13,-1,-1,-1,-1,-1,-1,-1,-1],"loss_changes":[2.35393164062500000e+03,2.68993377685546875e+02,5.29380859375000000e+02,9.70548553466796875e+01,2.37697143554687500e+02,6.90392074584960938e+01,1.64193359375000000e+02,0.00000000000000000e+00,0.00000000000000000e+00,0.00000000000000000e+00,0.00000000000000000e+00,0.00000000000000000e+00,0.00000000000000000e+00,0.00000000000000000e+00,0.00000000000000000e+00],"parents":[2147483647,0,0,1,1,2,2,3,3,4,4,5,5,6,6],"right_children":[2,4,6,8,10,12,14,-1,-1,-1,-1,-1,-1,-1,-1],"split_conditions":[8.93455028533935547e-01,7.88645029067993164e-01,6.08539998531341553e-01,6.30615472793579102e-01,5.76539993286132812e-01,8.50000023841857910e-01,1.50000005960464478e-01,2.47335042804479599e-02,-1.09216205775737762e-01,2.24080801010131836e-01,-1.70906782150268555e-01,-3.88593673706054688e-02,9.09740149974822998e-01,-2.72270530462265015e-01,-3.27360272407531738e-01],"split_indices":[3,3,0,2,0,5,5,0,0,0,0,0,0,0,0],"sum_hessian":[3.06300292968750000e+04,5.10610986328125000e+03,2.55239199218750000e+04,2.46727441406250000e+03,2.63883544921875000e+03,6.02618774414062500e+02,2.49213007812500000e+04,1.80126123046875000e+03,6.66013183593750000e+02,1.44251495361328125e+02,2.49458398437500000e+03,5.96632080078125000e+02,5.98674297332763672e+00,6.70441992187500000e+03,1.82168808593750000e+04],"tree_param":{"num_deleted":"0","num_feature":"6","num_nodes":"15","size_leaf_vector":"0"}},{"base_weights":[-7.93305814266204834e-01,-2.53541648387908936e-01,-9.46965157985687256e-01,2.03763097524642944e-01,-3.52267861366271973e-01,-4.94335815310478210e-02,-9.70729887485504150e-01,5.24128794670104980e-01,-1.74974724650382996e-01,1.48372784256935120e-01,-5.21828889846801758e-01,1.78916737437248230e-01,-1.03258299827575684e+00,-9.82985615730285645e-01,-3.23643893003463745e-01],"default_left":[true,true,true,true,true,true,true,false,false,false,false,false,false,false,false],"id":5,"leaf_child_counts":[0,0,0,0,0,0,0,0,0,0,0,0,0,0,0],"left_children":[1,3,5,7,9,11,13,-1,-1,-1,-1,-1,-1,-1,-1],"loss_changes":[2.09541015625000000e+03,2.52920013427734375e+02,4.19455078125000000e+02,1.20822105407714844e+02,3.91112121582031250e+02,1.14317100524902344e+02,1.51632812500000000e+02,0.00000000000000000e+00,0.00000000000000000e+00,0.00000000000000000e+00,0.00000000000000000e+00,0.00000000000000000e+00,0.00000000000000000e+00,0.00000000000000000e+00,0.00000000000000000e+00],"parents":[2147483647,0,0,1,1,2,2,3,3,4,4,5,5,6,6],"right_children":[2,4,6,8,10,12,14,-1,-1,-1,-1,-1,-1,-1,-1],"split_conditions":[9.09274995326995850e-01,4.06550019979476929e-02,3.70274990797042847e-01,6.16942107677459717e-01,1.50000005960464478e-01,1.50000005960464478e-01,9.49999988079071045e-01,1.57238647341728210e-01,-5.24924211204051971e-02,4.45118360221385956e-02,-1.56548678874969482e-01,5.36750219762325287e-02,-3.09774905443191528e-01,-2.94895708560943604e-01,-9.70931723713874817e-02],"split_indices":[3,4,0,2,5,5,5,0,0,0,0,0,0,0,0],"sum_hessian":[2.52661054687500000e+04,5.59943554687500000e+03,1.96666699218750000e+04,9.94020263671875000e+02,4.60541552734375000e+03,5.07379028320312500e+02,1.91592910156250000e+04,5.38300354003906250e+02,4.55719909667968750e+02,1.16520178222656250e+03,3.44021362304687500e+03,4.12409179687500000e+02,9.49698410034179688e+01,1.88026523437500000e+04,3.56638885498046875e+02],"tree_param":{"num_deleted":"0","num_feature":"6","num_nodes":"15","size_leaf_vector":"0"}},{"base_weights":[-6.97294831275939941e-01,-1.98869034647941589e-01,-8.74637424945831299e-01,1.85675043612718582e-02,-3.91698449850082397e-01,-1.05637021362781525e-01,-9.03622627258300781e-01,5.05474746227264404e-01,-5.81715181469917297e-02,-4.71650749444961548e-01,5.85024058818817139e-01,-2.58814781904220581e-01,6.67790532112121582e-01,-7.23745882511138916e-01,-9.72515702247619629e-01],"default_left":[true,true,true,true,true,true,true,false,false,false,false,false,false,false,false],"id":6,"leaf_child_counts":[0,0,0,0,0,0,0,0,0,0,0,0,0,0,0],"left_children":[1,3,5,7,9,11,13,-1,-1,-1,-1,-1,-1,-1,-1],"loss_changes":[1.85781445312500000e+03,2.31348175048828125e+02,3.45467773437500000e+02,9.69635543823242188e+01,2.28637176513671875e+02,6.70215530395507812e+01,1.84436523437500000e+02,0.00000000000000000e+00,0.00000000000000000e+00,0.00000000000000000e+00,0.00000000000000000e+00,0.00000000000000000e+00,0.00000000000000000e+00,0.00000000000000000e+00,0.00000000000000000e+00],"parents":[2147483647,0,0,1,1,2,2,3,3,4,4,5,5,6,6],"right_children":[2,4,6,8,10,12,14,-1,-1,-1,-1,-1,-1,-1,-1],"split_conditions":[9.12964999675750732e-01,8.04205000400543213e-01,6.71824991703033447e-01,1.56810000538825989e-01,9.49999988079071045e-01,6.41999542713165283e-01,1.50000005960464478e-01,1.51642426848411560e-01,-1.74514558166265488e-02,-1.41495227813720703e-01,1.75507217645645142e-01,-7.76444375514984131e-02,2.00337171554565430e-01,-2.17123776674270630e-01,-2.91754722595214844e-01],"split_indices":[3,3,0,3,5,2,5,0,0,0,0,0,0,0,0],"sum_hessian":[2.10188437500000000e+04,5.51655419921875000e+03,1.55022890625000000e+04,2.59326464843750000e+03,2.92328955078125000e+03,5.63258056640625000e+02,1.49390312500000000e+04,3.52305816650390625e+02,2.24095874023437500e+03,2.70257958984375000e+03,2.20709884643554688e+02,4.70700836181640625e+02,9.25571899414062500e+01,4.14032519531250000e+03,1.07987060546875000e+04],"tree_param":{"num_deleted":"0","num_feature":"6","num_nodes":"15","size_leaf_vector":"0"}},{"base_weights":[-6.03460133075714111e-01,-1.71484395861625671e-01,-8.11889708042144775e-01,2.09542468190193176e-01,-2.82704234123229980e-01,-5.74156999588012695e-01,-9.20924663543701172e-01,7.72464156150817871e-01,1.00787319242954254e-02,6.01964667439460754e-02,-5.17348766326904297e-01,5.20554073154926300e-02,-6.67820751667022705e-01,-9.79032218456268311e-01,-3.42010766267776489e-01],"default_left":[true,true,true,true,true,true,true,false,false,false,false,false,false,false,false],"id":7,"leaf_child_counts":[0,0,0,0,0,0,0,0,0,0,0,0,0,0,0],"left_children":[1,3,5,7,9,11,13,-1,-1,-1,-1,-1,-1,-1,-1],"loss_changes":[1.59804150390625000e+03,2.44934448242187500e+02,3.09825195312500000e+02,1.46651397705078125e+02,3.59946105957031250e+02,2.21002319335937500e+02,2.75729980468750000e+02,0.00000000000000000e+00,0.00000000000000000e+00,0.00000000000000000e+00,0.00000000000000000e+00,0.00000000000000000e+00,0.00000000000000000e+00,0.00000000000000000e+00,0.00000000000000000e+00],"parents":[2147483647,0,0,1,1,2,2,3,3,4,4,5,5,6,6],"right_children":[2,4,6,8,10,12,14,-1,-1,-1,-1,-1,-1,-1,-1],"split_conditions":[9.22924995422363281e-01,1.50000005960464478e-01,1.50000005960464478e-01,8.74745011329650879e-01,9.47654962539672852e-01,8.61395001411437988e-01,7.50000000000000000e-01,2.31739252805709839e-01,3.02361976355314255e-03,1.80589407682418823e-02,-1.55204638838768005e-01,1.56166227534413338e-02,-2.00346231460571289e-01,-2.93709665536880493e-01,-1.02603234350681305e-01],"split_indices":[3,5,5,1,4,1,5,0,0,0,0,0,0,0,0],"sum_hessian":[1.77493613281250000e+04,5.77739111328125000e+03,1.19719687500000000e+04,1.30516296386718750e+03,4.47222851562500000e+03,3.76634375000000000e+03,8.20562500000000000e+03,3.40719665527343750e+02,9.64443359375000000e+02,1.81727478027343750e+03,2.65495361328125000e+03,4.90100158691406250e+02,3.27624365234375000e+03,7.45650000000000000e+03,7.49125305175781250e+02],"tree_param":{"num_deleted":"0","num_feature":"6","num_nodes":"15","size_leaf_vector":"0"}},{"base_weights":[-5.12746334075927734e-01,-1.51306495070457458e-01,-7.49562561511993408e-01,9.95878688991069794e-03,-3.47402215003967285e-01,1.22073143720626831e-02,-7.92538166046142578e-01,7.56359398365020752e-02,-2.94470429420471191e-01,4.57969792187213898e-02,-5.41539251804351807e-01,1.47962659597396851e-01,-6.79101347923278809e-01,-8.30322444438934326e-01,-3.04077029228210449e-01],"default_left":[true,true,true,true,true,true,true,false,false,false,false,false,false,false,false],"id":8,"leaf_child_counts":[0,0,0,0,0,0,0,0,0,0,0,0,0,0,0],"left_children":[1,3,5,7,9,11,13,-1,-1,-1,-1,-1,-1,-1,-1],"loss_changes":[1.30730859375000000e+03,1.91249176025390625e+02,3.02110351562500000e+02,6.63922271728515625e+01,2.08350006103515625e+02,4.64414329528808594e+01,1.60965332031250000e+02,0.00000000000000000e+00,0.00000000000000000e+00,0.00000000000000000e+00,0.00000000000000000e+00,0.00000000000000000e+00,0.00000000000000000e+00,0.00000000000000000e+00,0.00000000000000000e+00],"parents":[2147483647,0,0,1,1,2,2,3,3,4,4,5,5,6,6],"right_children":[2,4,6,8,10,12,14,-1,-1,-1,-1,-1,-1,-1,-1],"split_conditions":[9.32294964790344238e-01,8.52999985218048096e-01,6.95464968681335449e-01,6.44849658012390137e-01,1.50000005960464478e-01,1.50000005960464478e-01,7.50000000000000000e-01,2.26907823234796524e-02,-8.83411318063735962e-02,1.37390941381454468e-02,-1.62461787462234497e-01,4.43888008594512939e-02,-2.03730419278144836e-01,-2.49096736311912537e-01,-9.12231132388114929e-02],"split_indices":[3,3,0,2,5,5,5,0,0,0,0,0,0,0,0],"sum_hessian":[1.52735468750000000e+04,6.04659472656250000e+03,9.22695214843750000e+03,3.31848608398437500e+03,2.72810839843750000e+03,4.92782806396484375e+02,8.73416894531250000e+03,2.73022290039062500e+03,5.88263122558593750e+02,9.01996398925781250e+02,1.82611206054687500e+03,4.12553771972656250e+02,8.02290420532226562e+01,8.10640820312500000e+03,6.27760864257812500e+02],"tree_param":{"num_deleted":"0","num_feature":"6","num_nodes":"15","size_leaf_vector":"0"}},{"base_weights":[-4.27951961755752563e-01,-1.13532952964305878e-01,-6.71416819095611572e-01,4.38518881797790527e-01,-1.60695359110832214e-01,-3.75116646289825439e-01,-8.26947867870330811e-01,3.37094247341156006e-01,2.00259399414062500e+00,7.70076885819435120e-02,-2.74404913187026978e-01,1.88548245932906866e-03,-5.20593404769897461e-01,-9.31590318679809570e-01,-3.24898213148117065e-01],"default_left":[true,true,true,true,true,true,true,false,false,false,false,false,false,false,false],"id":9,"leaf_child_counts":[0,0,0,0,0,0,0,0,0,0,0,0,0,0,0],"left_children":[1,3,5,7,9,11,13,-1,-1,-1,-1,-1,-1,-1,-1],"loss_changes":[1.02251318359375000e+03,1.51885284423828125e+02,3.46633056640625000e+02,7.21711502075195312e+01,1.45241317749023438e+02,1.42232055664062500e+02,2.59023681640625000e+02,0.00000000000000000e+00,0.00000000000000000e+00,0.00000000000000000e+00,0.00000000000000000e+00,0.00000000000000000e+00,0.00000000000000000e+00,0.00000000000000000e+00,0.00000000000000000e+00],"parents":[2147483647,0,0,1,1,2,2,3,3,4,4,5,5,6,6],"right_children":[2,4,6,8,10,12,14,-1,-1,-1,-1,-1,-1,-1,-1],"split_conditions":[9.32365000247955322e-01,5.98909974098205566e-01,1.50000005960464478e-01,4.82349991798400879e-01,7.50734984874725342e-01,9.09860014915466309e-01,6.49999976158142090e-01,1.01128280162811279e-01,6.00778222084045410e-01,2.31023076921701431e-02,-8.23214799165725708e-02,5.65644761081784964e-04,-1.56178027391433716e-01,-2.79477119445800781e-01,-9.74694713950157166e-02],"split_indices":[3,0,5,0,3,1,5,0,0,0,0,0,0,0,0],"sum_hessian":[1.33574560546875000e+04,5.82993701171875000e+03,7.52751855468750000e+03,4.58204254150390625e+02,5.37173291015625000e+03,2.59232568359375000e+03,4.93519287109375000e+03,4.31442291259765625e+02,2.67619590759277344e+01,1.73828149414062500e+03,3.63345117187500000e+03,7.22070800781250000e+02,1.87025488281250000e+03,4.08326147460937500e+03,8.51931579589843750e+02],"tree_param":{"num_deleted":"0","num_feature":"6","num_nodes":"15","size_leaf_vector":"0"}},{"base_weights":[-3.49413901567459106e-01,-9.59732830524444580e-02,-6.06990218162536621e-01,1.66500523686408997e-01,-1.86137363314628601e-01,-3.21219652891159058e-01,-7.81358778476715088e-01,4.83835816383361816e-01,-3.36502343416213989e-02,6.71230256557464600e-02,-3.47703844308853149e-01,4.67213124036788940e-01,-3.97944927215576172e-01,-9.03103828430175781e-01,-2.77823388576507568e-01],"default_left":[true,true,true,true,true,true,true,false,false,false,false,false,false,false,false],"id":10,"leaf_child_counts":[0,0,0,0,0,0,0,0,0,0,0,0,0,0,0],"left_children":[1,3,5,7,9,11,13,-1,-1,-1,-1,-1,-1,-1,-1],"loss_changes":[7.78645385742187500e+02,1.42351013183593750e+02,2.94532226562500000e+02,9.77120513916015625e+01,1.83199066162109375e+02,1.35901016235351562e+02,2.24936767578125000e+02,0.00000000000000000e+00,0.00000000000000000e+00,0.00000000000000000e+00,0.00000000000000000e+00,0.00000000000000000e+00,0.00000000000000000e+00,0.00000000000000000e+00,0.00000000000000000e+00],"parents":[2147483647,0,0,1,1,2,2,3,3,4,4,5,5,6,6],"right_children":[2,4,6,8,10,12,14,-1,-1,-1,-1,-1,-1,-1,-1],"split_conditions":[9.40245032310485840e-01,1.50000005960464478e-01,1.50000005960464478e-01,9.13139998912811279e-01,9.27264988422393799e-01,4.26350012421607971e-02,6.49999976158142090e-01,1.45150750875473022e-01,-1.00950710475444794e-02,2.01369076967239380e-02,-1.04311160743236542e-01,1.40163943171501160e-01,-1.19383484125137329e-01,-2.70931154489517212e-01,-8.33470225334167480e-02],"split_indices":[3,5,5,1,4,0,5,0,0,0,0,0,0,0,0],"sum_hessian":[1.19276162109375000e+04,6.01276562500000000e+03,5.91485058593750000e+03,1.53715515136718750e+03,4.47561083984375000e+03,2.24249438476562500e+03,3.67235620117187500e+03,5.93985229492187500e+02,9.43169921875000000e+02,1.74338549804687500e+03,2.73222509765625000e+03,1.98420989990234375e+02,2.04407336425781250e+03,2.95669165039062500e+03,7.15664306640625000e+02],"tree_param":{"num_deleted":"0","num_feature":"6","num_nodes":"15","size_leaf_vector":"0"}},{"base_weights":[-2.80225157737731934e-01,-8.32909420132637024e-02,-5.46610951423645020e-01,3.41171734035015106e-02,-2.25412309169769287e-01,-2.76437729597091675e-01,-7.38328576087951660e-01,4.01066809892654419e-01,-7.41154234856367111e-03,-2.93532371520996094e-01,1.01310873031616211e+00,1.84255957603454590e-01,-3.92321765422821045e-01,-8.75501334667205811e-01,-2.49872520565986633e-01],"default_left":[true,true,true,true,true,true,true,false,false,false,false,false,false,false,false],"id":11,"leaf_child_counts":[0,0,0,0,0,0,0,0,0,0,0,0,0,0,0],"left_children":[1,3,5,7,9,11,13,-1,-1,-1,-1,-1,-1,-1,-1],"loss_changes":[5.68614501953125000e+02,1.04021286010742188e+02,2.38438476562500000e+02,5.20349960327148438e+01,2.38223800659179688e+02,1.02252029418945312e+02,1.80308837890625000e+02,0.00000000000000000e+00,0.00000000000000000e+00,0.00000000000000000e+00,0.00000000000000000e+00,0.00000000000000000e+00,0.00000000000000000e+00,0.00000000000000000e+00,0.00000000000000000e+00],"parents":[2147483647,0,0,1,1,2,2,3,3,4,4,5,5,6,6],"right_children":[2,4,6,8,10,12,14,-1,-1,-1,-1,-1,-1,-1,-1],"split_conditions":[9.47724997997283936e-01,8.64184975624084473e-01,1.50000005960464478e-01,1.56810000538825989e-01,9.49999988079071045e-01,7.81574964523315430e-01,6.49999976158142090e-01,1.20320044457912445e-01,-2.22346279770135880e-03,-8.80597159266471863e-02,3.03932636976242065e-01,5.52767887711524963e-02,-1.17696531116962433e-01,-2.62650400400161743e-01,-7.49617591500282288e-02],"split_indices":[3,3,5,3,5,0,5,0,0,0,0,0,0,0,0],"sum_hessian":[1.08387773437500000e+04,6.23250927734375000e+03,4.60626855468750000e+03,3.41341088867187500e+03,2.81909838867187500e+03,1.91294311523437500e+03,2.69332543945312500e+03,3.46150604248046875e+02,3.06726025390625000e+03,2.67285156250000000e+03,1.46246841430664062e+02,3.84356140136718750e+02,1.52858691406250000e+03,2.10217944335937500e+03,5.91145935058593750e+02],"tree_param":{"num_deleted":"0","num_feature":"6","num_nodes":"15","size_leaf_vector":"0"}},{"base_weights":[-2.20813632011413574e-01,-6.82431086897850037e-02,-4.79553401470184326e-01,1.64011105895042419e-01,-1.54575586318969727e-01,-2.25963383913040161e-01,-6.86690747737884521e-01,3.07376444339752197e-01,-1.00527703762054443e-01,-2.94490575790405273e-01,1.00523978471755981e-01,-1.61135382950305939e-02,-4.56029415130615234e-01,-8.44055056571960449e-01,-2.11080700159072876e-01],"default_left":[true,true,true,true,true,true,true,false,false,false,false,false,false,false,false],"id":12,"leaf_child_counts":[0,0,0,0,0,0,0,0,0,0,0,0,0,0,0],"left_children":[1,3,5,7,9,11,13,-1,-1,-1,-1,-1,-1,-1,-1],"loss_changes":[3.95852661132812500e+02,1.26541900634765625e+02,1.95237365722656250e+02,6.48962707519531250e+01,1.64227691650390625e+02,8.08053588867187500e+01,1.53021850585937500e+02,0.00000000000000000e+00,0.00000000000000000e+00,0.00000000000000000e+00,0.00000000000000000e+00,0.00000000000000000e+00,0.00000000000000000e+00,0.00000000000000000e+00,0.00000000000000000e+00],"parents":[2147483647,0,0,1,1,2,2,3,3,4,4,5,5,6,6],"right_children":[2,4,6,8,10,12,14,-1,-1,-1,-1,-1,-1,-1,-1],"split_conditions":[9.52035009860992432e-01,1.50000005960464478e-01,1.50000005960464478e-01,9.58954989910125732e-01,7.50000000000000000e-01,9.86994981765747070e-01,6.49999976158142090e-01,9.22129377722740173e-02,-3.01583129912614822e-02,-8.83471742272377014e-02,3.01571954041719437e-02,-4.83406148850917816e-03,-1.36808827519416809e-01,-2.53216534852981567e-01,-6.33242130279541016e-02],"split_indices":[3,5,5,1,5,0,5,0,0,0,0,0,0,0,0],"sum_hessian":[1.00274931640625000e+04,6.30871191406250000e+03,3.71878076171875000e+03,1.70932775878906250e+03,4.59938427734375000e+03,1.67285803222656250e+03,2.04592272949218750e+03,1.10844836425781250e+03,6.00879394531250000e+02,2.97017285156250000e+03,1.62921154785156250e+03,8.75426330566406250e+02,7.97431640625000000e+02,1.53670190429687500e+03,5.09220825195312500e+02],"tree_param":{"num_deleted":"0","num_feature":"6","num_nodes":"15","size_leaf_vector":"0"}},{"base_weights":[-1.70333787798881531e-01,-5.25148473680019379e-02,-4.06575351953506470e-01,3.15080851316452026e-01,-9.41970050334930420e-02,-1.76467522978782654e-01,-6.24683380126953125e-01,-1.67672604322433472e-01,4.43528622388839722e-01,6.06767654418945312e-01,-1.20334953069686890e-01,4.60716411471366882e-02,-3.89414727687835693e-01,-8.01931977272033691e-01,-1.75008952617645264e-01],"default_left":[true,true,true,true,true,true,true,false,false,false,false,false,false,false,false],"id":13,"leaf_child_counts":[0,0,0,0,0,0,0,0,0,0,0,0,0,0,0],"left_children":[1,3,5,7,9,11,13,-1,-1,-1,-1,-1,-1,-1,-1],"loss_changes":[2.63297088623046875e+02,9.67657165527343750e+01,1.57879943847656250e+02,3.99591255187988281e+01,1.03980415344238281e+02,7.26761779785156250e+01,1.28638977050781250e+02,0.00000000000000000e+00,0.00000000000000000e+00,0.00000000000000000e+00,0.00000000000000000e+00,0.00000000000000000e+00,0.00000000000000000e+00,0.00000000000000000e+00,0.00000000000000000e+00],"parents":[2147483647,0,0,1,1,2,2,3,3,4,4,5,5,6,6],"right_children":[2,4,6,8,10,12,14,-1,-1,-1,-1,-1,-1,-1,-1],"split_conditions":[9.54294979572296143e-01,7.96045005321502686e-01,1.50000005960464478e-01,6.82099983096122742e-02,4.29849997162818909e-02,9.47404980659484863e-01,6.49999976158142090e-01,-5.03017827868461609e-02,1.33058592677116394e-01,1.82030305266380310e-01,-3.61004881560802460e-02,1.38214929029345512e-02,-1.16824425756931305e-01,-2.40579605102539062e-01,-5.25026880204677582e-02],"split_indices":[3,1,5,0,0,1,5,0,0,0,0,0,0,0,0],"sum_hessian":[9.45940820312500000e+03,6.31246386718750000e+03,3.14694433593750000e+03,6.42213378906250000e+02,5.67025048828125000e+03,1.53222692871093750e+03,1.61471740722656250e+03,1.34901000976562500e+02,5.07312377929687500e+02,2.03036132812500000e+02,5.46721435546875000e+03,7.49622375488281250e+02,7.82604553222656250e+02,1.15763000488281250e+03,4.57087463378906250e+02],"tree_param":{"num_deleted":"0","num_feature":"6","num_nodes":"15","size_leaf_vector":"0"}},{"base_weights":[-1.29086524248123169e-01,3.27051803469657898e-02,-2.59843647480010986e-01,6.74681663513183594e-02,-2.79303103685379028e-01,-5.31171411275863647e-02,-4.36828434467315674e-01,2.58610993623733521e-01,-1.81624887045472860e-03,3.79595696926116943e-01,-3.70286524295806885e-01,2.51337021589279175e-01,-1.65437087416648865e-01,-6.40779912471771240e-01,2.42509599775075912e-02],"default_left":[true,true,true,true,true,true,true,false,false,false,false,false,false,false,false],"id":14,"leaf_child_counts":[0,0,0,0,0,0,0,0,0,0,0,0,0,0,0],"left_children":[1,3,5,7,9,11,13,-1,-1,-1,-1,-1,-1,-1,-1],"loss_changes":[1.91202453613281250e+02,4.38414497375488281e+01,1.82850952148437500e+02,4.81539611816406250e+01,2.44334163665771484e+01,7.89175491333007812e+01,2.53231994628906250e+02,0.00000000000000000e+00,0.00000000000000000e+00,0.00000000000000000e+00,0.00000000000000000e+00,0.00000000000000000e+00,0.00000000000000000e+00,0.00000000000000000e+00,0.00000000000000000e+00],"parents":[2147483647,0,0,1,1,2,2,3,3,4,4,5,5,6,6],"right_children":[2,4,6,8,10,12,14,-1,-1,-1,-1,-1,-1,-1,-1],"split_conditions":[8.95604968070983887e-01,6.62255167961120605e-01,1.50000005960464478e-01,6.25450015068054199e-01,7.50280022621154785e-01,8.90115022659301758e-01,6.49999976158142090e-01,7.75832980871200562e-02,-5.44874696061015129e-04,1.13878712058067322e-01,-1.11085958778858185e-01,7.54011124372482300e-02,-4.96311299502849579e-02,-1.92233979701995850e-01,7.27528845891356468e-03],"split_indices":[3,2,5,3,0,1,5,0,0,0,0,0,0,0,0],"sum_hessian":[9.03658789062500000e+03,4.03931323242187500e+03,4.99727539062500000e+03,3.63508691406250000e+03,4.04226226806640625e+02,2.30556616210937500e+03,2.69170898437500000e+03,9.66356445312500000e+02,2.66873046875000000e+03,4.86600112915039062e+01,3.55566223144531250e+02,6.21012756347656250e+02,1.68455334472656250e+03,1.86594628906250000e+03,8.25762695312500000e+02],"tree_param":{"num_deleted":"0","num_feature":"6","num_nodes":"15","size_leaf_vector":"0"}},{"base_weights":[-9.81653332710266113e-02,-2.75782756507396698e-02,-3.30509424209594727e-01,1.13721653819084167e-01,-8.81574302911758423e-02,2.21739277243614197e-01,-4.25307482481002808e-01,1.30468457937240601e-01,-1.18781840801239014e+00,-1.91145583987236023e-01,8.23506787419319153e-02,-6.16671383380889893e-01,4.42915141582489014e-01,5.76010107994079590e-01,-4.71134841442108154e-01],"default_left":[true,true,true,true,true,true,true,false,false,false,false,false,false,false,false],"id":15,"leaf_child_counts":[0,0,0,0,0,0,0,0,0,0,0,0,0,0,0],"left_children":[1,3,5,7,9,11,13,-1,-1,-1,-1,-1,-1,-1,-1],"loss_changes":[1.42281250000000000e+02,5.69795837402343750e+01,1.05925704956054688e+02,4.36955184936523438e+01,8.18270111083984375e+01,5.53160476684570312e+01,7.94598999023437500e+01,0.00000000000000000e+00,0.00000000000000000e+00,0.00000000000000000e+00,0.00000000000000000e+00,0.00000000000000000e+00,0.00000000000000000e+00,0.00000000000000000e+00,0.00000000000000000e+00],"parents":[2147483647,0,0,1,1,2,2,3,3,4,4,5,5,6,6],"right_children":[2,4,6,8,10,12,14,-1,-1,-1,-1,-1,-1,-1,-1],"split_conditions":[9.66704964637756348e-01,1.50000005960464478e-01,7.81809985637664795e-01,7.10253000259399414e-01,7.50000000000000000e-01,7.67690002918243408e-01,8.04370045661926270e-01,3.91405373811721802e-02,-3.56345534324645996e-01,-5.73436766862869263e-02,2.47052051126956940e-02,-1.85001417994499207e-01,1.32874548435211182e-01,1.72803044319152832e-01,-1.41340464353561401e-01],"split_indices":[3,5,0,2,5,1,1,0,0,0,0,0,0,0,0],"sum_hessian":[8.67498437500000000e+03,6.65445410156250000e+03,2.02053076171875000e+03,1.99658154296875000e+03,4.65787255859375000e+03,2.95829376220703125e+02,1.72470141601562500e+03,1.97210644531250000e+03,2.44751605987548828e+01,2.90382177734375000e+03,1.75405078125000000e+03,6.13775482177734375e+01,2.34451812744140625e+02,7.49736938476562500e+01,1.64972766113281250e+03],"tree_param":{"num_deleted":"0","num_feature":"6","num_nodes":"15","size_leaf_vector":"0"}},{"base_weights":[-7.31235370039939880e-02,-4.99789193272590637e-02,-5.69850146770477295e-01,6.79117143154144287e-02,-1.27702906727790833e-01,3.12604159116744995e-01,-6.71875357627868652e-01,2.41766512393951416e-01,-4.68028672039508820e-02,-1.71583399176597595e-01,6.17269337177276611e-01,7.78653323650360107e-01,-1.45690965652465820e+00,-4.15072202682495117e-01,-7.94739842414855957e-01],"default_left":[true,true,true,true,true,true,true,false,false,false,false,false,false,false,false],"id":16,"leaf_child_counts":[0,0,0,0,0,0,0,0,0,0,0,0,0,0,0],"left_children":[1,3,5,7,9,11,13,-1,-1,-1,-1,-1,-1,-1,-1],"loss_changes":[9.69810180664062500e+01,7.38946304321289062e+01,3.40234832763671875e+01,6.39222335815429688e+01,1.58978149414062500e+02,3.37951202392578125e+01,1.03020477294921875e+01,0.00000000000000000e+00,0.00000000000000000e+00,0.00000000000000000e+00,0.00000000000000000e+00,0.00000000000000000e+00,0.00000000000000000e+00,0.00000000000000000e+00,0.00000000000000000e+00],"parents":[2147483647,0,0,1,1,2,2,3,3,4,4,5,5,6,6],"right_children":[2,4,6,8,10,12,14,-1,-1,-1,-1,-1,-1,-1,-1],"split_conditions":[6.95688128471374512e-01,8.64184975624084473e-01,7.76129961013793945e-01,3.50000023841857910e-01,9.49999988079071045e-01,7.59943604469299316e-01,8.84835004806518555e-01,7.25299566984176636e-02,-1.40408603474497795e-02,-5.14750219881534576e-02,1.85180813074111938e-01,2.33596011996269226e-01,-4.37072902917861938e-01,-1.24521665275096893e-01,-2.38421961665153503e-01],"split_indices":[2,3,0,5,5,2,3,0,0,0,0,0,0,0,0],"sum_hessian":[8.43714160156250000e+03,8.06257275390625000e+03,3.74569122314453125e+02,3.20356982421875000e+03,4.85900244140625000e+03,3.86040573120117188e+01,3.35965057373046875e+02,1.27307031250000000e+03,1.93049951171875000e+03,4.58944433593750000e+03,2.69558532714843750e+02,3.09994735717773438e+01,7.60458517074584961e+00,1.10138732910156250e+02,2.25826339721679688e+02],"tree_param":{"num_deleted":"0","num_feature":"6","num_nodes":"15","size_leaf_vector":"0"}},{"base_weights":[-5.42035885155200958e-02,3.21925222873687744e-01,-7.61843249201774597e-02,-1.53063967823982239e-01,9.75223898887634277e-01,1.95847645401954651e-01,-1.23799480497837067e-01,-3.01095247268676758e-01,9.29805457592010498e-01,1.04196345806121826e+00,-1.69439888000488281e+00,-9.87241685390472412e-01,2.79053062200546265e-01,-7.40995928645133972e-02,-3.71395826339721680e-01],"default_left":[true,true,true,true,true,true,true,false,false,false,false,false,false,false,false],"id":17,"leaf_child_counts":[0,0,0,0,0,0,0,0,0,0,0,0,0,0,0],"left_children":[1,3,5,7,9,11,13,-1,-1,-1,-1,-1,-1,-1,-1],"loss_changes":[6.82870788574218750e+01,1.41670349121093750e+02,1.01076934814453125e+02,4.27483940124511719e+01,3.59972381591796875e+01,1.14713691711425781e+02,8.16817855834960938e+01,0.00000000000000000e+00,0.00000000000000000e+00,0.00000000000000000e+00,0.00000000000000000e+00,0.00000000000000000e+00,0.00000000000000000e+00,0.00000000000000000e+00,0.00000000000000000e+00],"parents":[2147483647,0,0,1,1,2,2,3,3,4,4,5,5,6,6],"right_children":[2,4,6,8,10,12,14,-1,-1,-1,-1,-1,-1,-1,-1],"split_conditions":[4.26350012421607971e-02,9.07790005207061768e-01,8.40855002403259277e-01,6.42019391059875488e-01,7.61353254318237305e-01,6.81699961423873901e-02,9.73914980888366699e-01,-9.03285741806030273e-02,2.78941661119461060e-01,3.12589049339294434e-01,-5.08319675922393799e-01,-2.96172529458999634e-01,8.37159231305122375e-02,-2.22298782318830490e-02,-1.11418753862380981e-01],"split_indices":[0,1,1,2,2,0,3,0,0,0,0,0,0,0,0],"sum_hessian":[8.25564648437500000e+03,4.55063812255859375e+02,7.80058300781250000e+03,2.63933380126953125e+02,1.91130432128906250e+02,1.16152380371093750e+03,6.63905908203125000e+03,2.32827194213867188e+02,3.11061801910400391e+01,1.87063613891601562e+02,4.06681823730468750e+00,7.56072387695312500e+01,1.08591662597656250e+03,5.53027001953125000e+03,1.10878894042968750e+03],"tree_param":{"num_deleted":"0","num_feature":"6","num_nodes":"15","size_leaf_vector":"0"}},{"base_weights":[-3.93582396209239960e-02,7.60566443204879761e-02,-1.05294913053512573e-01,3.65372776985168457e+00,7.10653662681579590e-02,-5.58503381907939911e-02,-4.85106676816940308e-01,9.80105221271514893e-01,4.31527566909790039e+00,1.62711396813392639e-01,-9.91027131676673889e-02,6.78173005580902100e-02,-1.65139392018318176e-01,-6.63521051406860352e-01,8.20955112576484680e-02],"default_left":[true,true,true,true,true,true,true,false,false,false,false,false,false,false,false],"id":18,"leaf_child_counts":[0,0,0,0,0,0,0,0,0,0,0,0,0,0,0],"left_children":[1,3,5,7,9,11,13,-1,-1,-1,-1,-1,-1,-1,-1],"loss_changes":[6.17098426818847656e+01,5.23920974731445312e+01,9.68836975097656250e+01,3.00102996826171875e+00,4.59504318237304688e+01,6.17384490966796875e+01,6.01939239501953125e+01,0.00000000000000000e+00,0.00000000000000000e+00,0.00000000000000000e+00,0.00000000000000000e+00,0.00000000000000000e+00,0.00000000000000000e+00,0.00000000000000000e+00,0.00000000000000000e+00],"parents":[2147483647,0,0,1,1,2,2,3,3,4,4,5,5,6,6],"right_children":[2,4,6,8,10,12,14,-1,-1,-1,-1,-1,-1,-1,-1],"split_conditions":[1.50000005960464478e-01,5.00000007450580597e-02,9.69125032424926758e-01,9.18905019760131836e-01,9.58715021610260010e-01,9.80414986610412598e-01,7.50000000000000000e-01,2.94031590223312378e-01,1.29458272457122803e+00,4.88134212791919708e-02,-2.97308154404163361e-02,2.03451905399560928e-02,-4.95418198406696320e-02,-1.99056327342987061e-01,2.46286541223526001e-02],"split_indices":[5,5,3,1,1,4,5,0,0,0,0,0,0,0,0],"sum_hessian":[8.10691503906250000e+03,2.94749560546875000e+03,5.15941943359375000e+03,3.08793783187866211e+00,2.94440771484375000e+03,4.56613867187500000e+03,5.93281066894531250e+02,1.10473287105560303e+00,1.98320496082305908e+00,1.91376879882812500e+03,1.03063891601562500e+03,2.14233129882812500e+03,2.42380712890625000e+03,4.51189025878906250e+02,1.42092041015625000e+02],"tree_param":{"num_deleted":"0","num_feature":"6","num_nodes":"15","size_leaf_vector":"0"}},{"base_weights":[-2.96221096068620682e-02,-1.50633528828620911e-02,-5.03590703010559082e-01,3.83496373891830444e-01,-2.88216397166252136e-02,1.47144645452499390e-01,-5.93373954296112061e-01,-6.43645584583282471e-01,9.76660549640655518e-01,3.16173195838928223e-01,-5.30842542648315430e-02,-5.31333446502685547e-01,1.32785928249359131e+00,-4.39472019672393799e-01,-8.32361161708831787e-01],"default_left":[true,true,true,true,true,true,true,false,false,false,false,false,false,false,false],"id":19,"leaf_child_counts":[0,0,0,0,0,0,0,0,0,0,0,0,0,0,0],"left_children":[1,3,5,7,9,11,13,-1,-1,-1,-1,-1,-1,-1,-1],"loss_changes":[5.50827407836914062e+01,4.24903945922851562e+01,1.39862136840820312e+01,1.58162826538085938e+02,6.27049026489257812e+01,2.44532394409179688e+01,7.33047485351562500e+00,0.00000000000000000e+00,0.00000000000000000e+00,0.00000000000000000e+00,0.00000000000000000e+00,0.00000000000000000e+00,0.00000000000000000e+00,0.00000000000000000e+00,0.00000000000000000e+00],"parents":[2147483647,0,0,1,1,2,2,3,3,4,4,5,5,6,6],"right_children":[2,4,6,8,10,12,14,-1,-1,-1,-1,-1,-1,-1,-1],"split_conditions":[7.02631711959838867e-01,1.22500001452863216e-03,1.33199999108910561e-02,5.21134972572326660e-01,1.89649984240531921e-02,7.14314997196197510e-01,7.30323314666748047e-01,-1.93093687295913696e-01,2.92998164892196655e-01,9.48519632220268250e-02,-1.59252770245075226e-02,-1.59400045871734619e-01,3.98357808589935303e-01,-1.31841614842414856e-01,-2.49708354473114014e-01],"split_indices":[2,3,4,4,4,3,2,0,0,0,0,0,0,0,0],"sum_hessian":[7.98265087890625000e+03,7.74575878906250000e+03,2.36892440795898438e+02,2.57564849853515625e+02,7.48819384765625000e+03,2.86442737579345703e+01,2.08248168945312500e+02,9.42585830688476562e+01,1.63306259155273438e+02,4.91232452392578125e+02,6.99696142578125000e+03,1.85403556823730469e+01,1.01039180755615234e+01,1.28400344848632812e+02,7.98478164672851562e+01],"tree_param":{"num_deleted":"0","num_feature":"6","num_nodes":"15","size_leaf_vector":"0"}},{"base_weights":[-2.14637834578752518e-02,2.45577953755855560e-02,-1.45356073975563049e-01,2.11605474352836609e-01,-9.43345762789249420e-03,6.04116320610046387e-01,-1.92593619227409363e-01,-5.52166521549224854e-01,4.59540069103240967e-01,-4.96852919459342957e-02,4.26211088895797729e-01,1.42013645172119141e+00,4.53406065702438354e-01,3.66821169853210449e-01,-2.14613318443298340e-01],"default_left":[true,true,true,true,true,true,true,false,false,false,false,false,false,false,false],"id":20,"leaf_child_counts":[0,0,0,0,0,0,0,0,0,0,0,0,0,0,0],"left_children":[1,3,5,7,9,11,13,-1,-1,-1,-1,-1,-1,-1,-1],"loss_changes":[4.50458297729492188e+01,3.66300506591796875e+01,7.58727416992187500e+01,1.68023818969726562e+02,8.55241394042968750e+01,1.49887962341308594e+01,2.48838043212890625e+01,0.00000000000000000e+00,0.00000000000000000e+00,0.00000000000000000e+00,0.00000000000000000e+00,0.00000000000000000e+00,0.00000000000000000e+00,0.00000000000000000e+00,0.00000000000000000e+00],"parents":[2147483647,0,0,1,1,2,2,3,3,4,4,5,5,6,6],"right_children":[2,4,6,8,10,12,14,-1,-1,-1,-1,-1,-1,-1,-1],"split_conditions":[6.28455638885498047e-01,7.10804998874664307e-01,4.58250008523464203e-02,8.13714981079101562e-01,9.49999988079071045e-01,6.34415030479431152e-01,5.39000006392598152e-03,-1.65649965405464172e-01,1.37862026691436768e-01,-1.49055877700448036e-02,1.27863332629203796e-01,4.26040947437286377e-01,1.36021822690963745e-01,1.10046356916427612e-01,-6.43839985132217407e-02],"split_indices":[2,4,0,0,5,3,3,0,0,0,0,0,0,0,0],"sum_hessian":[7.89876904296875000e+03,5.75995312500000000e+03,2.13881591796875000e+03,8.84959106445312500e+02,4.87499414062500000e+03,1.26113029479980469e+02,2.01270275878906250e+03,2.16572418212890625e+02,6.68386718750000000e+02,4.46347265625000000e+03,4.11521301269531250e+02,1.83475189208984375e+01,1.07765510559082031e+02,7.56307296752929688e+01,1.93707202148437500e+03],"tree_param":{"num_deleted":"0","num_feature":"6","num_nodes":"15","size_leaf_vector":"0"}},{"base_weights":[-1.57756898552179337e-02,7.31948390603065491e-02,-9.44539010524749756e-02,2.92406737804412842e-01,1.45080285146832466e-02,-3.74509423971176147e-01,-4.04064636677503586e-03,8.19410383701324463e-02,6.73567652702331543e-01,8.38192284107208252e-01,-1.99085120111703873e-02,5.55879354476928711e-01,-6.04254901409149170e-01,-3.81053388118743896e-01,4.74910736083984375e-02],"default_left":[true,true,true,true,true,true,true,false,false,false,false,false,false,false,false],"id":21,"leaf_child_counts":[0,0,0,0,0,0,0,0,0,0,0,0,0,0,0],"left_children":[1,3,5,7,9,11,13,-1,-1,-1,-1,-1,-1,-1,-1],"loss_changes":[5.46407432556152344e+01,4.71245803833007812e+01,1.04887237548828125e+02,6.20026016235351562e+01,8.19660491943359375e+01,2.16428405761718750e+02,6.08758621215820312e+01,0.00000000000000000e+00,0.00000000000000000e+00,0.00000000000000000e+00,0.00000000000000000e+00,0.00000000000000000e+00,0.00000000000000000e+00,0.00000000000000000e+00,0.00000000000000000e+00],"parents":[2147483647,0,0,1,1,2,2,3,3,4,4,5,5,6,6],"right_children":[2,4,6,8,10,12,14,-1,-1,-1,-1,-1,-1,-1,-1],"split_conditions":[2.50000000000000000e-01,8.03144991397857666e-01,4.49999988079071045e-01,2.07839995622634888e-01,7.43574976921081543e-01,1.81759998202323914e-01,7.96535015106201172e-01,2.45823133736848831e-02,2.02070310711860657e-01,2.51457691192626953e-01,-5.97255397588014603e-03,1.66763812303543091e-01,-1.81276470422744751e-01,-1.14316023886203766e-01,1.42473224550485611e-02],"split_indices":[5,0,5,0,1,4,0,0,0,0,0,0,0,0,0],"sum_hessian":[7.80378515625000000e+03,3.66237939453125000e+03,4.14140576171875000e+03,7.72582397460937500e+02,2.88979711914062500e+03,1.00994702148437500e+03,3.13145849609375000e+03,4.98526123046875000e+02,2.74056304931640625e+02,1.14966735839843750e+02,2.77483032226562500e+03,1.99722229003906250e+02,8.10224792480468750e+02,3.75783447265625000e+02,2.75567504882812500e+03],"tree_param":{"num_deleted":"0","num_feature":"6","num_nodes":"15","size_leaf_vector":"0"}},{"base_weights":[-1.30399232730269432e-02,3.72679531574249268e-01,-2.40735914558172226e-02,3.52459140121936798e-02,7.84677565097808838e-01,-2.77392915450036526e-03,-2.18205556273460388e-01,2.29400306940078735e-01,-5.65311014652252197e-01,9.74695742130279541e-01,-8.25434505939483643e-01,2.63669252395629883e-01,-1.43296578899025917e-02,1.15678846836090088e+00,-2.66306698322296143e-01],"default_left":[true,true,true,true,true,true,true,false,false,false,false,false,false,false,false],"id":22,"leaf_child_counts":[0,0,0,0,0,0,0,0,0,0,0,0,0,0,0],"left_children":[1,3,5,7,9,11,13,-1,-1,-1,-1,-1,-1,-1,-1],"loss_changes":[3.29360809326171875e+01,2.98927612304687500e+01,3.11049041748046875e+01,1.40476236343383789e+01,3.04379043579101562e+01,2.08785629272460938e+01,4.94983673095703125e+01,0.00000000000000000e+00,0.00000000000000000e+00,0.00000000000000000e+00,0.00000000000000000e+00,0.00000000000000000e+00,0.00000000000000000e+00,0.00000000000000000e+00,0.00000000000000000e+00],"parents":[2147483647,0,0,1,1,2,2,3,3,4,4,5,5,6,6],"right_children":[2,4,6,8,10,12,14,-1,-1,-1,-1,-1,-1,-1,-1],"split_conditions":[2.17549987137317657e-02,8.95545005798339844e-01,6.62250161170959473e-01,9.60834980010986328e-01,7.15146243572235107e-01,1.08250007033348083e-02,6.06150031089782715e-02,6.88200965523719788e-02,-1.69593304395675659e-01,2.92408734560012817e-01,-2.47630357742309570e-01,7.91007801890373230e-02,-4.29889746010303497e-03,3.47036540508270264e-01,-7.98920094966888428e-02],"split_indices":[0,1,2,3,2,4,0,0,0,0,0,0,0,0,0],"sum_hessian":[7.73581347656250000e+03,2.14220748901367188e+02,7.52159277343750000e+03,1.18364059448242188e+02,9.58566894531250000e+01,6.77884863281250000e+03,7.42743652343750000e+02,8.99138031005859375e+01,2.84502620697021484e+01,8.60912322998046875e+01,9.76545715332031250e+00,2.80873107910156250e+02,6.49797558593750000e+03,2.43259468078613281e+01,7.18417724609375000e+02],"tree_param":{"num_deleted":"0","num_feature":"6","num_nodes":"15","size_leaf_vector":"0"}},{"base_weights":[-9.11870039999485016e-03,7.01340362429618835e-02,-5.69271296262741089e-02,1.23842872679233551e-01,-7.40593522787094116e-02,-1.49573504924774170e-01,3.96093092858791351e-02,2.56758689880371094e-01,7.56787657737731934e-02,9.17898118495941162e-01,-1.48640513420104980e-01,5.95958769321441650e-01,-2.76593387126922607e-01,-2.60323971509933472e-01,1.84301018714904785e-01],"default_left":[true,true,true,true,true,true,true,false,false,false,false,false,false,false,false],"id":23,"leaf_child_counts":[0,0,0,0,0,0,0,0,0,0,0,0,0,0,0],"left_children":[1,3,5,7,9,11,13,-1,-1,-1,-1,-1,-1,-1,-1],"loss_changes":[2.90541439056396484e+01,2.23541412353515625e+01,4.27819976806640625e+01,1.34410552978515625e+01,5.81130523681640625e+01,2.31300140380859375e+02,1.01729690551757812e+02,0.00000000000000000e+00,0.00000000000000000e+00,0.00000000000000000e+00,0.00000000000000000e+00,0.00000000000000000e+00,0.00000000000000000e+00,0.00000000000000000e+00,0.00000000000000000e+00],"parents":[2147483647,0,0,1,1,2,2,3,3,4,4,5,5,6,6],"right_children":[2,4,6,8,10,12,14,-1,-1,-1,-1,-1,-1,-1,-1],"split_conditions":[1.50000005960464478e-01,9.68254983425140381e-01,6.49999976158142090e-01,5.88620305061340332e-01,5.84850013256072998e-02,1.81759998202323914e-01,1.21775001287460327e-01,7.70276114344596863e-02,2.27036308497190475e-02,2.75369435548782349e-01,-4.45921570062637329e-02,1.78787633776664734e-01,-8.29780176281929016e-02,-7.80971944332122803e-02,5.52903078496456146e-02],"split_indices":[5,1,5,2,0,4,4,0,0,0,0,0,0,0,0],"sum_hessian":[7.66607421875000000e+03,2.88428515625000000e+03,4.78178906250000000e+03,2.10161962890625000e+03,7.82665466308593750e+02,2.43977661132812500e+03,2.34201220703125000e+03,5.57842285156250000e+02,1.54377734375000000e+03,5.39397087097167969e+01,7.28725769042968750e+02,3.54627777099609375e+02,2.08514892578125000e+03,7.61887268066406250e+02,1.58012500000000000e+03],"tree_param":{"num_deleted":"0","num_feature":"6","num_nodes":"15","size_leaf_vector":"0"}},{"base_weights":[-7.51865934580564499e-03,5.36040328443050385e-02,-6.30065798759460449e-02,1.42044290900230408e-01,-2.19098478555679321e-02,-2.88171380758285522e-01,-1.47332530468702316e-03,-2.28855982422828674e-01,2.22534492611885071e-01,5.92588067054748535e-01,-6.11122287809848785e-02,3.34584325551986694e-01,-5.44254601001739502e-01,-2.55221933126449585e-01,3.17326672375202179e-02],"default_left":[true,true,true,true,true,true,true,false,false,false,false,false,false,false,false],"id":24,"leaf_child_counts":[0,0,0,0,0,0,0,0,0,0,0,0,0,0,0],"left_children":[1,3,5,7,9,11,13,-1,-1,-1,-1,-1,-1,-1,-1],"loss_changes":[2.57647323608398438e+01,2.41449203491210938e+01,5.51682739257812500e+01,4.97596397399902344e+01,4.70306510925292969e+01,1.36471984863281250e+02,2.63664207458496094e+01,0.00000000000000000e+00,0.00000000000000000e+00,0.00000000000000000e+00,0.00000000000000000e+00,0.00000000000000000e+00,0.00000000000000000e+00,0.00000000000000000e+00,0.00000000000000000e+00],"parents":[2147483647,0,0,1,1,2,2,3,3,4,4,5,5,6,6],"right_children":[2,4,6,8,10,12,14,-1,-1,-1,-1,-1,-1,-1,-1],"split_conditions":[2.50000000000000000e-01,9.26285028457641602e-01,4.49999988079071045e-01,6.70900046825408936e-02,5.72149977087974548e-02,6.82685017585754395e-01,7.96535015106201172e-01,-6.86567947268486023e-02,6.67603537440299988e-02,1.77776426076889038e-01,-1.83336697518825531e-02,1.00375302135944366e-01,-1.63276389241218567e-01,-7.65665844082832336e-02,9.51980054378509521e-03],"split_indices":[5,1,5,0,0,3,0,0,0,0,0,0,0,0,0],"sum_hessian":[7.59469921875000000e+03,3.61387304687500000e+03,3.98082617187500000e+03,1.66406933593750000e+03,1.94980371093750000e+03,8.53603759765625000e+02,3.12722241210937500e+03,2.96401733398437500e+02,1.36766760253906250e+03,1.16083106994628906e+02,1.83372058105468750e+03,2.48640655517578125e+02,6.04963073730468750e+02,3.61104187011718750e+02,2.76611816406250000e+03],"tree_param":{"num_deleted":"0","num_feature":"6","num_nodes":"15","size_leaf_vector":"0"}},{"base_weights":[-6.35191285982728004e-03,2.16818344779312611e-03,-3.98390531539916992e-01,1.37303733825683594e+00,3.46386841556522995e-05,-1.10033333301544189e+00,-2.88106292486190796e-01,1.74029004573822021e+00,7.71664321422576904e-01,2.91081458330154419e-01,-7.29277264326810837e-03,5.98581850528717041e-01,-1.31396722793579102e+00,5.44360101222991943e-01,-5.22737085819244385e-01],"default_left":[true,true,true,true,true,true,true,false,false,false,false,false,false,false,false],"id":25,"leaf_child_counts":[0,0,0,0,0,0,0,0,0,0,0,0,0,0,0],"left_children":[1,3,5,7,9,11,13,-1,-1,-1,-1,-1,-1,-1,-1],"loss_changes":[2.52449836730957031e+01,2.16373863220214844e+01,1.21279888153076172e+01,1.19598388671875000e+00,1.57566289901733398e+01,8.58019447326660156e+00,2.76857795715332031e+01,0.00000000000000000e+00,0.00000000000000000e+00,0.00000000000000000e+00,0.00000000000000000e+00,0.00000000000000000e+00,0.00000000000000000e+00,0.00000000000000000e+00,0.00000000000000000e+00],"parents":[2147483647,0,0,1,1,2,2,3,3,4,4,5,5,6,6],"right_children":[2,4,6,8,10,12,14,-1,-1,-1,-1,-1,-1,-1,-1],"split_conditions":[7.07607686519622803e-01,3.17124992609024048e-01,2.06849992275238037e-01,2.24399998784065247e-01,2.17549987137317657e-02,9.77715015411376953e-01,4.04950007796287537e-02,5.22087037563323975e-01,2.31499299407005310e-01,8.73244404792785645e-02,-2.18783179298043251e-03,1.79574564099311829e-01,-3.94190192222595215e-01,1.63308039307594299e-01,-1.56821131706237793e-01],"split_indices":[2,1,3,1,0,0,4,0,0,0,0,0,0,0,0],"sum_hessian":[7.55665136718750000e+03,7.39689111328125000e+03,1.59760665893554688e+02,1.04957513809204102e+01,7.38639501953125000e+03,2.04733848571777344e+01,1.39287277221679688e+02,5.34049892425537109e+00,5.15525245666503906e+00,1.80442535400390625e+02,7.20595263671875000e+03,2.08562612533569336e+00,1.83877601623535156e+01,3.03358993530273438e+01,1.08951385498046875e+02],"tree_param":{"num_deleted":"0","num_feature":"6","num_nodes":"15","size_leaf_vector":"0"}},{"base_weights":[-4.55688452348113060e-03,2.97729857265949249e-02,-7.09820166230201721e-02,1.74590274691581726e-01,3.46933002583682537e-03,2.26672485470771790e-01,-1.01662255823612213e-01,-2.12126329541206360e-01,3.41924011707305908e-01,4.80464130640029907e-01,-8.94257798790931702e-03,1.12589263916015625e+00,1.16774700582027435e-01,-6.39221593737602234e-02,-3.87277334928512573e-01],"default_left":[true,true,true,true,true,true,true,false,false,false,false,false,false,false,false],"id":26,"leaf_child_counts":[0,0,0,0,0,0,0,0,0,0,0,0,0,0,0],"left_children":[1,3,5,7,9,11,13,-1,-1,-1,-1,-1,-1,-1,-1],"loss_changes":[1.71711654663085938e+01,1.89100112915039062e+01,2.34528388977050781e+01,4.94520606994628906e+01,2.48839340209960938e+01,2.35907135009765625e+01,2.50539970397949219e+01,0.00000000000000000e+00,0.00000000000000000e+00,0.00000000000000000e+00,0.00000000000000000e+00,0.00000000000000000e+00,0.00000000000000000e+00,0.00000000000000000e+00,0.00000000000000000e+00],"parents":[2147483647,0,0,1,1,2,2,3,3,4,4,5,5,6,6],"right_children":[2,4,6,8,10,12,14,-1,-1,-1,-1,-1,-1,-1,-1],"split_conditions":[6.18444740772247314e-01,7.10804998874664307e-01,5.44219970703125000e-01,9.14994955062866211e-01,2.84649990499019623e-02,6.19184970855712891e-01,9.85005021095275879e-01,-6.36379048228263855e-02,1.02577209472656250e-01,1.44139245152473450e-01,-2.68277339637279510e-03,3.37767809629440308e-01,3.50324101746082306e-02,-1.91766489297151566e-02,-1.16183206439018250e-01],"split_indices":[2,4,0,0,3,3,3,0,0,0,0,0,0,0,0],"sum_hessian":[7.52807714843750000e+03,4.96342773437500000e+03,2.56464941406250000e+03,7.62080932617187500e+02,4.20134667968750000e+03,2.39048904418945312e+02,2.32560058593750000e+03,2.30082092285156250e+02,5.31998840332031250e+02,1.05594543457031250e+02,4.09575219726562500e+03,2.50267581939697266e+01,2.14022140502929688e+02,2.05525122070312500e+03,2.70349273681640625e+02],"tree_param":{"num_deleted":"0","num_feature":"6","num_nodes":"15","size_leaf_vector":"0"}},{"base_weights":[-3.38094332255423069e-03,4.43559549748897552e-02,-4.77173253893852234e-02,4.86673973500728607e-02,-8.04982900619506836e-01,-1.68120071291923523e-01,2.82436665147542953e-02,2.45496436953544617e-01,3.26419621706008911e-02,1.09549462795257568e+00,-1.21415233612060547e+00,3.77250552177429199e-01,-3.34999710321426392e-01,-1.82910650968551636e-01,1.60115420818328857e-01],"default_left":[true,true,true,true,true,true,true,false,false,false,false,false,false,false,false],"id":27,"leaf_child_counts":[0,0,0,0,0,0,0,0,0,0,0,0,0,0,0],"left_children":[1,3,5,7,9,11,13,-1,-1,-1,-1,-1,-1,-1,-1],"loss_changes":[1.57970638275146484e+01,1.32003993988037109e+01,3.53967742919921875e+01,1.12745399475097656e+01,1.54900903701782227e+01,1.36378890991210938e+02,6.61232681274414062e+01,0.00000000000000000e+00,0.00000000000000000e+00,0.00000000000000000e+00,0.00000000000000000e+00,0.00000000000000000e+00,0.00000000000000000e+00,0.00000000000000000e+00,0.00000000000000000e+00],"parents":[2147483647,0,0,1,1,2,2,3,3,4,4,5,5,6,6],"right_children":[2,4,6,8,10,12,14,-1,-1,-1,-1,-1,-1,-1,-1],"split_conditions":[2.50000000000000000e-01,7.30992913246154785e-01,6.49999976158142090e-01,7.43579983711242676e-01,7.68849968910217285e-01,1.81759998202323914e-01,7.36284971237182617e-01,7.36489370465278625e-02,9.79258865118026733e-03,3.28648388385772705e-01,-3.64245712757110596e-01,1.13175168633460999e-01,-1.00499920547008514e-01,-5.48731982707977295e-02,4.80346269905567169e-02],"split_indices":[5,2,5,1,3,4,3,0,0,0,0,0,0,0,0],"sum_hessian":[7.46183251953125000e+03,3.59312304687500000e+03,3.86870947265625000e+03,3.57591357421875000e+03,1.72094593048095703e+01,1.49609521484375000e+03,2.37261425781250000e+03,2.68146087646484375e+02,3.30776757812500000e+03,2.75161528587341309e+00,1.44578437805175781e+01,3.50238494873046875e+02,1.14585668945312500e+03,9.11970825195312500e+02,1.46064343261718750e+03],"tree_param":{"num_deleted":"0","num_feature":"6","num_nodes":"15","size_leaf_vector":"0"}},{"base_weights":[-3.27972648665308952e-03,1.02475995663553476e-03,-4.34378445148468018e-01,1.09207344055175781e+00,-5.62929839361459017e-04,-7.55559384822845459e-01,-1.73576727509498596e-01,1.17730244994163513e-01,1.23445510864257812e+00,-2.14536092244088650e-03,9.66374456882476807e-01,1.00486099720001221e+00,-9.48901414871215820e-01,4.56379652023315430e-01,-7.23256707191467285e-01],"default_left":[true,true,true,true,true,true,true,false,false,false,false,false,false,false,false],"id":28,"leaf_child_counts":[0,0,0,0,0,0,0,0,0,0,0,0,0,0,0],"left_children":[1,3,5,7,9,11,13,-1,-1,-1,-1,-1,-1,-1,-1],"loss_changes":[1.37887344360351562e+01,1.27463855743408203e+01,6.02226638793945312e+00,1.33798217773437500e+00,1.12457151412963867e+01,1.20566692352294922e+01,1.48179807662963867e+01,0.00000000000000000e+00,0.00000000000000000e+00,0.00000000000000000e+00,0.00000000000000000e+00,0.00000000000000000e+00,0.00000000000000000e+00,0.00000000000000000e+00,0.00000000000000000e+00],"parents":[2147483647,0,0,1,1,2,2,3,3,4,4,5,5,6,6],"right_children":[2,4,6,8,10,12,14,-1,-1,-1,-1,-1,-1,-1,-1],"split_conditions":[7.25980162620544434e-01,3.17124992609024048e-01,3.50000023841857910e-01,5.81176042556762695e-01,9.99994993209838867e-01,8.27844977378845215e-01,8.84835004806518555e-01,3.53190749883651733e-02,3.70336532592773438e-01,-6.43608276732265949e-04,2.89912343025207520e-01,3.01458299160003662e-01,-2.84670442342758179e-01,1.36913895606994629e-01,-2.16977015137672424e-01],"split_indices":[2,1,5,2,3,1,3,0,0,0,0,0,0,0,0],"sum_hessian":[7.42940185546875000e+03,7.35694140625000000e+03,7.24608535766601562e+01,9.69220447540283203e+00,7.34724902343750000e+03,3.16214847564697266e+01,4.08393669128417969e+01,1.46867382526397705e+00,8.22353076934814453e+00,7.33624072265625000e+03,1.10082645416259766e+01,2.71386218070983887e+00,2.89076232910156250e+01,1.91091785430908203e+01,2.17301864624023438e+01],"tree_param":{"num_deleted":"0","num_feature":"6","num_nodes":"15","size_leaf_vector":"0"}},{"base_weights":[-2.41828546859323978e-03,3.83039787411689758e-02,-3.45156155526638031e-02,-2.21210703253746033e-01,8.47143083810806274e-02,4.00568433105945587e-02,-1.60396352410316467e-01,2.27017417550086975e-01,-3.39027822017669678e-01,5.76443523168563843e-02,3.45626235008239746e-01,1.14262543618679047e-01,-2.23404206335544586e-02,-2.17485383152961731e-01,7.74485394358634949e-02],"default_left":[true,true,true,true,true,true,true,false,false,false,false,false,false,false,false],"id":29,"leaf_child_counts":[0,0,0,0,0,0,0,0,0,0,0,0,0,0,0],"left_children":[1,3,5,7,9,11,13,-1,-1,-1,-1,-1,-1,-1,-1],"loss_changes":[9.70391750335693359e+00,3.94324455261230469e+01,3.89793968200683594e+01,2.63082809448242188e+01,1.95916442871093750e+01,1.20781364440917969e+01,2.09914550781250000e+01,0.00000000000000000e+00,0.00000000000000000e+00,0.00000000000000000e+00,0.00000000000000000e+00,0.00000000000000000e+00,0.00000000000000000e+00,0.00000000000000000e+00,0.00000000000000000e+00],"parents":[2147483647,0,0,1,1,2,2,3,3,4,4,5,5,6,6],"right_children":[2,4,6,8,10,12,14,-1,-1,-1,-1,-1,-1,-1,-1],"split_conditions":[9.87124979496002197e-01,7.24250003695487976e-02,9.27904963493347168e-01,4.70250025391578674e-02,9.49999988079071045e-01,3.50000023841857910e-01,7.50000000000000000e-01,6.81052282452583313e-02,-1.01708352565765381e-01,1.72933060675859451e-02,1.03687874972820282e-01,3.42787653207778931e-02,-6.70212646946310997e-03,-6.52456209063529968e-02,2.32345629483461380e-02],"split_indices":[0,4,3,0,5,5,5,0,0,0,0,0,0,0,0],"sum_hessian":[7.42213085937500000e+03,3.27143237304687500e+03,4.15069824218750000e+03,4.95721038818359375e+02,2.77571142578125000e+03,2.60698657226562500e+03,1.54371179199218750e+03,1.02986877441406250e+02,3.92734191894531250e+02,2.51590405273437500e+03,2.59807403564453125e+02,1.19043505859375000e+03,1.41655139160156250e+03,1.24497143554687500e+03,2.98740325927734375e+02],"tree_param":{"num_deleted":"0","num_feature":"6","num_nodes":"15","size_leaf_vector":"0"}},{"base_weights":[-2.26206379011273384e-03,1.31527340412139893e+00,-3.17264581099152565e-03,7.38052185624837875e-04,-2.97306865453720093e-01,6.29967674612998962e-02,-1.34954079985618591e-02,-9.39437568187713623e-01,-1.97238072752952576e-01],"default_left":[true,false,true,true,true,false,false,false,false],"id":30,"leaf_child_counts":[0,0,0,0,0,0,0,0,0],"left_children":[1,-1,3,5,7,-1,-1,-1,-1],"loss_changes":[8.87765407562255859e+00,0.00000000000000000e+00,8.50319671630859375e+00,6.46639394760131836e+00,6.04741668701171875e+00,0.00000000000000000e+00,0.00000000000000000e+00,0.00000000000000000e+00,0.00000000000000000e+00],"parents":[2147483647,0,0,2,2,3,3,4,4],"right_children":[2,-1,4,6,8,-1,-1,-1,-1],"split_conditions":[2.24399998784065247e-01,3.94582033157348633e-01,7.16689348220825195e-01,5.86334586143493652e-01,2.06849992275238037e-01,1.88990309834480286e-02,-4.04862267896533012e-03,-2.81831294298171997e-01,-5.91714233160018921e-02],"split_indices":[1,0,2,2,3,0,0,0,0],"sum_hessian":[7.39526757812500000e+03,4.11062335968017578e+00,7.39115722656250000e+03,7.29516113281250000e+03,9.59962310791015625e+01,1.35682653808593750e+03,5.93833447265625000e+03,1.18119955062866211e+01,8.41842346191406250e+01],"tree_param":{"num_deleted":"0","num_feature":"6","num_nodes":"9","size_leaf_vector":"0"}},{"base_weights":[-1.62060768343508244e-03,4.54380698502063751e-02,-2.10719499737024307e-02,1.89812168478965759e-01,2.36060563474893570e-03,2.77207605540752411e-02,-1.28113150596618652e-01,3.45385968685150146e-01,-3.32923680543899536e-02,-8.24818313121795654e-02,1.22515887022018433e-01,-1.11944049596786499e-01,4.75548617541790009e-02,-5.14273047447204590e-01,-4.51510101556777954e-02],"default_left":[true,true,true,true,true,true,true,false,false,false,false,false,false,false,false],"id":31,"leaf_child_counts":[0,0,0,0,0,0,0,0,0,0,0,0,0,0,0],"left_children":[1,3,5,7,9,11,13,-1,-1,-1,-1,-1,-1,-1,-1],"loss_changes":[6.76621150970458984e+00,1.34445371627807617e+01,2.73191127777099609e+01,1.72546195983886719e+01,1.69941539764404297e+01,9.95919704437255859e+00,5.24444122314453125e+01,0.00000000000000000e+00,0.00000000000000000e+00,0.00000000000000000e+00,0.00000000000000000e+00,0.00000000000000000e+00,0.00000000000000000e+00,0.00000000000000000e+00,0.00000000000000000e+00],"parents":[2147483647,0,0,1,1,2,2,3,3,4,4,5,5,6,6],"right_children":[2,4,6,8,10,12,14,-1,-1,-1,-1,-1,-1,-1,-1],"split_conditions":[9.85005021095275879e-01,5.90511739253997803e-01,2.50000000000000000e-01,7.11269974708557129e-01,5.48895001411437988e-01,8.69399979710578918e-02,4.49999988079071045e-01,1.03615798056125641e-01,-9.98771097511053085e-03,-2.47445497661828995e-02,3.67547683417797089e-02,-3.35832163691520691e-02,1.42664592713117599e-02,-1.54281914234161377e-01,-1.35453036054968834e-02],"split_indices":[4,2,5,4,4,0,5,0,0,0,0,0,0,0,0],"sum_hessian":[7.38985693359375000e+03,2.16082714843750000e+03,5.22902978515625000e+03,4.95787902832031250e+02,1.66503918457031250e+03,3.59229248046875000e+03,1.63673754882812500e+03,2.91778656005859375e+02,2.04009246826171875e+02,9.76112976074218750e+02,6.88926269531250000e+02,4.46133361816406250e+02,3.14615917968750000e+03,2.88530364990234375e+02,1.34820715332031250e+03],"tree_param":{"num_deleted":"0","num_feature":"6","num_nodes":"15","size_leaf_vector":"0"}},{"base_weights":[-1.63552397862076759e-03,8.20824131369590759e-02,-1.31737431511282921e-02,-4.43145744502544403e-02,3.89702618122100830e-01,4.32097047567367554e-01,-2.13027708232402802e-02,-1.13248251378536224e-01,1.12075603008270264e+00,1.48890465497970581e-01,7.78748750686645508e-01,1.02508485317230225e+00,2.21844151616096497e-01,-3.16797584295272827e-01,-1.57742518931627274e-02],"default_left":[true,true,true,true,true,true,true,false,false,false,false,false,false,false,false],"id":32,"leaf_child_counts":[0,0,0,0,0,0,0,0,0,0,0,0,0,0,0],"left_children":[1,3,5,7,9,11,13,-1,-1,-1,-1,-1,-1,-1,-1],"loss_changes":[7.13666248321533203e+00,3.48138427734375000e+01,2.35119152069091797e+01,5.11411018371582031e+01,2.43107299804687500e+01,1.42928848266601562e+01,1.04138975143432617e+01,0.00000000000000000e+00,0.00000000000000000e+00,0.00000000000000000e+00,0.00000000000000000e+00,0.00000000000000000e+00,0.00000000000000000e+00,0.00000000000000000e+00,0.00000000000000000e+00],"parents":[2147483647,0,0,1,1,2,2,3,3,4,4,5,5,6,6],"right_children":[2,4,6,8,10,12,14,-1,-1,-1,-1,-1,-1,-1,-1],"split_conditions":[7.54670023918151855e-01,2.10089996457099915e-01,6.59240007400512695e-01,8.50000023841857910e-01,1.50000005960464478e-01,9.95224952697753906e-01,7.73434996604919434e-01,-3.39744761586189270e-02,3.36226820945739746e-01,4.46671396493911743e-02,2.33624637126922607e-01,3.07525455951690674e-01,6.65532499551773071e-02,-9.50392782688140869e-02,-4.73227584734559059e-03],"split_indices":[0,0,1,5,5,0,0,0,0,0,0,0,0,0,0],"sum_hessian":[7.38606738281250000e+03,8.93921508789062500e+02,6.49214599609375000e+03,6.34195190429687500e+02,2.59726287841796875e+02,1.15462921142578125e+02,6.37668310546875000e+03,5.99620300292968750e+02,3.45749092102050781e+01,1.61279846191406250e+02,9.84464492797851562e+01,2.92086524963378906e+01,8.62542648315429688e+01,1.16078536987304688e+02,6.26060449218750000e+03],"tree_param":{"num_deleted":"0","num_feature":"6","num_nodes":"15","size_leaf_vector":"0"}},{"base_weights":[-1.32178573403507471e-03,1.09629476070404053e+00,-1.99427502229809761e-03,7.00002908706665039e-01,-3.01796663552522659e-03,-4.40523803234100342e-01,8.63814294338226318e-01,7.99105875194072723e-03,-7.10644945502281189e-02],"default_left":[true,false,true,true,true,false,false,false,false],"id":33,"leaf_child_counts":[0,0,0,0,0,0,0,0,0],"left_children":[1,-1,3,5,7,-1,-1,-1,-1],"loss_changes":[5.45360183715820312e+00,0.00000000000000000e+00,5.30693149566650391e+00,2.38957691192626953e+00,5.52320671081542969e+00,0.00000000000000000e+00,0.00000000000000000e+00,0.00000000000000000e+00,0.00000000000000000e+00],"parents":[2147483647,0,0,2,2,3,3,4,4],"right_children":[2,-1,4,6,8,-1,-1,-1,-1],"split_conditions":[2.24399998784065247e-01,3.28888446092605591e-01,5.00000007450580597e-02,8.56874942779541016e-01,9.73994970321655273e-01,-1.32157146930694580e-01,2.59144306182861328e-01,2.39731767214834690e-03,-2.13193483650684357e-02],"split_indices":[1,0,5,1,3,0,0,0,0],"sum_hessian":[7.38438769531250000e+03,3.52393484115600586e+00,7.38086376953125000e+03,9.75326538085937500e+00,7.37111035156250000e+03,1.01276147365570068e+00,8.74050426483154297e+00,6.34539257812500000e+03,1.02571777343750000e+03],"tree_param":{"num_deleted":"0","num_feature":"6","num_nodes":"9","size_leaf_vector":"0"}},{"base_weights":[-9.18001576792448759e-04,-2.83162415027618408e-01,1.60173187032341957e-03,-4.56443667411804199e-01,2.96174675226211548e-01,1.54698684811592102e-01,-5.70628046989440918e-03,5.94637393951416016e-01,-5.31086266040802002e-01,1.17279730737209320e-01,8.24221849441528320e-01,-6.93570196628570557e-01,2.76145726442337036e-01,2.55125015974044800e-01,-1.39910317957401276e-02],"default_left":[true,true,true,true,true,true,true,false,false,false,false,false,false,false,false],"id":34,"leaf_child_counts":[0,0,0,0,0,0,0,0,0,0,0,0,0,0,0],"left_children":[1,3,5,7,9,11,13,-1,-1,-1,-1,-1,-1,-1,-1],"loss_changes":[5.24820899963378906e+00,6.69034671783447266e+00,8.18474864959716797e+00,4.29016017913818359e+00,1.38082087039947510e+00,3.45268363952636719e+01,1.50918817520141602e+01,0.00000000000000000e+00,0.00000000000000000e+00,0.00000000000000000e+00,0.00000000000000000e+00,0.00000000000000000e+00,0.00000000000000000e+00,0.00000000000000000e+00,0.00000000000000000e+00],"parents":[2147483647,0,0,1,1,2,2,3,3,4,4,5,5,6,6],"right_children":[2,4,6,8,10,12,14,-1,-1,-1,-1,-1,-1,-1,-1],"split_conditions":[6.24999986030161381e-04,8.50000023841857910e-01,1.25449998304247856e-02,7.17949986457824707e-01,7.60720014572143555e-01,4.95299994945526123e-02,1.54499989002943039e-03,1.78391218185424805e-01,-1.59325882792472839e-01,3.51839214563369751e-02,2.47266560792922974e-01,-2.08071067929267883e-01,8.28437209129333496e-02,7.65375047922134399e-02,-4.19730972498655319e-03],"split_indices":[4,5,4,1,3,3,3,0,0,0,0,0,0,0,0],"sum_hessian":[7.37793408203125000e+03,6.42980728149414062e+01,7.31363623046875000e+03,4.96575050354003906e+01,1.46405639648437500e+01,3.32288665771484375e+02,6.98134765625000000e+03,2.83068680763244629e+00,4.68268203735351562e+01,1.18485441207885742e+01,2.79201936721801758e+00,4.10257759094238281e+01,2.91262878417968750e+02,2.14003936767578125e+02,6.76734375000000000e+03],"tree_param":{"num_deleted":"0","num_feature":"6","num_nodes":"15","size_leaf_vector":"0"}}]},"name":"gbtree"},"learner_model_param":{"base_score":"0.500000","num_class":"0","num_feature":"6"},"objective":{"name":"binary:logistic","reg_loss_param":{"scale_pos_weight":"0.229153216"}}},"version":[1,1,1]}