{"learner":{"attributes":{},"gradient_booster":{"model":{"gbtree_model_param":{"num_trees":"50","size_leaf_vector":"0"},"tree_info":[0,0,0,0,0,0,0,0,0,0,0,0,0,0,0,0,0,0,0,0,0,0,0,0,0,0,0,0,0,0,0,0,0,0,0,0,0,0,0,0,0,0,0,0,0,0,0,0,0,0],"trees":[{"base_weights":[-1.80040264129638672e+00,-6.12364828586578369e-01,-1.88577342033386230e+00,6.56765937805175781e-01,-7.19204485416412354e-01,1.20363600552082062e-01,-1.91549086570739746e+00,1.56009122729301453e-02,1.48447465896606445e+00,-3.55547666549682617e-02,-8.99374425411224365e-01,4.95938003063201904e-01,-2.96300530433654785e-01,-1.66989612579345703e+00,-1.93645524978637695e+00],"default_left":[true,true,true,true,true,true,true,false,false,false,false,false,false,false,false],"id":0,"leaf_child_counts":[0,0,0,0,0,0,0,0,0,0,0,0,0,0,0],"left_children":[1,3,5,7,9,11,13,-1,-1,-1,-1,-1,-1,-1,-1],"loss_changes":[5.70146875000000000e+03,5.11783691406250000e+02,3.12748437500000000e+03,1.55642135620117188e+02,4.28437011718750000e+02,1.20116836547851562e+02,2.62906250000000000e+02,0.00000000000000000e+00,0.00000000000000000e+00,0.00000000000000000e+00,0.00000000000000000e+00,0.00000000000000000e+00,0.00000000000000000e+00,0.00000000000000000e+00,0.00000000000000000e+00],"parents":[2147483647,0,0,1,1,2,2,3,3,4,4,5,5,6,6],"right_children":[2,4,6,8,10,12,14,-1,-1,-1,-1,-1,-1,-1,-1],"split_conditions":[8.41979980468750000e-01,5.76669991016387939e-01,5.57144999504089355e-01,2.48214989900588989e-01,3.31149995326995850e-02,4.45000007748603821e-02,9.08545017242431641e-01,4.68027405440807343e-03,4.45342421531677246e-01,-1.06664299964904785e-02,-2.69812345504760742e-01,1.48781403899192810e-01,-8.88901650905609131e-02,-5.00968873500823975e-01,-5.80936610698699951e-01],"split_indices":[3,0,0,4,4,0,3,0,0,0,0,0,0,0,0],"sum_hessian":[5.62246210937500000e+04,3.76991284179687500e+03,5.24547070312500000e+04,2.92321929931640625e+02,3.47759082031250000e+03,7.65637634277343750e+02,5.16890703125000000e+04,1.65297195434570312e+02,1.27024734497070312e+02,7.25583251953125000e+02,2.75200756835937500e+03,4.02573791503906250e+02,3.63063842773437500e+02,4.07159497070312500e+03,4.76174765625000000e+04],"tree_param":{"num_deleted":"0","num_feature":"5","num_nodes":"15","size_leaf_vector":"0"}},{"base_weights":[-1.37487840652465820e+00,-3.36765587329864502e-01,-1.44141650199890137e+00,4.82137739658355713e-01,-4.45339918136596680e-01,1.15523658692836761e-01,-1.46675944328308105e+00,1.56041538715362549e+00,2.31112495064735413e-01,5.67541062831878662e-01,-5.01241922378540039e-01,1.00310838222503662e+00,-6.53219670057296753e-02,-1.15402126312255859e+00,-1.48608326911926270e+00],"default_left":[true,true,true,true,true,true,true,false,false,false,false,false,false,false,false],"id":1,"leaf_child_counts":[0,0,0,0,0,0,0,0,0,0,0,0,0,0,0],"left_children":[1,3,5,7,9,11,13,-1,-1,-1,-1,-1,-1,-1,-1],"loss_changes":[3.59965625000000000e+03,2.79462768554687500e+02,1.93280468750000000e+03,9.92874374389648438e+01,1.57330505371093750e+02,1.26139060974121094e+02,2.89546875000000000e+02,0.00000000000000000e+00,0.00000000000000000e+00,0.00000000000000000e+00,0.00000000000000000e+00,0.00000000000000000e+00,0.00000000000000000e+00,0.00000000000000000e+00,0.00000000000000000e+00],"parents":[2147483647,0,0,1,1,2,2,3,3,4,4,5,5,6,6],"right_children":[2,4,6,8,10,12,14,-1,-1,-1,-1,-1,-1,-1,-1],"split_conditions":[8.18965017795562744e-01,1.61150008440017700e-01,5.57144999504089355e-01,7.96079993247985840e-01,4.27400022745132446e-02,8.96870017051696777e-01,8.91635000705718994e-01,4.68124628067016602e-01,6.93337544798851013e-02,1.70262321829795837e-01,-1.50372579693794250e-01,3.00932526588439941e-01,-1.95965915918350220e-02,-3.46206396818161011e-01,-4.45825010538101196e-01],"split_indices":[3,3,0,0,0,3,3,0,0,0,0,0,0,0,0],"sum_hessian":[5.21190000000000000e+04,3.13972900390625000e+03,4.89792695312500000e+04,3.67146697998046875e+02,2.77258227539062500e+03,7.84427551269531250e+02,4.81948437500000000e+04,6.83468856811523438e+01,2.98799804687500000e+02,1.44539474487304688e+02,2.62804296875000000e+03,1.32004898071289062e+02,6.52422668457031250e+02,2.80816186523437500e+03,4.53866796875000000e+04],"tree_param":{"num_deleted":"0","num_feature":"5","num_nodes":"15","size_leaf_vector":"0"}},{"base_weights":[-1.15582835674285889e+00,-3.79533529281616211e-01,-1.23878705501556396e+00,-1.36309579014778137e-01,-6.71885728836059570e-01,2.55182608962059021e-02,-1.26180613040924072e+00,3.34789663553237915e-01,-2.25709274411201477e-01,8.38838517665863037e-01,-7.52783417701721191e-01,6.13664925098419189e-01,-1.44817054271697998e-01,-1.12605881690979004e+00,-1.28715932369232178e+00],"default_left":[true,true,true,true,true,true,true,false,false,false,false,false,false,false,false],"id":2,"leaf_child_counts":[0,0,0,0,0,0,0,0,0,0,0,0,0,0,0],"left_children":[1,3,5,7,9,11,13,-1,-1,-1,-1,-1,-1,-1,-1],"loss_changes":[2.87977734375000000e+03,3.07050720214843750e+02,1.17596875000000000e+03,9.94309692382812500e+01,2.40336425781250000e+02,7.25696105957031250e+01,1.35125000000000000e+02,0.00000000000000000e+00,0.00000000000000000e+00,0.00000000000000000e+00,0.00000000000000000e+00,0.00000000000000000e+00,0.00000000000000000e+00,0.00000000000000000e+00,0.00000000000000000e+00],"parents":[2147483647,0,0,1,1,2,2,3,3,4,4,5,5,6,6],"right_children":[2,4,6,8,10,12,14,-1,-1,-1,-1,-1,-1,-1,-1],"split_conditions":[8.64184975624084473e-01,7.74384975433349609e-01,5.44595003128051758e-01,1.74964994192123413e-01,5.76669991016387939e-01,2.17549987137317657e-02,9.32235002517700195e-01,1.00436903536319733e-01,-6.77127838134765625e-02,2.51651555299758911e-01,-2.25835040211677551e-01,1.84099480509757996e-01,-4.34451177716255188e-02,-3.37817668914794922e-01,-3.86147826910018921e-01],"split_indices":[3,3,0,3,0,0,3,0,0,0,0,0,0,0,0],"sum_hessian":[4.47230625000000000e+04,4.31843457031250000e+03,4.04046289062500000e+04,2.35808203125000000e+03,1.96035241699218750e+03,7.22489624023437500e+02,3.96821406250000000e+04,3.75676818847656250e+02,1.98240539550781250e+03,9.91630249023437500e+01,1.86118945312500000e+03,1.61667877197265625e+02,5.60821777343750000e+02,6.25210058593750000e+03,3.34300390625000000e+04],"tree_param":{"num_deleted":"0","num_feature":"5","num_nodes":"15","size_leaf_vector":"0"}},{"base_weights":[-1.00921618938446045e+00,-3.11883509159088135e-01,-1.10583090782165527e+00,-1.10680535435676575e-01,-5.65640866756439209e-01,-6.58729113638401031e-03,-1.13014078140258789e+00,9.51284822076559067e-03,-4.36095982789993286e-01,6.16378486156463623e-01,-6.28475487232208252e-01,-1.34030640125274658e-01,6.85500085353851318e-01,-9.67200219631195068e-01,-1.15296006202697754e+00],"default_left":[true,true,true,true,true,true,true,false,false,false,false,false,false,false,false],"id":3,"leaf_child_counts":[0,0,0,0,0,0,0,0,0,0,0,0,0,0,0],"left_children":[1,3,5,7,9,11,13,-1,-1,-1,-1,-1,-1,-1,-1],"loss_changes":[2.50833203125000000e+03,2.31356811523437500e+02,8.73929687500000000e+02,9.89332580566406250e+01,1.49247558593750000e+02,6.25929260253906250e+01,1.17855468750000000e+02,0.00000000000000000e+00,0.00000000000000000e+00,0.00000000000000000e+00,0.00000000000000000e+00,0.00000000000000000e+00,0.00000000000000000e+00,0.00000000000000000e+00,0.00000000000000000e+00],"parents":[2147483647,0,0,1,1,2,2,3,3,4,4,5,5,6,6],"right_children":[2,4,6,8,10,12,14,-1,-1,-1,-1,-1,-1,-1,-1],"split_conditions":[8.74644994735717773e-01,7.88645029067993164e-01,5.66330015659332275e-01,6.30595147609710693e-01,5.51744997501373291e-01,6.41999542713165283e-01,9.26564991474151611e-01,2.85385455936193466e-03,-1.30828797817230225e-01,1.84913545846939087e-01,-1.88542649149894714e-01,-4.02091927826404572e-02,2.05650031566619873e-01,-2.90160089731216431e-01,-3.45888018608093262e-01],"split_indices":[3,3,0,2,0,2,3,0,0,0,0,0,0,0,0],"sum_hessian":[3.72348593750000000e+04,4.53159326171875000e+03,3.27032675781250000e+04,2.52832934570312500e+03,2.00326403808593750e+03,7.07613159179687500e+02,3.19956542968750000e+04,1.84707592773437500e+03,6.81253479003906250e+02,1.00671073913574219e+02,1.90259301757812500e+03,5.98254821777343750e+02,1.09358360290527344e+02,3.93576147460937500e+03,2.80598925781250000e+04],"tree_param":{"num_deleted":"0","num_feature":"5","num_nodes":"15","size_leaf_vector":"0"}},{"base_weights":[-8.93328368663787842e-01,-2.74275451898574829e-01,-1.01133847236633301e+00,1.55909433960914612e-01,-3.82783740758895874e-01,1.79218240082263947e-02,-1.03681278228759766e+00,4.52336370944976807e-01,-2.68830865621566772e-01,8.39051663875579834e-01,-4.44687455892562866e-01,-1.31808355450630188e-01,1.45263612270355225e+00,-9.02961134910583496e-01,-1.06736028194427490e+00],"default_left":[true,true,true,true,true,true,true,false,false,false,false,false,false,false,false],"id":4,"leaf_child_counts":[0,0,0,0,0,0,0,0,0,0,0,0,0,0,0],"left_children":[1,3,5,7,9,11,13,-1,-1,-1,-1,-1,-1,-1,-1],"loss_changes":[2.24183593750000000e+03,2.29497314453125000e+02,6.75876953125000000e+02,1.24865936279296875e+02,2.97281127929687500e+02,1.34142318725585938e+02,1.01886718750000000e+02,0.00000000000000000e+00,0.00000000000000000e+00,0.00000000000000000e+00,0.00000000000000000e+00,0.00000000000000000e+00,0.00000000000000000e+00,0.00000000000000000e+00,0.00000000000000000e+00],"parents":[2147483647,0,0,1,1,2,2,3,3,4,4,5,5,6,6],"right_children":[2,4,6,8,10,12,14,-1,-1,-1,-1,-1,-1,-1,-1],"split_conditions":[8.88665020465850830e-01,4.06550019979476929e-02,3.70274990797042847e-01,6.22450709342956543e-01,5.45340001583099365e-01,2.53984987735748291e-01,9.39395010471343994e-01,1.35700911283493042e-01,-8.06492641568183899e-02,2.51715511083602905e-01,-1.33406236767768860e-01,-3.95425073802471161e-02,4.35790866613388062e-01,-2.70888358354568481e-01,-3.20208102464675903e-01],"split_indices":[3,4,0,2,0,0,3,0,0,0,0,0,0,0,0],"sum_hessian":[3.06899765625000000e+04,4.91426171875000000e+03,2.57757148437500000e+04,9.89785583496093750e+02,3.92447607421875000e+03,6.22549194335937500e+02,2.51531660156250000e+04,5.82908081054687500e+02,4.06877471923828125e+02,1.88638458251953125e+02,3.73583764648437500e+03,5.64540527343750000e+02,5.80086555480957031e+01,4.67946386718750000e+03,2.04737031250000000e+04],"tree_param":{"num_deleted":"0","num_feature":"5","num_nodes":"15","size_leaf_vector":"0"}},{"base_weights":[-7.91181862354278564e-01,-2.23787114024162292e-01,-9.30032491683959961e-01,-3.28347720205783844e-02,-4.41945374011993408e-01,-3.25096808373928070e-02,-9.60359752178192139e-01,1.27346843481063843e-01,-1.92627742886543274e-01,4.21618193387985229e-01,-4.91746515035629272e-01,-1.16261565685272217e+00,4.09981049597263336e-02,-8.33020210266113281e-01,-9.97692465782165527e-01],"default_left":[true,true,true,true,true,true,true,false,false,false,false,false,false,false,false],"id":5,"leaf_child_counts":[0,0,0,0,0,0,0,0,0,0,0,0,0,0,0],"left_children":[1,3,5,7,9,11,13,-1,-1,-1,-1,-1,-1,-1,-1],"loss_changes":[1.99407226562500000e+03,2.07360671997070312e+02,5.53513671875000000e+02,6.79977798461914062e+01,1.00129730224609375e+02,5.53519630432128906e+01,9.26875000000000000e+01,0.00000000000000000e+00,0.00000000000000000e+00,0.00000000000000000e+00,0.00000000000000000e+00,0.00000000000000000e+00,0.00000000000000000e+00,0.00000000000000000e+00,0.00000000000000000e+00],"parents":[2147483647,0,0,1,1,2,2,3,3,4,4,5,5,6,6],"right_children":[2,4,6,8,10,12,14,-1,-1,-1,-1,-1,-1,-1,-1],"split_conditions":[8.95635008811950684e-01,8.03874969482421875e-01,6.08539998531341553e-01,9.45460021495819092e-01,6.53239965438842773e-01,9.99765038490295410e-01,9.45075035095214844e-01,3.82040552794933319e-02,-5.77883236110210419e-02,1.26485466957092285e-01,-1.47523954510688782e-01,-3.48784714937210083e-01,1.22994324192404747e-02,-2.49906077980995178e-01,-2.99307763576507568e-01],"split_indices":[3,3,0,4,0,4,3,0,0,0,0,0,0,0,0],"sum_hessian":[2.53125390625000000e+04,4.97705957031250000e+03,2.03354785156250000e+04,2.65463085937500000e+03,2.32242871093750000e+03,6.64742675781250000e+02,1.96707363281250000e+04,1.32580468750000000e+03,1.32882617187500000e+03,1.26223152160644531e+02,2.19620556640625000e+03,3.96926803588867188e+01,6.25049987792968750e+02,4.46482617187500000e+03,1.52059091796875000e+04],"tree_param":{"num_deleted":"0","num_feature":"5","num_nodes":"15","size_leaf_vector":"0"}},{"base_weights":[-6.95308744907379150e-01,-1.90594360232353210e-01,-8.59032869338989258e-01,-4.45190779864788055e-02,-4.01794284582138062e-01,-6.49096742272377014e-02,-8.94225597381591797e-01,2.49581839889287949e-02,-3.54896962642669678e-01,3.31535756587982178e-01,-4.49976146221160889e-01,2.25542783737182617e-01,-3.16640913486480713e-01,-7.78951942920684814e-01,-9.39958751201629639e-01],"default_left":[true,true,true,true,true,true,true,false,false,false,false,false,false,false,false],"id":6,"leaf_child_counts":[0,0,0,0,0,0,0,0,0,0,0,0,0,0,0],"left_children":[1,3,5,7,9,11,13,-1,-1,-1,-1,-1,-1,-1,-1],"loss_changes":[1.73946289062500000e+03,1.59103164672851562e+02,4.44179687500000000e+02,6.57809524536132812e+01,7.46546936035156250e+01,4.94697875976562500e+01,7.95097656250000000e+01,0.00000000000000000e+00,0.00000000000000000e+00,0.00000000000000000e+00,0.00000000000000000e+00,0.00000000000000000e+00,0.00000000000000000e+00,0.00000000000000000e+00,0.00000000000000000e+00],"parents":[2147483647,0,0,1,1,2,2,3,3,4,4,5,5,6,6],"right_children":[2,4,6,8,10,12,14,-1,-1,-1,-1,-1,-1,-1,-1],"split_conditions":[9.05004978179931641e-01,8.30614984035491943e-01,6.71824991703033447e-01,6.44849658012390137e-01,6.53239965438842773e-01,4.31649982929229736e-02,9.52035009860992432e-01,7.48745538294315338e-03,-1.06469094753265381e-01,9.94607284665107727e-02,-1.34992852807044983e-01,6.76628351211547852e-02,-9.49922800064086914e-02,-2.33685597777366638e-01,-2.81987637281417847e-01],"split_indices":[3,3,0,2,0,0,3,0,0,0,0,0,0,0,0],"sum_hessian":[2.10512128906250000e+04,5.15671289062500000e+03,1.58945009765625000e+04,3.04905883789062500e+03,2.10765429687500000e+03,6.74616882324218750e+02,1.52198837890625000e+04,2.49212329101562500e+03,5.56935546875000000e+02,1.29578765869140625e+02,1.97807543945312500e+03,3.13267120361328125e+02,3.61349761962890625e+02,4.32825048828125000e+03,1.08916328125000000e+04],"tree_param":{"num_deleted":"0","num_feature":"5","num_nodes":"15","size_leaf_vector":"0"}},{"base_weights":[-6.01917266845703125e-01,-1.60141959786415100e-01,-7.89733529090881348e-01,1.99326381087303162e-01,-2.34962046146392822e-01,-6.98598846793174744e-02,-8.29930067062377930e-01,6.21538341045379639e-01,1.39106452465057373e-01,-1.27302154898643494e-01,-4.66727197170257568e-01,-1.64685949683189392e-01,5.46301066875457764e-01,-7.13110744953155518e-01,-8.80079448223114014e-01],"default_left":[true,true,true,true,true,true,true,false,false,false,false,false,false,false,false],"id":7,"leaf_child_counts":[0,0,0,0,0,0,0,0,0,0,0,0,0,0,0],"left_children":[1,3,5,7,9,11,13,-1,-1,-1,-1,-1,-1,-1,-1],"loss_changes":[1.47345996093750000e+03,1.42573745727539062e+02,3.60536621093750000e+02,2.31401634216308594e+01,1.09398712158203125e+02,3.86599960327148438e+01,6.85156250000000000e+01,0.00000000000000000e+00,0.00000000000000000e+00,0.00000000000000000e+00,0.00000000000000000e+00,0.00000000000000000e+00,0.00000000000000000e+00,0.00000000000000000e+00,0.00000000000000000e+00],"parents":[2147483647,0,0,1,1,2,2,3,3,4,4,5,5,6,6],"right_children":[2,4,6,8,10,12,14,-1,-1,-1,-1,-1,-1,-1,-1],"split_conditions":[9.12964999675750732e-01,8.40444982051849365e-01,6.95464968681335449e-01,1.45849995315074921e-02,8.66155028343200684e-01,6.46420359611511230e-01,9.54294979572296143e-01,1.86461508274078369e-01,4.17319387197494507e-02,-3.81906479597091675e-02,-1.40018165111541748e-01,-4.94057871401309967e-02,1.63890331983566284e-01,-2.13933229446411133e-01,-2.64023840427398682e-01],"split_indices":[3,1,0,4,3,2,3,0,0,0,0,0,0,0,0],"sum_hessian":[1.77589160156250000e+04,5.29829492187500000e+03,1.24606210937500000e+04,9.12514282226562500e+02,4.38578076171875000e+03,6.59127929687500000e+02,1.18014931640625000e+04,1.12741767883300781e+02,7.99772521972656250e+02,2.99574316406250000e+03,1.39003759765625000e+03,5.71853454589843750e+02,8.72744903564453125e+01,3.54917187500000000e+03,8.25232128906250000e+03],"tree_param":{"num_deleted":"0","num_feature":"5","num_nodes":"15","size_leaf_vector":"0"}},{"base_weights":[-5.10323524475097656e-01,-1.30712151527404785e-01,-7.16730952262878418e-01,4.06139008700847626e-02,-2.37941280007362366e-01,-7.59791731834411621e-02,-7.64079749584197998e-01,-1.17432311177253723e-01,1.98445975780487061e-01,-1.02544864639639854e-02,-3.38705837726593018e-01,-9.60726916790008545e-01,-1.23510230332612991e-02,-6.38885140419006348e-01,-8.16173672676086426e-01],"default_left":[true,true,true,true,true,true,true,false,false,false,false,false,false,false,false],"id":8,"leaf_child_counts":[0,0,0,0,0,0,0,0,0,0,0,0,0,0,0],"left_children":[1,3,5,7,9,11,13,-1,-1,-1,-1,-1,-1,-1,-1],"loss_changes":[1.19663671875000000e+03,9.88604965209960938e+01,3.00098632812500000e+02,5.17130203247070312e+01,7.59278869628906250e+01,3.83750343322753906e+01,5.95625000000000000e+01,0.00000000000000000e+00,0.00000000000000000e+00,0.00000000000000000e+00,0.00000000000000000e+00,0.00000000000000000e+00,0.00000000000000000e+00,0.00000000000000000e+00,0.00000000000000000e+00],"parents":[2147483647,0,0,1,1,2,2,3,3,4,4,5,5,6,6],"right_children":[2,4,6,8,10,12,14,-1,-1,-1,-1,-1,-1,-1,-1],"split_conditions":[9.18444991111755371e-01,7.59279966354370117e-01,7.36870050430297852e-01,9.99719977378845215e-01,9.02079999446868896e-01,9.99960005283355713e-01,9.54294979572296143e-01,-3.52296940982341766e-02,5.95337934792041779e-02,-3.07634612545371056e-03,-1.01611755788326263e-01,-2.88218080997467041e-01,-3.70530714280903339e-03,-1.91665545105934143e-01,-2.44852110743522644e-01],"split_indices":[3,3,0,0,1,4,3,0,0,0,0,0,0,0,0],"sum_hessian":[1.52722597656250000e+04,5.37976708984375000e+03,9.89249316406250000e+03,2.07116723632812500e+03,3.30859960937500000e+03,6.80890014648437500e+02,9.21160253906250000e+03,1.03500952148437500e+03,1.03615771484375000e+03,1.01537298583984375e+03,2.29322680664062500e+03,4.47361335754394531e+01,6.36153869628906250e+02,2.71060888671875000e+03,6.50099365234375000e+03],"tree_param":{"num_deleted":"0","num_feature":"5","num_nodes":"15","size_leaf_vector":"0"}},{"base_weights":[-4.23202842473983765e-01,-1.04141928255558014e-01,-6.41094803810119629e-01,-8.79922509193420410e-03,-2.59484648704528809e-01,-7.39649012684822083e-02,-6.94935381412506104e-01,3.49673122167587280e-01,-5.13397045433521271e-02,2.78659105300903320e-01,-3.09324055910110474e-01,1.77074000239372253e-01,-2.66682744026184082e-01,-2.45549574494361877e-01,-7.15712487697601318e-01],"default_left":[true,true,true,true,true,true,true,false,false,false,false,false,false,false,false],"id":9,"leaf_child_counts":[0,0,0,0,0,0,0,0,0,0,0,0,0,0,0],"left_children":[1,3,5,7,9,11,13,-1,-1,-1,-1,-1,-1,-1,-1],"loss_changes":[9.31624755859375000e+02,8.05607910156250000e+01,2.43099853515625000e+02,5.14354476928710938e+01,5.55717468261718750e+01,3.35043983459472656e+01,6.77277832031250000e+01,0.00000000000000000e+00,0.00000000000000000e+00,0.00000000000000000e+00,0.00000000000000000e+00,0.00000000000000000e+00,0.00000000000000000e+00,0.00000000000000000e+00,0.00000000000000000e+00],"parents":[2147483647,0,0,1,1,2,2,3,3,4,4,5,5,6,6],"right_children":[2,4,6,8,10,12,14,-1,-1,-1,-1,-1,-1,-1,-1],"split_conditions":[9.22924995422363281e-01,8.52999985218048096e-01,7.60134994983673096e-01,1.56810000538825989e-01,6.02204978466033936e-01,4.71199974417686462e-02,8.03415000438690186e-01,1.04901939630508423e-01,-1.54019119217991829e-02,8.35977345705032349e-02,-9.27972197532653809e-02,5.31222037971019745e-02,-8.00048261880874634e-02,-7.36648738384246826e-02,-2.14713752269744873e-01],"split_indices":[3,3,0,3,0,0,1,0,0,0,0,0,0,0,0],"sum_hessian":[1.34006201171875000e+04,5.43848339843750000e+03,7.96213671875000000e+03,3.37073046875000000e+03,2.06775317382812500e+03,6.90554382324218750e+02,7.27158203125000000e+03,3.56809936523437500e+02,3.01392041015625000e+03,1.74880477905273438e+02,1.89287255859375000e+03,2.99934143066406250e+02,3.90620269775390625e+02,3.21907073974609375e+02,6.94967529296875000e+03],"tree_param":{"num_deleted":"0","num_feature":"5","num_nodes":"15","size_leaf_vector":"0"}},{"base_weights":[-3.44123601913452148e-01,-9.26836431026458740e-02,-5.74178099632263184e-01,2.17856675386428833e-01,-1.31245419383049011e-01,3.74494902789592743e-02,-6.23400747776031494e-01,-1.14430576562881470e-01,3.02013128995895386e-01,5.81924557685852051e-01,-1.57806411385536194e-01,-1.17682367563247681e-01,1.22563159465789795e+00,-4.58264738321304321e-01,-7.04171001911163330e-01],"default_left":[true,true,true,true,true,true,true,false,false,false,false,false,false,false,false],"id":10,"leaf_child_counts":[0,0,0,0,0,0,0,0,0,0,0,0,0,0,0],"left_children":[1,3,5,7,9,11,13,-1,-1,-1,-1,-1,-1,-1,-1],"loss_changes":[6.91858032226562500e+02,6.84812850952148438e+01,1.88070800781250000e+02,1.77022457122802734e+01,9.64240417480468750e+01,8.60734558105468750e+01,7.67846679687500000e+01,0.00000000000000000e+00,0.00000000000000000e+00,0.00000000000000000e+00,0.00000000000000000e+00,0.00000000000000000e+00,0.00000000000000000e+00,0.00000000000000000e+00,0.00000000000000000e+00],"parents":[2147483647,0,0,1,1,2,2,3,3,4,4,5,5,6,6],"right_children":[2,4,6,8,10,12,14,-1,-1,-1,-1,-1,-1,-1,-1],"split_conditions":[9.32294964790344238e-01,7.96045005321502686e-01,3.70274990797042847e-01,6.82099983096122742e-02,4.29100021719932556e-02,2.07839995622634888e-01,9.86495018005371094e-01,-3.43291759490966797e-02,9.06039401888847351e-02,1.74577370285987854e-01,-4.73419241607189178e-02,-3.53047102689743042e-02,3.67689490318298340e-01,-1.37479424476623535e-01,-2.11251303553581238e-01],"split_indices":[3,1,0,0,0,0,0,0,0,0,0,0,0,0,0],"sum_hessian":[1.19604941406250000e+04,5.71530566406250000e+03,6.24518847656250000e+03,6.30798461914062500e+02,5.08450683593750000e+03,4.65183471679687500e+02,5.78000488281250000e+03,1.27401351928710938e+02,5.03397094726562500e+02,1.81814971923828125e+02,4.90269189453125000e+03,4.12258941650390625e+02,5.29245414733886719e+01,1.90068920898437500e+03,3.87931567382812500e+03],"tree_param":{"num_deleted":"0","num_feature":"5","num_nodes":"15","size_leaf_vector":"0"}},{"base_weights":[-2.72465020418167114e-01,-7.86178335547447205e-02,-5.04528284072875977e-01,1.23332906514406204e-02,-2.22497418522834778e-01,-2.92918950319290161e-01,-6.37189626693725586e-01,7.17354640364646912e-02,-1.71301960945129395e-01,-5.56428777053952217e-03,-3.13183486461639404e-01,8.99524390697479248e-02,-4.43605870008468628e-01,-5.59522271156311035e-01,-8.18148374557495117e-01],"default_left":[true,true,true,true,true,true,true,false,false,false,false,false,false,false,false],"id":11,"leaf_child_counts":[0,0,0,0,0,0,0,0,0,0,0,0,0,0,0],"left_children":[1,3,5,7,9,11,13,-1,-1,-1,-1,-1,-1,-1,-1],"loss_changes":[4.91260803222656250e+02,7.78894042968750000e+01,1.39349121093750000e+02,3.98020439147949219e+01,4.53490829467773438e+01,1.10650909423828125e+02,4.24699707031250000e+01,0.00000000000000000e+00,0.00000000000000000e+00,0.00000000000000000e+00,0.00000000000000000e+00,0.00000000000000000e+00,0.00000000000000000e+00,0.00000000000000000e+00,0.00000000000000000e+00],"parents":[2147483647,0,0,1,1,2,2,3,3,4,4,5,5,6,6],"right_children":[2,4,6,8,10,12,14,-1,-1,-1,-1,-1,-1,-1,-1],"split_conditions":[9.39545035362243652e-01,8.70660006999969482e-01,9.83905017375946045e-01,6.30615472793579102e-01,9.02079999446868896e-01,9.20879960060119629e-01,6.52405798435211182e-01,2.15206407010555267e-02,-5.13905920088291168e-02,-1.66928640101104975e-03,-9.39550474286079407e-02,2.69857328385114670e-02,-1.33081763982772827e-01,-1.67856693267822266e-01,-2.45444521307945251e-01],"split_indices":[3,3,0,2,1,1,2,0,0,0,0,0,0,0,0],"sum_hessian":[1.09204736328125000e+04,5.95090185546875000e+03,4.96957128906250000e+03,3.64664770507812500e+03,2.30425439453125000e+03,1.91621142578125000e+03,3.05335986328125000e+03,2.75581005859375000e+03,8.90837768554687500e+02,6.79606506347656250e+02,1.62464782714843750e+03,5.41288024902343750e+02,1.37492333984375000e+03,2.13927661132812500e+03,9.14083129882812500e+02],"tree_param":{"num_deleted":"0","num_feature":"5","num_nodes":"15","size_leaf_vector":"0"}},{"base_weights":[-2.11750939488410950e-01,-5.81652261316776276e-02,-4.21412527561187744e-01,2.40368962287902832e-01,-9.16389301419258118e-02,-2.69873044453561306e-03,-4.85312938690185547e-01,-3.24435830116271973e-01,4.18265879154205322e-01,4.80905771255493164e-01,-1.15831658244132996e-01,-1.70367151498794556e-01,3.69344800710678101e-01,-5.14510907232761383e-02,-5.30667662620544434e-01],"default_left":[true,true,true,true,true,true,true,false,false,false,false,false,false,false,false],"id":12,"leaf_child_counts":[0,0,0,0,0,0,0,0,0,0,0,0,0,0,0],"left_children":[1,3,5,7,9,11,13,-1,-1,-1,-1,-1,-1,-1,-1],"loss_changes":[3.27104003906250000e+02,5.86289520263671875e+01,1.14920288085937500e+02,5.95752983093261719e+01,7.31107940673828125e+01,3.56012191772460938e+01,7.33010253906250000e+01,0.00000000000000000e+00,0.00000000000000000e+00,0.00000000000000000e+00,0.00000000000000000e+00,0.00000000000000000e+00,0.00000000000000000e+00,0.00000000000000000e+00,0.00000000000000000e+00],"parents":[2147483647,0,0,1,1,2,2,3,3,4,4,5,5,6,6],"right_children":[2,4,6,8,10,12,14,-1,-1,-1,-1,-1,-1,-1,-1],"split_conditions":[9.40245032310485840e-01,1.89649984240531921e-02,7.77559995651245117e-01,8.10869991779327393e-01,1.54499989002943039e-03,9.83585000038146973e-01,8.54070007801055908e-01,-9.73307564854621887e-02,1.25479772686958313e-01,1.44271731376647949e-01,-3.47495004534721375e-02,-5.11101484298706055e-02,1.10803447663784027e-01,-1.54353277757763863e-02,-1.59200310707092285e-01],"split_indices":[3,4,0,0,3,3,1,0,0,0,0,0,0,0,0],"sum_hessian":[1.01579453125000000e+04,5.86377099609375000e+03,4.29417480468750000e+03,5.90574035644531250e+02,5.27319677734375000e+03,5.68707031250000000e+02,3.72546801757812500e+03,1.41260955810546875e+02,4.49313110351562500e+02,2.13018783569335938e+02,5.06017773437500000e+03,3.92404602050781250e+02,1.76302429199218750e+02,3.52793487548828125e+02,3.37267456054687500e+03],"tree_param":{"num_deleted":"0","num_feature":"5","num_nodes":"15","size_leaf_vector":"0"}},{"base_weights":[-1.61449119448661804e-01,-8.20377375930547714e-03,-3.07438284158706665e-01,3.63905668258666992e-01,-2.94293370097875595e-02,-1.25495269894599915e-01,-4.54114556312561035e-01,1.02481257915496826e+00,5.76535686850547791e-02,-3.62564023816958070e-04,-3.27675521373748779e-01,3.06332767009735107e-01,-2.40909278392791748e-01,-3.72488617897033691e-01,-7.16141641139984131e-01],"default_left":[true,true,true,true,true,true,true,false,false,false,false,false,false,false,false],"id":13,"leaf_child_counts":[0,0,0,0,0,0,0,0,0,0,0,0,0,0,0],"left_children":[1,3,5,7,9,11,13,-1,-1,-1,-1,-1,-1,-1,-1],"loss_changes":[2.14387298583984375e+02,3.69450683593750000e+01,1.30910888671875000e+02,5.10320281982421875e+01,3.83592300415039062e+01,1.09313232421875000e+02,5.78397827148437500e+01,0.00000000000000000e+00,0.00000000000000000e+00,0.00000000000000000e+00,0.00000000000000000e+00,0.00000000000000000e+00,0.00000000000000000e+00,0.00000000000000000e+00,0.00000000000000000e+00],"parents":[2147483647,0,0,1,1,2,2,3,3,4,4,5,5,6,6],"right_children":[2,4,6,8,10,12,14,-1,-1,-1,-1,-1,-1,-1,-1],"split_conditions":[9.12964999675750732e-01,4.66749966144561768e-02,9.89135026931762695e-01,6.25524997711181641e-01,6.62252664566040039e-01,8.88059973716735840e-01,6.52190446853637695e-01,3.07443797588348389e-01,1.72960720956325531e-02,-1.08769214421045035e-04,-9.83026623725891113e-02,9.18998345732688904e-02,-7.22727850079536438e-02,-1.11746586859226227e-01,-2.14842498302459717e-01],"split_indices":[3,0,0,3,2,1,2,0,0,0,0,0,0,0,0],"sum_hessian":[9.58188378906250000e+03,4.67528125000000000e+03,4.90660253906250000e+03,2.51421279907226562e+02,4.42385986328125000e+03,2.19084619140625000e+03,2.71575659179687500e+03,7.88699035644531250e+01,1.72551376342773438e+02,4.03191455078125000e+03,3.91945129394531250e+02,4.61703277587890625e+02,1.72914294433593750e+03,2.07254467773437500e+03,6.43211791992187500e+02],"tree_param":{"num_deleted":"0","num_feature":"5","num_nodes":"15","size_leaf_vector":"0"}},{"base_weights":[-1.21632188558578491e-01,-2.94763520359992981e-02,-2.96577930450439453e-01,2.26260554045438766e-02,-1.34008809924125671e-01,-1.32483899593353271e-01,-4.51372385025024414e-01,1.60790169239044189e+00,1.98097694665193558e-02,5.79979777336120605e-01,-1.55394300818443298e-01,8.17603766918182373e-02,-2.72185474634170532e-01,-4.61585611104965210e-01,2.69794297218322754e+00],"default_left":[true,true,true,true,true,true,true,false,false,false,false,false,false,false,false],"id":14,"leaf_child_counts":[0,0,0,0,0,0,0,0,0,0,0,0,0,0,0],"left_children":[1,3,5,7,9,11,13,-1,-1,-1,-1,-1,-1,-1,-1],"loss_changes":[1.47432312011718750e+02,3.26323928833007812e+01,8.00843200683593750e+01,1.78221969604492188e+01,3.05207481384277344e+01,4.59052429199218750e+01,5.34544067382812500e+01,0.00000000000000000e+00,0.00000000000000000e+00,0.00000000000000000e+00,0.00000000000000000e+00,0.00000000000000000e+00,0.00000000000000000e+00,0.00000000000000000e+00,0.00000000000000000e+00],"parents":[2147483647,0,0,1,1,2,2,3,3,4,4,5,5,6,6],"right_children":[2,4,6,8,10,12,14,-1,-1,-1,-1,-1,-1,-1,-1],"split_conditions":[9.47724997997283936e-01,9.59185004234313965e-01,9.92074966430664062e-01,2.24399998784065247e-01,4.28199991583824158e-02,9.37285006046295166e-01,9.99974966049194336e-01,4.82370525598526001e-01,5.94293093308806419e-03,1.73993945121765137e-01,-4.66182902455329895e-02,2.45281141251325607e-02,-8.16556438803672791e-02,-1.38475686311721802e-01,8.09382915496826172e-01],"split_indices":[3,1,0,1,0,1,3,0,0,0,0,0,0,0,0],"sum_hessian":[9.14417871093750000e+03,5.99000390625000000e+03,3.15417456054687500e+03,3.99803540039062500e+03,1.99196850585937500e+03,1.53199633789062500e+03,1.62217834472656250e+03,6.07932329177856445e+00,3.99195605468750000e+03,5.71690254211425781e+01,1.93479943847656250e+03,6.04838989257812500e+02,9.27157409667968750e+02,1.61778527832031250e+03,4.39305353164672852e+00],"tree_param":{"num_deleted":"0","num_feature":"5","num_nodes":"15","size_leaf_vector":"0"}},{"base_weights":[-9.01227071881294250e-02,-7.01238811016082764e-02,-6.40272796154022217e-01,3.26498560607433319e-02,-1.51089206337928772e-01,-1.65350258350372314e-01,-7.53964543342590332e-01,1.33463218808174133e-01,-3.38122695684432983e-02,-3.09005957096815109e-02,-2.57229387760162354e-01,-1.26216220855712891e+00,3.32433909177780151e-01,-6.03947520256042480e-01,-9.86134767532348633e-01],"default_left":[true,true,true,true,true,true,true,false,false,false,false,false,false,false,false],"id":15,"leaf_child_counts":[0,0,0,0,0,0,0,0,0,0,0,0,0,0,0],"left_children":[1,3,5,7,9,11,13,-1,-1,-1,-1,-1,-1,-1,-1],"loss_changes":[9.72720642089843750e+01,7.10336761474609375e+01,1.66208648681640625e+01,2.52124748229980469e+01,6.09026412963867188e+01,3.38242454528808594e+01,8.11000061035156250e+00,0.00000000000000000e+00,0.00000000000000000e+00,0.00000000000000000e+00,0.00000000000000000e+00,0.00000000000000000e+00,0.00000000000000000e+00,0.00000000000000000e+00,0.00000000000000000e+00],"parents":[2147483647,0,0,1,1,2,2,3,3,4,4,5,5,6,6],"right_children":[2,4,6,8,10,12,14,-1,-1,-1,-1,-1,-1,-1,-1],"split_conditions":[7.02631711959838867e-01,8.84994983673095703e-01,1.60185009241104126e-01,9.44970011711120605e-01,9.86495018005371094e-01,2.06849992275238037e-01,7.30986714363098145e-01,4.00389656424522400e-02,-1.01436814293265343e-02,-9.27017908543348312e-03,-7.71688222885131836e-02,-3.78648668527603149e-01,9.97301787137985229e-02,-1.81184262037277222e-01,-2.95840442180633545e-01],"split_indices":[2,3,4,4,0,3,2,0,0,0,0,0,0,0,0],"sum_hessian":[8.84410253906250000e+03,8.53497070312500000e+03,3.09132232666015625e+02,3.76123046875000000e+03,4.77373974609375000e+03,6.01834259033203125e+01,2.48948791503906250e+02,1.49401660156250000e+03,2.26721386718750000e+03,2.23932006835937500e+03,2.53441967773437500e+03,1.83080711364746094e+01,4.18753547668457031e+01,1.53418563842773438e+02,9.55302352905273438e+01],"tree_param":{"num_deleted":"0","num_feature":"5","num_nodes":"15","size_leaf_vector":"0"}},{"base_weights":[-6.63760825991630554e-02,-1.60705819725990295e-02,-2.22126424312591553e-01,1.48972883820533752e-01,-3.73454503715038300e-02,2.53500103950500488e-01,-2.97286987304687500e-01,3.67359578609466553e-01,-2.55137756466865540e-02,3.45288902521133423e-01,-4.89631853997707367e-02,-2.10083752870559692e-01,8.69174480438232422e-01,5.02290606498718262e-01,-3.43143403530120850e-01],"default_left":[true,true,true,true,true,true,true,false,false,false,false,false,false,false,false],"id":16,"leaf_child_counts":[0,0,0,0,0,0,0,0,0,0,0,0,0,0,0],"left_children":[1,3,5,7,9,11,13,-1,-1,-1,-1,-1,-1,-1,-1],"loss_changes":[6.74758148193359375e+01,2.28672294616699219e+01,7.52371673583984375e+01,2.83467292785644531e+01,2.56588516235351562e+01,8.22258758544921875e+01,6.67601165771484375e+01,0.00000000000000000e+00,0.00000000000000000e+00,0.00000000000000000e+00,0.00000000000000000e+00,0.00000000000000000e+00,0.00000000000000000e+00,0.00000000000000000e+00,0.00000000000000000e+00],"parents":[2147483647,0,0,1,1,2,2,3,3,4,4,5,5,6,6],"right_children":[2,4,6,8,10,12,14,-1,-1,-1,-1,-1,-1,-1,-1],"split_conditions":[9.62054967880249023e-01,7.96045005321502686e-01,3.26600015163421631e-01,9.99670028686523438e-01,3.13949994742870331e-02,9.07055020332336426e-01,8.05254995822906494e-01,1.10207878053188324e-01,-7.65413278713822365e-03,1.03586673736572266e-01,-1.46889565512537956e-02,-6.30251318216323853e-02,2.60752350091934204e-01,1.50687187910079956e-01,-1.02943025529384613e-01],"split_indices":[3,1,0,0,0,1,1,0,0,0,0,0,0,0,0],"sum_hessian":[8.61144824218750000e+03,6.50992382812500000e+03,2.10152465820312500e+03,7.42654174804687500e+02,5.76726953125000000e+03,2.86450866699218750e+02,1.81507385253906250e+03,3.29343719482421875e+02,4.13310455322265625e+02,1.69102325439453125e+02,5.59816748046875000e+03,1.63784759521484375e+02,1.22666114807128906e+02,9.79099044799804688e+01,1.71716394042968750e+03],"tree_param":{"num_deleted":"0","num_feature":"5","num_nodes":"15","size_leaf_vector":"0"}},{"base_weights":[-4.86833862960338593e-02,-3.50178591907024384e-02,-5.71029365062713623e-01,5.06524480879306793e-02,-8.55644866824150085e-02,5.87318018078804016e-02,-6.58606946468353271e-01,-1.36489287018775940e-01,1.53174117207527161e-01,7.99385666847229004e-01,-1.11659377813339233e-01,-5.23871064186096191e-01,9.65475082397460938e-01,-5.75144588947296143e-01,-1.22722744941711426e+00],"default_left":[true,true,true,true,true,true,true,false,false,false,false,false,false,false,false],"id":17,"leaf_child_counts":[0,0,0,0,0,0,0,0,0,0,0,0,0,0,0],"left_children":[1,3,5,7,9,11,13,-1,-1,-1,-1,-1,-1,-1,-1],"loss_changes":[6.00316085815429688e+01,3.55104484558105469e+01,1.18644332885742188e+01,5.84081077575683594e+01,1.19182037353515625e+02,1.48196363449096680e+01,8.23161315917968750e+00,0.00000000000000000e+00,0.00000000000000000e+00,0.00000000000000000e+00,0.00000000000000000e+00,0.00000000000000000e+00,0.00000000000000000e+00,0.00000000000000000e+00,0.00000000000000000e+00],"parents":[2147483647,0,0,1,1,2,2,3,3,4,4,5,5,6,6],"right_children":[2,4,6,8,10,12,14,-1,-1,-1,-1,-1,-1,-1,-1],"split_conditions":[7.08053648471832275e-01,9.09645020961761475e-01,1.29599999636411667e-02,9.99504983425140381e-01,3.27249988913536072e-02,7.14314997196197510e-01,7.64448702335357666e-01,-4.09467890858650208e-02,4.59522381424903870e-02,2.39815711975097656e-01,-3.34978140890598297e-02,-1.57161325216293335e-01,2.89642542600631714e-01,-1.72543376684188843e-01,-3.68168234825134277e-01],"split_indices":[2,1,4,4,0,3,2,0,0,0,0,0,0,0,0],"sum_hessian":[8.41179003906250000e+03,8.19837304687500000e+03,2.13417358398437500e+02,3.04220605468750000e+03,5.15616650390625000e+03,2.60956478118896484e+01,1.87321716308593750e+02,1.07662231445312500e+03,1.96558386230468750e+03,1.46838287353515625e+02,5.00932812500000000e+03,1.61446189880371094e+01,9.95102882385253906e+00,1.65099777221679688e+02,2.22219371795654297e+01],"tree_param":{"num_deleted":"0","num_feature":"5","num_nodes":"15","size_leaf_vector":"0"}},{"base_weights":[-3.52319628000259399e-02,8.63439030945301056e-03,-1.50045186281204224e-01,2.07386225461959839e-01,-5.90269546955823898e-03,-4.37116593122482300e-01,-9.31784808635711670e-02,-6.39534711837768555e-01,3.52240145206451416e-01,3.23152780532836914e-01,-1.96350775659084320e-02,-2.26190447807312012e-01,-5.98421752452850342e-01,1.40339106321334839e-01,-1.71751528978347778e-01],"default_left":[true,true,true,true,true,true,true,false,false,false,false,false,false,false,false],"id":18,"leaf_child_counts":[0,0,0,0,0,0,0,0,0,0,0,0,0,0,0],"left_children":[1,3,5,7,9,11,13,-1,-1,-1,-1,-1,-1,-1,-1],"loss_changes":[4.17619934082031250e+01,1.73381519317626953e+01,3.73800811767578125e+01,5.04011764526367188e+01,2.52770271301269531e+01,1.27504272460937500e+01,3.51523437500000000e+01,0.00000000000000000e+00,0.00000000000000000e+00,0.00000000000000000e+00,0.00000000000000000e+00,0.00000000000000000e+00,0.00000000000000000e+00,0.00000000000000000e+00,0.00000000000000000e+00],"parents":[2147483647,0,0,1,1,2,2,3,3,4,4,5,5,6,6],"right_children":[2,4,6,8,10,12,14,-1,-1,-1,-1,-1,-1,-1,-1],"split_conditions":[9.53845024108886719e-01,1.25449998304247856e-02,9.99745011329650879e-01,5.03809988498687744e-01,1.54499989002943039e-03,9.70335006713867188e-01,5.96863329410552979e-01,-1.91860422492027283e-01,1.05672046542167664e-01,9.69458371400833130e-02,-5.89052354916930199e-03,-6.78571388125419617e-02,-1.79526537656784058e-01,4.21017333865165710e-02,-5.15254624187946320e-02],"split_indices":[3,4,4,0,3,3,2,0,0,0,0,0,0,0,0],"sum_hessian":[8.29071386718750000e+03,5.99944775390625000e+03,2.29126684570312500e+03,4.07998870849609375e+02,5.59144873046875000e+03,3.77732299804687500e+02,1.91353454589843750e+03,5.90915946960449219e+01,3.48907257080078125e+02,2.23095672607421875e+02,5.36835302734375000e+03,1.64730010986328125e+02,2.13002288818359375e+02,4.81560333251953125e+02,1.43197424316406250e+03],"tree_param":{"num_deleted":"0","num_feature":"5","num_nodes":"15","size_leaf_vector":"0"}},{"base_weights":[-2.56410054862499237e-02,-1.31769236177206039e-02,-3.76055181026458740e-01,-1.50743601843714714e-02,1.66149616241455078e+00,2.26336121559143066e-01,-4.77074682712554932e-01,3.29778864979743958e-02,-6.80394992232322693e-02,2.14658784866333008e+00,5.30795216560363770e-01,6.32577717304229736e-01,-1.33416330814361572e+00,-2.65626728534698486e-01,-7.15673804283142090e-01],"default_left":[true,true,true,true,true,true,true,false,false,false,false,false,false,false,false],"id":19,"leaf_child_counts":[0,0,0,0,0,0,0,0,0,0,0,0,0,0,0],"left_children":[1,3,5,7,9,11,13,-1,-1,-1,-1,-1,-1,-1,-1],"loss_changes":[3.57798271179199219e+01,2.51688766479492188e+01,1.72311325073242188e+01,2.01209697723388672e+01,3.77745246887207031e+00,2.68918418884277344e+01,1.19835548400878906e+01,0.00000000000000000e+00,0.00000000000000000e+00,0.00000000000000000e+00,0.00000000000000000e+00,0.00000000000000000e+00,0.00000000000000000e+00,0.00000000000000000e+00,0.00000000000000000e+00],"parents":[2147483647,0,0,1,1,2,2,3,3,4,4,5,5,6,6],"right_children":[2,4,6,8,10,12,14,-1,-1,-1,-1,-1,-1,-1,-1],"split_conditions":[6.95688128471374512e-01,9.99994993209838867e-01,7.76129961013793945e-01,9.05004978179931641e-01,6.05721712112426758e-01,7.59943604469299316e-01,9.75705027580261230e-01,9.89336613565683365e-03,-2.04118508845567703e-02,6.43976390361785889e-01,1.59238576889038086e-01,1.89773321151733398e-01,-4.00249004364013672e-01,-7.96880200505256653e-02,-2.14702144265174866e-01],"split_indices":[2,3,0,3,2,2,3,0,0,0,0,0,0,0,0],"sum_hessian":[8.19225488281250000e+03,7.91187060546875000e+03,2.80384216308593750e+02,7.90390625000000000e+03,7.96428012847900391e+00,4.00888862609863281e+01,2.40295333862304688e+02,4.14435058593750000e+03,3.75955541992187500e+03,4.94452810287475586e+00,3.01975202560424805e+00,3.22801055908203125e+01,7.80878210067749023e+00,1.28516510009765625e+02,1.11778823852539062e+02],"tree_param":{"num_deleted":"0","num_feature":"5","num_nodes":"15","size_leaf_vector":"0"}},{"base_weights":[-1.86249967664480209e-02,2.13724728673696518e-02,-9.35225486755371094e-02,-7.59464949369430542e-02,7.18057453632354736e-02,6.30596160888671875e-01,-1.24332763254642487e-01,-5.83160936832427979e-01,1.50665771216154099e-02,2.17709600925445557e-01,-6.99239149689674377e-02,2.33275786042213440e-01,1.23958647251129150e+00,-5.77305294573307037e-02,-3.89721691608428955e-01],"default_left":[true,true,true,true,true,true,true,false,false,false,false,false,false,false,false],"id":20,"leaf_child_counts":[0,0,0,0,0,0,0,0,0,0,0,0,0,0,0],"left_children":[1,3,5,7,9,11,13,-1,-1,-1,-1,-1,-1,-1,-1],"loss_changes":[2.43421268463134766e+01,2.60052852630615234e+01,6.31868019104003906e+01,8.35019836425781250e+01,7.21775970458984375e+01,2.76840057373046875e+01,4.79499130249023438e+01,0.00000000000000000e+00,0.00000000000000000e+00,0.00000000000000000e+00,0.00000000000000000e+00,0.00000000000000000e+00,0.00000000000000000e+00,0.00000000000000000e+00,0.00000000000000000e+00],"parents":[2147483647,0,0,1,1,2,2,3,3,4,4,5,5,6,6],"right_children":[2,4,6,8,10,12,14,-1,-1,-1,-1,-1,-1,-1,-1],"split_conditions":[9.58715021610260010e-01,9.99984979629516602e-01,5.26399984955787659e-02,8.10500025749206543e-01,9.95655000209808350e-01,9.60875034332275391e-01,9.70744967460632324e-01,-1.74948289990425110e-01,4.51997341588139534e-03,6.53128847479820251e-02,-2.09771748632192612e-02,6.99827373027801514e-02,3.71875941753387451e-01,-1.73191595822572708e-02,-1.16916514933109283e-01],"split_indices":[1,4,0,0,0,3,3,0,0,0,0,0,0,0,0],"sum_hessian":[8.12398828125000000e+03,5.29631640625000000e+03,2.82767211914062500e+03,1.80765490722656250e+03,3.48866137695312500e+03,1.14608688354492188e+02,2.71306347656250000e+03,2.74190093994140625e+02,1.53346472167968750e+03,1.71875244140625000e+03,1.76990881347656250e+03,7.01948699951171875e+01,4.44138183593750000e+01,2.16975683593750000e+03,5.43306579589843750e+02],"tree_param":{"num_deleted":"0","num_feature":"5","num_nodes":"15","size_leaf_vector":"0"}},{"base_weights":[-1.37977097183465958e-02,1.10746935009956360e-01,-3.83724346756935120e-02,-4.09574151039123535e-01,2.69089549779891968e-01,5.32871127128601074e-01,-5.32053150236606598e-02,-1.51143997907638550e-01,-9.28491175174713135e-01,-5.94366669654846191e-01,4.24975901842117310e-01,1.45944321155548096e+00,1.36079918593168259e-02,-2.87647724151611328e-01,2.65698204748332500e-03],"default_left":[true,true,true,true,true,true,true,false,false,false,false,false,false,false,false],"id":21,"leaf_child_counts":[0,0,0,0,0,0,0,0,0,0,0,0,0,0,0],"left_children":[1,3,5,7,9,11,13,-1,-1,-1,-1,-1,-1,-1,-1],"loss_changes":[2.46678886413574219e+01,1.09543975830078125e+02,5.70617370605468750e+01,4.14719657897949219e+01,1.37405395507812500e+02,8.19872741699218750e+01,8.59346618652343750e+01,0.00000000000000000e+00,0.00000000000000000e+00,0.00000000000000000e+00,0.00000000000000000e+00,0.00000000000000000e+00,0.00000000000000000e+00,0.00000000000000000e+00,0.00000000000000000e+00],"parents":[2147483647,0,0,1,1,2,2,3,3,4,4,5,5,6,6],"right_children":[2,4,6,8,10,12,14,-1,-1,-1,-1,-1,-1,-1,-1],"split_conditions":[7.11040019989013672e-01,7.96640038490295410e-01,1.54499989002943039e-03,7.55434989929199219e-01,1.98565006256103516e-01,9.64884996414184570e-01,9.99925017356872559e-01,-4.53432016074657440e-02,-2.78547376394271851e-01,-1.78310006856918335e-01,1.27492770552635193e-01,4.37832981348037720e-01,4.08239755779504776e-03,-8.62943232059478760e-02,7.97094660811126232e-04],"split_indices":[4,0,3,0,3,4,4,0,0,0,0,0,0,0,0],"sum_hessian":[8.05729980468750000e+03,1.32725708007812500e+03,6.73004248046875000e+03,3.09299194335937500e+02,1.01795794677734375e+03,1.69445251464843750e+02,6.56059716796875000e+03,2.07334228515625000e+02,1.01964958190917969e+02,1.55244445800781250e+02,8.62713500976562500e+02,6.02049865722656250e+01,1.09240257263183594e+02,1.26163378906250000e+03,5.29896337890625000e+03],"tree_param":{"num_deleted":"0","num_feature":"5","num_nodes":"15","size_leaf_vector":"0"}},{"base_weights":[-1.05087840929627419e-02,-5.28039596974849701e-03,-5.01935482025146484e-01,3.98615449666976929e-02,-5.05899377167224884e-02,1.60677097737789154e-02,-7.28406429290771484e-01,3.04810494184494019e-01,3.46318702213466167e-03,2.37695872783660889e-01,-7.14369639754295349e-02,-9.14409697055816650e-01,3.59029471874237061e-01,8.30815210938453674e-02,-8.74181926250457764e-01],"default_left":[true,true,true,true,true,true,true,false,false,false,false,false,false,false,false],"id":22,"leaf_child_counts":[0,0,0,0,0,0,0,0,0,0,0,0,0,0,0],"left_children":[1,3,5,7,9,11,13,-1,-1,-1,-1,-1,-1,-1,-1],"loss_changes":[2.05470371246337891e+01,1.61905632019042969e+01,9.88771820068359375e+00,3.82388839721679688e+01,2.37590370178222656e+01,8.81295967102050781e+00,7.00443077087402344e+00,0.00000000000000000e+00,0.00000000000000000e+00,0.00000000000000000e+00,0.00000000000000000e+00,0.00000000000000000e+00,0.00000000000000000e+00,0.00000000000000000e+00,0.00000000000000000e+00],"parents":[2147483647,0,0,1,1,2,2,3,3,4,4,5,5,6,6],"right_children":[2,4,6,8,10,12,14,-1,-1,-1,-1,-1,-1,-1,-1],"split_conditions":[7.25980162620544434e-01,6.04423940181732178e-01,3.34799997508525848e-02,2.53749996423721313e-01,4.58000004291534424e-02,2.78535008430480957e-01,7.67075002193450928e-01,9.14431512355804443e-02,1.03895610664039850e-03,7.13087618350982666e-02,-2.14310903102159500e-02,-2.74322926998138428e-01,1.07708849012851715e-01,2.49244570732116699e-02,-2.62254595756530762e-01],"split_indices":[2,2,4,4,0,3,3,0,0,0,0,0,0,0,0],"sum_hessian":[7.99694970703125000e+03,7.91376416015625000e+03,8.31853942871093750e+01,3.96427416992187500e+03,3.94948999023437500e+03,2.55878334045410156e+01,5.75975646972656250e+01,4.77935760498046875e+02,3.48633837890625000e+03,2.65640716552734375e+02,3.68384936523437500e+03,6.44255399703979492e+00,1.91452789306640625e+01,8.83665752410888672e+00,4.87609062194824219e+01],"tree_param":{"num_deleted":"0","num_feature":"5","num_nodes":"15","size_leaf_vector":"0"}},{"base_weights":[-7.68734933808445930e-03,-2.77796923182904720e-03,-3.56600642204284668e-01,-1.24106362462043762e-01,1.07168443500995636e-02,-1.76872953772544861e-01,-6.78010761737823486e-01,-2.30050966143608093e-01,7.14167594909667969e-01,7.35276222229003906e-01,-2.11455230601131916e-03,-3.70325237512588501e-01,3.74423146247863770e-01,5.79339861869812012e-01,-7.45407581329345703e-01],"default_left":[true,true,true,true,true,true,true,false,false,false,false,false,false,false,false],"id":23,"leaf_child_counts":[0,0,0,0,0,0,0,0,0,0,0,0,0,0,0],"left_children":[1,3,5,7,9,11,13,-1,-1,-1,-1,-1,-1,-1,-1],"loss_changes":[1.35892744064331055e+01,1.28128566741943359e+01,6.23877620697021484e+00,6.97279968261718750e+01,6.54763259887695312e+01,7.81225490570068359e+00,3.74733161926269531e+00,0.00000000000000000e+00,0.00000000000000000e+00,0.00000000000000000e+00,0.00000000000000000e+00,0.00000000000000000e+00,0.00000000000000000e+00,0.00000000000000000e+00,0.00000000000000000e+00],"parents":[2147483647,0,0,1,1,2,2,3,3,4,4,5,5,6,6],"right_children":[2,4,6,8,10,12,14,-1,-1,-1,-1,-1,-1,-1,-1],"split_conditions":[7.16689348220825195e-01,1.63965001702308655e-01,9.76469993591308594e-01,6.46405935287475586e-01,5.97630023956298828e-01,8.29649984836578369e-01,2.84095019102096558e-01,-6.90152943134307861e-02,2.14250281453132629e-01,2.20582872629165649e-01,-6.34365715086460114e-04,-1.11097574234008789e-01,1.12326949834823608e-01,1.73801958560943604e-01,-2.23622277379035950e-01],"split_indices":[2,0,3,2,0,3,0,0,0,0,0,0,0,0,0],"sum_hessian":[7.93284570312500000e+03,7.82376953125000000e+03,1.09076286315917969e+02,7.82281494140625000e+02,7.04148779296875000e+03,7.09515457153320312e+01,3.81247367858886719e+01,6.95150939941406250e+02,8.71305465698242188e+01,1.21549774169921875e+02,6.91993798828125000e+03,5.27645111083984375e+01,1.81870403289794922e+01,1.55315911769866943e+00,3.65715751647949219e+01],"tree_param":{"num_deleted":"0","num_feature":"5","num_nodes":"15","size_leaf_vector":"0"}},{"base_weights":[-5.38896815851330757e-03,2.38523371517658234e-02,-6.29111751914024353e-02,-1.96509838104248047e-01,4.91271317005157471e-02,3.13751727342605591e-01,-9.42333266139030457e-02,-7.58484423160552979e-01,-8.82435142993927002e-02,3.86436998844146729e-01,1.65922883898019791e-02,1.39833652973175049e+00,1.48480609059333801e-01,-4.72528897225856781e-02,-2.98956215381622314e-01],"default_left":[true,true,true,true,true,true,true,false,false,false,false,false,false,false,false],"id":24,"leaf_child_counts":[0,0,0,0,0,0,0,0,0,0,0,0,0,0,0],"left_children":[1,3,5,7,9,11,13,-1,-1,-1,-1,-1,-1,-1,-1],"loss_changes":[1.33266630172729492e+01,2.92662181854248047e+01,3.15323562622070312e+01,3.28305931091308594e+01,5.17177429199218750e+01,3.65799713134765625e+01,2.37035484313964844e+01,0.00000000000000000e+00,0.00000000000000000e+00,0.00000000000000000e+00,0.00000000000000000e+00,0.00000000000000000e+00,0.00000000000000000e+00,0.00000000000000000e+00,0.00000000000000000e+00],"parents":[2147483647,0,0,1,1,2,2,3,3,4,4,5,5,6,6],"right_children":[2,4,6,8,10,12,14,-1,-1,-1,-1,-1,-1,-1,-1],"split_conditions":[6.18444740772247314e-01,2.10089996457099915e-01,5.55350035429000854e-02,2.84800007939338684e-02,3.50200012326240540e-02,6.19184970855712891e-01,9.77465033531188965e-01,-2.27545335888862610e-01,-2.64730546623468399e-02,1.15931101143360138e-01,4.97768679633736610e-03,4.19500976800918579e-01,4.45441827178001404e-02,-1.41758676618337631e-02,-8.96868705749511719e-02],"split_indices":[2,0,0,4,4,3,3,0,0,0,0,0,0,0,0],"sum_hessian":[7.92109863281250000e+03,5.25189355468750000e+03,2.66920483398437500e+03,5.39695983886718750e+02,4.71219775390625000e+03,2.04230072021484375e+02,2.46497485351562500e+03,8.62088317871093750e+01,4.53487182617187500e+02,4.13570098876953125e+02,4.29862744140625000e+03,2.60192127227783203e+01,1.78210861206054688e+02,2.00588818359375000e+03,4.59086547851562500e+02],"tree_param":{"num_deleted":"0","num_feature":"5","num_nodes":"15","size_leaf_vector":"0"}},{"base_weights":[-3.84347746148705482e-03,-7.16261845082044601e-03,4.67646062374114990e-01,9.40810918807983398e-01,-8.64626001566648483e-03,8.89509022235870361e-01,2.11799189448356628e-01,-2.35209792852401733e-01,1.07091581821441650e+00,-4.06885713338851929e-01,-5.65083371475338936e-03,-5.27299582958221436e-01,1.06691229343414307e+00,5.80193996429443359e-01,-3.88489551842212677e-02],"default_left":[true,true,true,true,true,true,true,false,false,false,false,false,false,false,false],"id":25,"leaf_child_counts":[0,0,0,0,0,0,0,0,0,0,0,0,0,0,0],"left_children":[1,3,5,7,9,11,13,-1,-1,-1,-1,-1,-1,-1,-1],"loss_changes":[1.23301773071289062e+01,1.10105247497558594e+01,5.75631809234619141e+00,2.12363719940185547e+00,9.31608295440673828e+00,5.71026229858398438e+00,3.30954694747924805e+00,0.00000000000000000e+00,0.00000000000000000e+00,0.00000000000000000e+00,0.00000000000000000e+00,0.00000000000000000e+00,0.00000000000000000e+00,0.00000000000000000e+00,0.00000000000000000e+00],"parents":[2147483647,0,0,1,1,2,2,3,3,4,4,5,5,6,6],"right_children":[2,4,6,8,10,12,14,-1,-1,-1,-1,-1,-1,-1,-1],"split_conditions":[9.98265027999877930e-01,3.17124992609024048e-01,5.98604142665863037e-01,2.89499992504715919e-03,7.51999998465180397e-03,3.79900000989437103e-02,9.22289967536926270e-01,-7.05629438161849976e-02,3.21274757385253906e-01,-1.22065715491771698e-01,-1.69525016099214554e-03,-1.58189877867698669e-01,3.20073693990707397e-01,1.74058198928833008e-01,-1.16546871140599251e-02],"split_indices":[3,1,2,0,0,0,1,0,0,0,0,0,0,0,0],"sum_hessian":[7.87586767578125000e+03,7.82178955078125000e+03,5.40781745910644531e+01,1.12331647872924805e+01,7.81055615234375000e+03,1.94804172515869141e+01,3.45977592468261719e+01,1.03847920894622803e+00,1.01946859359741211e+01,5.73032379150390625e+01,7.75325292968750000e+03,1.94829404354095459e+00,1.75321216583251953e+01,1.34761543273925781e+01,2.11216049194335938e+01],"tree_param":{"num_deleted":"0","num_feature":"5","num_nodes":"15","size_leaf_vector":"0"}},{"base_weights":[-2.72247684188187122e-03,5.45155294239521027e-02,-2.52804607152938843e-02,1.96293860673904419e-01,-6.82160034775733948e-02,3.30087333917617798e-01,-4.35136035084724426e-02,-2.00748503208160400e-01,4.46116834878921509e-01,3.45131635665893555e-01,-1.44961461424827576e-01,1.19264316558837891e+00,2.06745103001594543e-01,-5.42210221290588379e-01,-3.31248119473457336e-02],"default_left":[true,true,true,true,true,true,true,false,false,false,false,false,false,false,false],"id":26,"leaf_child_counts":[0,0,0,0,0,0,0,0,0,0,0,0,0,0,0],"left_children":[1,3,5,7,9,11,13,-1,-1,-1,-1,-1,-1,-1,-1],"loss_changes":[1.01714620590209961e+01,3.87647323608398438e+01,3.66273612976074219e+01,1.02610511779785156e+02,3.79402275085449219e+01,2.91050205230712891e+01,2.78328933715820312e+01,0.00000000000000000e+00,0.00000000000000000e+00,0.00000000000000000e+00,0.00000000000000000e+00,0.00000000000000000e+00,0.00000000000000000e+00,0.00000000000000000e+00,0.00000000000000000e+00],"parents":[2147483647,0,0,1,1,2,2,3,3,4,4,5,5,6,6],"right_children":[2,4,6,8,10,12,14,-1,-1,-1,-1,-1,-1,-1,-1],"split_conditions":[8.82324993610382080e-01,9.99154984951019287e-01,5.16749992966651917e-02,2.53984987735748291e-01,7.72200003266334534e-02,6.42274975776672363e-01,9.20899957418441772e-02,-6.02245517075061798e-02,1.33835062384605408e-01,1.03539496660232544e-01,-4.34884391725063324e-02,3.57792973518371582e-01,6.20235316455364227e-02,-1.62663072347640991e-01,-9.93744377046823502e-03],"split_indices":[1,0,0,0,4,3,0,0,0,0,0,0,0,0,0],"sum_hessian":[7.87561718750000000e+03,2.22600268554687500e+03,5.64961474609375000e+03,1.03257836914062500e+03,1.19342431640625000e+03,2.74887908935546875e+02,5.37472656250000000e+03,3.98863311767578125e+02,6.33714965820312500e+02,1.86335037231445312e+02,1.00708929443359375e+03,3.33056602478027344e+01,2.41582244873046875e+02,1.08636161804199219e+02,5.26609033203125000e+03],"tree_param":{"num_deleted":"0","num_feature":"5","num_nodes":"15","size_leaf_vector":"0"}},{"base_weights":[-2.24205758422613144e-03,-5.55841699242591858e-02,2.35283561050891876e-02,1.02901227772235870e-01,-1.37138783931732178e-01,1.56281247735023499e-01,-1.34687107056379318e-02,-1.51210293173789978e-01,3.11056941747665405e-01,-3.01140099763870239e-01,-6.32529333233833313e-02,3.17559123039245605e-01,-1.78031567484140396e-02,-8.11885576695203781e-03,-8.96917521953582764e-01],"default_left":[true,true,true,true,true,true,true,false,false,false,false,false,false,false,false],"id":27,"leaf_child_counts":[0,0,0,0,0,0,0,0,0,0,0,0,0,0,0],"left_children":[1,3,5,7,9,11,13,-1,-1,-1,-1,-1,-1,-1,-1],"loss_changes":[1.07837505340576172e+01,3.30427055358886719e+01,2.59809303283691406e+01,4.60002174377441406e+01,2.04301776885986328e+01,3.23747367858886719e+01,1.95479316711425781e+01,0.00000000000000000e+00,0.00000000000000000e+00,0.00000000000000000e+00,0.00000000000000000e+00,0.00000000000000000e+00,0.00000000000000000e+00,0.00000000000000000e+00,0.00000000000000000e+00],"parents":[2147483647,0,0,1,1,2,2,3,3,4,4,5,5,6,6],"right_children":[2,4,6,8,10,12,14,-1,-1,-1,-1,-1,-1,-1,-1],"split_conditions":[9.99925017356872559e-01,6.70520007610321045e-01,8.59874963760375977e-01,9.97465014457702637e-01,8.91785025596618652e-01,9.95914995670318604e-01,7.30736494064331055e-01,-4.53630909323692322e-02,9.33170840144157410e-02,-9.03420299291610718e-02,-1.89758799970149994e-02,9.52677428722381592e-02,-5.34094730392098427e-03,-2.43565673008561134e-03,-2.69075274467468262e-01],"split_indices":[4,3,1,0,1,0,2,0,0,0,0,0,0,0,0],"sum_hessian":[7.84278271484375000e+03,2.55436083984375000e+03,5.28842187500000000e+03,8.67766052246093750e+02,1.68659484863281250e+03,1.15191076660156250e+03,4.13651123046875000e+03,3.90872222900390625e+02,4.76893859863281250e+02,5.22887573242187500e+02,1.16370727539062500e+03,5.97521667480468750e+02,5.54389160156250000e+02,4.11261572265625000e+03,2.38953628540039062e+01],"tree_param":{"num_deleted":"0","num_feature":"5","num_nodes":"15","size_leaf_vector":"0"}},{"base_weights":[-1.92332395818084478e-03,1.18330788612365723e+00,-2.78693344444036484e-03,-9.95980352163314819e-02,7.42280203849077225e-03,6.49853050708770752e-01,-2.28613168001174927e-01,2.25185260176658630e-01,-3.61978006549179554e-03],"default_left":[true,false,true,true,true,false,false,false,false],"id":28,"leaf_child_counts":[0,0,0,0,0,0,0,0,0],"left_children":[1,-1,3,5,7,-1,-1,-1,-1],"loss_changes":[7.99107646942138672e+00,0.00000000000000000e+00,7.70949697494506836e+00,7.20960006713867188e+01,1.69681072235107422e+01,0.00000000000000000e+00,0.00000000000000000e+00,0.00000000000000000e+00,0.00000000000000000e+00],"parents":[2147483647,0,0,2,2,3,3,4,4],"right_children":[2,-1,4,6,8,-1,-1,-1,-1],"split_conditions":[2.24399998784065247e-01,3.54992389678955078e-01,4.73860025405883789e-01,8.08439970016479492e-01,6.19969964027404785e-01,1.94955930113792419e-01,-6.85839504003524780e-02,6.75555840134620667e-02,-1.08593411277979612e-03],"split_indices":[1,0,3,0,3,0,0,0,0],"sum_hessian":[7.80278906250000000e+03,4.68437957763671875e+00,7.79810449218750000e+03,7.43100158691406250e+02,7.05500439453125000e+03,1.08541824340820312e+02,6.34558349609375000e+02,3.39552490234375000e+02,6.71545214843750000e+03],"tree_param":{"num_deleted":"0","num_feature":"5","num_nodes":"9","size_leaf_vector":"0"}},{"base_weights":[-1.26823456957936287e-03,7.09824264049530029e-02,-1.47475376725196838e-02,4.38759289681911469e-02,5.89621484279632568e-01,-8.41554343700408936e-01,-1.33598698303103447e-02,3.51306200027465820e-01,-7.79051845893263817e-03,-8.93360748887062073e-02,7.33265638351440430e-01,4.60898727178573608e-01,-1.08296668529510498e+00,1.45664182491600513e-03,-8.14292505383491516e-02],"default_left":[true,true,true,true,true,true,true,false,false,false,false,false,false,false,false],"id":29,"leaf_child_counts":[0,0,0,0,0,0,0,0,0,0,0,0,0,0,0],"left_children":[1,3,5,7,9,11,13,-1,-1,-1,-1,-1,-1,-1,-1],"loss_changes":[7.59243583679199219e+00,1.72065544128417969e+01,7.52691888809204102e+00,1.85227203369140625e+01,5.99541091918945312e+00,3.95545673370361328e+00,6.61637973785400391e+00,0.00000000000000000e+00,0.00000000000000000e+00,0.00000000000000000e+00,0.00000000000000000e+00,0.00000000000000000e+00,0.00000000000000000e+00,0.00000000000000000e+00,0.00000000000000000e+00],"parents":[2147483647,0,0,1,1,2,2,3,3,4,4,5,5,6,6],"right_children":[2,4,6,8,10,12,14,-1,-1,-1,-1,-1,-1,-1,-1],"split_conditions":[5.84948718547821045e-01,9.81464982032775879e-01,8.15000035800039768e-04,7.11024999618530273e-01,9.13549959659576416e-02,6.45884990692138672e-01,9.69285011291503906e-01,1.05391867458820343e-01,-2.33715563081204891e-03,-2.68008243292570114e-02,2.19979703426361084e-01,1.38269618153572083e-01,-3.24890017509460449e-01,4.36992559116333723e-04,-2.44287755340337753e-02],"split_indices":[2,3,0,4,0,3,3,0,0,0,0,0,0,0,0],"sum_hessian":[7.79392626953125000e+03,1.22476647949218750e+03,6.56915966796875000e+03,1.16496459960937500e+03,5.98018836975097656e+01,9.99239349365234375e+00,6.55916699218750000e+03,1.66779418945312500e+02,9.98185180664062500e+02,1.05087299346923828e+01,4.92931518554687500e+01,1.42033147811889648e+00,8.57206249237060547e+00,5.38746777343750000e+03,1.17169946289062500e+03],"tree_param":{"num_deleted":"0","num_feature":"5","num_nodes":"15","size_leaf_vector":"0"}},{"base_weights":[-1.05617789085954428e-03,-3.19972783327102661e-01,1.71398906968533993e-03,-1.89417637884616852e-02,-5.58512568473815918e-01,1.14694428443908691e+00,9.37532109674066305e-04,-4.78079974651336670e-01,1.63008987903594971e-01,-8.47237229347229004e-01,-2.13591560721397400e-01,4.29040342569351196e-01,1.34529983997344971e+00,9.44489054381847382e-03,-8.74977260828018188e-02],"default_left":[true,true,true,true,true,true,true,false,false,false,false,false,false,false,false],"id":30,"leaf_child_counts":[0,0,0,0,0,0,0,0,0,0,0,0,0,0,0],"left_children":[1,3,5,7,9,11,13,-1,-1,-1,-1,-1,-1,-1,-1],"loss_changes":[6.87732553482055664e+00,4.80314397811889648e+00,6.86189222335815430e+00,2.64022302627563477e+00,3.54010677337646484e+00,1.67329311370849609e-01,5.80424547195434570e+00,0.00000000000000000e+00,0.00000000000000000e+00,0.00000000000000000e+00,0.00000000000000000e+00,0.00000000000000000e+00,0.00000000000000000e+00,0.00000000000000000e+00,0.00000000000000000e+00],"parents":[2147483647,0,0,1,1,2,2,3,3,4,4,5,5,6,6],"right_children":[2,4,6,8,10,12,14,-1,-1,-1,-1,-1,-1,-1,-1],"split_conditions":[6.24999986030161381e-04,6.47140026092529297e-01,1.08499999623745680e-03,2.39000003784894943e-03,9.99825000762939453e-01,8.15000035800039768e-04,6.62179231643676758e-01,-1.43424004316329956e-01,4.89026978611946106e-02,-2.54171192646026611e-01,-6.40774741768836975e-02,1.28712102770805359e-01,4.03589963912963867e-01,2.83346720971167088e-03,-2.62493193149566650e-02],"split_indices":[4,3,4,3,0,4,2,0,0,0,0,0,0,0,0],"sum_hessian":[7.78298291015625000e+03,6.60361633300781250e+01,7.71694677734375000e+03,2.96712341308593750e+01,3.63649253845214844e+01,4.22834253311157227e+00,7.71271875000000000e+03,7.95922994613647461e+00,2.17120056152343750e+01,1.90022754669189453e+01,1.73626499176025391e+01,1.60010528564453125e+00,2.62823748588562012e+00,7.03669091796875000e+03,6.76027465820312500e+02],"tree_param":{"num_deleted":"0","num_feature":"5","num_nodes":"15","size_leaf_vector":"0"}},{"base_weights":[-7.59982969611883163e-04,-5.11811627075076103e-03,1.76493093371391296e-01,7.35580967739224434e-03,-7.05408006906509399e-02,2.30279624462127686e-01,-5.30800402164459229e-01,-7.41270557045936584e-02,1.85084994882345200e-02,-2.83502399921417236e-01,-3.83423194289207458e-02,3.94637405872344971e-01,1.21369130909442902e-01,8.23988199234008789e-01,-7.51654326915740967e-01],"default_left":[true,true,true,true,true,true,true,false,false,false,false,false,false,false,false],"id":31,"leaf_child_counts":[0,0,0,0,0,0,0,0,0,0,0,0,0,0,0],"left_children":[1,3,5,7,9,11,13,-1,-1,-1,-1,-1,-1,-1,-1],"loss_changes":[6.01321029663085938e+00,6.20042419433593750e+00,7.22852993011474609e+00,5.80060911178588867e+00,8.33186626434326172e+00,3.07200431823730469e+00,4.65982151031494141e+00,0.00000000000000000e+00,0.00000000000000000e+00,0.00000000000000000e+00,0.00000000000000000e+00,0.00000000000000000e+00,0.00000000000000000e+00,0.00000000000000000e+00,0.00000000000000000e+00],"parents":[2147483647,0,0,1,1,2,2,3,3,4,4,5,5,6,6],"right_children":[2,4,6,8,10,12,14,-1,-1,-1,-1,-1,-1,-1,-1],"split_conditions":[9.93915021419525146e-01,9.66704964637756348e-01,7.03466594219207764e-01,4.97274994850158691e-01,9.99745011329650879e-01,9.12454962730407715e-01,3.54334980249404907e-01,-2.22381167113780975e-02,5.55254984647035599e-03,-8.50507244467735291e-02,-1.15026962012052536e-02,1.18391223251819611e-01,3.64107415080070496e-02,2.47196465730667114e-01,-2.25496307015419006e-01],"split_indices":[3,3,2,3,4,1,0,0,0,0,0,0,0,0,0],"sum_hessian":[7.78199658203125000e+03,7.59619921875000000e+03,1.85797134399414062e+02,6.38053222656250000e+03,1.21566735839843750e+03,1.73293365478515625e+02,1.25037689208984375e+01,7.67492797851562500e+02,5.61303955078125000e+03,1.58636489868164062e+02,1.05703088378906250e+03,6.80201110839843750e+01,1.05273254394531250e+02,1.36983633041381836e+00,1.11339321136474609e+01],"tree_param":{"num_deleted":"0","num_feature":"5","num_nodes":"15","size_leaf_vector":"0"}},{"base_weights":[-6.75124465487897396e-04,1.02865028381347656e+00,-1.34083523880690336e-03,-3.47715526819229126e-01,6.35502568911761045e-04,-1.03538060188293457e+00,2.81362086534500122e-01,-3.81649434566497803e-02,1.90195664763450623e-02],"default_left":[true,false,true,true,true,false,false,false,false],"id":32,"leaf_child_counts":[0,0,0,0,0,0,0,0,0],"left_children":[1,-1,3,5,7,-1,-1,-1,-1],"loss_changes":[5.33470153808593750e+00,0.00000000000000000e+00,5.32549381256103516e+00,1.93844757080078125e+01,5.51893138885498047e+00,0.00000000000000000e+00,0.00000000000000000e+00,0.00000000000000000e+00,0.00000000000000000e+00],"parents":[2147483647,0,0,2,2,3,3,4,4],"right_children":[2,-1,4,6,8,-1,-1,-1,-1],"split_conditions":[2.24399998784065247e-01,3.08595091104507446e-01,4.96930003166198730e-01,4.16050031781196594e-02,9.99925017356872559e-01,-3.10614198446273804e-01,8.44086259603500366e-02,-1.14494832232594490e-02,5.70587022230029106e-03],"split_indices":[1,0,1,0,4,0,0,0,0],"sum_hessian":[7.78222460937500000e+03,4.03180789947509766e+00,7.77819238281250000e+03,4.31363639831542969e+01,7.73505615234375000e+03,2.02999553680419922e+01,2.28364086151123047e+01,2.48637231445312500e+03,5.24868408203125000e+03],"tree_param":{"num_deleted":"0","num_feature":"5","num_nodes":"9","size_leaf_vector":"0"}},{"base_weights":[-4.41337761003524065e-04,-6.93332776427268982e-02,7.21228728070855141e-03,-3.30977529287338257e-01,6.68184086680412292e-02,8.56983780860900879e-01,2.02043703757226467e-03,-6.25135153532028198e-02,-7.12750554084777832e-01,2.20094144344329834e-01,-3.61408293247222900e-01,-2.64506399631500244e-01,9.46945190429687500e-01,4.42260295152664185e-01,-6.39727478846907616e-03],"default_left":[true,true,true,true,true,true,true,false,false,false,false,false,false,false,false],"id":33,"leaf_child_counts":[0,0,0,0,0,0,0,0,0,0,0,0,0,0,0],"left_children":[1,3,5,7,9,11,13,-1,-1,-1,-1,-1,-1,-1,-1],"loss_changes":[4.10933256149291992e+00,2.77819385528564453e+01,3.09447727203369141e+01,2.73087558746337891e+01,3.37760581970214844e+01,4.54771232604980469e+00,2.58425483703613281e+01,0.00000000000000000e+00,0.00000000000000000e+00,0.00000000000000000e+00,0.00000000000000000e+00,0.00000000000000000e+00,0.00000000000000000e+00,0.00000000000000000e+00,0.00000000000000000e+00],"parents":[2147483647,0,0,1,1,2,2,3,3,4,4,5,5,6,6],"right_children":[2,4,6,8,10,12,14,-1,-1,-1,-1,-1,-1,-1,-1],"split_conditions":[2.10089996457099915e-01,8.21574985980987549e-01,3.26600015163421631e-01,9.40335035324096680e-01,5.82449994981288910e-02,9.96879994869232178e-01,6.59240007400512695e-01,-1.87540557235479355e-02,-2.13825181126594543e-01,6.60282447934150696e-02,-1.08422495424747467e-01,-7.93519243597984314e-02,2.84083575010299683e-01,1.32678091526031494e-01,-1.91918248310685158e-03],"split_indices":[0,1,0,3,0,4,1,0,0,0,0,0,0,0,0],"sum_hessian":[7.79160791015625000e+03,7.78260192871093750e+02,7.01334765625000000e+03,2.65881561279296875e+02,5.12378601074218750e+02,4.15929603576660156e+01,6.97175488281250000e+03,1.56790054321289062e+02,1.09091522216796875e+02,3.77680847167968750e+02,1.34697769165039062e+02,2.94458007812500000e+00,3.86483802795410156e+01,1.29837051391601562e+02,6.84191748046875000e+03],"tree_param":{"num_deleted":"0","num_feature":"5","num_nodes":"15","size_leaf_vector":"0"}},{"base_weights":[-2.67381314188241959e-04,1.53578743338584900e-02,-3.29669825732707977e-02,-4.49221171438694000e-02,4.46311160922050476e-02,5.09195506572723389e-01,-4.70992252230644226e-02,-3.30679267644882202e-01,4.89596836268901825e-03,-2.34559699892997742e-01,6.48541226983070374e-02,-3.24471414089202881e-01,8.55680227279663086e-01,-1.05022206902503967e-01,3.69990617036819458e-02],"default_left":[true,true,true,true,true,true,true,false,false,false,false,false,false,false,false],"id":34,"leaf_child_counts":[0,0,0,0,0,0,0,0,0,0,0,0,0,0,0],"left_children":[1,3,5,7,9,11,13,-1,-1,-1,-1,-1,-1,-1,-1],"loss_changes":[3.97416353225708008e+00,9.28937816619873047e+00,1.92935867309570312e+01,2.45006217956542969e+01,2.00207023620605469e+01,1.87571392059326172e+01,1.19480819702148438e+01,0.00000000000000000e+00,0.00000000000000000e+00,0.00000000000000000e+00,0.00000000000000000e+00,0.00000000000000000e+00,0.00000000000000000e+00,0.00000000000000000e+00,0.00000000000000000e+00],"parents":[2147483647,0,0,1,1,2,2,3,3,4,4,5,5,6,6],"right_children":[2,4,6,8,10,12,14,-1,-1,-1,-1,-1,-1,-1,-1],"split_conditions":[9.60394978523254395e-01,9.99525010585784912e-01,3.24949994683265686e-02,8.10500025749206543e-01,6.08850002288818359e-01,8.07065010070800781e-01,9.99724984169006348e-01,-9.92037877440452576e-02,1.46879057865589857e-03,-7.03679099678993225e-02,1.94562375545501709e-02,-9.73414257168769836e-02,2.56704092025756836e-01,-3.15066650509834290e-02,1.10997185111045837e-02],"split_indices":[1,4,0,0,3,3,0,0,0,0,0,0,0,0,0],"sum_hessian":[7.77615527343750000e+03,5.26218896484375000e+03,2.51396655273437500e+03,1.71993420410156250e+03,3.54225463867187500e+03,6.29754714965820312e+01,2.45099096679687500e+03,2.54497238159179688e+02,1.46543688964843750e+03,2.38535064697265625e+02,3.30371948242187500e+03,1.85078334808349609e+01,4.44676361083984375e+01,1.45121386718750000e+03,9.99777221679687500e+02],"tree_param":{"num_deleted":"0","num_feature":"5","num_nodes":"15","size_leaf_vector":"0"}},{"base_weights":[-2.72542092716321349e-04,4.49323803186416626e-02,-1.40883252024650574e-02,-2.16464012861251831e-01,9.96413007378578186e-02,-1.71203032135963440e-01,5.34965610131621361e-03,-4.19006437063217163e-01,3.86059880256652832e-01,2.53786504268646240e-01,-3.22524528019130230e-03,-3.19728404283523560e-01,-5.06691709160804749e-02,5.72461411356925964e-02,-3.87524105608463287e-02],"default_left":[true,true,true,true,true,true,true,false,false,false,false,false,false,false,false],"id":35,"leaf_child_counts":[0,0,0,0,0,0,0,0,0,0,0,0,0,0,0],"left_children":[1,3,5,7,9,11,13,-1,-1,-1,-1,-1,-1,-1,-1],"loss_changes":[4.86092662811279297e+00,2.60763225555419922e+01,1.82065601348876953e+01,3.86811904907226562e+01,2.39008522033691406e+01,1.17339820861816406e+01,1.21460809707641602e+01,0.00000000000000000e+00,0.00000000000000000e+00,0.00000000000000000e+00,0.00000000000000000e+00,0.00000000000000000e+00,0.00000000000000000e+00,0.00000000000000000e+00,0.00000000000000000e+00],"parents":[2147483647,0,0,1,1,2,2,3,3,4,4,5,5,6,6],"right_children":[2,4,6,8,10,12,14,-1,-1,-1,-1,-1,-1,-1,-1],"split_conditions":[9.47645008563995361e-01,8.15299987792968750e-01,9.99925017356872559e-01,7.65215039253234863e-01,6.72254979610443115e-01,9.29989993572235107e-01,9.26285028457641602e-01,-1.25701934099197388e-01,1.15817971527576447e-01,7.61359557509422302e-02,-9.67573607340455055e-04,-9.59185287356376648e-02,-1.52007518336176872e-02,1.71738434582948685e-02,-1.16257239133119583e-02],"split_indices":[4,0,4,3,3,1,1,0,0,0,0,0,0,0,0],"sum_hessian":[7.78117968750000000e+03,1.82091979980468750e+03,5.96025976562500000e+03,3.14638153076171875e+02,1.50628161621093750e+03,6.55349121093750000e+02,5.30491064453125000e+03,2.35707946777343750e+02,7.89302139282226562e+01,6.02287902832031250e+02,9.03993652343750000e+02,2.92844696044921875e+02,3.62504425048828125e+02,2.43695727539062500e+03,2.86795312500000000e+03],"tree_param":{"num_deleted":"0","num_feature":"5","num_nodes":"15","size_leaf_vector":"0"}},{"base_weights":[-4.33182634878903627e-04,4.26683723926544189e-01,-1.56731333117932081e-03,-2.02124472707509995e-02,8.03761124610900879e-01,8.64325046539306641e-01,-2.07792432047426701e-03,7.28894948959350586e-01,-3.16666275262832642e-01,3.48259322345256805e-02,8.87927770614624023e-01,-2.30282992124557495e-01,-1.43149110954254866e-04],"default_left":[true,true,true,true,true,false,true,false,false,false,false,false,false],"id":36,"leaf_child_counts":[0,0,0,0,0,0,0,0,0,0,0,0,0],"left_children":[1,3,5,7,9,-1,11,-1,-1,-1,-1,-1,-1],"loss_changes":[3.75669050216674805e+00,3.47721266746520996e+00,3.42140674591064453e+00,2.53471469879150391e+00,6.91578865051269531e-01,0.00000000000000000e+00,3.41329789161682129e+00,0.00000000000000000e+00,0.00000000000000000e+00,0.00000000000000000e+00,0.00000000000000000e+00,0.00000000000000000e+00,0.00000000000000000e+00],"parents":[2147483647,0,0,1,1,2,2,3,3,4,4,6,6],"right_children":[2,4,6,8,10,-1,12,-1,-1,-1,-1,-1,-1],"split_conditions":[5.78630328178405762e-01,5.78572690486907959e-01,2.24399998784065247e-01,7.85749971866607666e-01,6.94424986839294434e-01,2.59297519922256470e-01,6.24999986030161381e-04,2.18668490648269653e-01,-9.49998870491981506e-02,1.04477796703577042e-02,2.66378343105316162e-01,-6.90848976373672485e-02,-4.29447354690637439e-05],"split_indices":[2,2,1,3,0,0,4,0,0,0,0,0,0],"sum_hessian":[7.75286523437500000e+03,1.95381011962890625e+01,7.73332714843750000e+03,9.37438011169433594e+00,1.01637220382690430e+01,3.56059265136718750e+00,7.72976660156250000e+03,2.24437332153320312e+00,7.13000679016113281e+00,1.14223074913024902e+00,9.02149105072021484e+00,6.39915847778320312e+01,7.66577490234375000e+03],"tree_param":{"num_deleted":"0","num_feature":"5","num_nodes":"13","size_leaf_vector":"0"}},{"base_weights":[-2.53086298471316695e-04,2.39056106656789780e-02,-1.79418362677097321e-02,2.69821047782897949e-01,3.87814780697226524e-03,-1.41644150018692017e-01,-8.83543631061911583e-04,-9.50153842568397522e-02,6.42218470573425293e-01,1.03988356888294220e-01,-3.53414565324783325e-02,-1.97465762495994568e-01,5.27156412601470947e-01,2.55637586116790771e-01,-2.00164858251810074e-02],"default_left":[true,true,true,true,true,true,true,false,false,false,false,false,false,false,false],"id":37,"leaf_child_counts":[0,0,0,0,0,0,0,0,0,0,0,0,0,0,0],"left_children":[1,3,5,7,9,11,13,-1,-1,-1,-1,-1,-1,-1,-1],"loss_changes":[3.31401658058166504e+00,1.61434497833251953e+01,9.44703102111816406e+00,3.35984268188476562e+01,1.19088850021362305e+01,2.03592758178710938e+01,1.93203659057617188e+01,0.00000000000000000e+00,0.00000000000000000e+00,0.00000000000000000e+00,0.00000000000000000e+00,0.00000000000000000e+00,0.00000000000000000e+00,0.00000000000000000e+00,0.00000000000000000e+00],"parents":[2147483647,0,0,1,1,2,2,3,3,4,4,5,5,6,6],"right_children":[2,4,6,8,10,12,14,-1,-1,-1,-1,-1,-1,-1,-1],"split_conditions":[8.62604975700378418e-01,6.25710010528564453e-01,2.10089996457099915e-01,3.30250002443790436e-02,5.89842557907104492e-01,6.56502366065979004e-01,7.83105015754699707e-01,-2.85046156495809555e-02,1.92665547132492065e-01,3.11965085566043854e-02,-1.06024369597434998e-02,-5.92397302389144897e-02,1.58146932721138000e-01,7.66912773251533508e-02,-6.00494584068655968e-03],"split_indices":[3,0,0,4,2,2,1,0,0,0,0,0,0,0,0],"sum_hessian":[7.75303466796875000e+03,3.27702856445312500e+03,4.47600634765625000e+03,2.45845169067382812e+02,3.03118334960937500e+03,5.41546752929687500e+02,3.93445947265625000e+03,1.24559501647949219e+02,1.21285659790039062e+02,8.52775451660156250e+02,2.17840795898437500e+03,5.00478881835937500e+02,4.10678558349609375e+01,2.72229919433593750e+02,3.66222973632812500e+03],"tree_param":{"num_deleted":"0","num_feature":"5","num_nodes":"15","size_leaf_vector":"0"}},{"base_weights":[-1.04306091088801622e-04,7.03364377841353416e-04,-6.02072656154632568e-01,1.20975770056247711e-01,-2.71100248210132122e-03,3.38234215974807739e-01,-1.14714562892913818e+00,-2.49797061085700989e-01,4.25919324159622192e-01,1.11975371837615967e-01,-7.96230230480432510e-03,-6.33372485637664795e-01,8.44936847686767578e-01],"default_left":[true,true,true,true,true,true,false,false,false,false,false,false,false],"id":38,"leaf_child_counts":[0,0,0,0,0,0,0,0,0,0,0,0,0],"left_children":[1,3,5,7,9,11,-1,-1,-1,-1,-1,-1,-1],"loss_changes":[3.76315355300903320e+00,3.17460799217224121e+00,5.70353412628173828e+00,2.42347621917724609e+01,4.52827024459838867e+00,2.78899765014648438e+00,0.00000000000000000e+00,0.00000000000000000e+00,0.00000000000000000e+00,0.00000000000000000e+00,0.00000000000000000e+00,0.00000000000000000e+00,0.00000000000000000e+00],"parents":[2147483647,0,0,1,1,2,2,3,3,4,4,5,5],"right_children":[2,4,6,8,10,12,-1,-1,-1,-1,-1,-1,-1],"split_conditions":[7.69779562950134277e-01,2.17549987137317657e-02,3.56599986553192139e-02,8.34470033645629883e-01,1.08250007033348083e-02,3.50715011358261108e-01,-3.44143688678741455e-01,-7.49391242861747742e-02,1.27775803208351135e-01,3.35926115512847900e-02,-2.38869083113968372e-03,-1.90011754631996155e-01,2.53481060266494751e-01],"split_indices":[2,0,4,1,4,3,0,0,0,0,0,0,0],"sum_hessian":[7.73818457031250000e+03,7.72881347656250000e+03,9.37104129791259766e+00,2.12403030395507812e+02,7.51641064453125000e+03,3.57803416252136230e+00,5.79300642013549805e+00,9.59368209838867188e+01,1.16466201782226562e+02,3.28205474853515625e+02,7.18820507812500000e+03,1.14071488380432129e+00,2.43731927871704102e+00],"tree_param":{"num_deleted":"0","num_feature":"5","num_nodes":"13","size_leaf_vector":"0"}},{"base_weights":[-7.58330716053023934e-05,-2.33526781201362610e-01,1.71723391395062208e-03,-1.01634764671325684e+00,-1.41191869974136353e-01,1.86248034238815308e-01,-2.08622822538018227e-03,3.20661276578903198e-01,-1.57387804985046387e+00,-1.77607983350753784e-02,-7.70484387874603271e-01,-1.58492457121610641e-02,4.70833092927932739e-01,-8.93866866827011108e-02,4.63848514482378960e-03],"default_left":[true,true,true,true,true,true,true,false,false,false,false,false,false,false,false],"id":39,"leaf_child_counts":[0,0,0,0,0,0,0,0,0,0,0,0,0,0,0],"left_children":[1,3,5,7,9,11,13,-1,-1,-1,-1,-1,-1,-1,-1],"loss_changes":[3.23338294029235840e+00,4.11220169067382812e+00,5.38051366806030273e+00,5.01490306854248047e+00,4.16721534729003906e+00,8.91172218322753906e+00,4.41034173965454102e+00,0.00000000000000000e+00,0.00000000000000000e+00,0.00000000000000000e+00,0.00000000000000000e+00,0.00000000000000000e+00,0.00000000000000000e+00,0.00000000000000000e+00,0.00000000000000000e+00],"parents":[2147483647,0,0,1,1,2,2,3,3,4,4,5,5,6,6],"right_children":[2,4,6,8,10,12,14,-1,-1,-1,-1,-1,-1,-1,-1],"split_conditions":[7.51999998465180397e-03,4.34520006179809570e-01,2.17549987137317657e-02,3.23489993810653687e-01,6.97516560554504395e-01,8.95079970359802246e-01,1.63965001702308655e-01,9.61983874440193176e-02,-4.72163438796997070e-01,-5.32823987305164337e-03,-2.31145322322845459e-01,-4.75477380678057671e-03,1.41249939799308777e-01,-2.68160067498683929e-02,1.39154563657939434e-03],"split_indices":[0,1,0,1,2,1,0,0,0,0,0,0,0,0,0],"sum_hessian":[7.72244628906250000e+03,5.78766212463378906e+01,7.66456933593750000e+03,5.05055236816406250e+00,5.28260688781738281e+01,1.53819366455078125e+02,7.51075000000000000e+03,1.61131834983825684e+00,3.43923401832580566e+00,4.50233039855957031e+01,7.80276536941528320e+00,9.04972839355468750e+01,6.33220787048339844e+01,5.36292358398437500e+02,6.97445800781250000e+03],"tree_param":{"num_deleted":"0","num_feature":"5","num_nodes":"15","size_leaf_vector":"0"}},{"base_weights":[-7.04048579791560769e-05,5.90607197955250740e-03,-6.60063400864601135e-02,1.08524900861084461e-03,1.36960387229919434e-01,5.09665608406066895e-01,-1.11804760992527008e-01,1.47173274308443069e-02,-5.03770448267459869e-02,2.00470417737960815e-01,-5.82369305193424225e-02,-6.61706402897834778e-02,9.83879804611206055e-01,-4.74113732576370239e-01,-7.26349353790283203e-02],"default_left":[true,true,true,true,true,true,true,false,false,false,false,false,false,false,false],"id":40,"leaf_child_counts":[0,0,0,0,0,0,0,0,0,0,0,0,0,0,0],"left_children":[1,3,5,7,9,11,13,-1,-1,-1,-1,-1,-1,-1,-1],"loss_changes":[3.04493045806884766e+00,4.47596836090087891e+00,1.69877567291259766e+01,4.79537630081176758e+00,3.12778282165527344e+00,1.30369806289672852e+01,8.41903114318847656e+00,0.00000000000000000e+00,0.00000000000000000e+00,0.00000000000000000e+00,0.00000000000000000e+00,0.00000000000000000e+00,0.00000000000000000e+00,0.00000000000000000e+00,0.00000000000000000e+00],"parents":[2147483647,0,0,1,1,2,2,3,3,4,4,5,5,6,6],"right_children":[2,4,6,8,10,12,14,-1,-1,-1,-1,-1,-1,-1,-1],"split_conditions":[6.62947654724121094e-01,9.90215003490447998e-01,6.26949965953826904e-02,9.53864991664886475e-01,9.70255017280578613e-01,1.84100009500980377e-02,2.63060003519058228e-01,4.41519822925329208e-03,-1.51131143793463707e-02,6.01411275565624237e-02,-1.74710806459188461e-02,-1.98511928319931030e-02,2.95163959264755249e-01,-1.42234131693840027e-01,-2.17904821038246155e-02],"split_indices":[2,3,0,3,1,0,3,0,0,0,0,0,0,0,0],"sum_hessian":[7.72499316406250000e+03,7.08382128906250000e+03,6.41171813964843750e+02,6.83346142578125000e+03,2.50360092163085938e+02,4.65038909912109375e+01,5.94667968750000000e+02,5.40296093750000000e+03,1.43050061035156250e+03,1.88878845214843750e+02,6.14812431335449219e+01,2.13902587890625000e+01,2.51136341094970703e+01,5.69347610473632812e+01,5.37733154296875000e+02],"tree_param":{"num_deleted":"0","num_feature":"5","num_nodes":"15","size_leaf_vector":"0"}},{"base_weights":[-5.31812620465643704e-05,8.76206457614898682e-02,-4.12416504696011543e-03,-3.39224994182586670e-01,3.90166550874710083e-01,-8.96976470947265625e-01,6.56218253425322473e-05,-6.58010005950927734e-01,6.06326997280120850e-01,1.06885075569152832e+00,1.70651450753211975e-02,-7.12547376751899719e-02,-1.03832244873046875e+00,1.13313794136047363e-01,-1.81188825517892838e-02],"default_left":[true,true,true,true,true,true,true,false,false,false,false,false,false,false,false],"id":41,"leaf_child_counts":[0,0,0,0,0,0,0,0,0,0,0,0,0,0,0],"left_children":[1,3,5,7,9,11,13,-1,-1,-1,-1,-1,-1,-1,-1],"loss_changes":[2.75324940681457520e+00,4.43358116149902344e+01,2.75763282775878906e+01,4.33566856384277344e+01,5.08218193054199219e+01,3.94449043273925781e+00,1.51140756607055664e+01,0.00000000000000000e+00,0.00000000000000000e+00,0.00000000000000000e+00,0.00000000000000000e+00,0.00000000000000000e+00,0.00000000000000000e+00,0.00000000000000000e+00,0.00000000000000000e+00],"parents":[2147483647,0,0,1,1,2,2,3,3,4,4,5,5,6,6],"right_children":[2,4,6,8,10,12,14,-1,-1,-1,-1,-1,-1,-1,-1],"split_conditions":[1.74964994192123413e-01,5.08170008659362793e-01,1.98565006256103516e-01,5.00700026750564575e-02,9.64884996414184570e-01,9.90659952163696289e-01,3.28954994678497314e-01,-1.97403013706207275e-01,1.81898102164268494e-01,3.20655226707458496e-01,5.11954352259635925e-03,-2.13764216750860214e-02,-3.11496734619140625e-01,3.39941382408142090e-02,-5.43566513806581497e-03],"split_indices":[3,4,3,3,4,0,4,0,0,0,0,0,0,0,0],"sum_hessian":[7.71192675781250000e+03,3.41289916992187500e+02,7.37063671875000000e+03,1.41514099121093750e+02,1.99775817871093750e+02,3.34305496215820312e+01,7.33720654296875000e+03,1.06060707092285156e+02,3.54533882141113281e+01,7.02052612304687500e+01,1.29570556640625000e+02,5.10602998733520508e+00,2.83245201110839844e+01,1.01442303466796875e+03,6.32278320312500000e+03],"tree_param":{"num_deleted":"0","num_feature":"5","num_nodes":"15","size_leaf_vector":"0"}},{"base_weights":[3.99547616325435229e-06,-5.86177110671997070e-02,6.43016258254647255e-03,5.46543359756469727e-01,-1.62571653723716736e-01,1.80274665355682373e-01,-1.33547012228518724e-03,1.57310813665390015e-01,1.24731266498565674e+00,-5.06096705794334412e-02,-3.82405459880828857e-01,-1.70350432395935059e-01,4.98256504535675049e-01,-6.36801719665527344e-02,2.04715207219123840e-02],"default_left":[true,true,true,true,true,true,true,false,false,false,false,false,false,false,false],"id":42,"leaf_child_counts":[0,0,0,0,0,0,0,0,0,0,0,0,0,0,0],"left_children":[1,3,5,7,9,11,13,-1,-1,-1,-1,-1,-1,-1,-1],"loss_changes":[2.89628505706787109e+00,4.78705596923828125e+01,9.35416698455810547e+00,3.02372589111328125e+01,1.59535961151123047e+01,3.31179580688476562e+01,9.01986694335937500e+00,0.00000000000000000e+00,0.00000000000000000e+00,0.00000000000000000e+00,0.00000000000000000e+00,0.00000000000000000e+00,0.00000000000000000e+00,0.00000000000000000e+00,0.00000000000000000e+00],"parents":[2147483647,0,0,1,1,2,2,3,3,4,4,5,5,6,6],"right_children":[2,4,6,8,10,12,14,-1,-1,-1,-1,-1,-1,-1,-1],"split_conditions":[5.03045022487640381e-01,8.08439970016479492e-01,6.19969964027404785e-01,6.15725040435791016e-01,9.80865001678466797e-01,9.93054986000061035e-01,9.99925017356872559e-01,4.71932478249073029e-02,3.74193817377090454e-01,-1.51829021051526070e-02,-1.14721640944480896e-01,-5.11051304638385773e-02,1.49476960301399231e-01,-1.91040523350238800e-02,6.14145630970597267e-03],"split_indices":[3,0,3,2,4,0,4,0,0,0,0,0,0,0,0],"sum_hessian":[7.68630859375000000e+03,7.58538452148437500e+02,6.92777001953125000e+03,1.10575119018554688e+02,6.47963317871093750e+02,2.95280944824218750e+02,6.63248925781250000e+03,7.18766937255859375e+01,3.86984214782714844e+01,4.30128082275390625e+02,2.17835235595703125e+02,1.40653060913085938e+02,1.54627883911132812e+02,1.71823937988281250e+03,4.91425000000000000e+03],"tree_param":{"num_deleted":"0","num_feature":"5","num_nodes":"15","size_leaf_vector":"0"}},{"base_weights":[-2.63487527263350785e-05,-5.03289163112640381e-01,7.02606281265616417e-04,1.90924145281314850e-02,-8.81116986274719238e-01,9.28243875503540039e-01,3.23515560012310743e-04,-4.61119651794433594e-01,4.23893749713897705e-01,-1.10040080547332764e+00,-3.81002873182296753e-01,8.39852243661880493e-02,-3.37137700989842415e-03],"default_left":[true,true,true,true,true,false,true,false,false,false,false,false,false],"id":43,"leaf_child_counts":[0,0,0,0,0,0,0,0,0,0,0,0,0],"left_children":[1,3,5,7,9,-1,11,-1,-1,-1,-1,-1,-1],"loss_changes":[2.81767797470092773e+00,2.20939970016479492e+00,2.69648027420043945e+00,1.29208874702453613e+00,2.90027141571044922e-01,0.00000000000000000e+00,2.37043905258178711e+00,0.00000000000000000e+00,0.00000000000000000e+00,0.00000000000000000e+00,0.00000000000000000e+00,0.00000000000000000e+00,0.00000000000000000e+00],"parents":[2147483647,0,0,1,1,2,2,3,3,4,4,6,6],"right_children":[2,4,6,8,10,-1,12,-1,-1,-1,-1,-1,-1],"split_conditions":[8.15000035800039768e-04,8.66349995136260986e-01,1.68500002473592758e-03,6.73550009727478027e-01,6.18965268135070801e-01,2.78473168611526489e-01,1.56810000538825989e-01,-1.38335898518562317e-01,1.27168133854866028e-01,-3.30120265483856201e-01,-1.14300869405269623e-01,2.51955687999725342e-02,-1.01141317281872034e-03],"split_indices":[0,1,0,1,2,0,3,0,0,0,0,0,0],"sum_hessian":[7.67864697265625000e+03,1.01089506149291992e+01,7.66853759765625000e+03,4.64134025573730469e+00,5.46761083602905273e+00,2.13294911384582520e+00,7.66640478515625000e+03,2.05929350852966309e+00,2.58204674720764160e+00,2.96656751632690430e+00,2.50104308128356934e+00,3.23344207763671875e+02,7.34306054687500000e+03],"tree_param":{"num_deleted":"0","num_feature":"5","num_nodes":"13","size_leaf_vector":"0"}},{"base_weights":[-3.28259920934215188e-05,1.81197319179773331e-02,-1.66391674429178238e-02,-1.94641828536987305e-01,5.11445626616477966e-02,1.93398788571357727e-01,-5.19280992448329926e-02,-2.17707008123397827e-02,-3.98417830467224121e-01,4.69924986362457275e-01,3.58248427510261536e-02,-2.60875552892684937e-01,3.83706152439117432e-01,-8.10005545616149902e-01,-4.70601730048656464e-02],"default_left":[true,true,true,true,true,true,true,false,false,false,false,false,false,false,false],"id":44,"leaf_child_counts":[0,0,0,0,0,0,0,0,0,0,0,0,0,0,0],"left_children":[1,3,5,7,9,11,13,-1,-1,-1,-1,-1,-1,-1,-1],"loss_changes":[2.31366610527038574e+00,2.57749862670898438e+01,2.97196483612060547e+01,1.73548774719238281e+01,2.03525447845458984e+01,4.99641075134277344e+01,1.26287841796875000e+01,0.00000000000000000e+00,0.00000000000000000e+00,0.00000000000000000e+00,0.00000000000000000e+00,0.00000000000000000e+00,0.00000000000000000e+00,0.00000000000000000e+00,0.00000000000000000e+00],"parents":[2147483647,0,0,1,1,2,2,3,3,4,4,5,5,6,6],"right_children":[2,4,6,8,10,12,14,-1,-1,-1,-1,-1,-1,-1,-1],"split_conditions":[9.90594983100891113e-01,7.24250003695487976e-02,2.51020014286041260e-01,1.89750008285045624e-02,7.55774974822998047e-01,4.49654996395111084e-01,2.63125002384185791e-01,-6.53121061623096466e-03,-1.19525350630283356e-01,1.40977501869201660e-01,1.07474531978368759e-02,-7.82626718282699585e-02,1.15111850202083588e-01,-2.43001669645309448e-01,-1.41180520877242088e-02],"split_indices":[0,4,4,4,4,3,4,0,0,0,0,0,0,0,0],"sum_hessian":[7.67318505859375000e+03,3.66588183593750000e+03,4.00730346679687500e+03,4.91904815673828125e+02,3.17397705078125000e+03,5.75784240722656250e+02,3.43151928710937500e+03,2.66732269287109375e+02,2.25172546386718750e+02,1.10964813232421875e+02,3.06301220703125000e+03,1.69886016845703125e+02,4.05898223876953125e+02,2.08392906188964844e+01,3.41067993164062500e+03],"tree_param":{"num_deleted":"0","num_feature":"5","num_nodes":"15","size_leaf_vector":"0"}},{"base_weights":[-2.73365905741229653e-04,-2.09829807281494141e-01,1.51480839122086763e-03,3.12813162803649902e-01,-3.72692137956619263e-01,9.31004524230957031e-01,9.05628083273768425e-04,-7.92085826396942139e-02,7.99309611320495605e-01,3.76564115285873413e-01,-4.29660469293594360e-01,3.58500599861145020e-01,1.08732676506042480e+00,-6.12397707300260663e-05,3.18111121654510498e-01],"default_left":[true,true,true,true,true,true,true,false,false,false,false,false,false,false,false],"id":45,"leaf_child_counts":[0,0,0,0,0,0,0,0,0,0,0,0,0,0,0],"left_children":[1,3,5,7,9,11,13,-1,-1,-1,-1,-1,-1,-1,-1],"loss_changes":[2.87062907218933105e+00,5.63367938995361328e+00,4.30021333694458008e+00,3.10386872291564941e+00,2.29059410095214844e+00,5.53517341613769531e-02,2.32846069335937500e+00,0.00000000000000000e+00,0.00000000000000000e+00,0.00000000000000000e+00,0.00000000000000000e+00,0.00000000000000000e+00,0.00000000000000000e+00,0.00000000000000000e+00,0.00000000000000000e+00],"parents":[2147483647,0,0,1,1,2,2,3,3,4,4,5,5,6,6],"right_children":[2,4,6,8,10,12,14,-1,-1,-1,-1,-1,-1,-1,-1],"split_conditions":[6.24999986030161381e-04,3.83430004119873047e-01,1.08499999623745680e-03,2.99249999225139618e-02,7.19160020351409912e-01,8.15000035800039768e-04,9.99764978885650635e-01,-2.37625762820243835e-02,2.39792898297309875e-01,1.12969242036342621e-01,-1.28898143768310547e-01,1.07550181448459625e-01,3.26198041439056396e-01,-1.83719312190078199e-05,9.54333394765853882e-02],"split_indices":[4,3,4,3,1,4,3,0,0,0,0,0,0,0,0],"sum_hessian":[7.65881250000000000e+03,6.38163871765136719e+01,7.59499609375000000e+03,1.49427509307861328e+01,4.88736381530761719e+01,3.97412180900573730e+00,7.59102197265625000e+03,8.73844528198242188e+00,6.20430564880371094e+00,3.05703115463256836e+00,4.58166046142578125e+01,1.55876159667968750e+00,2.41536021232604980e+00,7.56895117187500000e+03,2.20709648132324219e+01],"tree_param":{"num_deleted":"0","num_feature":"5","num_nodes":"15","size_leaf_vector":"0"}},{"base_weights":[-1.04593775176908821e-04,8.25627818703651428e-02,-3.76724754460155964e-03,7.77923583984375000e-01,-4.30792868137359619e-02,-4.23867344856262207e-01,7.40092364139854908e-04,-5.43170094490051270e-01,1.07833719253540039e+00,-3.39606910943984985e-01,1.72642230987548828e-01,6.37246549129486084e-01,-5.07624089717864990e-01,2.64333963394165039e-01,-3.29464348033070564e-03],"default_left":[true,true,true,true,true,true,true,false,false,false,false,false,false,false,false],"id":46,"leaf_child_counts":[0,0,0,0,0,0,0,0,0,0,0,0,0,0,0],"left_children":[1,3,5,7,9,11,13,-1,-1,-1,-1,-1,-1,-1,-1],"loss_changes":[2.31959247589111328e+00,2.84297618865966797e+01,1.38910541534423828e+01,2.03471050262451172e+01,1.77284507751464844e+01,7.24460411071777344e+00,7.72105550765991211e+00,0.00000000000000000e+00,0.00000000000000000e+00,0.00000000000000000e+00,0.00000000000000000e+00,0.00000000000000000e+00,0.00000000000000000e+00,0.00000000000000000e+00,0.00000000000000000e+00],"parents":[2147483647,0,0,1,1,2,2,3,3,4,4,5,5,6,6],"right_children":[2,4,6,8,10,12,14,-1,-1,-1,-1,-1,-1,-1,-1],"split_conditions":[1.56810000538825989e-01,7.96079993247985840e-01,2.54149973392486572e-01,7.81499966979026794e-03,5.08170008659362793e-01,7.34234988689422607e-01,3.66685003042221069e-01,-1.62951037287712097e-01,3.23501169681549072e-01,-1.01882077753543854e-01,5.17926700413227081e-02,1.91173970699310303e-01,-1.52287229895591736e-01,7.93001949787139893e-02,-9.88393090665340424e-04],"split_indices":[3,0,3,4,4,1,3,0,0,0,0,0,0,0,0],"sum_hessian":[7.65890576171875000e+03,3.24024200439453125e+02,7.33488134765625000e+03,4.87925109863281250e+01,2.75231689453125000e+02,7.68744049072265625e+01,7.25800732421875000e+03,8.88998794555664062e+00,3.99025230407714844e+01,1.15665420532226562e+02,1.59566268920898438e+02,5.14054679870605469e+00,7.17338638305664062e+01,1.08448204040527344e+02,7.14955908203125000e+03],"tree_param":{"num_deleted":"0","num_feature":"5","num_nodes":"15","size_leaf_vector":"0"}},{"base_weights":[2.69316515186801553e-05,8.03505122661590576e-01,-3.25191009324043989e-04,-1.51780277490615845e-01,2.21884716302156448e-03,-6.21992826461791992e-01,2.04036280512809753e-01,1.00829198956489563e-01,-3.49885784089565277e-03],"default_left":[true,false,true,true,true,false,false,false,false],"id":47,"leaf_child_counts":[0,0,0,0,0,0,0,0,0],"left_children":[1,-1,3,5,7,-1,-1,-1,-1],"loss_changes":[2.16421699523925781e+00,0.00000000000000000e+00,2.94648337364196777e+00,2.12628746032714844e+01,4.24081897735595703e+00,0.00000000000000000e+00,0.00000000000000000e+00,0.00000000000000000e+00,0.00000000000000000e+00],"parents":[2147483647,0,0,2,2,3,3,4,4],"right_children":[2,-1,4,6,8,-1,-1,-1,-1],"split_conditions":[1.97659999132156372e-01,2.41051539778709412e-01,5.95775008201599121e-01,6.92500025033950806e-02,7.43579983711242676e-01,-1.86597853899002075e-01,6.12108856439590454e-02,3.02487611770629883e-02,-1.04965735226869583e-03],"split_indices":[1,0,1,0,1,0,0,0,0],"sum_hessian":[7.64757128906250000e+03,2.35090661048889160e+00,7.64522021484375000e+03,1.25328613281250000e+02,7.51989160156250000e+03,5.36637496948242188e+01,7.16648635864257812e+01,4.11216430664062500e+02,7.10867529296875000e+03],"tree_param":{"num_deleted":"0","num_feature":"5","num_nodes":"9","size_leaf_vector":"0"}},{"base_weights":[3.68545552191790193e-05,5.74639998376369476e-04,-4.69233751296997070e-01,4.31498110294342041e-01,-8.02197121174685890e-07,4.45455968379974365e-01,-9.90596055984497070e-01,9.11917984485626221e-01,-6.83896914124488831e-02,-3.47750365734100342e-01,1.25992961693555117e-03,-2.63501137495040894e-01,8.47153246402740479e-01],"default_left":[true,true,true,true,true,true,false,false,false,false,false,false,false],"id":48,"leaf_child_counts":[0,0,0,0,0,0,0,0,0,0,0,0,0],"left_children":[1,3,5,7,9,11,-1,-1,-1,-1,-1,-1,-1],"loss_changes":[1.93079102039337158e+00,1.89497518539428711e+00,4.61769104003906250e+00,2.50983428955078125e+00,3.34676432609558105e+00,1.32515394687652588e+00,0.00000000000000000e+00,0.00000000000000000e+00,0.00000000000000000e+00,0.00000000000000000e+00,0.00000000000000000e+00,0.00000000000000000e+00,0.00000000000000000e+00],"parents":[2147483647,0,0,1,1,2,2,3,3,4,4,5,5],"right_children":[2,4,6,8,10,12,-1,-1,-1,-1,-1,-1,-1],"split_conditions":[7.69779562950134277e-01,3.17124992609024048e-01,2.40250006318092346e-02,5.82844972610473633e-01,4.63710010051727295e-01,7.78791248798370361e-01,-2.97178834676742554e-01,2.73575395345687866e-01,-2.05169077962636948e-02,-1.04325115680694580e-01,3.77978896722197533e-04,-7.90503472089767456e-02,2.54145979881286621e-01],"split_indices":[2,1,4,0,1,2,0,0,0,0,0,0,0],"sum_hessian":[7.64866210937500000e+03,7.64090429687500000e+03,7.75772237777709961e+00,9.19116020202636719e+00,7.63171289062500000e+03,2.86931848526000977e+00,4.88840389251708984e+00,4.26653718948364258e+00,4.92462348937988281e+00,2.65753002166748047e+01,7.60513769531250000e+03,1.16219186782836914e+00,1.70712649822235107e+00],"tree_param":{"num_deleted":"0","num_feature":"5","num_nodes":"13","size_leaf_vector":"0"}},{"base_weights":[1.28328274513478391e-05,4.31905267760157585e-03,-5.34493289887905121e-02,2.36527211964130402e-02,-1.31757492199540138e-02,-1.04823350906372070e-01,2.99592763185501099e-02,-1.07453621923923492e-01,5.19070029258728027e-02,1.44790172576904297e-01,-4.00707721710205078e-02,-3.63764554262161255e-01,-6.90215006470680237e-02,1.59822687506675720e-01,-1.17677010595798492e-01],"default_left":[true,true,true,true,true,true,true,false,false,false,false,false,false,false,false],"id":49,"leaf_child_counts":[0,0,0,0,0,0,0,0,0,0,0,0,0,0,0],"left_children":[1,3,5,7,9,11,13,-1,-1,-1,-1,-1,-1,-1,-1],"loss_changes":[1.76135337352752686e+00,2.39518880844116211e+00,2.44693279266357422e+00,1.24661922454833984e+01,1.58001222610473633e+01,3.24880313873291016e+00,4.20144653320312500e+00,0.00000000000000000e+00,0.00000000000000000e+00,0.00000000000000000e+00,0.00000000000000000e+00,0.00000000000000000e+00,0.00000000000000000e+00,0.00000000000000000e+00,0.00000000000000000e+00],"parents":[2147483647,0,0,1,1,2,2,3,3,4,4,5,5,6,6],"right_children":[2,4,6,8,10,12,14,-1,-1,-1,-1,-1,-1,-1,-1],"split_conditions":[9.91524994373321533e-01,9.90594983100891113e-01,9.99994993209838867e-01,7.10029959678649902e-01,2.46439993381500244e-01,7.25350007414817810e-02,6.14886999130249023e-01,-3.22360880672931671e-02,1.55721018090844154e-02,4.34370525181293488e-02,-1.20212323963642120e-02,-1.09129369258880615e-01,-2.07064505666494370e-02,4.79468069970607758e-02,-3.53031046688556671e-02],"split_indices":[1,0,0,3,4,4,2,0,0,0,0,0,0,0,0],"sum_hessian":[7.64874365234375000e+03,7.07943554687500000e+03,5.69308471679687500e+02,3.36281030273437500e+03,3.71662524414062500e+03,3.52150787353515625e+02,2.17157684326171875e+02,5.95721679687500000e+02,2.76708862304687500e+03,5.40086120605468750e+02,3.17653906250000000e+03,4.16623535156250000e+01,3.10488433837890625e+02,1.15489013671875000e+02,1.01668663024902344e+02],"tree_param":{"num_deleted":"0","num_feature":"5","num_nodes":"15","size_leaf_vector":"0"}}]},"name":"gbtree"},"learner_model_param":{"base_score":"0.500000","num_class":"0","num_feature":"5"},"objective":{"name":"binary:logistic","reg_loss_param":{"scale_pos_weight":"0.229153216"}}},"version":[1,1,1]}